%YAML:1.0
category: gender_new
classifier: !!opencv-ml-svm
   svm_type: C_SVC
   kernel: { type:LINEAR }
   C: 5.0000000000000000e-01
   term_criteria: { epsilon:2.2204460492503131e-16, iterations:1000 }
   var_all: 7560
   var_count: 7560
   class_count: 2
   class_labels: !!opencv-matrix
      rows: 1
      cols: 2
      dt: i
      data: [ 0, 1 ]
   sv_total: 1
   support_vectors:
      - [ -7.62596610e-04, -1.49758905e-03, 7.48362914e-02,
          4.30778563e-02, -8.86824727e-02, -3.49218994e-02,
          4.47515137e-02, -3.03499214e-02, 5.41795744e-03,
          4.54036631e-02, 1.03289500e-01, 8.55702832e-02,
          -1.90277807e-02, -6.74236715e-02, -2.76540965e-02,
          5.43392785e-02, 6.19821483e-03, 2.44686678e-02, 5.04594594e-02,
          1.27508044e-02, 9.77522135e-02, 6.47658706e-02, 1.04176197e-02,
          -3.79000492e-02, -3.59662883e-02, -5.75544126e-02,
          3.59905325e-02, 5.43169677e-02, 1.24198077e-02, 3.73088866e-02,
          -1.58651192e-02, -8.15862864e-02, 7.34396512e-03,
          2.21419288e-03, 1.62426103e-02, 1.06800199e-02, 9.11507830e-02,
          1.11478724e-01, 3.61430794e-02, 1.47251058e-02, 2.64849886e-02,
          -1.78032438e-03, 9.30725597e-03, -2.20757984e-02,
          1.99919119e-02, 1.13880951e-02, 7.28704855e-02, 3.28995511e-02,
          -9.86400805e-03, -3.22511755e-02, -5.47912419e-02,
          1.89174246e-02, 3.15927193e-02, -9.19829216e-03,
          1.18693478e-01, 9.22477767e-02, 8.31802189e-03, 1.98337417e-02,
          5.82461059e-02, 2.69482397e-02, -1.64658297e-02,
          3.38872476e-03, 5.93598969e-02, -3.15705910e-02,
          1.68080479e-02, -2.61614770e-02, 1.50649576e-02,
          8.19116384e-02, 3.89121547e-02, 3.20862606e-02, 1.56036345e-02,
          -1.01763979e-01, 4.34607342e-02, 5.20784333e-02,
          -3.62253897e-02, 1.34873902e-02, 1.93569548e-02,
          -7.69103318e-03, 4.52290177e-02, 1.97401270e-02,
          1.22029064e-02, 2.66506057e-02, 1.31394984e-02, 2.11265534e-02,
          3.12906243e-02, -5.19999824e-02, -1.63739100e-02,
          1.25789732e-01, -3.94453714e-03, -3.56325433e-02,
          4.18141559e-02, 7.36879855e-02, -2.07251217e-02,
          3.92008433e-03, 4.21683565e-02, 1.68632977e-02, 1.41693687e-03,
          -3.41106877e-02, -2.02734750e-02, -3.66247096e-03,
          3.81914265e-02, 6.10742867e-02, 5.70460297e-02, 1.01132415e-01,
          1.30692963e-02, 7.14266449e-02, 5.04963212e-02,
          -1.26834810e-02, -2.61442340e-03, 3.20535153e-02,
          4.13398631e-02, 1.05223283e-02, -8.58031139e-02,
          1.49322050e-02, 4.40854728e-02, -1.41742546e-02,
          -5.53870685e-02, -2.96364240e-02, -7.00651109e-02,
          4.26254682e-02, 2.08344273e-02, -1.38441518e-01,
          4.70915698e-02, 3.48891877e-02, -3.91548276e-02,
          -5.45803495e-02, 1.52453277e-02, 4.47223894e-02,
          6.24610297e-03, -7.07787927e-03, -3.49359936e-03,
          1.44621003e-02, 3.69925052e-02, 1.50639378e-02, 1.77384950e-02,
          7.50574172e-02, 8.21718201e-02, 5.99951036e-02, 2.00012438e-02,
          2.11547390e-02, 8.87074322e-02, -5.93615789e-03,
          3.31683308e-02, 6.77853078e-02, -8.10471848e-02,
          -7.76057541e-02, 1.97414346e-02, 1.21000716e-02,
          -9.62061435e-02, 3.56941484e-02, 1.48479445e-02,
          5.52276662e-03, 7.48548806e-02, -8.14949349e-02,
          -1.01451322e-01, -8.12207256e-03, 3.81671861e-02,
          -4.29251157e-02, 5.28916493e-02, 4.94627878e-02,
          1.86967924e-02, 6.52341619e-02, -2.85268556e-02,
          -7.74307176e-02, -8.21740646e-03, 5.35674095e-02,
          -4.24685515e-02, 3.78352031e-02, -2.40390431e-02,
          -2.02504285e-02, 2.99705230e-02, -9.90908593e-02,
          -6.58378750e-02, 1.90320406e-02, 7.65024871e-02,
          -3.03548053e-02, 3.76626407e-03, -3.17536830e-03,
          -4.27317759e-03, 2.55335886e-02, -7.72057772e-02,
          -5.96063435e-02, -5.26335910e-02, -1.22994166e-02,
          -2.84739621e-02, 2.94193532e-03, 6.99645653e-02,
          5.77194281e-02, 1.70263592e-02, -4.89671864e-02,
          -1.20430542e-02, -4.25019860e-02, -1.45461475e-02,
          -5.68110719e-02, -2.45243590e-02, 1.46470722e-02,
          -3.00873234e-03, -4.11500670e-02, -5.81689924e-02,
          -6.37899386e-03, -6.22482598e-03, 1.10993218e-02,
          -6.77998960e-02, -8.28504786e-02, 7.60808075e-03,
          5.05754948e-02, 4.81214300e-02, -3.48124765e-02,
          -4.59842943e-02, -3.14377025e-02, -7.45515060e-03,
          -3.75931263e-02, -2.29303222e-02, -2.12900098e-02,
          -4.87022474e-02, -6.87128352e-03, -2.16954704e-02,
          4.52127680e-03, -1.52342096e-02, 4.68442962e-03,
          5.93356639e-02, 1.22200372e-02, -2.45517287e-02,
          -2.96484437e-02, 2.97043240e-03, 8.54406320e-03,
          -5.93406297e-02, -2.01447774e-02, -5.13825305e-02,
          8.58685449e-02, 5.27277999e-02, -4.03235666e-02,
          1.72338318e-02, 3.75664346e-02, 3.74271609e-02, 5.77101186e-02,
          -1.26917725e-02, -3.05199660e-02, -1.53080383e-02,
          -1.13403192e-02, -1.91292595e-02, -6.63223192e-02,
          -6.27311543e-02, 1.31246056e-02, 4.12702002e-02,
          -5.56126125e-02, -7.14530200e-02, -7.12996209e-03,
          2.11587753e-02, -4.33378555e-02, 2.10467856e-02,
          -5.95606752e-02, -4.29141223e-02, 1.95963811e-02,
          3.46534029e-02, 1.17511293e-02, 6.27363175e-02, 1.94718607e-03,
          -4.39115353e-02, -5.38242189e-03, -1.14148259e-02,
          -4.70442399e-02, -5.64960577e-03, -2.96656159e-04,
          5.50141037e-02, 4.67022276e-03, -2.10880283e-02,
          -3.77170853e-02, -1.74315518e-03, -6.53089434e-02,
          -8.82267114e-03, 7.45602921e-02, 4.17549312e-02,
          -1.68506429e-02, 5.03858402e-02, -2.84168366e-02,
          -4.09495942e-02, 2.48195138e-02, -5.41137569e-02,
          -7.43970424e-02, 7.56519735e-02, 3.23346853e-02,
          7.42781442e-03, 2.21611187e-02, -1.54263228e-02,
          3.29085663e-02, 2.86550839e-02, -3.42848077e-02,
          5.30452281e-02, 4.27864194e-02, 1.97413731e-02, 3.98394242e-02,
          2.46511009e-02, -4.33202684e-02, -1.81599073e-02,
          -4.79400670e-03, -2.51444842e-04, 4.89073023e-02,
          -1.01342157e-03, 2.68436261e-02, 1.03895133e-02,
          -1.08374115e-02, -3.31387632e-02, -2.60127299e-02,
          -3.95759158e-02, 7.47658033e-03, 3.79735678e-02,
          6.63184524e-02, 7.96801299e-02, -3.85404006e-03,
          -2.50651482e-02, -7.14750588e-02, -1.90516487e-02,
          -1.12026427e-02, 2.65028980e-02, -2.22984031e-02,
          5.32362722e-02, 3.76989208e-02, -6.90002665e-02,
          -8.83488804e-02, -1.47008365e-02, -5.22786146e-03,
          1.15484009e-02, -1.04083586e-02, 3.53480093e-02,
          2.23226864e-02, 1.42112039e-02, 3.37951705e-02, 2.45494838e-03,
          -2.32997499e-02, 6.27970230e-03, -6.89245760e-02,
          2.19296664e-02, -5.74991318e-05, -3.42123434e-02,
          -4.86197919e-02, 9.23282001e-04, 1.65923834e-02,
          -3.06020547e-02, -2.46033892e-02, -7.94768184e-02,
          -7.73155689e-02, 6.57113269e-02, 3.50583382e-02,
          -5.22627197e-02, -3.36014479e-02, 3.66346277e-02,
          3.59604717e-04, 2.82204226e-02, 5.84027097e-02, 6.02713376e-02,
          1.30629279e-02, -5.58267869e-02, -1.14679951e-02,
          -2.65264288e-02, 1.68158039e-02, -3.33817638e-02,
          -2.75093224e-02, 1.33415731e-02, -7.84678981e-02,
          -9.20572970e-03, 1.01746712e-02, -6.98589603e-04,
          5.85793294e-02, -2.13790108e-02, -3.32060754e-02,
          -2.17853598e-02, -3.16615328e-02, -2.46240627e-02,
          4.89633493e-02, -3.32378857e-02, -3.27962302e-02,
          8.31255037e-03, -1.00177594e-01, -7.08459914e-02,
          -7.03734532e-02, -6.48562834e-02, 3.24184075e-03,
          6.33356050e-02, 4.52114223e-03, 3.24186459e-02, 6.92022666e-02,
          2.37364508e-02, -3.05769462e-02, -3.82627062e-02,
          1.47068209e-03, 1.71284527e-02, -7.01671699e-03,
          1.39911789e-02, 1.69302188e-02, 2.69396398e-02,
          -2.28421651e-02, -4.85995971e-02, -5.41080236e-02,
          -5.98750040e-02, 3.58374678e-02, 4.81670052e-02,
          -4.99967858e-02, 1.45379119e-02, 1.88287348e-02,
          -3.97662958e-03, -1.02958623e-02, -5.67692257e-02,
          2.31839512e-02, 2.89737564e-02, -3.81418876e-02,
          -8.34154710e-02, 1.79985408e-02, 6.24349825e-02,
          3.28684337e-02, 3.59954708e-03, 2.75720786e-02,
          -1.59958389e-03, -2.67808288e-02, 2.66520046e-02,
          9.64039098e-03, 5.34056611e-02, -2.22982876e-02,
          8.32269713e-03, 3.41431890e-03, 2.31027454e-02, 2.65203770e-02,
          6.39394969e-02, -2.95270309e-02, -3.11033428e-02,
          4.66172919e-02, -3.09470892e-02, -2.83739753e-02,
          -1.61832513e-03, 6.32689446e-02, 5.00666723e-03,
          -8.19433201e-03, 4.15114313e-02, -5.01353666e-02,
          5.15587479e-02, 5.03677055e-02, -1.51311355e-02,
          -1.90657172e-02, 2.13712566e-02, -1.13042444e-02,
          -1.69093802e-03, 1.46998989e-03, -6.37782132e-03,
          9.20992717e-02, 2.60658003e-02, -7.12867826e-02,
          9.03820898e-03, 5.65815866e-02, -1.08349798e-02,
          -3.81300114e-02, 3.17488126e-02, -4.61768545e-02,
          -4.39212658e-02, 2.82699261e-02, -1.21315261e-02,
          3.26267853e-02, 2.79900264e-02, -4.96358797e-02,
          -4.15170752e-02, 4.27479185e-02, -2.38712858e-02,
          -4.05536965e-02, 3.12133394e-02, -1.92953125e-02,
          3.63931097e-02, 2.79724505e-02, -4.26123068e-02,
          3.79498280e-03, -2.74363775e-02, -5.26925400e-02,
          2.41154954e-02, 5.11875600e-02, -7.81767741e-02,
          -2.91301403e-02, 6.62827268e-02, 2.63200942e-02,
          -2.47293804e-02, 6.99493513e-02, -8.80941283e-03,
          -8.13631341e-03, 4.51332666e-02, -7.28755305e-03,
          -1.94679089e-02, 2.68607754e-02, 9.96771560e-05,
          7.35120922e-02, -2.76602041e-02, -1.67821515e-02,
          -4.90638539e-02, 5.89422546e-02, -2.77495272e-02,
          -1.81822926e-02, 4.09963839e-02, 3.97704877e-02,
          -9.05221421e-03, -1.49523951e-02, -4.32388820e-02,
          -6.48474647e-03, 1.27289938e-02, 1.95300318e-02,
          -3.04185227e-02, -1.15687707e-02, 4.99210181e-03,
          -3.82193327e-02, 6.14581183e-02, -6.37858212e-02,
          -9.40546766e-02, 5.38762920e-02, 2.98314467e-02,
          -4.74639423e-02, 3.19897979e-02, 1.74094364e-02,
          4.55789827e-02, 6.49635717e-02, -7.54985353e-03,
          -4.12754193e-02, 5.77821024e-02, 2.85728499e-02,
          -3.40361632e-02, -1.06876930e-02, -2.19312031e-02,
          5.23494221e-02, 6.85935840e-03, -3.67193185e-02,
          -3.50476429e-02, -2.70488616e-02, 1.09366337e-02,
          -2.91942414e-02, 1.09285722e-02, -1.99538805e-02,
          4.18110052e-03, 5.29646699e-04, -7.35636801e-03,
          -4.75171693e-02, -5.21603078e-02, 2.81312820e-02,
          5.13502657e-02, 3.64799388e-02, -6.32287487e-02,
          -2.86907833e-02, -2.24633124e-02, 8.47745873e-03,
          5.71763143e-02, 2.23001279e-02, 1.31300641e-02,
          -2.90859467e-03, -1.00989761e-02, -3.19319963e-02,
          -2.72554695e-03, 3.49110998e-02, 8.48570168e-02,
          3.75322662e-02, -6.90871254e-02, -1.25537783e-01,
          4.43365164e-02, 4.37873341e-02, 6.05079755e-02, 1.65834744e-02,
          -2.20013107e-03, 7.86474943e-02, -1.92057919e-02,
          1.57565102e-02, -5.37550263e-02, 3.00478414e-02,
          -3.15007307e-02, 1.31265456e-02, -5.84144555e-02,
          -6.39049485e-02, 9.50771347e-02, -7.96313398e-03,
          1.93226399e-04, -6.20157681e-02, 2.79847197e-02,
          -1.09923938e-02, 6.70541599e-02, -8.91064852e-02,
          1.47193773e-02, 8.36991593e-02, 1.57263819e-02,
          -9.90048144e-03, -1.47508979e-02, 2.87376437e-02,
          1.28722815e-02, 6.10482879e-02, -1.81603860e-02,
          -8.73240497e-05, 8.53522792e-02, -2.93836277e-02,
          4.81682792e-02, 3.64676118e-02, 6.36625960e-02, 6.28258437e-02,
          6.79694861e-02, -3.46723758e-02, 3.29620838e-02,
          4.49004434e-02, -2.55410168e-02, 1.86088793e-02,
          4.78039645e-02, -1.45505862e-02, -5.14758043e-02,
          1.44397300e-02, -1.97691415e-02, 6.94787428e-02,
          8.67773518e-02, 1.61545742e-02, 4.45912704e-02,
          -6.80827908e-03, -1.81993209e-02, -1.94926970e-02,
          4.27983366e-02, -1.75853865e-03, 2.78219972e-02,
          5.27331270e-02, -1.04970653e-02, -3.81290950e-02,
          7.73710338e-03, 1.52085787e-02, 4.61240895e-02, 2.19600797e-02,
          7.76237226e-04, 6.95900619e-03, 4.13938239e-02, 8.17773677e-03,
          -4.15309034e-02, 6.23109005e-02, 2.16150470e-02,
          4.71180603e-02, 6.51340932e-02, 2.94610616e-02, 1.91030372e-02,
          2.75131483e-02, -5.78160537e-03, -9.15528275e-03,
          -5.69174206e-03, 2.72594485e-02, 1.13367243e-02,
          5.92660718e-02, -2.77941246e-02, 3.12943906e-02,
          3.25921141e-02, 6.72460720e-02, -2.22920720e-02,
          -1.48889394e-02, 1.10043123e-01, 4.60347310e-02,
          1.56746507e-02, 6.64970875e-02, 1.40385572e-02,
          -4.32648882e-02, -3.16049568e-02, -5.40291853e-02,
          -1.98532399e-02, 3.31681669e-02, 3.56530882e-02,
          -1.87683036e-03, 6.82374835e-02, 4.37281616e-02,
          3.32474033e-03, -1.54311024e-02, -1.29912933e-02,
          -4.00406588e-03, 3.89106683e-02, 3.00097372e-03,
          2.18679197e-02, 7.50425458e-02, -3.89935523e-02,
          4.95945960e-02, 4.83382531e-02, -3.06886318e-03,
          -4.73004952e-02, -2.07743782e-04, -3.03882845e-02,
          -8.05859417e-02, 2.15006098e-02, 1.55170038e-02,
          3.03755607e-02, 2.38120053e-02, 6.05531819e-02,
          -1.93343908e-02, 5.28393313e-02, 7.05389902e-02,
          -2.86857821e-02, 3.92852388e-02, -2.62317192e-02,
          -1.33341355e-02, -6.55363575e-02, 6.13416880e-02,
          2.27417145e-02, 5.44312187e-02, 4.87004817e-02,
          -4.15756218e-02, 1.40745370e-02, -3.94893251e-02,
          -1.30970478e-02, -2.42388621e-02, 7.30242580e-02,
          1.88113078e-02, -5.64487502e-02, -2.07110383e-02,
          -1.01137951e-01, -1.30711570e-02, 2.11858214e-03,
          8.52755085e-03, 1.92964114e-02, 5.65431863e-02,
          -1.37140031e-03, 6.03690520e-02, 8.15692246e-02,
          -5.43670580e-02, -4.84948531e-02, -3.91806243e-03,
          -5.10790348e-02, -1.95299461e-02, -3.08505865e-03,
          -9.61845443e-02, -3.14427912e-02, 2.02167425e-02,
          -8.82991552e-02, -5.96146807e-02, -3.06654610e-02,
          -1.35410205e-02, -4.31494415e-02, 5.49020581e-02,
          1.10572437e-02, -6.19754903e-02, 1.15786735e-02,
          -3.70470583e-02, 9.16388538e-03, 2.71804743e-02,
          -2.52019763e-02, 2.62474790e-02, 3.17234881e-02,
          2.05965936e-02, -3.09932828e-02, 2.13042498e-02,
          -2.32484620e-02, 1.25982035e-02, 2.30696406e-02,
          -1.80235896e-02, 9.29963961e-03, 2.02481691e-02,
          -3.75448093e-02, -7.50712752e-02, 3.98465153e-03,
          2.88902372e-02, 6.75675720e-02, -3.10661998e-02,
          -7.40503371e-02, 3.45553048e-02, 1.48584181e-02,
          -4.58613895e-02, -3.61625627e-02, -1.41470507e-03,
          1.51227554e-02, 1.65196825e-02, 6.27776906e-02, 4.66734059e-02,
          2.52722725e-02, 3.87195311e-02, 3.25003490e-02, 1.96709344e-03,
          6.47127032e-02, -4.79979953e-03, 1.25789829e-02,
          -2.37371027e-02, 1.79297384e-02, -7.91489426e-03,
          -3.81475277e-02, 3.41680422e-02, -1.30969528e-02,
          2.34608091e-02, 1.28615564e-02, 3.43788378e-02, 4.00714055e-02,
          3.39521877e-02, 6.27195835e-02, 6.29559979e-02, 4.53492207e-03,
          7.59125082e-03, -2.97498088e-02, -1.44416168e-02,
          7.45845959e-02, 2.22306065e-02, 4.35080528e-02, 4.15484002e-03,
          -1.25620198e-02, -1.05521269e-02, -2.74347397e-03,
          1.37078110e-02, -4.92093004e-02, 1.43226217e-02,
          -3.05019738e-03, -1.06911426e-02, -9.09288321e-03,
          -2.51847245e-02, 8.41432512e-02, 2.11825445e-02,
          7.55549688e-03, 1.55312130e-02, -2.87215016e-03,
          4.77735698e-02, 2.77131908e-02, -1.95006672e-02,
          -4.79889400e-02, -2.03470550e-02, 3.80373769e-03,
          3.16355042e-02, 3.62605788e-02, 3.32389437e-02, 7.72239119e-02,
          9.52066630e-02, 8.44810810e-03, -1.79474633e-02,
          1.02359906e-01, 2.34869518e-03, 3.46741118e-02, 3.24729681e-02,
          1.75074004e-02, 4.46962416e-02, 9.27551910e-02,
          -6.71466812e-03, -3.19044106e-02, -5.87472413e-03,
          3.26859504e-02, 4.14448753e-02, -1.20826915e-03,
          -1.82716455e-02, 2.22280938e-02, -1.71238475e-03,
          3.97708192e-02, 5.62973507e-03, -4.18311805e-02,
          -1.24573484e-02, -1.80035308e-02, 8.81856401e-03,
          4.18915749e-02, -3.61806825e-02, -3.71242384e-03,
          3.14421132e-02, -4.46604490e-02, 2.95325872e-02,
          -1.54253775e-02, 4.17349935e-02, 1.40067004e-03,
          -7.31575266e-02, 2.84124296e-02, 7.66402632e-02,
          6.00528382e-02, -1.02644479e-02, -7.39263138e-03,
          1.83797106e-02, -1.68652385e-02, 1.57579593e-02,
          -6.26373589e-02, -1.99581240e-03, 3.25765200e-02,
          -4.38732542e-02, -4.99857105e-02, -1.53614236e-02,
          -5.45093454e-02, -5.40738646e-03, 1.25499908e-02,
          -4.56518047e-02, 5.73631085e-04, 1.16765387e-02,
          -1.43642165e-02, -1.43152950e-02, 4.37845103e-02,
          1.29664037e-02, 5.99949174e-02, 3.52686755e-02,
          -2.45773438e-02, -6.86068786e-03, -2.40259413e-02,
          -1.95638668e-02, -3.05727348e-02, -3.60484496e-02,
          -5.05125802e-03, -1.58459414e-02, -9.06985812e-03,
          -5.40818498e-02, 4.74696383e-02, 1.39999511e-02,
          -4.77580652e-02, -5.82487276e-03, 4.69203480e-02,
          -7.37821264e-03, 3.30746956e-02, -2.59237438e-02,
          1.35360351e-02, -1.26112849e-02, -2.66522691e-02,
          -1.93085782e-02, -5.58361076e-02, -5.80772422e-02,
          -2.48751342e-02, 1.51568837e-02, -2.73598935e-02,
          -3.61886583e-02, 2.24529635e-02, 1.57785919e-02,
          2.49084067e-02, 6.47167861e-02, 4.04431969e-02,
          -6.68106601e-04, -5.09725837e-03, 5.15165403e-02,
          -2.10192334e-02, -3.11706848e-02, 2.44500637e-02,
          -3.74809727e-02, 1.13300607e-02, 1.21309217e-02,
          -2.48873495e-02, -6.97673298e-03, -8.98199342e-03,
          -4.42053005e-02, -4.96446528e-02, -3.32124121e-02,
          -1.07490243e-02, -2.46057976e-02, 2.92419493e-02,
          -5.39988130e-02, -1.73458271e-02, 2.99439467e-02,
          8.48968513e-03, 2.30707247e-02, -3.65640000e-02,
          -6.60830140e-02, -5.65599985e-02, 3.94744985e-02,
          -5.49523439e-03, -3.26166600e-02, -3.79128903e-02,
          -4.54627685e-02, 2.00641584e-02, 8.14792234e-03,
          1.86799783e-02, -8.56562331e-02, -8.37854389e-03,
          -6.69621397e-03, 2.11034268e-02, -3.51830898e-03,
          -3.70636210e-02, 5.37721105e-02, -1.91318840e-02,
          5.08607142e-02, -9.25721079e-02, -5.78445047e-02,
          -7.98973907e-03, -1.72181670e-02, -7.80553818e-02,
          -8.00399389e-03, -5.06548434e-02, -3.66989486e-02,
          1.03638265e-02, -1.82424989e-02, 7.63038769e-02,
          6.49948940e-02, 1.16100814e-03, 2.77601369e-02, 6.64391695e-03,
          4.71294150e-02, 4.32673376e-03, -3.27286348e-02,
          -3.36273983e-02, -3.49653438e-02, 3.25791091e-02,
          1.37049910e-02, -5.26078045e-03, 6.56915456e-02,
          -1.18828919e-02, 5.91261089e-02, 3.13231871e-02,
          -7.68975401e-03, -6.72014952e-02, 5.63668646e-02,
          2.98806583e-04, -3.70367840e-02, -5.42256236e-02,
          -2.15475447e-02, 4.16521588e-03, -3.04249860e-02,
          1.66625902e-02, -3.38430591e-02, 3.51054147e-02,
          -4.75235805e-02, -4.37801704e-02, 9.30907018e-03,
          -7.72424834e-03, 2.55387537e-02, -6.93159327e-02,
          -3.58954445e-02, -6.72238991e-02, 4.44446839e-02,
          1.97057296e-02, -1.98998004e-02, 2.50639804e-02,
          -4.11559008e-02, 1.61933061e-02, -3.72952968e-02,
          1.45100094e-02, -1.02476068e-02, 3.08791269e-02,
          -3.13701704e-02, -3.58819626e-02, -4.73998226e-02,
          5.70330536e-03, 2.41681784e-02, -1.04551520e-02,
          -7.88644236e-03, -2.96643898e-02, -1.07873883e-02,
          6.56213891e-03, 4.59661111e-02, -1.34127149e-02,
          -1.45496083e-02, -3.25010088e-03, 1.18828134e-03,
          -8.10312629e-02, -3.39038707e-02, -8.59923959e-02,
          -1.30031388e-02, -1.50920246e-02, -5.65629192e-02,
          -4.81050201e-02, 1.36896903e-02, -1.87943690e-02,
          5.44419363e-02, 1.77924719e-03, 1.80113930e-02,
          -2.03942657e-02, 9.96960793e-03, 5.74118458e-03,
          -8.05649459e-02, 1.99090354e-02, -5.43021150e-02,
          -8.06272775e-03, -5.55122420e-02, -1.67449572e-04,
          -5.56598976e-02, 1.79695524e-02, -2.76000164e-02,
          -9.28293262e-03, 1.33248400e-02, 4.89607900e-02,
          -2.99484208e-02, 3.55046839e-02, -3.57081648e-03,
          2.38405131e-02, 3.17409560e-02, -4.63578962e-02,
          -1.91708431e-02, -9.46811493e-03, 1.12509439e-02,
          1.03374366e-02, 3.03172674e-02, 7.17080384e-02, 7.27988034e-02,
          -1.34471217e-02, -3.69822271e-02, -2.26586219e-02,
          7.78172584e-03, -7.37398937e-02, -1.37888864e-02,
          3.39722484e-02, 3.40632573e-02, -3.28995883e-02,
          2.02178787e-02, 5.29619008e-02, 6.03835704e-03, 2.10088231e-02,
          -1.12139925e-01, -1.98629908e-02, 4.15945090e-02,
          2.57844776e-02, -2.05451250e-02, 8.84740264e-04,
          2.07828488e-02, -8.57299753e-03, 3.14400084e-02,
          -3.89561319e-05, 5.09328879e-02, 4.19124216e-02,
          -1.33327236e-02, -4.62790541e-02, 1.65939610e-02,
          -4.98412028e-02, -4.35169972e-02, 7.18808174e-02,
          -3.08217462e-02, -7.66240582e-02, -4.94352244e-02,
          -2.78420988e-02, -2.16806326e-02, 6.42135888e-02,
          -7.54768178e-02, 9.69500374e-03, 1.48404557e-02,
          -6.39199687e-04, 4.97732610e-02, 8.89205262e-02,
          1.62292807e-03, 2.81460903e-04, -8.82276427e-03,
          2.71969233e-02, -1.37661854e-02, -1.22586694e-02,
          3.73978424e-03, -3.85092348e-02, -5.71127310e-02,
          -1.18883932e-02, 3.01966593e-02, 7.93792531e-02,
          -3.90772447e-02, -1.86383687e-02, -1.48194525e-02,
          -7.97086284e-02, -2.34974213e-02, -1.81728620e-02,
          2.06906395e-03, -8.62706825e-02, 2.99570877e-02,
          -5.09381946e-03, 8.02391768e-02, 5.11904508e-02,
          4.12753457e-03, 4.98665571e-02, 1.13276523e-02,
          -2.16593761e-02, -8.90136287e-02, 5.47344834e-02,
          4.00367342e-02, 7.02740112e-03, 1.17009738e-02,
          -2.31304448e-02, -5.47726545e-03, -3.95190865e-02,
          -1.85691169e-03, -3.29900272e-02, 5.01466766e-02,
          3.15944059e-03, 1.04525618e-01, 4.80104350e-02,
          -7.00677112e-02, 8.43278319e-03, 1.06162643e-02,
          -4.77644280e-02, -5.90222627e-02, -9.08157602e-03,
          1.04775682e-01, 3.19285691e-02, -1.33635318e-02,
          -1.78227685e-02, 1.06016523e-03, -4.48260941e-02,
          -1.73594011e-03, -5.00496030e-02, 4.29406054e-02,
          -6.21536607e-03, 6.69083893e-02, 2.38267221e-02,
          3.60582769e-02, -4.51257592e-03, -9.78353084e-04,
          1.98698454e-02, -1.42962513e-02, 3.73681337e-02,
          2.81804316e-02, 3.08788549e-02, 6.93750679e-02,
          -1.05957627e-01, -9.04320180e-03, -4.23641130e-03,
          1.66111370e-03, -8.85767676e-03, -6.20514620e-03,
          -3.82020921e-02, 7.38975182e-02, 1.26018301e-01,
          -7.55656362e-02, 3.02198622e-02, -1.54065788e-02,
          2.79435646e-02, -4.25602570e-02, 5.26951477e-02,
          6.10427707e-02, 1.65774822e-02, -4.10548896e-02,
          -2.82016248e-02, -2.07084604e-02, -7.86466058e-03,
          -1.42002152e-03, -4.87425551e-02, -1.09286010e-02,
          7.99418776e-04, -3.17364633e-02, -3.75008658e-02,
          -1.97828431e-02, 4.65242937e-02, -5.95254079e-02,
          2.39748433e-02, 4.41662706e-02, -9.16384161e-03,
          -6.85555786e-02, 3.72440927e-02, 4.38767038e-02,
          -1.40262451e-02, 2.68380652e-04, -2.40135118e-02,
          -5.39442757e-03, -7.47731328e-02, 2.16899253e-03,
          -2.33693840e-03, 4.23705950e-03, -2.62428876e-02,
          1.79825090e-02, -7.55384285e-03, -6.97183684e-02,
          -2.11782716e-02, 2.09497754e-02, 8.63278732e-02,
          -4.96806053e-04, -3.37695377e-03, 9.45541367e-04,
          -5.79267135e-03, 3.69937830e-02, 3.73168290e-03,
          3.79900523e-02, 5.76128960e-02, -1.32641112e-02,
          -1.09428614e-02, -3.47137414e-02, 9.19569936e-03,
          3.90990637e-02, -1.09966658e-02, 4.15792577e-02,
          3.19822924e-03, 5.26562519e-02, -3.13915983e-02,
          4.37868200e-03, 2.81734182e-03, 1.13801183e-02,
          -4.92600841e-04, -3.09711080e-02, -3.07250791e-03,
          -6.26315642e-03, -1.13716153e-02, -7.69953523e-03,
          -8.99797305e-03, 3.73272225e-02, -4.84596640e-02,
          -4.05856501e-03, -3.32302079e-02, 6.37758989e-03,
          5.87043203e-02, 1.28841363e-02, -2.92751398e-02,
          -3.01546920e-02, -6.13986328e-03, -3.41931242e-03,
          -4.08778675e-02, -2.73539852e-02, 4.25858907e-02,
          4.96709114e-03, 6.39826283e-02, 2.56290659e-02, 1.60137620e-02,
          -2.71050017e-02, -2.78246328e-02, 1.99179091e-02,
          1.58383548e-02, -1.13265822e-02, -1.37986150e-02,
          6.46851435e-02, -1.11757442e-02, 1.59539504e-03,
          1.14266925e-01, 3.95412110e-02, -1.48798916e-02,
          -1.19200852e-02, 1.38131483e-02, 1.11777633e-02,
          4.40533049e-02, -1.59379896e-02, 1.28778815e-02,
          -8.28739256e-02, -8.69634934e-03, -1.32291596e-02,
          -5.12322225e-03, 1.79238562e-02, -4.13551554e-02,
          1.80041566e-02, -5.50903343e-02, -7.55042210e-02,
          1.12666013e-02, 9.18549951e-03, 3.40344533e-02, 7.24797547e-02,
          5.05939014e-02, 5.05754016e-02, -1.22952061e-02,
          1.17317913e-03, 2.44498793e-02, -1.48588717e-02,
          2.24213433e-02, 1.01232519e-02, -1.92952659e-02,
          3.14792246e-02, 6.90770894e-02, 3.62055078e-02,
          -8.70552752e-03, -8.72001145e-03, -3.60724926e-02,
          -1.90921370e-02, -2.06568139e-03, -1.55896973e-02,
          9.71711054e-02, 1.29394522e-02, 2.73664221e-02, 5.31503856e-02,
          1.35124642e-02, -8.86780843e-02, -9.83422250e-03,
          1.13926195e-02, -6.40595481e-02, 5.89060597e-02,
          7.38073960e-02, 3.52919139e-02, 4.63135960e-03, 2.84003355e-02,
          -6.20324090e-02, 1.22502623e-02, -2.07426641e-02,
          -3.72084975e-02, 1.55636230e-02, 1.05155855e-02,
          1.26984650e-02, 1.54339867e-02, -5.19172549e-02,
          1.39069716e-02, 4.65621846e-03, -1.38981361e-02,
          -3.26917730e-02, -2.77587678e-02, 1.11046806e-02,
          6.74439371e-02, 1.42264962e-02, 2.12034713e-02, 1.21541368e-03,
          -3.48856077e-02, 4.97279167e-02, 2.01997105e-02,
          4.38281707e-02, 4.73152213e-02, 2.97161285e-02, 1.65718682e-02,
          4.17378545e-02, -4.15940396e-02, -2.95432960e-03,
          -1.68554150e-02, -3.02563086e-02, -1.53534450e-02,
          1.61228739e-02, 3.08601800e-02, 7.66516197e-03, 1.30176907e-02,
          1.78589318e-02, 1.99339818e-02, -3.64308544e-02,
          -2.53824461e-02, -7.72474287e-03, -1.65412517e-03,
          3.08699608e-02, 9.85077396e-03, -2.62432173e-03,
          1.34028541e-02, 1.89915057e-02, -4.12769355e-02,
          -6.04183860e-02, -1.38407052e-02, -6.49216175e-02,
          -1.74305104e-02, 2.12909188e-03, -1.45228878e-02,
          1.47241820e-02, 1.51193514e-02, -2.22766623e-02,
          1.55710084e-02, 2.49831937e-03, 2.01182142e-02, 1.74162034e-02,
          -3.62277240e-03, 1.43605275e-02, -1.01189034e-04,
          -1.58470254e-02, 5.20003326e-02, -2.84712035e-02,
          3.27124968e-02, -1.65511947e-02, -3.61873247e-02,
          -3.46056409e-02, -2.56608184e-02, 3.70477885e-02,
          5.06652892e-02, -4.66996152e-03, -3.57670896e-02,
          6.55184165e-02, 2.42222082e-02, 5.55479378e-02, 6.42034039e-02,
          4.31101881e-02, -3.12200785e-02, -4.07691523e-02,
          5.15367428e-04, -7.33103603e-02, 3.32433395e-02,
          4.65795118e-03, 2.74630114e-02, -2.58037895e-02,
          -2.39545126e-02, 6.66985363e-02, 6.81582391e-02,
          8.48188400e-02, 2.19579437e-04, 3.42509709e-02, 4.81383838e-02,
          5.92409745e-02, 8.74601826e-02, 2.15652417e-02,
          -8.31621583e-04, -4.59785499e-02, -6.70431182e-02,
          -7.30551109e-02, -1.00007737e-02, -1.77499708e-02,
          -5.62154455e-03, 1.57894904e-03, -3.10726278e-03,
          2.91011985e-02, 5.51292114e-03, 5.85584827e-02,
          -3.21621411e-02, 5.89576997e-02, 3.38744521e-02,
          3.26853804e-02, 2.53165234e-03, 1.19324848e-02,
          -8.32569674e-02, -7.29340781e-03, -3.71128954e-02,
          -5.67693263e-02, -1.57262795e-02, -1.28167449e-02,
          1.53098512e-03, -6.64371699e-02, -3.36823389e-02,
          1.49567323e-02, 8.77511427e-02, 7.26146773e-02,
          -4.12147529e-02, 4.08906117e-02, 4.62375358e-02,
          1.36903161e-02, 3.45911197e-02, 7.37447590e-02,
          -4.11428185e-03, 2.11107638e-02, 3.58652808e-02,
          -7.31977150e-02, 5.24217775e-03, -1.80091746e-02,
          -5.18007427e-02, -5.03259301e-02, -1.74773997e-03,
          1.34985591e-03, -5.85378753e-03, -1.39478818e-02,
          1.43645064e-03, 7.32544214e-02, 5.54493293e-02, 3.31851654e-02,
          2.34851371e-02, 5.18143103e-02, 3.85587029e-02,
          -2.08434276e-02, 4.13896050e-03, 3.15925218e-02,
          5.02521507e-02, 2.43260935e-02, 2.39155367e-02, 2.41832156e-02,
          6.11472651e-02, -5.72177134e-02, -5.71590699e-02,
          -4.38654199e-02, -5.45173362e-02, 6.78184163e-03,
          1.47450427e-02, -9.31740850e-02, -2.48994976e-02,
          1.10921580e-02, -1.62265860e-02, -3.55228744e-02,
          4.94619459e-03, 4.78280112e-02, 4.13552076e-02, 1.39288232e-02,
          -5.45042381e-02, 1.27522545e-02, 3.47502157e-02,
          -1.28685040e-02, -7.28662452e-03, 5.45867234e-02,
          2.42004506e-02, 1.25578651e-02, 2.54953876e-02, 3.12240273e-02,
          -8.55490658e-03, -1.80219952e-02, 2.01943684e-02,
          2.06038561e-02, -1.93307307e-02, 5.38914427e-02,
          -1.29695367e-02, -8.23210739e-03, -5.42491721e-03,
          -2.79547516e-02, -2.77361050e-02, -3.27402391e-02,
          -8.27899054e-02, -4.45969345e-04, 1.43622719e-02,
          -6.39480129e-02, -6.56893477e-02, -6.80570081e-02,
          -6.92191627e-03, 3.81869003e-02, -8.41095764e-03,
          -2.50210967e-02, -5.05214408e-02, 1.35940081e-02,
          -2.72657704e-02, -3.92814390e-02, 1.65380836e-02,
          5.61895035e-02, 2.60911789e-03, -3.84503901e-02,
          -1.74320675e-02, -2.01641824e-02, 4.59996276e-02,
          -5.18406816e-02, -4.94144931e-02, 3.95611636e-02,
          7.05407886e-03, -3.16213518e-02, -2.26646420e-02,
          -1.18678175e-02, 5.76502346e-02, 3.34266052e-02,
          -5.43405078e-02, -1.53815618e-03, -2.94242091e-02,
          -7.91241974e-03, 2.42771506e-02, 1.40014412e-02,
          7.81236170e-03, -8.29347521e-02, 3.65086980e-02,
          -1.44640366e-02, -2.68992335e-02, -1.27721336e-02,
          6.17564060e-02, 5.18563688e-02, 5.88000566e-02,
          -4.54995362e-03, -2.96860803e-02, 4.57314663e-02,
          -1.34329638e-02, 1.38252107e-02, -5.83015345e-02,
          -1.36992764e-02, 6.02103435e-02, 3.72406542e-02,
          3.44797416e-04, 1.69483740e-02, 2.09767129e-02, 5.56705110e-02,
          1.94226094e-02, 1.86722875e-02, -9.10255685e-03,
          2.07384732e-02, 3.22238682e-03, 3.81344333e-02, 8.05674773e-03,
          4.03582752e-02, 3.03282551e-02, -1.50556359e-02,
          2.90753786e-02, 3.39584537e-02, 1.89037081e-02, 1.00099752e-02,
          -4.42440435e-02, 2.25000903e-02, 3.39539684e-02,
          3.19476165e-02, -2.25162669e-03, 1.59802125e-03,
          -5.23615405e-02, -2.06131134e-02, 6.22641258e-02,
          -8.44383519e-03, -2.26000398e-02, 2.70249415e-02,
          -3.86308110e-03, -6.27832338e-02, -2.52778959e-02,
          -3.96989994e-02, -2.21520793e-02, -1.41094336e-02,
          8.92544016e-02, -3.24606746e-02, -4.40210626e-02,
          4.75558117e-02, 1.90189444e-02, -2.03459226e-02,
          -1.74107049e-02, -8.67692009e-02, -6.73784912e-02,
          1.22625373e-01, 2.61259954e-02, -4.90654185e-02,
          -1.05988190e-01, 3.45695391e-02, -4.23423797e-02,
          1.06536023e-01, -8.91158879e-02, 5.60507923e-02,
          7.35501423e-02, -1.98112298e-02, -2.69572791e-02,
          3.55436243e-02, -1.02497134e-02, 1.26094371e-02,
          3.92506756e-02, -3.18978503e-02, 2.41976660e-02,
          1.03108674e-01, 5.60896806e-02, -5.54020926e-02,
          -6.42465949e-02, 1.29025104e-03, 9.01328027e-03,
          4.61575277e-02, -2.33040638e-02, -2.74588950e-02,
          4.37664576e-02, -2.93400604e-03, 2.48282459e-02,
          -9.04582888e-02, -2.85490640e-02, -5.15515693e-02,
          7.30494335e-02, -3.36954631e-02, 6.90513253e-02,
          7.03119263e-02, -5.11565767e-02, 3.30384448e-02,
          4.19008210e-02, -1.68295745e-02, -4.90434058e-02,
          -1.25001231e-02, 2.76981946e-02, 2.08285259e-04,
          2.31642905e-03, -2.85291392e-03, -3.91203351e-02,
          -6.74937814e-02, -6.63026199e-02, -9.85929295e-02,
          -3.04730125e-02, 8.98965262e-03, 2.33850311e-02,
          5.80150895e-02, 1.22922584e-02, 3.71826775e-02, 3.50416899e-02,
          1.08086113e-02, 4.04679626e-02, 6.61751032e-02, 7.46932477e-02,
          1.80198420e-02, 3.80894281e-02, -7.74062574e-02,
          7.13942619e-03, 4.37238216e-02, 1.87975019e-02,
          -5.64252073e-03, 5.01171052e-02, 4.51914445e-02,
          7.34610707e-02, 7.28838071e-02, 4.38586762e-03, 2.20624655e-02,
          -1.19900834e-02, 1.84726156e-02, 2.74695875e-03,
          4.58461419e-02, 6.19222373e-02, 5.12956940e-02, 4.45145853e-02,
          -1.17855519e-02, 5.15743298e-03, -3.55368219e-02,
          -1.08143277e-02, -3.07987556e-02, 2.94440165e-02,
          7.69742355e-02, 3.98359075e-02, 9.37523395e-02, 4.30425480e-02,
          5.21126762e-02, -2.44317129e-02, -2.91255694e-02,
          -5.54953795e-03, 4.85660248e-02, 6.81316257e-02,
          1.78180747e-02, -1.95710994e-02, 3.68460305e-02,
          -9.20515601e-03, 8.92735869e-02, -1.00945979e-02,
          -3.29831801e-02, -2.40657721e-02, 8.36036168e-03,
          -2.98278350e-02, -2.87861954e-02, 2.55980212e-02,
          -1.86792295e-02, -2.23428085e-02, -2.36271694e-02,
          9.18197632e-03, 1.17309368e-03, -3.41832079e-02,
          -3.98728661e-02, 2.72400640e-02, -2.88923327e-02,
          2.33258586e-02, -6.76897541e-03, -5.62068075e-02,
          -5.17232902e-02, -2.48998008e-03, 5.94585612e-02,
          -8.15144032e-02, -1.76892951e-02, 7.45946094e-02,
          2.81584337e-02, -9.95464064e-03, -4.96159680e-03,
          1.54000688e-02, -8.16455483e-03, -2.82272976e-02,
          -2.42565828e-03, -1.15027688e-02, 4.55863075e-03,
          -2.04830840e-02, 6.31660037e-03, -1.82937607e-02,
          -1.05766067e-02, -3.66087072e-02, -5.08965366e-02,
          4.97910418e-02, -8.55056494e-02, 2.36074422e-02,
          -5.56379696e-03, 1.94606613e-02, 3.52804847e-02,
          4.29678559e-02, -1.63823478e-02, -4.82529961e-02,
          2.39911135e-02, -3.65495197e-02, 4.98158894e-02,
          5.16182892e-02, 1.86701436e-02, 5.04549444e-02, 8.48992318e-02,
          -8.32891278e-03, -2.38765012e-02, 4.86662500e-02,
          -5.31693771e-02, 1.10465679e-02, 1.65996663e-02,
          7.73879886e-02, 2.88808197e-02, 3.77402939e-02,
          -7.56664798e-02, -8.85497630e-02, 5.49807586e-02,
          -3.80227529e-02, 1.52179971e-02, 3.26058269e-02,
          2.77176108e-02, -4.96803261e-02, -2.21171454e-02,
          -9.53071099e-03, 3.04530449e-02, -5.78884780e-02,
          -2.42163707e-02, -1.07532823e-02, -1.69949532e-02,
          -9.26275086e-03, -4.42012437e-02, -1.03338631e-02,
          -9.40446928e-03, -9.30516943e-02, 9.66606587e-02,
          4.40126397e-02, 2.39219908e-02, 1.11165149e-02, 9.03093256e-03,
          2.29933914e-02, 1.60828661e-02, -5.16450182e-02,
          -1.19940732e-02, -8.70207027e-02, -9.27316584e-03,
          -1.19214477e-02, 2.94147581e-02, 2.56416947e-02,
          -1.80892239e-03, 2.30625421e-02, -4.71805893e-02,
          -7.18239471e-02, 3.18586826e-02, 4.21475573e-03,
          2.87042074e-02, -3.24487463e-02, 5.45715652e-02,
          1.16736675e-02, -1.51591527e-03, 2.78548580e-02,
          -3.07094492e-02, -7.49011338e-02, -3.17957662e-02,
          1.40096797e-02, -7.08162726e-04, -1.13783944e-02,
          4.40310054e-02, -1.98555794e-02, -1.57877561e-02,
          -4.84907441e-02, 1.61117036e-02, -3.71075701e-03,
          3.64289209e-02, 4.12367247e-02, 3.53114828e-02,
          -8.24600738e-03, -7.98447756e-04, -1.38822207e-02,
          3.55025567e-03, 5.45563409e-03, -1.00057442e-02,
          5.55181168e-02, 8.26548859e-02, 9.49217379e-02,
          -1.89489499e-02, -4.78387438e-02, -2.13233139e-02,
          4.59925318e-03, 6.50636256e-02, -3.42462100e-02,
          -6.18768437e-03, 4.26376536e-02, -6.35989988e-03,
          -2.14953348e-02, -1.01226540e-02, 2.57800445e-02,
          5.51893264e-02, -2.90568511e-04, -5.78153655e-02,
          -7.98498094e-02, -5.34654632e-02, 1.06193768e-02,
          1.44258318e-02, -2.94177458e-02, 2.59253643e-02,
          4.29482162e-02, 5.61153963e-02, -1.52820423e-02,
          2.44155321e-02, 4.01753671e-02, 3.80920954e-02,
          -5.08447587e-02, -4.54679094e-02, -3.24498005e-02,
          4.68200296e-02, -2.18843576e-02, 7.74154812e-03,
          -7.83807598e-04, -2.60270908e-02, 1.14536900e-02,
          -1.21352123e-02, 2.14293296e-03, -5.33974431e-02,
          5.37579767e-02, 6.09731525e-02, 1.36817368e-02, 1.88513417e-02,
          -1.59669500e-02, 4.91836742e-02, 1.01534296e-02,
          -4.25465629e-02, 5.42849563e-02, 6.11105561e-02,
          6.29120767e-02, 6.46537170e-02, 4.55948710e-02,
          -1.72711071e-02, -8.51175375e-03, -9.26959291e-02,
          -7.01161325e-02, -2.60534640e-02, 1.35984225e-02,
          6.18785545e-02, 2.97279134e-02, 6.39292821e-02,
          -3.15526575e-02, 3.81135084e-02, 1.00306123e-02,
          3.22723947e-02, -5.14469529e-03, 3.86962593e-02,
          3.70122604e-02, -3.33838984e-02, -5.21400012e-02,
          -6.86026365e-02, 3.74241732e-02, -6.85459888e-03,
          -1.34912934e-02, 1.71570424e-02, 4.95282188e-03,
          7.87960589e-02, 8.51484165e-02, 9.01733637e-02, 2.24791206e-02,
          -1.46949925e-02, 4.07243799e-03, 2.20051073e-02,
          1.00917794e-01, 6.75241053e-02, 6.73368722e-02,
          -2.12881994e-02, -3.82629745e-02, 8.17901734e-03,
          6.52160496e-03, 1.35181984e-02, -3.26096490e-02,
          1.94175704e-03, 9.04165953e-03, 2.55294070e-02, 7.83000216e-02,
          2.31446400e-02, -2.27714237e-02, 4.52619046e-02,
          -1.74386671e-03, 4.29536179e-02, 8.39378983e-02,
          1.69754829e-02, -3.17913815e-02, 2.17014346e-02,
          -5.93483448e-03, -3.35659110e-03, 3.88103947e-02,
          4.53776643e-02, 7.20941797e-02, 5.35478853e-02,
          -1.03244809e-02, 5.36251673e-03, -2.10234262e-02,
          -5.38958760e-04, -1.83865633e-02, 7.24945739e-02,
          1.25516746e-02, -2.17211358e-02, 4.13290076e-02,
          -2.91902252e-04, -1.39291445e-02, 3.33422283e-03,
          3.50001380e-02, -9.19729844e-02, 3.13190259e-02,
          -8.15861449e-02, -4.46794257e-02, 2.33485084e-02,
          -2.52524414e-03, -3.76113830e-03, 4.53489609e-02,
          -2.60002515e-03, 2.13276744e-02, 1.49236068e-01,
          6.05128743e-02, 3.19254026e-02, 2.12730728e-02,
          -1.73681341e-02, -8.66584387e-03, -1.77284528e-04,
          -4.00526971e-02, -5.34389280e-02, 6.12945631e-02,
          -3.59810852e-02, 5.88627206e-03, 2.40632519e-02,
          -1.52606182e-02, 4.55676438e-03, 5.60962744e-02,
          -2.11709435e-03, -1.52033586e-02, 3.66252922e-02,
          1.02403117e-02, -4.89403382e-02, 9.27424282e-02,
          6.68847561e-02, 1.11005148e-02, -7.87792262e-03,
          7.15623517e-03, -1.29568893e-02, 8.92211869e-03,
          -2.71640215e-02, -6.46718964e-02, -9.46129207e-03,
          1.24652516e-02, -1.88553389e-02, -1.28183921e-03,
          -6.53702440e-03, -1.16438212e-04, 5.34168147e-02,
          -1.15862619e-02, -2.08058748e-02, 4.46633548e-02,
          4.00905721e-02, -1.78867336e-02, -2.52375696e-02,
          -1.91882290e-02, -6.00638390e-02, 2.69969529e-03,
          -3.77898657e-04, -1.57787150e-03, 9.99705680e-03,
          -1.63969472e-02, -2.91006099e-02, -3.45837995e-02,
          -2.63439715e-02, 3.03630834e-03, -4.43854406e-02,
          -1.85394175e-02, -3.08234915e-02, 3.36362123e-02,
          2.03532316e-02, 2.82585360e-02, -7.19287666e-03,
          -4.60022092e-02, -1.42817432e-02, -3.50772403e-02,
          4.69671655e-03, -7.52106076e-03, 3.24206576e-02,
          2.32755858e-03, -5.52651435e-02, -5.71884178e-02,
          -3.37655768e-02, -4.30994146e-02, -3.15709808e-03,
          2.22961679e-02, 9.03956592e-02, 1.31142158e-02,
          -5.11617884e-02, 7.06521347e-02, 4.39354815e-02,
          -2.50356249e-03, -2.76889578e-02, -1.88024398e-02,
          8.39793310e-02, 5.07050790e-02, -1.26710040e-02,
          4.01391089e-02, -1.79467704e-02, 1.72863156e-02,
          -2.77126357e-02, 2.93922164e-02, 2.70001851e-02,
          1.99289825e-02, -9.33171902e-03, 2.76769493e-02,
          -4.75332551e-02, -3.87435444e-02, -9.88404453e-03,
          -8.50068554e-02, -2.63155773e-02, 2.10873894e-02,
          2.06093509e-02, -4.60931212e-02, -1.97344609e-02,
          3.72057110e-02, 2.89180670e-02, 1.14071630e-02,
          -6.45922497e-03, -1.79488468e-03, 3.45933139e-02,
          5.35982661e-02, 1.98636539e-02, -4.28108014e-02,
          -2.06091627e-03, 1.99289601e-02, -4.35595103e-02,
          -6.10238314e-02, -3.94476950e-02, -8.03675409e-03,
          1.01206321e-02, 1.95810944e-02, 7.76932016e-03, 1.02779128e-01,
          5.67059591e-03, 5.76248718e-03, 3.45474966e-02, 3.85454297e-02,
          1.28542349e-01, 2.32462510e-02, 5.53096319e-03,
          -4.12530601e-02, 2.89886482e-02, 5.60258739e-02,
          1.16020525e-02, -3.72056402e-02, -1.95955336e-02,
          5.64326011e-02, -5.19252382e-02, -9.78183094e-03,
          -6.96028098e-02, 4.47856262e-03, 3.50670926e-02,
          -6.30188137e-02, -7.81222479e-03, 7.03078369e-03,
          7.15367682e-03, 3.28733176e-02, 5.53854927e-02, 4.63245101e-02,
          6.19844012e-02, 7.32090673e-04, -2.77464353e-02,
          3.56110409e-02, -2.85214707e-02, 7.22146779e-03,
          -2.06837375e-02, -3.76657024e-02, 2.43668016e-02,
          -3.05900406e-02, 2.84839302e-06, 3.81172411e-02,
          -4.63537239e-02, -1.42167974e-02, 6.89555183e-02,
          -1.39607210e-02, -4.14122045e-02, 4.06719074e-02,
          4.48295707e-03, -8.90129656e-02, 3.98390787e-03,
          -4.39884141e-03, -5.16064353e-02, -4.08692583e-02,
          1.21140806e-02, 1.24165807e-02, 7.03844577e-02,
          -4.85840812e-02, -1.49754211e-02, 3.58958095e-02,
          3.01161464e-02, -5.10193594e-02, 5.85409999e-02,
          -7.14424700e-02, 2.42355820e-02, 5.23714237e-02,
          6.65314198e-02, -6.33706599e-02, 8.22140947e-02,
          5.96482009e-02, -4.78948057e-02, -4.82008792e-02,
          -3.59040685e-02, 8.68208893e-03, -3.14130001e-02,
          9.71665664e-04, -8.44882429e-03, -5.19369282e-02,
          -4.80273552e-03, 2.11709067e-02, -1.65957771e-02,
          -3.67998071e-02, 1.44423591e-02, 8.50399286e-02,
          -2.48082075e-02, 4.22900170e-02, -5.24027534e-02,
          -5.74939512e-03, 6.92489743e-02, 2.59247888e-02,
          1.66397355e-02, 1.45921076e-03, 7.62023702e-02,
          -3.99536192e-02, 7.97200799e-02, 2.42594387e-02,
          5.03934845e-02, 2.62942514e-03, -1.41668636e-02,
          -6.88509345e-02, -5.49333058e-02, 3.88072319e-02,
          8.15880746e-02, 6.68369457e-02, 1.77703481e-02, 6.09493516e-02,
          6.89569414e-02, -2.54549347e-02, -1.96296964e-02,
          -8.76013190e-02, 8.19105506e-02, 2.08397973e-02,
          9.22072027e-03, -1.04742415e-01, -2.90378071e-02,
          2.30468698e-02, -2.56684180e-02, 4.72661108e-02,
          -7.87386149e-02, 8.46447200e-02, 3.29763293e-02,
          -1.06121777e-02, 2.57255568e-04, 1.35281094e-04,
          6.48124218e-02, -8.05035420e-03, 3.49147916e-02,
          -1.46865426e-03, 1.15381144e-01, 8.54287073e-02,
          9.01917368e-03, -8.31206366e-02, 1.63735691e-02,
          4.36425656e-02, -8.12696069e-02, 1.47284381e-02,
          -9.47779790e-02, 1.62499845e-02, 1.67426635e-02,
          8.50887001e-02, 6.92515522e-02, 5.59596717e-02, 6.67287707e-02,
          1.22855715e-02, -3.68675310e-03, -2.84016337e-02,
          5.96862994e-02, 1.09222643e-01, -5.65839373e-02,
          -4.10278216e-02, -7.96746984e-02, -5.99752134e-03,
          -5.90535952e-03, -4.08751704e-02, -2.71227560e-03,
          9.10313129e-02, 6.04460537e-02, 3.18386257e-02,
          -5.03316522e-02, -9.42777842e-03, -4.09947373e-02,
          -5.78344204e-02, 2.87227463e-02, 5.51243359e-03,
          8.78123790e-02, 3.13737663e-03, -3.48791555e-02,
          6.11052215e-02, 1.03904374e-01, 1.18764732e-02,
          -3.36353178e-03, -3.76260839e-02, -6.27897903e-02,
          1.69996626e-03, 2.57237330e-02, -1.64026022e-02,
          1.75715778e-02, 2.64811218e-02, -7.43204504e-02,
          -6.64664358e-02, -2.13315804e-02, -1.82506666e-02,
          -4.83594928e-03, -6.56927153e-02, 5.22163808e-02,
          -3.54616120e-02, -1.62339844e-02, -1.99689418e-02,
          -1.92864682e-03, -2.02104412e-02, 8.82035587e-03,
          9.35280137e-03, -2.65829749e-02, -4.76838276e-02,
          -1.11741774e-01, -3.04283015e-02, -3.10539845e-02,
          2.96961539e-03, -7.85332080e-03, 2.80657113e-02,
          -6.28421232e-02, -1.56955943e-01, 7.35895662e-03,
          -1.37615874e-02, 2.28886418e-02, -4.05094884e-02,
          -4.74124923e-02, 1.01413829e-02, -5.03917933e-02,
          -4.90325168e-02, -6.00434057e-02, -4.83413637e-02,
          -3.91084515e-02, 2.46074926e-02, -1.86983421e-02,
          1.15756895e-02, -9.44742654e-03, 8.29810835e-03,
          -4.97679375e-02, -7.22211748e-02, 5.08057512e-02,
          1.41285378e-02, -1.32314777e-02, -8.19606557e-02,
          -2.90073380e-02, 1.02882059e-02, 1.87452100e-02,
          -2.58037373e-02, 5.46834571e-03, -7.04073980e-02,
          6.69635134e-04, -3.71706672e-02, -6.14950918e-02,
          1.35518017e-03, -1.28045036e-02, 2.53617186e-02,
          -2.76581552e-02, -3.63489166e-02, 3.94060574e-02,
          2.46231444e-02, -3.29074785e-02, 6.14272431e-03,
          3.25994473e-03, -3.62383854e-03, -2.08263956e-02,
          1.73637215e-02, -4.99506295e-03, 5.55944368e-02,
          6.59048036e-02, 9.38816741e-03, -1.65554043e-02,
          -3.78257385e-03, -2.17812769e-02, -1.55948782e-02,
          5.51444897e-03, -2.11848617e-02, 2.09548278e-03,
          3.71849746e-03, 6.59717694e-02, 9.64526460e-03, 5.85679449e-02,
          1.03020677e-02, 4.92787212e-02, 3.94049361e-02,
          -1.07938629e-02, -6.24953676e-03, -3.91889103e-02,
          2.63651423e-02, 3.96879902e-03, 4.71031889e-02,
          -6.11681975e-02, -1.69573203e-02, 2.04820316e-02,
          -5.74120134e-03, 2.67744046e-02, 1.68478750e-02,
          6.00202829e-02, 1.65935494e-02, 6.40367121e-02, 4.40937839e-02,
          5.44763319e-02, 3.53186987e-02, -2.57413350e-02,
          -1.02249505e-02, -2.32005659e-02, -3.24836448e-02,
          -8.24978128e-02, 3.97142731e-02, -5.99006824e-02,
          1.67328026e-02, -3.02962381e-02, -3.04412674e-02,
          8.96435603e-02, 4.14139405e-02, 1.10404165e-02,
          -3.27034481e-02, 6.09166883e-02, -2.55994219e-02,
          1.13666933e-02, 5.28556108e-02, 8.75433311e-02, 1.25451954e-02,
          2.72608548e-02, 3.20183709e-02, -1.52504183e-02,
          6.83712661e-02, 8.30757059e-03, 2.87454762e-02, 5.55511040e-04,
          2.70980485e-02, 7.57074505e-02, 6.14721701e-03,
          -1.07820369e-02, -1.00608923e-01, 4.92065512e-02,
          -4.43326943e-02, 1.75474845e-02, 3.38427648e-02,
          1.02597717e-02, -5.38550839e-02, -2.65579224e-02,
          -2.08495297e-02, -5.53886257e-02, -2.14542970e-02,
          8.97221640e-03, -1.55641455e-02, 3.35883722e-02,
          2.00580042e-02, 1.51928198e-02, 1.58902053e-02, 9.76260155e-02,
          5.30902781e-02, 1.76806115e-02, 5.15328860e-03, 8.79708230e-02,
          1.90632697e-02, 3.01073454e-02, -2.44160052e-02,
          -3.35354172e-02, -9.12255421e-03, -4.07642312e-02,
          6.66919732e-05, -3.42919230e-02, 6.51536584e-02,
          3.65143381e-02, -3.27259228e-02, -4.06326652e-02,
          -2.20000129e-02, 5.15368953e-02, 4.63785678e-02,
          -2.17920821e-02, -5.25715901e-03, 1.78218912e-02,
          5.50073460e-02, -2.38895267e-02, -6.03494719e-02,
          -2.08377019e-02, 4.31158841e-02, -5.72619289e-02,
          -9.84633341e-03, -6.99284673e-02, -4.67477143e-02,
          2.32337154e-02, -7.52393007e-02, 1.87452286e-02,
          9.99181718e-02, 2.37130225e-02, -1.22337211e-02,
          -3.81708480e-02, 7.13353977e-03, 3.45398672e-02,
          7.52869621e-02, -2.55482998e-02, 1.86693706e-02,
          3.98095101e-02, 2.73562092e-02, -5.18398844e-02,
          1.55643784e-02, 2.33745631e-02, 2.30948702e-02, 2.24147420e-02,
          9.90431383e-03, 8.77342448e-02, 5.60772121e-02, 8.99719670e-02,
          1.92520618e-02, 4.97119315e-02, 1.18113803e-02, 3.20063978e-02,
          6.71396106e-02, 4.64560762e-02, -2.31324229e-02,
          -1.86483916e-02, -1.66348312e-02, -3.42881195e-02,
          6.45916164e-02, 3.27074230e-02, -5.94233647e-02,
          -4.27363701e-02, 1.93661284e-02, 3.11927404e-03,
          1.28069576e-02, -1.01794843e-02, -9.79585922e-04,
          5.34259975e-02, 6.71043769e-02, 2.31788643e-02, 4.82780412e-02,
          5.95129617e-02, 2.79358914e-03, 3.65541171e-04,
          -5.38007990e-02, -2.08572112e-02, 7.65197724e-02,
          -1.41785592e-02, -3.02120429e-02, 3.06075905e-02,
          8.17326978e-02, 2.76212767e-02, -5.64584956e-02,
          -3.92623171e-02, -6.87307864e-02, 2.56658904e-02,
          -1.06749851e-02, -1.21854320e-01, -6.83794171e-02,
          1.51609909e-02, -4.66778055e-02, -2.97583714e-02,
          -1.68433543e-02, -6.46952614e-02, -2.95106936e-02,
          -7.13286623e-02, -5.09033427e-02, -7.90202245e-03,
          2.82071568e-02, -9.91328713e-03, 8.92487261e-03,
          3.27238590e-02, 4.38890122e-02, 6.32978082e-02,
          -1.51103772e-02, -7.20989853e-02, 3.93847674e-02,
          4.52188123e-03, 1.77054089e-02, -2.68819407e-02,
          3.02991308e-02, 3.98355424e-02, 4.92302999e-02, 1.92780942e-02,
          -9.83744934e-02, -8.42502564e-02, -1.52790379e-02,
          4.24456410e-03, 7.18465354e-03, -6.81428798e-03,
          3.50327091e-03, -1.90710071e-02, 2.02094018e-02,
          1.43110929e-02, 3.59233059e-02, 1.63797420e-02, 1.72870103e-02,
          -6.13022596e-02, -2.37176903e-02, -9.18576960e-03,
          -5.41113578e-02, 1.77383162e-02, -4.77422476e-02,
          -1.56762563e-02, -4.85190861e-02, 1.98944546e-02,
          -5.08886054e-02, -3.57666165e-02, 2.08714362e-02,
          1.13819074e-02, 4.54720343e-03, -3.18886712e-02,
          -5.63692003e-02, -4.95010912e-02, 7.71555901e-02,
          8.38995096e-04, -3.70031036e-02, 2.72988412e-03,
          3.01136654e-02, 1.60364509e-02, 7.40126595e-02,
          -3.13820876e-02, 1.46128424e-02, 5.04485331e-02,
          -2.59090168e-03, -7.51181915e-02, -4.88095358e-03,
          -5.96831478e-02, -3.55203114e-02, -2.34309714e-02,
          -3.16285826e-02, -3.20057236e-02, 8.11134058e-04,
          -2.43237969e-02, -3.80690396e-02, 7.03314831e-03,
          -5.88536123e-03, -7.33999237e-02, 7.34678954e-02,
          2.96096597e-02, -5.74392937e-02, 4.24689762e-02,
          7.25528831e-03, -2.57918518e-02, -1.51628349e-02,
          2.66387258e-02, -3.27139199e-02, 2.63922801e-03,
          1.06319906e-02, 4.42319550e-02, 1.91721357e-02, 3.59937851e-03,
          -1.14316063e-05, -9.15945787e-03, 4.36286256e-02,
          -4.00375351e-02, -2.59086769e-02, 1.13902194e-02,
          6.13122918e-02, 6.63058609e-02, -5.35140634e-02,
          1.66540127e-03, 9.60074598e-04, 2.46512536e-02,
          -1.60832535e-02, 7.77750313e-02, 4.71128151e-02,
          1.71400001e-03, 4.76067662e-02, -1.22263506e-02,
          -5.54618658e-04, -1.56773683e-02, 4.69048880e-02,
          -3.48757133e-02, 2.87169730e-03, -2.94007882e-02,
          1.53043056e-02, -4.52955924e-02, -2.56757648e-03,
          4.60483469e-02, 3.62401493e-02, 8.41348618e-03,
          -1.35826711e-02, 3.92250344e-02, -2.74351910e-02,
          -3.10677160e-02, -3.06215081e-02, -2.02379888e-03,
          4.51368541e-02, 4.87838686e-02, -2.91383695e-02,
          4.00539525e-02, 3.11772022e-02, 1.20385820e-02,
          -4.93507385e-02, 4.77579385e-02, -4.16735932e-02,
          2.68364251e-02, -4.00135480e-02, 1.52096823e-02,
          -4.55779023e-02, -1.69917208e-03, -6.89702779e-02,
          5.12313694e-02, 5.55928089e-02, -9.52178054e-03,
          3.45159061e-02, 8.82051699e-03, 1.71638001e-02, 1.99438073e-03,
          4.10908423e-02, 2.72553209e-02, 2.29652599e-02, 4.15067300e-02,
          5.43391444e-02, -5.66826249e-03, -6.49537966e-02,
          6.68219700e-02, -9.09398347e-02, -1.06570292e-02,
          2.01427862e-02, 2.24873275e-02, -3.45467813e-02,
          5.01151606e-02, -1.56989265e-02, -7.05289617e-02,
          -3.48777100e-02, 4.74673696e-03, 6.86705187e-02,
          3.21343169e-02, -4.26063081e-03, -2.12310161e-02,
          1.99715905e-02, 3.58497463e-02, 6.72086328e-02, 4.25652936e-02,
          -5.38253896e-02, -4.50639911e-02, -1.01643376e-01,
          -5.38804792e-02, -1.18375635e-02, 2.16970909e-02,
          1.54465400e-02, 2.38895882e-02, -1.61897652e-02,
          -5.05025126e-02, 3.97422016e-02, -7.07655400e-02,
          4.94570844e-02, -3.27391364e-02, -8.23547877e-03,
          -3.27993296e-02, 1.07997528e-03, 6.46553785e-02,
          -8.03774875e-03, 3.73001276e-05, 9.32401642e-02,
          4.33807261e-02, -2.09378526e-02, -1.59500644e-03,
          -1.01483306e-02, 3.50868590e-02, 2.78949011e-02,
          4.92126972e-04, -4.68404293e-02, 1.28512785e-01,
          -1.00229017e-03, 1.66963041e-02, 3.48928906e-02,
          1.08327894e-02, 7.88102858e-03, 7.44887516e-02,
          -2.31312085e-02, 2.76583433e-02, 4.72400747e-02,
          6.94563985e-02, -1.64846797e-02, 1.22364787e-02,
          -8.62598978e-03, -2.00729314e-02, 1.55582617e-03,
          -2.35652998e-02, -3.72459888e-02, 4.01693545e-02,
          -2.04116348e-02, -1.03085740e-02, -3.64080891e-02,
          -2.48100385e-02, 4.68272679e-02, -4.31320183e-02,
          2.52277683e-02, -1.53888389e-02, 2.69023217e-02,
          -5.28793596e-02, 1.03175230e-02, 5.28832898e-02,
          4.14468013e-02, 2.00357437e-02, -7.55864754e-03,
          -1.66422538e-02, 1.66572556e-02, 8.70792419e-02,
          6.31479407e-03, -3.51435505e-02, -1.50483688e-02,
          7.19362684e-03, 1.87241249e-02, -1.39559349e-02,
          -7.97687098e-03, -6.16012886e-02, 2.02639345e-02,
          -1.82938837e-02, 3.02338377e-02, -1.04351295e-03,
          2.95326058e-02, 5.93483821e-03, -6.63544983e-03,
          -6.18573166e-02, 1.69051420e-02, 9.25405398e-02,
          7.32241869e-02, -1.31908879e-02, -7.19519611e-03,
          3.56245674e-02, 1.81830209e-02, -5.24412245e-02,
          -4.61848676e-02, 5.12550026e-03, -4.71868645e-03,
          3.51035707e-02, -5.86418770e-02, -8.51402897e-03,
          3.30062173e-02, -3.99910705e-03, -3.77492756e-02,
          2.01868583e-02, 4.57092859e-02, -8.17341637e-03,
          -2.55650990e-02, 7.21563399e-02, -4.25818786e-02,
          3.35352705e-03, 4.68339510e-02, -2.47289333e-02,
          -6.08003139e-02, -8.84172413e-03, 3.82633619e-02,
          4.42691706e-02, 4.08701077e-02, -2.62376596e-03,
          5.68282418e-02, 5.75195812e-02, 2.48246472e-02,
          -3.14981937e-02, -2.55963858e-02, -2.68788803e-02,
          2.24929154e-02, -8.81962702e-02, 7.49493018e-03,
          3.43531892e-02, 1.39618227e-02, 1.81819763e-04, 6.80102594e-03,
          -2.12825444e-02, -1.78580657e-02, -9.62503850e-02,
          -1.38228294e-02, 3.88752259e-02, 4.35309857e-02,
          -2.73637883e-02, 1.69475395e-02, -1.17876176e-02,
          8.58710241e-03, -3.32324952e-02, -1.08304761e-01,
          2.62276884e-02, 8.26056767e-03, 4.54069208e-03, 4.79019471e-02,
          2.22076345e-02, -5.09955026e-02, 2.89568584e-03,
          -3.53011563e-02, -3.37033011e-02, 4.71299402e-02,
          2.35146247e-02, 1.33302510e-02, -7.17173293e-02,
          6.68203598e-03, -2.42679119e-02, -1.12559705e-04,
          4.20071632e-02, -4.41680625e-02, -3.26816030e-02,
          1.23042330e-01, 1.53842149e-02, -1.55221764e-03,
          -4.89542680e-03, 8.13046284e-03, 6.52297749e-05,
          5.00403009e-02, -1.36690764e-02, 1.06085230e-04,
          5.99822886e-02, -3.04205641e-02, -1.57486703e-02,
          -3.10267750e-02, -2.25131400e-03, 3.62968333e-02,
          6.64633363e-02, -3.80188413e-03, 3.48538123e-02,
          7.10362867e-02, 4.43370380e-02, -5.77553362e-02,
          -5.45459017e-02, -1.18347993e-02, -2.32393369e-02,
          1.55805703e-03, 6.46235840e-03, 5.53625003e-02, 2.87712924e-02,
          -3.10525391e-02, -6.98453337e-02, 4.91377190e-02,
          1.01278219e-02, 3.10482755e-02, 3.82421650e-02, 1.15886768e-02,
          2.83512231e-02, 6.47327527e-02, 9.84890983e-02, 1.50941424e-02,
          -6.55168109e-03, 3.14467363e-02, 9.77945253e-02,
          7.37592950e-02, 6.92779869e-02, -5.00846095e-02,
          -1.67238005e-02, 2.70996373e-02, -4.09031026e-02,
          -4.25149500e-02, 1.02236038e-02, 4.57516089e-02,
          3.90662514e-02, 1.64361838e-02, 5.96901439e-02, 3.87323424e-02,
          1.95939299e-02, -1.77741225e-03, 5.16870730e-02,
          5.22587597e-02, 8.79618526e-02, 2.31672097e-02, 2.65173079e-03,
          6.35057630e-04, -4.81305458e-03, 8.63427948e-03,
          7.09401630e-03, -6.91877604e-02, 1.04230584e-03,
          -7.04092067e-03, -6.49774522e-02, -1.47918155e-02,
          4.97459508e-02, 2.87824627e-02, 5.71913123e-02,
          -4.90757115e-02, -2.02083029e-02, -3.14915553e-02,
          2.27829814e-02, 6.05267473e-02, 5.90655170e-02,
          -3.36402953e-02, 1.73584782e-02, 7.34420773e-03,
          -2.98371166e-02, 2.85948580e-03, -3.17507461e-02,
          -2.15198379e-02, -1.54105888e-03, -1.54983047e-02,
          -1.24903591e-02, 3.34681012e-02, 7.32231811e-02,
          2.75499318e-02, 7.60242809e-03, -4.19806177e-03,
          1.25756953e-02, 2.47811321e-02, -3.50913815e-02,
          2.39762720e-02, -2.71493010e-02, 5.49065089e-03,
          -3.75552960e-02, -1.54637061e-02, -5.70718050e-02,
          -6.86015636e-02, 6.04598001e-02, 2.64190193e-02,
          8.23138375e-03, -1.95902167e-03, -1.39167504e-02,
          2.95837764e-02, -5.25822826e-02, -3.02933510e-02,
          -1.86518617e-02, 2.83347834e-02, -1.22999698e-02,
          -2.81470288e-02, 1.47979197e-04, -2.91413199e-02,
          -4.51034792e-02, -7.17166066e-02, -9.05518979e-02,
          4.27039303e-02, 3.00956275e-02, -3.55792008e-02,
          2.74774432e-02, 5.12315519e-03, 1.58777256e-02, 3.61366309e-02,
          1.16926534e-02, -4.31646146e-02, -3.82979475e-02,
          -1.19427983e-02, -2.59674750e-02, -1.16128558e-02,
          -1.56798642e-02, -6.18128553e-02, -4.12533842e-02,
          -1.71220917e-02, -9.06357020e-02, 3.54833901e-02,
          -3.18206288e-03, -5.95051013e-02, 1.40240435e-02,
          4.19719378e-03, 8.59421398e-03, 5.32521680e-03, 1.21897971e-02,
          1.30538503e-03, 4.64719068e-03, 1.89671423e-02,
          -3.94130833e-02, -2.31776088e-02, -4.40024957e-02,
          -1.85971186e-02, -2.23783497e-02, -3.88667844e-02,
          -1.99830700e-02, 8.48851458e-04, -3.42332828e-03,
          -5.92550971e-02, 4.57275659e-02, 5.08573651e-02,
          3.10142189e-02, 7.66409840e-03, -9.84672550e-03,
          -2.59360690e-02, 1.99700072e-02, 1.56334434e-02,
          -3.74048837e-02, -1.99458841e-02, -2.46497281e-02,
          -1.34486463e-02, 1.01944059e-02, 3.79447383e-03,
          -7.65070319e-03, 9.18394607e-03, -2.14864872e-02,
          -1.34138984e-03, 1.09207295e-02, -1.35405082e-02,
          3.94685343e-02, 3.78688648e-02, 1.60068627e-02,
          -1.51353320e-02, 1.01242568e-02, -3.28246951e-02,
          3.16159055e-03, 1.68850943e-02, -4.23638225e-02,
          -3.99687747e-03, 3.14171705e-03, -1.21759670e-02,
          -4.60365647e-03, 2.14479938e-02, -2.25256812e-02,
          -1.62914805e-02, -9.43344235e-02, -2.33374862e-03,
          1.89756155e-02, 7.37014115e-02, 2.84878667e-02, 2.55462583e-02,
          2.30958909e-02, 3.00818104e-02, -5.36973849e-02,
          -7.54876062e-02, 3.04679107e-03, -3.18410285e-02,
          -5.28299995e-02, 2.30523106e-02, -3.66498716e-02,
          3.08136009e-02, 6.54494688e-02, -5.76984100e-02,
          5.37297353e-02, 1.14881704e-02, 1.02606760e-02, 6.73567597e-03,
          -1.37722008e-02, 4.10000496e-02, 7.34456405e-02,
          -1.22217182e-02, 6.50562765e-03, -5.02837040e-02,
          -1.96385942e-02, -2.52144262e-02, 4.60756710e-03,
          -2.90268119e-02, 9.17697512e-03, -2.88560502e-02,
          8.52012448e-03, -1.53111927e-02, -2.03073397e-02,
          4.79299650e-02, 1.06599182e-02, -3.20841968e-02,
          -1.62393339e-02, -1.40348794e-02, 1.10789984e-02,
          2.01060213e-02, -5.92133496e-03, -5.02099916e-02,
          5.73143661e-02, -3.56627516e-02, 3.08333747e-02,
          -7.21009215e-03, -1.70788001e-02, 2.48124991e-02,
          3.27542573e-02, 3.64979394e-02, 4.13315780e-02, 6.02848791e-02,
          -6.50068298e-02, 2.76565477e-02, 3.31744887e-02,
          -1.43845510e-02, 1.04292529e-02, 8.24588351e-03,
          2.30422113e-02, -1.17306905e-02, 1.98216969e-03,
          -5.72645664e-02, 2.60116532e-02, -4.64824140e-02,
          -3.92652452e-02, 1.88108869e-02, -1.39822867e-02,
          -2.44219583e-02, -4.19286974e-02, 7.28350431e-02,
          -5.42716086e-02, 2.69130766e-02, 2.79460810e-02,
          -1.60095620e-03, 7.66654033e-04, 3.21131162e-02,
          -1.84234586e-02, 4.53680899e-04, 3.63830663e-02,
          -3.31576914e-02, 3.22459340e-02, -6.02871068e-02,
          -4.00713049e-02, -2.18181200e-02, -2.47479547e-02,
          -4.55094799e-02, -3.08481436e-02, -3.52347791e-02,
          2.01916751e-02, 1.38936900e-02, 3.64309154e-03, 3.54337096e-02,
          6.72313059e-03, 4.67014387e-02, -1.63273793e-02,
          2.25506797e-02, -4.64639105e-02, -3.95248160e-02,
          -3.27380821e-02, 3.13156657e-02, -4.09998111e-02,
          2.20446978e-02, 1.91470124e-02, 5.46806641e-02, 1.08538726e-02,
          2.57264767e-02, 2.40859315e-02, 1.81005932e-02,
          -2.10944023e-02, -4.83940952e-02, -1.59795489e-02,
          -1.79372672e-02, -1.00189885e-02, 6.09693006e-02,
          3.07612065e-02, 3.33763734e-02, -6.35936996e-03,
          1.24794291e-02, 2.35445262e-03, -3.30675542e-02,
          1.62892770e-02, 2.52457261e-02, 4.21313420e-02,
          -3.67469601e-02, 2.60382462e-02, -3.39226797e-02,
          3.84704694e-02, 1.07456231e-03, -4.34027240e-02,
          -3.49701717e-02, 6.15923405e-02, 3.69987264e-02,
          -4.04301174e-02, 5.95059283e-02, 8.23164638e-03,
          -2.81551033e-02, 3.04915681e-02, -1.44490870e-02,
          4.44030315e-02, -2.92223133e-02, 1.35738337e-02,
          1.61395241e-02, 8.65969528e-03, -6.08668942e-03,
          3.13072465e-02, 3.25668044e-02, 1.86912604e-02, 1.97259281e-02,
          -2.58352538e-03, -4.55682017e-02, -5.22916019e-02,
          1.17029622e-02, 1.44260908e-02, 4.13488559e-02, 2.34854762e-02,
          -2.94225365e-02, 4.09237593e-02, 4.70143650e-03,
          -2.39244662e-02, 8.46909638e-03, 5.08457534e-02,
          2.76185349e-02, 1.72470249e-02, -2.69236825e-02,
          2.78278980e-02, -2.31373776e-02, -1.00675896e-01,
          1.32444091e-02, 2.96927243e-02, 3.46097238e-02, 2.99658775e-02,
          2.12369189e-02, -6.33294731e-02, 1.06377147e-01,
          -1.82873267e-03, 2.59513669e-02, -4.50189523e-02,
          1.72343701e-02, 4.93059643e-02, -9.78496745e-02,
          -1.20492429e-01, -8.19207504e-02, -5.56081198e-02,
          -3.88080068e-02, 8.47073924e-03, -2.12099236e-02,
          1.58094075e-02, 1.28789153e-02, -3.59879062e-02,
          -1.70039467e-03, -2.88494751e-02, 8.59637037e-02,
          4.12637405e-02, 7.80746639e-02, -6.89689012e-04,
          -8.67406558e-03, -5.65639697e-02, 9.63348709e-03,
          4.18866463e-02, -8.83445367e-02, 2.36095190e-02,
          6.71638325e-02, 9.63345729e-03, -3.87126170e-02,
          -2.02687234e-02, -5.10229208e-02, -4.69481237e-02,
          -4.70989980e-02, -8.95044059e-02, 1.27948178e-02,
          8.00312236e-02, 2.80079804e-02, -3.29561867e-02,
          -5.48197282e-03, -1.00246212e-02, -4.94933268e-03,
          4.23538983e-02, -2.14672666e-02, 6.48819134e-02,
          8.87992382e-02, 5.90636358e-02, -5.75275486e-03,
          -7.85610452e-02, -5.61925173e-02, -8.14097293e-04,
          7.98922218e-03, -6.74334615e-02, 3.97772938e-02,
          2.70159878e-02, 3.72137353e-02, -4.49348167e-02,
          7.86379445e-03, 2.34061871e-02, 3.05964518e-02, 1.18728410e-02,
          -2.57978905e-02, -2.47127879e-02, 6.45709038e-02,
          5.74663607e-03, -2.23961063e-02, 1.96665386e-03,
          3.35752405e-02, 3.82290259e-02, 4.62716334e-02, 2.75631286e-02,
          8.67183134e-02, 1.04373924e-01, -3.61487665e-03,
          1.57890953e-02, -3.41259167e-02, 3.04015055e-02,
          2.22205706e-02, 2.66362093e-02, -1.50955254e-02,
          8.17784965e-02, 6.52428791e-02, 4.30479869e-02,
          -3.72109711e-02, -2.28035566e-03, 2.92081162e-02,
          1.17168166e-02, -3.44220810e-02, 3.27936076e-02,
          6.47531152e-02, -2.30552237e-02, -3.60305858e-04,
          2.30679512e-02, -2.62014978e-02, -3.51395877e-03,
          -4.79564257e-03, -5.13832271e-02, -1.81523636e-02,
          8.11957661e-03, -1.93755608e-02, -1.64587256e-02,
          9.88723338e-02, 4.95299660e-02, 6.33254126e-02, 8.54843035e-02,
          8.40670392e-02, 6.27228171e-02, 5.96635863e-02,
          -1.34967286e-02, -1.82446763e-02, 1.44161424e-02,
          -2.20589321e-02, 3.18238116e-03, -1.27875907e-02,
          -1.08465381e-01, 3.00586014e-03, -2.17329152e-02,
          -9.69008729e-02, 2.16832459e-02, 4.05364372e-02,
          5.92294708e-03, 3.98537442e-02, 6.79669669e-03,
          -5.75042889e-02, -2.01522689e-02, 1.19096212e-01,
          -9.24376473e-02, -4.45767492e-02, 9.91782267e-03,
          -1.28889596e-02, -1.83783267e-02, 9.74013470e-03,
          -3.83349657e-02, -1.17455265e-02, 3.57858301e-03,
          -5.88205010e-02, -5.47054559e-02, 2.62128934e-02,
          4.16225381e-03, 1.19200340e-02, -6.42489409e-03,
          -9.09758382e-04, 1.30345486e-02, 2.17934251e-02,
          -2.15244219e-02, -8.45616218e-03, 2.17778273e-02,
          -4.29204367e-02, 1.48873532e-03, -4.18876447e-02,
          -1.03869982e-01, -6.03312254e-02, 1.47221852e-02,
          -6.75558522e-02, -1.21724932e-02, 4.00940403e-02,
          -6.25445247e-02, -1.30499003e-03, -4.99904864e-02,
          9.78795905e-03, -3.47222090e-02, -8.41978490e-02,
          -7.69545138e-02, -1.91083476e-02, 4.20572935e-04,
          1.79244149e-02, 3.38003808e-03, -5.77136762e-02,
          -3.81075963e-02, 1.35691762e-02, -5.99475019e-02,
          -2.04924121e-02, 1.75538082e-02, -3.74198183e-02,
          3.25749479e-02, -5.34626506e-02, -5.00336736e-02,
          4.01538722e-02, 8.05807882e-04, -7.96828419e-02,
          -1.25964945e-02, -4.08337228e-02, 3.22931795e-03,
          -1.11791817e-02, 4.60436195e-02, -2.77519505e-02,
          -1.09855151e-02, -6.96049854e-02, -1.27178177e-01,
          -8.29352438e-02, -6.53243661e-02, -3.38167362e-02,
          1.37637714e-02, -1.28087709e-02, -9.01488401e-03,
          2.75226366e-02, -2.50747340e-04, -8.60846117e-02,
          -5.78206927e-02, -9.14299116e-02, 4.14045900e-02,
          4.28498276e-02, -2.60669440e-02, -1.45619060e-03,
          2.89372616e-02, 8.02055001e-03, 4.18693535e-02, 8.25671330e-02,
          -2.62367092e-02, -2.25578267e-02, 1.68483090e-02,
          -3.44628133e-02, -8.32451228e-03, -2.93975975e-02,
          -1.50145208e-02, 4.46863733e-02, 3.85190919e-02,
          -3.41704115e-02, 3.13469768e-02, 9.66510400e-02,
          -8.74220394e-04, -2.11958233e-02, 5.85425459e-02,
          2.79259379e-03, 1.34422341e-02, 6.84152618e-02,
          -5.89770563e-02, -1.12286741e-02, 4.58849296e-02,
          -1.90949794e-02, -9.21673514e-03, 9.43794772e-02,
          -9.22879279e-02, -2.40349900e-02, -1.87779423e-02,
          -4.21176441e-02, -3.22216973e-02, 7.88356119e-05,
          7.98898377e-03, 3.37056816e-02, 1.61324870e-02, 3.43069620e-02,
          -2.51758564e-03, 9.22301561e-02, -3.76934782e-02,
          1.84090380e-02, 4.40501273e-02, 6.78702816e-03, 3.17102559e-02,
          4.52067936e-03, -5.09162713e-03, -3.44286417e-03,
          1.07596435e-01, 6.35383502e-02, -8.94475076e-03,
          -2.52928282e-03, -5.06756688e-03, -6.68504508e-03,
          8.77605677e-02, 1.32162264e-02, 3.92976636e-03, 5.25913350e-02,
          -6.37961328e-02, -3.90312411e-02, 6.14894601e-03,
          -1.65313613e-02, -4.43875417e-02, 1.08580915e-02,
          -2.70376783e-02, -1.37610957e-02, 2.04860661e-02,
          -2.89741121e-02, 4.84717684e-03, 2.63653486e-03,
          -2.80582216e-02, 2.35866029e-02, -3.30355130e-02,
          3.09235081e-02, 2.80342679e-02, 2.73063760e-02, 3.87016870e-02,
          -1.43379876e-02, -2.70464574e-03, -1.02243097e-02,
          2.84180921e-02, -1.85690802e-02, 2.65069567e-02,
          1.55928330e-02, -4.39468361e-02, -2.39487458e-02,
          -3.19865532e-02, -4.24842127e-02, -4.58429754e-02,
          2.76586763e-03, -2.79546119e-02, -3.20280306e-02,
          1.21566169e-02, 1.52572105e-02, -2.31851283e-02,
          -1.55632496e-02, -7.48626068e-02, -4.93065864e-02,
          1.11741070e-02, -3.90940346e-02, -8.62910822e-02,
          -3.34212258e-02, -3.20390761e-02, -7.61073502e-03,
          2.15248894e-02, -2.54448340e-03, 1.16817728e-02,
          -5.34677226e-03, -4.01585829e-03, 4.07662056e-03,
          1.15237804e-02, -2.37243325e-02, -4.04011160e-02,
          -3.02162245e-02, 1.22155435e-02, -1.72581058e-02,
          1.13734615e-03, 6.88388795e-02, 1.20723611e-02, 2.48914715e-02,
          -3.55142727e-02, -3.32981348e-02, 3.84613462e-02,
          -1.45717328e-02, -2.44474355e-02, 8.20915401e-03,
          3.13464031e-02, -3.21966261e-02, 6.38853237e-02,
          -2.22950731e-03, 2.17543729e-02, 3.37496004e-03,
          6.01524897e-02, -2.10463610e-02, 2.14112159e-02,
          2.61225109e-03, -4.25388403e-02, -4.02914174e-02,
          -2.52638683e-02, 2.79273577e-02, -1.20757436e-02,
          -2.43484527e-02, -3.66347469e-02, 2.06948910e-02,
          4.44610603e-02, -1.44147305e-02, 4.24177051e-02,
          -1.15570333e-02, 4.25801799e-02, -3.32166925e-02,
          -3.09584998e-02, 4.91569825e-02, -1.49822673e-02,
          5.67347859e-04, -1.87122002e-02, -1.03208618e-02,
          3.35596018e-02, -7.71189621e-03, 7.77366199e-03,
          6.89153224e-02, -2.44718175e-02, 2.65151728e-02,
          -8.15691950e-04, -3.16912495e-02, -3.54198702e-02,
          -3.03891040e-02, 3.98643166e-02, -2.87126582e-02,
          -1.92331746e-02, 2.25680452e-02, 4.04925123e-02,
          -3.91481929e-02, 1.01310099e-02, 1.84504837e-02,
          2.14255154e-02, 1.80436429e-02, 1.48358466e-02, 2.48324294e-02,
          1.23109683e-01, 1.04329512e-02, 3.97791676e-02, 4.31843251e-02,
          -2.94402223e-02, 2.37451363e-02, 4.52602282e-02,
          1.09919743e-03, 2.42497697e-02, -1.00310345e-03,
          1.44945821e-02, 3.78633142e-02, 5.44790663e-02, 2.21722331e-02,
          6.71607107e-02, -2.20646970e-02, -1.60175506e-02,
          -1.65688172e-02, 5.00024743e-02, 3.57097797e-02,
          1.22480374e-02, 4.09940034e-02, 3.46733294e-02, 4.69127297e-03,
          4.24147234e-04, 2.05089408e-03, -2.51989570e-02,
          3.13789248e-02, 3.90785635e-02, -1.24255233e-02,
          -2.79590543e-02, -1.51245510e-02, -5.20498939e-02,
          -4.03302386e-02, -7.51262978e-02, 2.45471597e-02,
          -1.61782224e-02, 1.00643095e-02, 2.85976436e-02,
          2.69727223e-03, -1.52618820e-02, 2.37531103e-02,
          -5.24213873e-02, 9.15539451e-03, 6.12229444e-02,
          -3.22159454e-02, 5.05065322e-02, -3.63980606e-02,
          -3.98945063e-03, 3.20356227e-02, 3.67123522e-02,
          1.56645905e-02, -2.71564219e-02, 1.11401845e-02,
          7.15893432e-02, 4.45503145e-02, 2.59288792e-02,
          -2.44524982e-02, -3.35434824e-02, -7.91518763e-03,
          -3.23022455e-02, -2.90389955e-02, -8.08606856e-05,
          6.79271147e-02, 1.10304549e-01, -2.31025368e-02,
          -3.48698930e-03, 1.37302540e-02, 3.88707705e-02,
          -8.40015896e-03, -1.12570412e-02, 1.46964127e-02,
          4.86376463e-03, 3.38088870e-02, 2.17633732e-02,
          -4.77724150e-02, 4.87676784e-02, -2.63688131e-03,
          -2.20776685e-02, 2.66051833e-02, -6.61410810e-03,
          1.91482250e-02, 1.14655206e-02, 8.17971211e-03, 2.10378524e-02,
          -1.26999803e-02, 3.42210121e-02, 1.75312385e-02,
          -4.05665599e-02, -1.23257786e-02, 2.26607323e-02,
          5.27864657e-02, -1.11352112e-02, -4.48773317e-02,
          1.41678620e-02, 1.60208680e-02, -2.79881805e-02,
          -2.09701508e-02, -6.39281645e-02, -2.49060262e-02,
          -9.16453451e-03, -1.38365971e-02, -1.81766078e-02,
          5.60617223e-02, -1.95680987e-02, 4.02199812e-02,
          4.74482290e-02, 2.32724361e-02, -1.75652169e-02,
          1.15200486e-02, -2.86750160e-02, 9.28507186e-04,
          1.30093927e-02, 5.10933027e-02, 1.93650443e-02, 5.67500964e-02,
          -6.08229861e-02, 8.51179380e-03, 1.38384309e-02,
          2.14986373e-02, -1.85858756e-02, -2.45236736e-02,
          1.30814398e-02, 2.93565579e-02, -1.00407470e-02,
          -4.95462380e-02, 5.03241224e-03, 7.06430599e-02,
          -1.68307088e-02, -4.58210707e-02, 3.38370614e-02,
          8.54580384e-03, 1.31055200e-03, 8.39913264e-02,
          -3.28149274e-02, 6.12951554e-02, 4.12311703e-02,
          3.28954458e-02, -5.83702512e-03, 7.86801502e-02,
          8.70372951e-02, 1.80814881e-02, -3.21512036e-02,
          -3.89789678e-02, -5.76167703e-02, -2.46245693e-02,
          -1.02562755e-02, -1.48055544e-02, -4.98349816e-02,
          -5.15343212e-02, -3.40385772e-02, 4.58764005e-03,
          -2.22859550e-02, -2.12867297e-02, -3.98967527e-02,
          -1.55164804e-02, 1.03061413e-02, -2.44172104e-02,
          -1.70240982e-03, 2.25865445e-03, -1.03347609e-02,
          -1.81049202e-02, -1.84982065e-02, -3.79473642e-02,
          9.42139700e-02, -1.00799985e-02, -1.83487870e-02,
          -4.56135869e-02, -4.25205380e-02, -1.28261251e-02,
          3.69117805e-03, 9.62651614e-03, 7.50335008e-02,
          -4.45826128e-02, 2.58971825e-02, 4.75734174e-02,
          -2.08079107e-02, -3.36441807e-02, 1.54894893e-03,
          -4.44495715e-02, -8.14386457e-02, -5.92920296e-02,
          -6.10370636e-02, -6.71758130e-03, -3.73850763e-02,
          -9.55908000e-03, 8.70803371e-03, 2.11920124e-02,
          -1.91870723e-02, -3.43805775e-02, -4.81211729e-02,
          -1.27799138e-01, -6.54498115e-03, -2.94961631e-02,
          -2.59133670e-02, 3.29728238e-03, 3.02945711e-02,
          1.21269962e-02, -2.22901665e-02, -1.99527722e-02,
          -5.25514707e-02, 2.17862818e-02, 6.50813431e-02,
          -1.80939995e-02, 4.98132929e-02, 1.96675695e-02,
          5.54423779e-02, 9.97685269e-03, -5.90808392e-02,
          -2.22446001e-03, 2.10459698e-02, 4.29629274e-02,
          -8.69336724e-03, 5.50105087e-02, 3.50833163e-02,
          -1.14842542e-02, -3.75946537e-02, -3.04969624e-02,
          9.44764446e-03, -2.23740633e-03, 1.38157094e-02,
          -1.01604164e-02, 1.39705623e-02, -3.22746374e-02,
          -7.44547546e-02, -8.26258510e-02, -8.51309765e-03,
          -4.02416922e-02, -1.52909346e-02, 1.88064948e-02,
          -1.76746934e-03, -3.63904759e-02, -2.56244987e-02,
          4.50422056e-02, 8.46805330e-03, 1.66943669e-02, 2.23488659e-02,
          5.14835585e-03, -1.72100235e-02, -8.77510011e-02,
          -8.76061693e-02, -1.90650094e-02, 3.49317640e-02,
          -3.59796942e-03, -5.16374335e-02, 3.23217623e-02,
          4.40844931e-02, 2.84445826e-02, 1.14168599e-03,
          -5.14870789e-03, 1.29563781e-03, -1.71652306e-02,
          -3.74132134e-02, -1.34695983e-02, -3.71709391e-02,
          -1.37267811e-02, 2.90418928e-03, 7.90684391e-03,
          5.52361552e-03, -3.94318104e-02, 1.06534166e-02,
          4.43606488e-02, -3.10916435e-02, -1.16536550e-01,
          -5.38693294e-02, -1.62058547e-02, 3.82577395e-03,
          -4.18052115e-02, -3.31679396e-02, -3.13804187e-02,
          4.36059423e-02, -2.50489693e-02, 2.51377071e-03,
          1.97184067e-02, -4.61459756e-02, -2.63249725e-02,
          -3.60184237e-02, -4.14092839e-02, 6.23344071e-02,
          1.85805634e-02, 4.75028181e-04, 3.40337083e-02,
          -1.95871927e-02, -3.55410366e-03, 4.18666787e-02,
          -5.46583673e-03, 1.07401405e-02, -3.24392281e-02,
          -3.91439442e-03, -3.89328003e-02, -9.55103152e-03,
          -4.69965860e-02, 3.51268798e-02, 3.51104252e-02,
          3.36552374e-02, 1.65752415e-02, -4.94739152e-02,
          8.62127915e-03, -2.99885795e-02, -4.36848290e-02,
          -3.91825549e-02, 2.37583611e-02, 2.34137531e-02,
          4.21922542e-02, -1.80322155e-02, -7.16790855e-02,
          1.99517701e-02, 9.53025930e-03, -3.73210460e-02,
          -1.49410497e-02, -1.92791149e-02, 3.64876986e-02,
          -1.66417025e-02, 6.82382565e-03, -1.61516089e-02,
          9.86801982e-02, 3.98340560e-02, 2.65530329e-02,
          -5.17847091e-02, 7.02647269e-02, 1.62921418e-02,
          5.10844253e-02, -2.68593766e-02, -4.16281149e-02,
          1.97007158e-03, -3.52195613e-02, -5.51102869e-02,
          -3.96587327e-02, -7.92157743e-03, 1.05753047e-02,
          -1.97574906e-02, 5.21999411e-03, -5.98520562e-02,
          1.55974263e-02, -3.12407799e-02, -2.98210178e-02,
          -4.46484275e-02, -4.62773032e-02, 4.12997268e-02,
          1.99548267e-02, 2.59869229e-02, -1.71547830e-02,
          3.72240469e-02, -1.04692932e-02, -1.44246640e-02,
          -4.43806984e-02, 4.52488437e-02, -6.22361945e-03,
          5.05869873e-02, 1.80836208e-02, 2.19111256e-02, 3.82370427e-02,
          -8.58592708e-03, -3.31777446e-02, -3.56971622e-02,
          4.95706946e-02, 5.42372428e-02, -1.26751531e-02,
          1.10692792e-02, -5.81603907e-02, 1.92970578e-02,
          -2.59110443e-02, -8.27524997e-03, -3.64925414e-02,
          -6.58201277e-02, -2.81679276e-02, -1.37790814e-02,
          4.00882885e-02, -2.03793403e-02, 4.79937298e-03,
          -5.09144785e-03, 6.43543899e-02, -2.42729019e-02,
          -1.97768770e-03, 2.65726577e-02, -3.20563242e-02,
          5.26027866e-02, -2.68936977e-02, -2.08342471e-03,
          1.34508144e-02, 1.14002274e-02, -1.18462846e-03,
          8.88380688e-03, 1.23184472e-02, 2.86949370e-02,
          -1.09946644e-02, -3.41808423e-02, 2.22608494e-03,
          2.14773044e-03, 9.08368677e-02, 7.94951571e-04,
          -2.10687649e-02, 1.35250622e-02, -2.27237344e-02,
          4.10663262e-02, 5.66999055e-03, 3.31260543e-03, 6.06203219e-03,
          4.14822288e-02, -2.67864894e-02, -1.10679176e-02,
          6.19495325e-02, 1.00026205e-02, -2.99020391e-03,
          2.12440044e-02, -3.68923694e-03, 9.37951542e-03,
          -4.13267985e-02, -6.77410420e-03, -9.84120667e-02,
          -2.50134319e-02, -1.75639382e-03, -1.03743589e-02,
          2.92330850e-02, 1.75903160e-02, -1.05836233e-02,
          3.32113504e-02, -5.30678518e-02, -7.57876709e-02,
          -2.11211275e-02, -4.03899848e-02, -7.62654319e-02,
          4.96777818e-02, 3.39373089e-02, -1.49310194e-02,
          6.90484568e-02, -8.89364444e-03, -6.63925409e-02,
          1.89992115e-02, -3.16085778e-02, -1.05138551e-02,
          -2.91591603e-03, -5.08952700e-03, 2.86720544e-02,
          5.73727824e-02, -1.24350721e-02, -8.31269324e-02,
          -4.97079194e-02, 1.34133669e-02, 2.80650705e-02,
          -3.09242643e-02, -1.71125792e-02, 1.31390300e-02,
          -6.98685506e-03, -7.14736816e-04, 2.65391786e-02,
          3.79153341e-02, 2.41004140e-03, -5.61811496e-03,
          4.70033623e-02, -7.15383235e-03, 3.15592537e-04,
          -2.34107208e-03, -1.09634511e-02, -1.16609698e-02,
          1.80654451e-02, -2.51273513e-02, -1.13055101e-02,
          1.71106425e-04, -4.05538501e-03, -3.74970771e-02,
          5.43948933e-02, -4.70593385e-02, -8.97403210e-02,
          -4.79334556e-02, -1.15431296e-02, -6.98175794e-03,
          -7.53734708e-02, -5.34902848e-02, -3.80423502e-03,
          7.83382431e-02, 4.36332123e-03, 9.22977179e-02,
          -1.76901591e-03, -3.02417371e-02, 5.49725518e-02,
          7.25540813e-05, 4.78010550e-02, 2.97177173e-02,
          -1.18638333e-02, 4.98246076e-03, 4.07609567e-02,
          -8.82248115e-03, 5.71258105e-02, 2.54138727e-02,
          9.02581145e-04, -6.41325638e-02, -1.24290651e-02,
          5.74325174e-02, -2.23970576e-03, -1.54934954e-02,
          3.27926800e-02, -1.10704312e-02, -1.05607500e-02,
          4.98932563e-02, -1.28815034e-02, -2.77586048e-03,
          4.18842062e-02, -6.53753150e-03, -6.12359084e-02,
          -1.60176884e-02, 2.53354636e-04, 2.75788922e-02,
          1.98312197e-02, 5.21039553e-02, 2.39141416e-02,
          -1.98890474e-02, 1.42999366e-02, 5.34742931e-03,
          9.92623251e-03, 4.60976139e-02, -6.32135663e-03,
          -2.09226962e-02, -9.87388892e-04, 2.85531804e-02,
          -4.67849849e-03, 2.49132235e-02, 8.01108703e-02,
          3.28258127e-02, 7.27619603e-03, 4.45020646e-02, 3.47313173e-02,
          -1.43634183e-02, -1.81121286e-02, 1.18125938e-02,
          3.47373486e-02, 4.95855473e-02, 1.02963112e-03, 4.27759215e-02,
          -6.09430000e-02, -8.39851573e-02, 2.11427230e-02,
          2.05702595e-02, 2.50744950e-02, 1.51842562e-02,
          -2.65279170e-02, -1.62939746e-02, -4.28409362e-03,
          4.01977897e-02, -4.57921103e-02, -7.62984157e-02,
          7.64502957e-03, -5.90613075e-02, 3.48041542e-02,
          4.20818664e-02, 1.48435635e-02, 6.09785058e-02, 2.41846759e-02,
          -5.30912802e-02, -6.99082715e-03, 1.35120405e-02,
          -1.22754900e-02, 4.64387164e-02, 7.35963807e-02,
          -2.01046318e-02, 2.73386519e-02, -2.13377252e-02,
          -5.68512976e-02, -6.75831884e-02, 5.08219264e-02,
          -2.14821976e-02, 2.67376713e-02, -1.74536984e-02,
          -2.01626308e-02, -1.82505231e-02, -1.25592630e-02,
          2.60294061e-02, -4.91073951e-02, 7.90176690e-02,
          -6.60211891e-02, 3.19765210e-02, 1.60687603e-03,
          -3.76041569e-02, -1.82008743e-02, 7.13237002e-02,
          -4.28838097e-02, -1.17819300e-02, -4.29290161e-03,
          4.45631444e-02, -1.24139572e-02, 3.00166570e-03,
          -4.92352769e-02, 2.17875894e-02, -8.22689384e-03,
          -1.15116253e-01, -1.77239310e-02, -6.10286975e-03,
          -4.41262051e-02, -6.66395202e-02, -1.23625016e-02,
          -1.97184421e-02, -5.62064312e-02, 1.13339879e-01,
          1.72404274e-02, 2.91053560e-02, 6.64279908e-02,
          -5.95023073e-02, 5.31793274e-02, 1.74750891e-02,
          3.38757448e-02, 4.36723828e-02, -3.05422884e-03,
          5.49782673e-03, 2.41164081e-02, 2.03897301e-02,
          -1.79808009e-02, -7.63155743e-02, 1.98782645e-02,
          1.20629733e-02, -2.09322497e-02, -6.71185879e-03,
          -8.75216946e-02, -1.37977432e-02, 4.23845882e-03,
          2.27646735e-02, -6.94058985e-02, -4.73237969e-02,
          -4.20347303e-02, -3.08311041e-02, 4.48060334e-02,
          2.00707745e-02, -1.57463120e-03, 2.92919688e-02,
          1.13169127e-03, -1.63707742e-03, -6.68689907e-02,
          1.80187542e-02, 3.25599536e-02, -3.49403336e-03,
          1.79132856e-02, 3.78741510e-02, 1.56647936e-02, 4.07484137e-02,
          1.18528651e-02, 3.83606330e-02, 1.10442229e-02,
          -2.36832388e-02, -1.02080535e-02, -2.18918398e-02,
          5.08692339e-02, 7.11445929e-03, -1.28657082e-02,
          2.38169823e-02, -1.64054465e-02, 1.47116231e-02,
          3.10402382e-02, -3.26162577e-02, 8.72284733e-03,
          -6.99048713e-02, -1.51406359e-02, -3.99763249e-02,
          -1.39181679e-02, -1.57777388e-02, 5.46828322e-02,
          6.98099285e-03, -4.84158918e-02, 2.65260357e-02,
          1.73973236e-02, -8.93835351e-03, -4.10288386e-02,
          -2.95300428e-02, -2.84404922e-02, -2.66491305e-02,
          -6.98199794e-02, -5.19919917e-02, 8.17721710e-03,
          -5.53806545e-03, 1.10564791e-02, -5.68826310e-03,
          3.43644507e-02, 1.78994946e-02, 2.37831753e-02, 4.03878018e-02,
          -3.71904001e-02, 4.50204313e-02, 4.38428186e-02,
          -3.24701145e-02, 3.45084481e-02, 2.46030539e-02,
          -2.11221352e-02, -2.02955380e-02, 2.31816601e-02,
          -4.59880121e-02, -2.31358483e-02, -1.55840523e-03,
          -2.94714216e-02, 1.37069300e-02, -6.92331279e-03,
          -1.71678271e-02, -1.81605034e-02, -6.49758577e-02,
          -7.51644596e-02, 2.30849907e-03, 2.98092030e-02,
          -6.77095202e-04, 2.57760528e-02, 5.21540903e-02,
          6.43362924e-02, -4.09627557e-02, -8.20910335e-02,
          -1.25467563e-02, -2.08816472e-02, -3.24975960e-02,
          -1.06300963e-02, 7.13351220e-02, 1.65283447e-04,
          -1.30824524e-03, -1.29351495e-02, 1.67551246e-02,
          7.99303502e-03, 2.87581142e-03, 2.81478055e-02, 5.19679300e-03,
          2.02968586e-02, 5.92771657e-02, 3.17227952e-02, 2.45637558e-02,
          -6.06056564e-02, -6.83918074e-02, 1.44297313e-02,
          8.29985272e-03, -3.51878479e-02, 2.82376679e-03,
          -2.04705377e-03, -5.92015218e-03, -4.88447621e-02,
          -4.57287244e-02, -1.47891575e-02, 3.46592478e-02,
          4.80975211e-02, -2.66827084e-02, -1.69792101e-02,
          3.88275497e-02, 6.59918189e-02, -1.69593375e-02,
          6.30004797e-03, -4.29555215e-03, 2.56046634e-02,
          -1.35617815e-02, -2.71817427e-02, 1.04106627e-01,
          6.72146305e-03, -4.15531993e-02, -5.83560430e-02,
          -4.72483635e-02, 9.74091515e-03, -3.07997526e-03,
          5.79366758e-02, -4.41927537e-02, 1.89078937e-03,
          1.09704182e-01, -1.53311137e-02, -5.86443171e-02,
          -2.47235969e-02, 4.26770896e-02, 7.68430308e-02,
          -1.33398110e-02, -1.17464811e-02, -6.45009428e-03,
          8.66537855e-04, 3.43887089e-03, -7.47530609e-02,
          -2.05644388e-02, 3.53549537e-03, -2.96623111e-02,
          -4.68275957e-02, -5.29951695e-03, 6.49235919e-02,
          3.62945534e-02, 2.66249161e-02, -3.23775224e-02,
          -2.90394519e-02, 6.32524565e-02, 3.42423879e-02,
          -9.87354945e-03, 8.47880915e-03, 6.56929463e-02,
          5.18913716e-02, 2.38271113e-02, -2.34089158e-02,
          3.94156426e-02, -3.14337807e-03, -4.55552749e-02,
          7.29072317e-02, -6.26364797e-02, -9.54089593e-03,
          -1.58865494e-03, 7.05784708e-02, 2.46103518e-02,
          3.23112607e-02, 7.92281479e-02, -4.29200903e-02,
          -9.40549374e-03, -3.66099887e-02, 3.53155620e-02,
          4.81162667e-02, 2.93293688e-02, 7.23887458e-02, 8.83521885e-02,
          -1.91252418e-02, 9.18257330e-03, 4.70487401e-03,
          -2.53821146e-02, -4.92688604e-02, -1.92184132e-02,
          -6.02346435e-02, 4.32566227e-03, -2.53727660e-02,
          3.62491198e-02, -3.26319486e-02, -3.85803729e-02,
          -1.67425703e-02, -3.21385935e-02, -3.59460488e-02,
          -3.51629779e-02, 2.69051734e-02, 6.51079565e-02,
          4.44296226e-02, -3.55637595e-02, -2.67910287e-02,
          -7.79240876e-02, -6.53764047e-03, -1.44435884e-02,
          -3.95975411e-02, 2.72252113e-02, 6.98485970e-02,
          -5.40294349e-02, -5.98524846e-02, 3.03729833e-03,
          2.54495759e-02, 2.76629739e-02, 6.12546504e-03,
          -1.86325498e-02, -8.06210376e-03, -3.42658833e-02,
          -5.40720706e-04, 1.42008737e-02, 7.95182139e-02,
          1.55938091e-03, 2.43197717e-02, -3.25805247e-02,
          -8.66981223e-03, -6.53425306e-02, 9.94921941e-03,
          -5.17904796e-02, -3.64499874e-02, -2.54039504e-02,
          -5.97416237e-02, -2.55657155e-02, -2.64833774e-02,
          -1.80237927e-02, 3.68902944e-02, -1.25433365e-02,
          3.72322230e-03, 3.47973704e-02, 6.15697093e-02,
          -3.62294689e-02, 4.54220688e-03, -2.76045296e-02,
          -1.08666520e-03, 4.83052880e-02, 8.76605409e-05,
          -9.45249479e-03, -6.58822581e-02, 3.83415483e-02,
          -1.39776589e-02, -7.32363015e-03, -4.14658338e-02,
          -3.94562520e-02, -6.61130324e-02, -2.03469936e-02,
          6.69784797e-03, -3.23016159e-02, -2.61016823e-02,
          -5.33417333e-04, -7.25271404e-02, -4.05877009e-02,
          4.55007656e-03, -1.78655852e-02, -3.24004740e-02,
          8.73900801e-02, -1.64476167e-02, -2.99517550e-02,
          -3.57418694e-02, 4.62254211e-02, -3.28671411e-02,
          8.79626535e-03, 5.89689650e-02, 5.46076708e-02, 4.04559299e-02,
          1.73223279e-02, 3.39596607e-02, -1.15355263e-02,
          -5.24225421e-02, -2.40315218e-02, -4.18140702e-02,
          -6.52625132e-03, 4.88266582e-03, 7.43355416e-03,
          -3.32950391e-02, 1.64347701e-02, 1.94411334e-02,
          1.91016831e-02, -2.46314500e-02, -3.14124115e-02,
          -6.20987378e-02, -3.62592079e-02, 7.02417344e-02,
          -1.39495982e-02, -1.74513590e-02, -2.83186957e-02,
          3.24377231e-02, -1.52997021e-02, 3.20090838e-02,
          -1.49709610e-02, 2.45047677e-02, 2.05532778e-02,
          -2.42480822e-02, -5.51368594e-02, -1.83827337e-02,
          -3.93598564e-02, -5.31662777e-02, 3.39532383e-02,
          -2.43952796e-02, -4.65235161e-03, -1.81703770e-03,
          5.47742136e-02, -4.23704972e-04, -2.07761414e-02,
          -3.94821428e-02, -6.72764555e-02, -3.75118628e-02,
          -5.52428812e-02, -4.23968956e-02, -5.36749884e-02,
          2.47988719e-02, -3.07131995e-05, -5.12533542e-03,
          2.21979190e-02, -2.92708389e-02, 4.71178349e-03,
          -4.21681162e-03, -8.04587901e-02, -9.43743903e-03,
          9.24445223e-03, -2.99032424e-02, 2.30022222e-02,
          -1.12012319e-01, 1.38419755e-02, -2.81617581e-03,
          -3.14445570e-02, -2.05581803e-02, -2.68359698e-04,
          7.20052198e-02, 5.10664880e-02, 3.20314318e-02,
          -6.12915168e-03, 4.38638264e-03, 9.53857824e-02,
          -4.02756128e-03, -5.65977693e-02, 2.60914825e-02,
          3.48758958e-02, -2.60371575e-03, -3.08503937e-02,
          1.18758087e-03, 1.27100339e-02, 1.50775015e-02, 9.38435434e-04,
          1.05995033e-02, -2.45443396e-02, -9.25056636e-03,
          -5.17402850e-02, 6.23238692e-03, 3.21167372e-02,
          2.70300154e-02, -3.48216705e-02, 3.22820386e-03,
          2.08078939e-02, 5.36401682e-02, -2.44773272e-03,
          -3.21230665e-03, 1.86702032e-02, -2.39073727e-02,
          2.16464251e-02, -1.09126314e-03, 3.15530896e-02,
          7.22412914e-02, -2.81323921e-02, 1.46414023e-02,
          1.05152708e-02, -2.84462087e-02, 2.03288393e-03,
          -4.93754297e-02, -2.78918855e-02, -1.06458983e-03,
          9.18521918e-03, -3.86636481e-02, 1.57408714e-02,
          5.57365157e-02, -2.57395562e-02, 4.02983986e-02,
          3.04600149e-02, -1.70356371e-02, -1.26936389e-02,
          2.27968004e-02, 1.82415266e-02, 1.40759638e-02,
          -8.42460338e-03, 1.95248835e-02, 2.54589170e-02,
          1.42259207e-02, 7.78573612e-03, 3.56559083e-02, 1.60150379e-02,
          9.12367366e-03, 8.11099857e-02, 5.75175509e-02, 3.20432596e-02,
          -2.01705098e-02, 3.02112643e-02, -2.06353515e-02,
          -3.72922374e-03, -2.96646776e-03, -4.48176675e-02,
          -1.61865782e-02, -4.58636992e-02, -2.05747318e-03,
          -5.60186170e-02, 3.92703377e-02, 1.01475082e-01,
          -3.91091482e-04, -1.26096196e-02, 3.09651755e-02,
          -7.62456702e-03, -1.28856897e-02, 3.14224176e-02,
          6.89456761e-02, 4.09147069e-02, 6.60752207e-02,
          -8.38543812e-04, 3.19107547e-02, 2.99661909e-03,
          -2.70237913e-03, 1.18141947e-02, -1.41384602e-02,
          1.45756854e-02, -2.88551860e-02, 1.56307742e-02,
          2.88790781e-02, 4.82564457e-02, 2.17867550e-02, 1.57405492e-02,
          -6.09808275e-03, -4.72166995e-03, 5.44066262e-03,
          2.76381243e-02, 1.82857495e-02, 1.65663585e-02, 4.22600619e-02,
          7.76244178e-02, -2.71291193e-02, -4.31520157e-02,
          -1.42897647e-02, -1.58873219e-02, -3.39888665e-03,
          -1.34651316e-02, -2.58234870e-02, 6.95555732e-02,
          1.17339473e-02, -3.21225226e-02, -5.15669137e-02,
          -1.58574451e-02, -2.41962261e-02, 1.46963261e-02,
          3.73913050e-02, -1.31016579e-02, -2.28164974e-03,
          -6.26148209e-02, -1.14850169e-02, -4.92750369e-02,
          -7.47824786e-03, 4.22968678e-02, 3.57616283e-02,
          -7.93612748e-03, 3.67924683e-02, -3.47148366e-02,
          6.57186937e-03, 2.59342156e-02, -2.30224300e-02,
          4.23392653e-02, -5.00580408e-02, 4.32309993e-02,
          -8.58328789e-02, -2.86182705e-02, -7.26248473e-02,
          6.52357489e-02, 1.80804208e-02, 2.69247661e-03,
          -3.13526392e-02, 1.81015674e-02, -8.24465789e-03,
          -5.84495775e-02, -4.08277437e-02, 3.91347818e-02,
          1.39835319e-02, 1.73185170e-02, -4.45979238e-02,
          -4.38611470e-02, 2.79800463e-02, 3.35776061e-02,
          2.42616609e-02, 4.06349041e-02, 4.34375033e-02, 2.67862733e-02,
          -4.27488126e-02, -2.65903007e-02, 3.36161666e-02,
          -3.23757790e-02, 2.50293333e-02, -6.34790882e-02,
          -3.57787986e-03, -3.61522995e-02, 9.88472179e-02,
          3.60243134e-02, 8.45665857e-03, 3.75349112e-02,
          -4.16923985e-02, 4.35306598e-03, 3.07068154e-02,
          3.30245905e-02, 6.32157773e-02, -5.19041019e-03,
          4.90702689e-02, -1.69828981e-02, -3.75357047e-02,
          -2.48021670e-02, 5.45558780e-02, 1.17721492e-02,
          -1.33966915e-02, -5.02502061e-02, -3.87874059e-02,
          -2.35184263e-02, 3.30329426e-02, -8.30476582e-02,
          -8.26918893e-03, -7.09238788e-03, -7.93144573e-03,
          -2.51713954e-02, -7.17336982e-02, 1.36034703e-02,
          4.48996238e-02, 3.33800055e-02, 3.41107026e-02,
          -1.24601148e-01, 1.99664175e-03, 7.89675582e-03,
          -2.74047107e-02, -4.05735038e-02, 5.50544895e-02,
          2.68301065e-03, 8.75564758e-03, 9.76186304e-04,
          -9.86496266e-03, -5.73590677e-03, -1.41103068e-04,
          -1.44316647e-02, 1.01950774e-02, 6.12256397e-03,
          3.72258276e-02, 2.55023725e-02, 4.05530259e-02,
          -8.59081838e-03, 6.62870929e-02, 1.25620198e-02,
          4.16229554e-02, -5.93561563e-04, 2.46833973e-02,
          4.81633320e-02, -2.62312889e-02, 8.25062022e-03,
          1.03958175e-01, -5.31717464e-02, -4.83220294e-02,
          -3.67743000e-02, -3.21920775e-02, -1.81195568e-02,
          1.53102726e-02, 1.82904210e-02, 2.76814904e-02,
          -6.05335878e-03, -1.30420355e-02, 2.20047939e-03,
          -1.06405411e-02, 1.35682970e-02, -3.92157957e-02,
          6.98088929e-02, 1.31293207e-01, -1.49051342e-02,
          -4.88000624e-02, 4.58189286e-02, 1.62375942e-02,
          -6.14765547e-02, 3.78535851e-03, -2.53110658e-02,
          -1.95069760e-02, -3.44598554e-02, 4.03163135e-02,
          1.17693812e-01, 3.03980336e-02, 5.03131673e-02, 1.53145958e-02,
          -3.75019573e-02, -8.88207853e-02, -5.56645636e-03,
          1.93131566e-02, 1.27232205e-02, 1.66884977e-02, 4.99598160e-02,
          -9.40910977e-05, -1.46302627e-02, -2.25387625e-02,
          -3.11979353e-02, -1.89476348e-02, -7.15723261e-02,
          -3.44553925e-02, -7.38547146e-02, -2.10997816e-02,
          -6.46139681e-02, -3.57980803e-02, -4.81670769e-03,
          4.57677916e-02, -2.92537138e-02, -3.77643108e-02,
          1.51551152e-02, -1.76657317e-03, 3.25085483e-02,
          -3.81623879e-02, 3.03199030e-02, 1.63088739e-02,
          -6.89026937e-02, -1.56825949e-02, -5.77780679e-02,
          4.49077599e-03, 5.35267033e-03, -3.45481224e-02,
          -2.69896295e-02, -5.63452318e-02, -4.90418337e-02,
          4.92304899e-02, 4.37896699e-03, 5.75157143e-02, 5.25728390e-02,
          -7.25124553e-02, 2.29507312e-02, 2.50223000e-02,
          -2.13973578e-02, -1.01038394e-02, 4.72104773e-02,
          3.20086703e-02, 1.36015750e-02, -2.51361579e-02,
          -2.17614342e-02, 1.39013035e-02, 1.66389197e-02,
          -1.39591936e-03, 1.32007105e-02, -9.27961711e-03,
          2.96660792e-02, 8.29752162e-02, -1.65554825e-02,
          -5.40316030e-02, 6.66999966e-02, 1.93270333e-02,
          -1.79434288e-02, -1.45098707e-03, -3.57055329e-02,
          -3.44587862e-02, 2.75809970e-02, 2.30004657e-02,
          6.30510878e-03, 8.59282762e-02, 4.57149148e-02, 7.51403486e-03,
          -3.31142992e-02, -2.44933134e-03, 1.99342016e-02,
          -3.24127614e-03, -2.88324431e-02, -6.90255538e-02,
          3.12848873e-02, -2.00759601e-02, 1.35894818e-02,
          4.43267189e-02, 2.11339053e-02, 3.14078032e-04,
          -2.85398457e-02, -6.28139079e-02, -5.31286709e-02,
          8.38503763e-02, 5.38055338e-02, 2.38766037e-02, 1.85135249e-02,
          1.54723031e-02, 3.39087844e-02, 6.09252639e-02,
          -2.82046385e-03, -4.54800203e-03, 3.53616476e-02,
          1.03656938e-02, 9.13768914e-03, 1.60606895e-02,
          -1.00432849e-02, -3.23231332e-02, -5.69258258e-03,
          3.30084302e-02, 4.09490652e-02, 1.85655300e-02,
          -1.51364133e-02, 4.51604202e-02, -1.32324994e-02,
          2.96850465e-02, -9.77649614e-02, -6.26701862e-02,
          -2.86456589e-02, -5.02661616e-02, 7.74821267e-02,
          -1.01889782e-02, 3.30004431e-02, 3.35422754e-02,
          8.12604278e-03, -8.32941681e-02, -6.04631193e-03,
          1.74141563e-02, -3.18062268e-02, 9.66470689e-03,
          -6.81842566e-02, 3.63903237e-03, 4.88232635e-02,
          -6.03589928e-03, -5.12659252e-02, -2.15458367e-02,
          -4.76382971e-02, 6.31651375e-03, -1.52605139e-02,
          -5.42775169e-02, -3.19719734e-03, -1.72959324e-02,
          -6.10610843e-03, 4.02888432e-02, 1.22171752e-02,
          7.80794844e-02, -3.04100513e-02, -2.53227632e-03,
          -3.05558667e-02, 3.83193456e-02, -3.05794757e-02,
          5.04107913e-03, -4.10987176e-02, -1.51740154e-03,
          -2.04885472e-03, -1.57665822e-03, -3.63491513e-02,
          6.25189953e-03, 1.49190510e-02, -5.73621318e-03,
          5.99196143e-02, -5.90425357e-03, 1.57998819e-02,
          -5.07916398e-02, 9.28344112e-03, -3.27497236e-02,
          -1.94474999e-02, 4.45967466e-02, 6.66668564e-02,
          -1.88095979e-02, 3.15974727e-02, -4.13138196e-02,
          -7.60069489e-03, 9.17027295e-02, 2.07969584e-02,
          -3.21785994e-02, 3.44089903e-02, 2.06330102e-02,
          1.51395295e-02, -1.80856185e-03, -1.42492857e-02,
          -3.21036465e-02, -2.31393240e-02, -1.11876251e-02,
          -4.65154648e-02, 4.89029624e-02, 5.04860803e-02,
          4.72004176e-04, -3.53034846e-02, 9.76788346e-03,
          1.54545316e-02, -1.03072532e-01, -1.75727531e-02,
          -8.57600663e-03, 5.30122817e-02, 4.07353416e-02,
          -6.62116380e-03, -3.29551436e-02, -1.00031635e-02,
          -3.94259393e-02, 3.79843563e-02, -8.75644386e-03,
