%YAML:1.0
category: jacket
classifier: !!opencv-ml-svm
   svm_type: C_SVC
   kernel: { type:LINEAR }
   C: 5.0000000000000000e-01
   term_criteria: { epsilon:2.2204460492503131e-16, iterations:1000 }
   var_all: 7560
   var_count: 7560
   class_count: 2
   class_labels: !!opencv-matrix
      rows: 1
      cols: 2
      dt: i
      data: [ 0, 1 ]
   sv_total: 1
   support_vectors:
      - [ 2.80947406e-02, 3.04158218e-02, 6.16972782e-02,
          -5.79458363e-02, 1.52737396e-02, -6.45358339e-02,
          3.50038009e-03, 4.10460196e-02, 1.79747604e-02, 2.45660655e-02,
          7.32357726e-02, 7.08259121e-02, -4.60302504e-03,
          2.56561227e-02, -9.03907698e-03, -1.14737554e-02,
          4.60705198e-02, 1.07224295e-02, -8.50892998e-03,
          2.49716174e-02, 1.36560379e-02, -3.83290723e-02,
          4.34058309e-02, -1.71166584e-02, 4.92013544e-02,
          8.29676166e-02, 6.61241263e-02, -6.69938624e-02,
          2.12951954e-02, -8.28231312e-03, -5.23619726e-02,
          -7.14905038e-02, 2.98052896e-02, 3.09951864e-02,
          4.08730842e-03, 4.61576544e-02, 6.24946028e-04, 5.58375865e-02,
          2.83337198e-02, 1.41454162e-02, -3.79542559e-02,
          -3.91759984e-02, -6.74755126e-02, 9.59274266e-03,
          3.84966321e-02, 3.23944092e-02, -5.07932156e-02,
          -8.30380097e-02, 2.67500598e-02, 1.03270486e-02,
          2.67171115e-02, 1.81427095e-02, 1.21018484e-01, 4.16613817e-02,
          -4.52046581e-02, -2.25904845e-02, 7.31777819e-03,
          -2.25153770e-02, -8.94214138e-02, 2.54645175e-03,
          -1.28406495e-01, -1.04558520e-01, -7.18111768e-02,
          3.98251861e-02, 1.22783100e-02, -6.98387399e-02,
          -1.72659401e-02, -3.58244032e-02, 6.33841753e-02,
          -1.41029745e-01, -2.52631586e-02, 1.09541905e-03,
          -1.02745732e-02, -6.69464469e-02, -6.47168681e-02,
          -1.25509109e-02, -6.04086230e-03, 7.10336398e-03,
          -1.06240185e-02, 9.51266959e-02, -2.80432999e-02,
          -2.87079066e-03, -7.45695643e-03, -4.01846729e-02,
          -1.27448533e-02, 1.17401509e-02, 1.49717852e-02,
          -2.47965790e-02, 6.09922744e-02, -9.28990394e-02,
          -2.14997847e-02, 3.34301293e-02, -7.88093805e-02,
          -3.08770165e-02, 4.03852239e-02, 5.53800985e-02,
          -4.34641466e-02, 2.74424627e-02, -1.08297477e-02,
          1.17701674e-02, -2.03745626e-02, -9.84916911e-02,
          -2.20194787e-01, -2.29842197e-02, -2.39970558e-03,
          -5.02882823e-02, 6.26804009e-02, -4.96469401e-02,
          2.68227961e-02, -1.94893386e-02, 1.41774686e-02,
          5.88383973e-02, 1.38988838e-01, 6.79140538e-02, 4.09585871e-02,
          5.59308343e-02, 3.14634219e-02, -8.37561339e-02,
          -2.10017413e-02, 1.35414414e-02, -3.91366147e-02,
          1.35944812e-02, 1.97604820e-02, 2.70874910e-02, 6.64717332e-02,
          2.72292644e-03, 1.69165377e-02, 1.51794543e-02,
          -9.19972733e-02, -3.50389592e-02, 1.31874204e-01,
          4.29494493e-02, 2.00200956e-02, 1.28498867e-01, 1.86179057e-02,
          1.82854049e-02, 5.93026206e-02, 6.69702664e-02,
          -1.07804332e-02, -1.01406276e-02, -1.47503223e-02,
          3.21754739e-02, 1.01231568e-01, 6.91936910e-02,
          -1.28039360e-01, -2.58791391e-02, 2.63526570e-02,
          -2.27707047e-02, 5.80417365e-02, 1.21866178e-03,
          5.46265729e-02, 6.84466809e-02, 6.99624559e-03,
          -8.24489668e-02, -1.61223370e-03, -2.38794312e-02,
          1.35147441e-02, -2.39092540e-02, -6.62707761e-02,
          8.61592740e-02, 5.91523610e-02, 6.21936060e-02, 2.36092489e-02,
          9.87594947e-02, 1.06047362e-01, 3.40432152e-02, 5.98503537e-02,
          3.88583690e-02, 9.07011703e-02, 8.29804689e-02, 4.49325927e-02,
          -3.71965468e-02, 3.54409181e-02, 2.12615300e-02,
          3.64792012e-02, 4.67599509e-03, 2.44088080e-02, 1.59135818e-01,
          3.66819389e-02, 6.82691857e-02, -5.37784025e-02,
          -3.00164483e-02, -3.89977992e-02, 2.13410519e-02,
          8.48341640e-03, -7.41100088e-02, 2.23380961e-02,
          1.42812133e-02, 3.02139875e-02, 9.02017870e-04,
          -4.90024593e-03, 6.66439952e-03, 5.39455861e-02,
          4.80909348e-02, -2.91160215e-02, 3.02742422e-03,
          5.14404997e-02, 6.20774180e-02, -2.55977642e-03,
          6.15283661e-02, -1.47715807e-02, -4.38936837e-02,
          5.59474109e-04, -3.91055383e-02, 7.64582977e-02,
          4.98344637e-02, 4.89613377e-02, -1.26997903e-02,
          1.79447457e-02, -3.96485701e-02, 4.88386862e-02,
          -4.03100103e-02, -7.88484216e-02, -3.43579203e-02,
          1.51507501e-02, 1.98711306e-02, -7.56218061e-02,
          -1.18014537e-01, -1.92765445e-02, 2.06104368e-02,
          -1.16778620e-01, -1.85596713e-04, 3.67947221e-02,
          1.30038252e-02, 2.20767092e-02, 3.19047645e-02,
          -1.43557057e-01, 1.00416569e-02, 3.06330901e-02,
          -1.40386209e-01, 5.06676063e-02, 7.59379640e-02,
          -1.80016831e-02, 9.30711031e-02, -2.92976778e-02,
          -4.32615578e-02, 5.82540315e-03, 7.34205395e-02,
          -5.21249585e-02, -1.16845593e-02, 3.14617380e-02,
          7.04800040e-02, 8.89931917e-02, -5.93645312e-02,
          -4.69290800e-02, 5.01292609e-02, 5.04759438e-02,
          -2.48800032e-02, 4.39120978e-02, 5.73027730e-02,
          6.23123832e-02, 1.25151465e-03, -1.41662173e-02,
          -5.97649403e-02, -5.27721792e-02, -3.08711343e-02,
          -5.45221455e-02, -7.85736665e-02, -1.39610814e-02,
          -4.26884592e-02, -3.31817493e-02, 4.32091318e-02,
          -3.13456357e-02, -1.67432547e-01, -4.10012230e-02,
          3.17079462e-02, -8.11326951e-02, -8.11380297e-02,
          -6.31070063e-02, -4.06956412e-02, -3.25614922e-02,
          -7.24753551e-03, -2.56750919e-02, -8.96960050e-02,
          -1.02243476e-01, -3.52874026e-02, 4.74930108e-02,
          2.00577714e-02, -4.48012948e-02, 1.11328866e-02,
          -2.71205436e-02, -1.04489475e-02, 1.50275715e-02,
          5.95356897e-02, -3.63213643e-02, 7.23901466e-02,
          -1.67836994e-02, 9.27294418e-03, 1.20761991e-02,
          -6.17396422e-02, -1.31556451e-01, -5.85356578e-02,
          3.28043010e-03, -9.85092744e-02, -1.63600240e-02,
          -1.92635693e-02, -8.79929587e-02, -4.57080938e-02,
          -5.14862128e-03, -4.97597791e-02, -4.39618640e-02,
          1.11340526e-02, -7.43695796e-02, 1.47330994e-02,
          -2.81860810e-02, -7.35234562e-03, 8.67201714e-04,
          -2.80851852e-02, -8.14469252e-03, -2.60734335e-02,
          5.95207401e-02, -8.55239034e-02, 5.15816168e-07,
          -3.47671472e-02, 5.39473910e-03, 1.19050639e-02,
          1.86579898e-02, 4.52346634e-03, 2.37806328e-02, 5.60253747e-02,
          -2.34586727e-02, 3.65790538e-02, 2.83134840e-02,
          8.40859115e-03, -5.27084023e-02, 2.42437050e-02,
          -3.77644561e-02, 5.36473794e-03, -1.88633371e-02,
          -1.62016563e-02, 2.28641815e-02, -3.94942984e-02,
          -1.70284752e-02, -1.39002539e-02, -3.82769224e-03,
          7.31683057e-03, 1.03338268e-02, -7.13944957e-02,
          6.21321388e-02, 1.83908008e-02, 1.82195548e-02, 8.91425833e-03,
          3.06568146e-02, 2.10614055e-02, -2.44471189e-02,
          8.55417252e-02, -2.76080109e-02, 2.47530080e-02,
          3.19334008e-02, 2.31280667e-03, -3.40909138e-02,
          1.45910345e-02, -1.86698604e-02, -1.07603438e-01,
          6.56082630e-02, -6.34482652e-02, 3.84401381e-02,
          3.46398950e-02, 4.30648401e-03, -6.30534440e-02,
          -4.05899025e-02, -2.40840800e-02, 7.00132642e-03,
          -3.99955660e-02, -1.16817176e-01, 7.78184459e-03,
          -3.07598338e-02, -2.11160723e-02, 3.15835699e-02,
          -2.24731732e-02, -4.22428697e-02, -3.23759355e-02,
          -3.20861153e-02, 4.95029353e-02, -3.27468999e-02,
          -5.42495474e-02, -4.72033769e-02, 5.40971309e-02,
          -2.22308785e-02, -4.27271947e-02, -9.03959498e-02,
          1.48833338e-02, -1.39914200e-01, 8.04920122e-03,
          2.17612647e-02, 7.09968135e-02, 4.57282551e-02,
          -1.63414776e-02, 8.83690268e-03, 2.83383075e-02,
          -3.29295942e-03, 6.61738515e-02, 1.85035057e-02,
          7.11079165e-02, 8.09313431e-02, 4.37003486e-02,
          -1.73363965e-02, -6.85215816e-02, 2.20702142e-02,
          1.57912672e-02, 3.34934220e-02, -5.62837049e-02,
          -9.17654410e-02, -5.84373772e-02, 1.60449706e-02,
          1.42173804e-02, -3.16925049e-02, -3.40737822e-03,
          3.62357963e-03, 6.35969043e-02, -6.69099018e-02,
          -4.61277477e-02, -4.45777038e-03, 4.44970205e-02,
          -2.11033616e-02, -4.40170653e-02, 1.13985203e-02,
          -8.62257183e-02, -4.03901003e-03, -7.64735043e-02,
          -5.74906096e-02, 7.11207604e-03, -8.26783199e-03,
          -7.62694553e-02, -1.24059105e-02, -6.01295149e-04,
          -1.56565756e-01, -8.10829997e-02, -1.03034072e-01,
          -7.51252472e-02, -8.09482648e-04, -9.05900374e-02,
          -3.98670398e-02, -2.70763282e-02, -1.59023311e-02,
          1.08795159e-03, -2.39581615e-02, -5.61751947e-02,
          -6.48984173e-03, 8.53171200e-02, 2.41940059e-02,
          -9.48433131e-02, -2.15321761e-02, 1.88849699e-02,
          2.75785271e-02, -3.70498374e-02, -5.52657200e-03,
          8.70522810e-04, -5.68937929e-03, -1.21954139e-02,
          -7.67619256e-03, 3.11735682e-02, 2.31641158e-02,
          -8.08592886e-02, -7.73576871e-02, -1.03494994e-01,
          -7.56330416e-02, 1.17668277e-02, -4.65556271e-02,
          3.40545736e-02, 7.48599246e-02, 7.62359649e-02,
          -1.92300715e-02, 4.18914109e-03, -3.12484391e-02,
          -7.30954856e-02, -8.29074066e-03, 5.18158637e-03,
          -1.01157002e-01, -1.44004915e-02, 6.64256234e-03,
          3.65760326e-02, -2.57073399e-02, -1.49377044e-02,
          2.60283463e-02, -2.77539026e-02, -5.34983873e-02,
          -5.60695641e-02, 1.56244319e-02, -1.83681175e-02,
          -3.74485389e-03, -5.05465716e-02, 2.19335500e-02,
          2.39808857e-02, -1.00217313e-01, -8.11513662e-02,
          2.35779211e-02, -6.34696009e-03, 4.19724500e-03,
          -5.01789004e-02, 1.41993212e-02, -2.71348190e-02,
          1.36253927e-02, 4.57781889e-02, 5.44834919e-02,
          -4.52250652e-02, 4.61382187e-05, -6.07447103e-02,
          -1.12047799e-01, -2.51850411e-02, -1.81354620e-02,
          -3.14102601e-03, -2.60062348e-02, 1.75101049e-02,
          -1.71821453e-02, 8.11704248e-03, -3.23891193e-02,
          1.07787959e-02, 2.70229150e-02, 9.69072282e-02, 1.16257876e-01,
          -2.65719555e-02, -5.19509166e-02, -7.75520727e-02,
          -4.07405980e-02, -3.18229795e-02, -5.19163050e-02,
          -7.11050555e-02, -2.44419072e-02, 1.15013691e-02,
          -9.14259404e-02, -5.99116180e-03, 1.06796585e-02,
          3.73964794e-02, 7.68772978e-03, -1.08809592e-02,
          3.05812471e-02, 1.66094918e-02, 6.09582029e-02, 4.44743270e-03,
          2.52399640e-03, 5.99722303e-02, 3.33914310e-02, 9.02820495e-04,
          -2.31540930e-02, -5.90915605e-03, -8.42691138e-02,
          -8.48615468e-02, -9.52500328e-02, 6.44303560e-02,
          -2.32259948e-02, -1.95868593e-03, 8.87855589e-02,
          3.85236666e-02, 2.30004005e-02, 1.48941362e-02, 3.97792011e-02,
          3.70720811e-02, -3.34111452e-02, -8.72142389e-02,
          -5.14938645e-02, 5.17722256e-02, 4.18754220e-02,
          -2.61530578e-02, 5.76392524e-02, 7.11758509e-02,
          2.65989080e-02, -2.84558740e-02, -4.56902459e-02,
          -1.01359889e-01, 1.01564694e-02, -4.78923731e-02,
          -2.98752766e-02, -8.46060663e-02, -3.70115675e-02,
          -2.14305203e-02, 3.73063311e-02, -1.09999709e-01,
          -1.61054343e-01, -8.78244359e-03, -6.41126931e-02,
          -2.96541285e-02, -1.90096833e-02, 4.80061164e-03,
          -4.82840464e-02, 6.31126612e-02, -8.68589282e-02,
          -2.65485570e-02, 3.63548063e-02, -3.15408669e-02,
          -4.58539389e-02, 4.56882790e-02, 3.36802974e-02,
          -9.72592365e-03, -2.00732835e-02, -3.00704744e-02,
          7.78046960e-04, 1.86086409e-02, -8.45672190e-03,
          -8.50148220e-03, 5.73150478e-02, -1.50578897e-02,
          1.10900979e-02, -1.24278851e-03, -7.39886612e-02,
          -1.25845954e-01, -4.51158881e-02, -1.04957595e-01,
          -7.65046477e-02, 8.57780799e-02, 9.05005261e-02,
          -1.30328406e-02, -1.61921307e-02, -1.34440651e-02,
          -8.94419178e-02, -7.88597297e-03, -3.22368443e-02,
          -9.00859945e-03, -3.23148631e-02, 1.27775092e-02,
          -8.04007649e-02, -2.34443825e-02, 3.88687551e-02,
          8.90056938e-02, -1.86776798e-02, -2.55861636e-02,
          7.14563206e-02, 4.45371345e-02, 3.27669922e-03, 1.36092771e-02,
          4.23906632e-02, 6.63890084e-03, -2.31256727e-02,
          -1.00386195e-01, -1.38086423e-01, 5.74316084e-03,
          2.17781849e-02, -2.86847148e-02, 6.64920220e-03,
          -4.31943387e-02, 1.35356374e-02, -1.91956647e-02,
          -9.93830040e-02, 1.07722096e-02, 8.90102610e-02,
          2.28219535e-02, -1.89844556e-02, -1.54192327e-03,
          1.50848087e-02, 4.32835110e-02, -5.05556054e-02,
          -4.54744436e-02, -8.58051702e-02, -4.33074906e-02,
          3.72182168e-02, 2.67151054e-02, -3.13819293e-03,
          -5.86743429e-02, 1.60749964e-02, -2.08876878e-02,
          -5.03223278e-02, -4.38275374e-02, 7.86171705e-02,
          4.19897698e-02, -1.16952220e-02, -8.71673226e-03,
          -1.53926043e-02, -1.31420221e-03, 2.31123790e-02,
          2.56161317e-02, 2.59620920e-02, 7.24329650e-02, 2.86981277e-02,
          3.59182656e-02, 2.92291157e-02, -2.04245583e-03,
          7.70100132e-02, 9.01669916e-03, 1.50605403e-02, 4.25227322e-02,
          2.44317614e-02, 3.97594608e-02, 1.52103798e-02, 3.39169800e-02,
          1.82164311e-02, 4.61362824e-02, -6.82033673e-02,
          -4.71155457e-02, -4.03428748e-02, 9.09151882e-03,
          -6.22284152e-02, -9.53486934e-03, 1.27732856e-02,
          3.43554877e-02, -7.82205015e-02, 3.77831347e-02,
          -1.73578821e-02, -5.79996675e-04, 6.62843809e-02,
          7.11668730e-02, 1.02061845e-01, 4.88078818e-02,
          -1.05136149e-01, 2.36054938e-02, -6.58244640e-02,
          -7.42574632e-02, 1.89826004e-02, 5.65052815e-02,
          6.57425523e-02, 1.86012670e-01, 6.63040951e-02,
          -1.76996109e-03, -5.61357401e-02, -5.38760722e-02,
          -1.09840587e-01, -5.42585924e-02, 4.52529863e-02,
          1.92249572e-04, 4.45188396e-02, 3.56210358e-02,
          -7.60342479e-02, 3.57222110e-02, -4.01412770e-02,
          -9.52798501e-03, 2.35295687e-02, 4.66289595e-02,
          -1.80819340e-03, 8.73718634e-02, 1.01083227e-01,
          6.88429549e-02, -4.48277742e-02, -7.33353719e-02,
          -1.59867108e-02, -9.30246189e-02, -2.60944385e-02,
          -5.24196997e-02, 5.99885881e-02, -8.34648311e-02,
          -1.01909667e-01, -5.36021478e-02, -3.29536386e-02,
          -3.23325023e-02, -2.14646664e-02, -8.63079429e-02,
          -5.18916920e-02, -5.26318215e-02, -1.03325352e-01,
          -5.86478524e-02, -6.56000338e-03, -2.18308475e-02,
          7.10870465e-03, 3.04802563e-02, 2.76054461e-02,
          -6.13687187e-02, 4.10538027e-03, -2.48024836e-02,
          -7.10758963e-04, 2.66305003e-02, -3.55611928e-02,
          -6.41496629e-02, 2.95640174e-02, -6.69888109e-02,
          -5.30095398e-02, -8.48248601e-03, -5.95896132e-02,
          4.04027104e-02, -8.60251784e-02, -6.78434521e-02,
          -3.38177979e-02, 1.99776758e-02, -1.00708097e-01,
          -1.07600279e-02, 8.62453319e-03, -3.79884169e-02,
          -1.80902034e-02, -5.59271052e-02, -5.51823452e-02,
          1.32497735e-02, -4.54168878e-02, -2.96688955e-02,
          2.87768766e-02, -1.17784357e-02, 1.11776954e-02,
          -6.82578608e-02, 4.09180811e-03, -3.06499358e-02,
          -6.71324134e-03, -8.16986524e-03, -6.60874844e-02,
          -3.98995057e-02, -6.32611476e-03, -3.35643850e-02,
          4.85964492e-02, -3.09114456e-02, -9.45718735e-02,
          -4.87973019e-02, -7.73603916e-02, -1.60684939e-02,
          -2.01015244e-03, 1.12341379e-03, -4.90659242e-03,
          2.10494292e-03, -5.15487231e-02, -9.64881703e-02,
          1.06591508e-02, -4.97752652e-02, -7.40096569e-02,
          -6.84765875e-02, 3.62890437e-02, -4.32712063e-02,
          -4.89613004e-02, -2.44553350e-02, -1.16759598e-01,
          -2.32141018e-02, 3.61876388e-04, 6.78557679e-02,
          1.31514343e-02, 5.39182983e-02, -4.92761657e-02,
          -2.49797460e-02, -8.42985809e-02, -1.11893184e-01,
          -3.22402976e-02, 1.83537416e-02, -1.45920124e-02,
          -9.18122754e-02, -1.16974078e-02, -6.05238751e-02,
          3.21444571e-02, -4.92990986e-02, -1.21172525e-01,
          -7.27522150e-02, 3.83341163e-02, 3.65444347e-02,
          -3.57654095e-02, -1.63805729e-03, -2.36905627e-02,
          1.58984363e-02, -6.17162995e-02, -5.54443784e-02,
          -6.31477088e-02, -4.48036231e-02, 1.59089435e-02,
          -3.27334628e-02, 2.01919265e-02, -5.99335041e-03,
          -3.92648242e-02, -3.20873298e-02, -6.07136935e-02,
          -7.80328223e-03, -1.97312236e-02, 3.47260237e-02,
          -3.41755990e-03, 1.03329737e-02, 3.13132219e-02,
          4.87702303e-02, -6.42671138e-02, -6.76216111e-02,
          -6.48416653e-02, -1.43033816e-02, -5.30070849e-02,
          -2.47928184e-02, -3.98202538e-02, 2.31140312e-02,
          -6.50630333e-03, -7.58303376e-03, -5.42145893e-02,
          -5.80884889e-02, 4.03036131e-03, -3.16434689e-02,
          -4.86574657e-02, 3.11970524e-02, 7.04885870e-02,
          -2.61846688e-02, -4.49507944e-02, -3.60526703e-02,
          -2.23269119e-04, 6.12998977e-02, 2.55186129e-02,
          -4.77341488e-02, -2.77590659e-02, -1.61996651e-02,
          -2.56788433e-02, -7.01490417e-02, -3.07650492e-03,
          -1.00427486e-01, -1.24563994e-02, -1.33851906e-02,
          1.48110408e-02, -4.94014323e-02, -7.18556792e-02,
          -2.43486017e-02, -1.16556538e-02, 1.02661606e-02,
          -1.11623228e-01, -5.03903516e-02, -6.68496862e-02,
          -1.17099456e-01, 1.30774099e-02, 2.27511451e-02,
          -2.98279058e-02, -1.48665225e-02, -2.30393987e-02,
          -6.23118281e-02, -2.53856983e-02, -1.25992717e-02,
          -4.93808538e-02, -6.00689389e-02, 3.04634627e-02,
          -2.27846429e-02, -5.30004203e-02, -4.39199060e-02,
          -1.10957265e-01, -3.92469428e-02, -6.45150021e-02,
          1.25310436e-01, 4.83956374e-03, -5.34670101e-03,
          2.29582470e-02, -2.34913770e-02, -3.15378373e-03,
          -1.15130208e-02, -5.90651482e-02, 2.04278734e-02,
          7.86098465e-02, 5.03424928e-03, 2.14358028e-02,
          -2.44950559e-02, -3.87346335e-02, -1.04216514e-02,
          -2.06390843e-02, -1.87008325e-02, -3.86969447e-02,
          1.73109374e-03, -3.74812596e-02, -4.15906124e-02,
          5.56870028e-02, -3.86024602e-02, -2.29224041e-02,
          -2.15129890e-02, -6.74757138e-02, 3.85654494e-02,
          -2.21836660e-03, -1.99576914e-02, 5.58398850e-03,
          6.36389926e-02, -3.27958129e-02, -1.02290977e-03,
          4.77204379e-03, -8.11172500e-02, 1.49212573e-02,
          -7.54401740e-03, -4.13621925e-02, -2.47165523e-02,
          -2.63988655e-02, -6.14439920e-02, -2.43222583e-02,
          -2.33088117e-02, -7.70351440e-02, -3.44400071e-02,
          5.05200494e-03, 3.26069817e-03, 1.96205471e-02,
          -3.22993398e-02, -3.08868624e-02, 4.32442762e-02,
          -2.61470340e-02, -5.11135720e-02, 4.39734422e-02,
          4.00127247e-02, 3.32985520e-02, -1.08660534e-02,
          -4.01916616e-02, -4.03577015e-02, 2.23052986e-02,
          -4.00074162e-02, 2.52503832e-03, 4.88585653e-03,
          5.30067720e-02, 2.29052249e-02, 6.24204278e-02, 7.87138008e-03,
          1.89000406e-04, 2.47987136e-02, 1.15618361e-02,
          -2.66952422e-02, -1.78889092e-02, -4.07051109e-02,
          -7.06067234e-02, -4.05242071e-02, -4.33168933e-02,
          1.36893302e-01, 2.82760449e-02, 3.23714316e-02,
          -2.21279282e-02, 7.78761134e-02, 4.13580649e-02,
          -9.27716717e-02, -5.06235808e-02, 5.56289218e-02,
          7.05203507e-03, 1.47084156e-02, -8.66106674e-02,
          -5.26576079e-02, -5.05456068e-02, -1.86401214e-02,
          -4.28299420e-02, 2.06368305e-02, 6.78099692e-04,
          3.87242548e-02, -1.41700059e-02, -3.02431639e-02,
          -1.23463809e-01, 1.22615043e-02, -1.19415140e-02,
          -4.28839959e-02, -3.86795588e-02, -5.17478271e-04,
          5.35574043e-03, -6.52504340e-03, -2.88461205e-02,
          -2.16367841e-02, -1.10174809e-03, 9.89671517e-03,
          -3.71471420e-02, -6.43591280e-04, 1.44717228e-02,
          -2.83302404e-02, -5.61707988e-02, 1.35822082e-02,
          -3.58701274e-02, -4.57092412e-02, 1.69468776e-03,
          -2.22927937e-03, -5.45996008e-03, 1.03527540e-02,
          -1.80151742e-02, -6.19328544e-02, -6.01060800e-02,
          -5.46983369e-02, -2.03508586e-02, 1.52771305e-02,
          3.66128981e-04, -9.61999446e-02, -2.41059363e-02,
          6.40125573e-02, -7.60135278e-02, 1.73955634e-02,
          2.43441132e-03, -3.65872569e-02, -3.01932022e-02,
          5.92004508e-02, -1.19364701e-01, 8.82641897e-02,
          -6.31731227e-02, -6.27936423e-02, 5.14366291e-03,
          -4.47713435e-02, -3.77640091e-02, -1.33777950e-02,
          1.72520317e-02, -3.90706025e-02, 1.98982209e-02,
          -3.10775712e-02, -4.87791486e-02, -6.45109639e-02,
          -6.90662861e-02, 2.53062751e-02, -5.27523942e-02,
          -8.19552168e-02, -9.12205130e-02, -3.83574329e-02,
          4.72340733e-02, -3.02235130e-02, 4.42559458e-02,
          -9.14631784e-03, -3.73605196e-03, -3.76588595e-03,
          4.52964641e-02, -7.63041079e-02, 8.15745592e-02,
          -7.91037008e-02, -5.63002340e-02, -6.36447081e-03,
          -6.99899043e-04, -2.40709912e-02, -2.50342470e-02,
          -1.33885974e-02, -3.30373347e-02, -1.18401051e-02,
          -7.13301403e-03, -4.20498624e-02, 9.41207353e-03,
          4.19019051e-02, 5.68828806e-02, -7.38980696e-02,
          -1.18478583e-02, -2.04394711e-03, 4.94792983e-02,
          -9.02828127e-02, -2.58219019e-02, 8.39215890e-02,
          3.17950621e-02, 6.27683103e-02, -2.80932914e-02,
          -2.44914610e-02, -2.00000070e-02, -5.97399734e-02,
          -8.03392380e-02, -7.27338269e-02, -8.40636939e-02,
          -1.12928562e-01, -3.04625817e-02, -3.09934840e-02,
          3.37886736e-02, 2.18265597e-02, 3.41044292e-02,
          -8.69222656e-02, -8.42439607e-02, -6.89367875e-02,
          -3.83744612e-02, 2.70111300e-02, -9.14898366e-02,
          -2.14633197e-02, -6.27844781e-02, -1.64098069e-02,
          -6.48979098e-02, -2.74534449e-02, 5.21978848e-02,
          -8.96493532e-03, -2.80811917e-02, 3.78461517e-02,
          7.07910508e-02, -2.14003380e-02, -5.45958951e-02,
          -5.54846972e-02, -8.01555067e-02, -3.67966294e-02,
          1.34447380e-03, -3.66988801e-03, 3.52901034e-03,
          4.97409143e-02, 1.18746012e-02, 3.11213937e-02,
          -3.02681830e-02, -5.69516495e-02, 4.69102152e-02,
          2.86327628e-03, -7.40825385e-02, -1.86243132e-02,
          3.57904769e-02, -1.48375174e-02, -6.15161378e-03,
          -3.95108834e-02, -1.31356105e-01, -8.00861418e-02,
          -7.00184256e-02, -9.49377790e-02, -6.86362013e-02,
          -7.34224916e-02, -6.23777583e-02, 3.85520793e-02,
          3.08085997e-02, -1.28762573e-02, -6.44632131e-02,
          1.28399981e-02, 1.19654827e-01, 5.64957000e-02, 3.91508965e-03,
          1.20284252e-01, 1.09951146e-01, -2.12830603e-02,
          4.99821594e-03, -3.07110641e-02, -7.08035231e-02,
          1.33400401e-02, 6.53281733e-02, 4.74813627e-04, 8.12097639e-02,
          2.37622410e-02, 2.59465426e-02, 1.41763920e-02,
          -5.10088541e-02, -9.22200643e-03, 1.85084492e-02,
          3.52859534e-02, -3.81168425e-02, 7.57565349e-02,
          9.87732634e-02, -3.91767286e-02, 1.35997673e-02,
          -5.18961251e-02, -2.59625283e-03, -3.14810649e-02,
          3.88284288e-02, 3.55166309e-02, 4.48696651e-02,
          -1.22985188e-02, -2.07639001e-02, 2.78307181e-02,
          1.20015956e-01, 1.39736440e-02, 1.07830212e-01, 1.55850733e-02,
          -1.66970156e-02, 5.82377100e-03, -5.27155958e-02,
          2.95720506e-03, -4.58260141e-02, 2.56856494e-02,
          -3.63424420e-02, 1.20868005e-01, -8.75904858e-02,
          -8.41620262e-04, -4.07840163e-02, -6.07566582e-03,
          5.42185567e-02, -1.39059247e-02, -6.74950108e-02,
          -3.30394320e-02, 3.44451778e-02, -4.65524942e-02,
          1.72019731e-02, -9.53023694e-03, 9.86925419e-03,
          7.60588422e-02, -1.31662050e-02, -3.99436541e-02,
          -7.73070082e-02, 4.78291214e-02, -1.08216964e-01,
          -8.47509801e-02, -1.25051825e-03, 4.28931341e-02,
          -7.38856047e-02, -1.22655921e-01, -1.18002623e-01,
          -8.09028223e-02, -9.58329719e-03, -5.42272627e-02,
          -1.71414937e-03, -1.05829351e-02, -6.77603036e-02,
          -5.30952727e-03, -4.73177247e-03, 1.06613506e-02,
          5.11572435e-02, 7.51767540e-03, -4.19875383e-02,
          -1.71114635e-02, 1.25230784e-02, -3.02871224e-02,
          3.55560426e-03, -1.03423297e-01, -1.53371664e-02,
          -4.15531844e-02, -4.57503237e-02, -8.22893307e-02,
          -3.51950750e-02, 3.98113616e-02, -7.06580058e-02,
          7.05647841e-02, 3.68208736e-02, 6.73694909e-02, 9.35760047e-03,
          -7.67449439e-02, -1.10158429e-01, -3.77058494e-03,
          8.63648430e-02, -2.44367421e-02, -8.39034021e-02,
          2.73155905e-02, -5.82592674e-02, 7.21926764e-02,
          7.56475627e-02, -1.00230761e-01, -4.91985716e-02,
          -3.22796889e-02, -1.15019538e-01, -2.18576491e-02,
          5.80807887e-02, -3.18102278e-02, -1.80117786e-02,
          5.41548692e-02, -7.94463009e-02, -3.94066088e-02,
          -5.40484488e-02, -1.53463250e-02, -7.11142495e-02,
          9.94943548e-03, -4.33326028e-02, -4.07632999e-02,
          1.81559715e-02, -9.51887295e-02, 1.63609777e-02,
          1.72723420e-02, -1.24431580e-01, -2.02092454e-02,
          1.94736216e-02, -1.06831267e-01, -1.12453736e-01,
          -4.96491715e-02, -1.27197415e-01, -4.09209076e-03,
          1.25029292e-02, -1.06560133e-01, -5.69165461e-02,
          -4.38861363e-02, 6.20538788e-03, -3.84249240e-02,
          -1.19601539e-03, -4.51621190e-02, 2.17894651e-02,
          -1.09464228e-02, 4.01411485e-03, -8.25038850e-02,
          -1.22772358e-01, -3.87918428e-02, -9.22720283e-02,
          1.92472767e-02, 1.96374096e-02, -2.29819794e-03,
          -6.29168451e-02, -6.80987723e-04, -2.62035951e-02,
          -3.77023499e-03, -8.16650540e-02, -6.01238236e-02,
          -2.77204923e-02, -5.84961846e-02, 6.05231337e-02,
          6.95115328e-02, -8.98336619e-03, -6.67482913e-02,
          -1.86445881e-02, -5.80402240e-02, -7.54955336e-02,
          -2.90884413e-02, -2.14832090e-02, 3.27345617e-02,
          -2.11376022e-03, -8.44061822e-02, -8.65106657e-02,
          -8.64597112e-02, -3.86792161e-02, -4.81738783e-02,
          7.86201507e-02, -3.60026024e-02, 2.71809823e-03,
          -8.80420282e-02, 3.21312598e-03, -4.84071523e-02,
          -4.59364094e-02, 1.03177652e-02, 5.29939216e-03,
          9.27155912e-02, -8.59269872e-02, 1.22195520e-02,
          -1.86082497e-02, -7.53119141e-02, -6.96335956e-02,
          -7.54254460e-02, -1.13758914e-01, -6.77715391e-02,
          3.59564386e-02, -5.85835688e-02, 1.42259700e-02,
          -5.03887683e-02, -1.08779572e-01, -2.76822243e-02,
          -7.90765043e-03, 2.61302721e-02, -3.55906710e-02,
          9.49379429e-02, -1.11700162e-01, -1.63774658e-02,
          1.30024171e-02, -1.34413242e-01, -1.23796105e-01,
          -3.94955166e-02, -9.15672630e-02, -5.48455119e-02,
          2.65218150e-02, -1.16147056e-01, -9.15885940e-02,
          3.88013991e-03, -7.23954141e-02, -4.92932573e-02,
          -4.56573255e-02, -6.78940117e-02, -2.96491776e-02,
          8.16143528e-02, -3.64685580e-02, 1.40610049e-02,
          4.42465357e-02, -2.55891122e-02, -8.55776444e-02,
          3.05875931e-02, -1.28748408e-02, -5.75444400e-02,
          1.08106084e-01, -6.81473538e-02, 8.07921344e-04,
          5.83043806e-02, -8.87418836e-02, -5.94148524e-02,
          4.01644297e-02, -3.88383307e-02, -5.02134822e-02,
          5.61997667e-02, 1.17854739e-03, 4.11651023e-02, 3.69625129e-02,
          -5.64471893e-02, 1.23927207e-03, -1.67372655e-02,
          -6.51288852e-02, -7.42569566e-02, 7.11696893e-02,
          -3.99644971e-02, 9.81263351e-04, -3.36812995e-02,
          -6.09892309e-02, 4.08298746e-02, 3.89577597e-02,
          3.56212491e-04, -4.24160175e-02, 6.49107322e-02,
          -4.86223064e-02, -1.23631367e-02, -2.45688260e-02,
          -1.94792151e-02, -3.19954543e-03, -1.71560179e-02,
          -4.21194658e-02, -6.86425045e-02, -3.67823429e-02,
          -7.56616816e-02, -5.44412881e-02, -1.80186313e-02,
          -8.03679004e-02, -2.89107170e-02, 8.86778831e-02,
          -5.32159135e-02, -1.14647269e-01, 5.91012090e-02,
          -7.98069388e-02, -1.92218553e-02, -4.75354716e-02,
          -6.56439960e-02, -1.12514729e-02, 7.03858025e-03,
          4.94316816e-02, 5.75281354e-03, 8.82621575e-03,
          -1.47426846e-02, 2.68682092e-02, 2.13846713e-02,
          1.18779149e-02, -9.41488668e-02, -4.53117751e-02,
          -2.43963990e-02, 4.00331281e-02, 1.10454401e-02,
          -6.05770126e-02, -2.33536474e-02, 3.02827135e-02,
          1.57602970e-02, -8.64107236e-02, 3.01153641e-02,
          -3.86268124e-02, -3.83165255e-02, -2.08176877e-02,
          -9.00747906e-03, 4.27576266e-02, 4.52242605e-02,
          -7.95381591e-02, -1.25413612e-01, 2.83267926e-02,
          -8.48523527e-03, 1.75750703e-02, 8.20082128e-02,
          -9.26270485e-02, 2.79519334e-02, 3.83952968e-02,
          -7.15683475e-02, -7.76620433e-02, -1.09536583e-02,
          -5.64068705e-02, 4.00063172e-02, 4.58567627e-02,
          -3.30854766e-02, -4.95182388e-02, 3.52627225e-02,
          1.80682093e-02, -3.10793929e-02, 1.70939218e-03,
          -4.60172109e-02, 4.21930477e-02, 7.11777993e-03,
          1.45534566e-02, -1.36671038e-02, 1.03130089e-02,
          -1.94968879e-02, -2.29705088e-02, 3.86664309e-02,
          5.25650457e-02, 6.95714056e-02, 6.72511905e-02,
          -8.71418044e-02, 1.18117109e-02, 1.15299355e-02,
          -2.10114326e-02, 9.98699665e-03, -2.28206608e-02,
          2.55189762e-02, 1.53858010e-02, 1.60686970e-02,
          -3.95224094e-02, -1.58913098e-02, -3.48214731e-02,
          -2.69578733e-02, -7.62875052e-03, 3.98251833e-03,
          2.06112713e-02, 6.70884252e-02, 4.91874712e-03, 1.93091277e-02,
          -4.91459481e-02, 6.10753112e-02, -2.82907765e-02,
          4.26691165e-03, -9.75372549e-03, -5.77498414e-02,
          -3.06379832e-02, -1.92675721e-02, -1.13816243e-02,
          -1.67780314e-02, 2.58467551e-02, 3.02486848e-02,
          3.49733047e-02, 6.64591789e-03, -4.04586606e-02,
          3.55676338e-02, 6.98542967e-02, 1.02370058e-03,
          -1.51316682e-02, 1.99259818e-02, 1.13495914e-02,
          -3.73030007e-02, 1.42494254e-02, -5.86362043e-03,
          -3.55948396e-02, 4.69165333e-02, -2.59711239e-02,
          7.16848597e-02, 1.35274110e-02, 5.56331538e-02,
          -3.11359297e-02, -2.20526680e-02, -1.05649242e-02,
          -4.76603806e-02, -2.34047249e-02, 4.39628698e-02,
          5.11052087e-03, -2.99644470e-02, -2.43679038e-04,
          1.82287563e-02, 3.27476636e-02, 5.25439903e-02,
          -2.57919300e-02, 7.24360673e-03, 5.18452004e-02,
          6.43352345e-02, 7.01038027e-03, 2.26478446e-02,
          -1.21740930e-01, -5.59902750e-02, 1.47320293e-02,
          -3.31583954e-02, 8.45308304e-02, 4.29458395e-02,
          5.72745241e-02, 1.18210691e-03, -1.78025141e-02,
          -1.53770940e-02, 6.37134016e-02, 4.86082621e-02,
          -2.33159677e-04, 3.61522920e-02, 4.48167063e-02,
          2.51751896e-02, 5.43894656e-02, -3.10483389e-02,
          -2.27462109e-02, 8.74251779e-03, 9.01466981e-02,
          -1.47762140e-02, -1.00732585e-02, 2.56522316e-02,
          8.98059681e-02, 2.81117037e-02, -1.63987204e-02,
          -2.27907225e-02, -1.13814034e-01, -3.20406444e-02,
          -3.02913263e-02, 8.37601721e-03, 7.09488764e-02,
          5.54325916e-02, 3.81495208e-02, -3.87690365e-02,
          -5.07076904e-02, 6.09164834e-02, 5.83653226e-02,
          -7.44838119e-02, -6.81350455e-02, 1.40007930e-02,
          3.42336558e-02, 7.72043467e-02, -8.57913494e-02,
          4.26088832e-03, -4.25347425e-02, -4.06432636e-02,
          -7.85565525e-02, -1.15877643e-01, -3.93464090e-03,
          3.21762674e-02, 3.93059663e-02, -2.74575353e-02,
          -2.63542887e-02, 3.95800285e-02, -7.11348979e-03,
          -2.85350140e-02, 5.00851013e-02, -5.02148876e-03,
          -9.91844945e-03, -4.45289686e-02, 8.89170822e-03,
          -9.69000533e-02, -9.49038565e-02, -8.84356536e-03,
          -2.32934691e-02, 5.75499050e-02, -4.23864946e-02,
          -9.73086134e-02, -1.10981070e-01, -6.76699821e-03,
          -3.58591937e-02, -2.79939491e-02, 2.00242866e-02,
          -6.42834380e-02, 9.70347300e-02, -1.04915679e-01,
          1.57329831e-02, 7.79274106e-02, 2.24911273e-02,
          -7.38422796e-02, -1.06047906e-01, -4.28194515e-02,
          -2.22086981e-02, 6.96310177e-02, -4.06797417e-02,
          -7.19708279e-02, -4.35379334e-02, 2.97434554e-02,
          -6.48644045e-02, -4.26474437e-02, 5.40018678e-02,
          3.09251044e-02, -4.45469134e-02, -5.55506116e-03,
          -7.38712326e-02, -8.63823295e-02, 3.92791256e-02,
          -9.89782438e-02, -6.33967817e-02, 3.61895259e-03,
          -1.02926288e-02, -6.00298531e-02, -2.13638321e-02,
          -2.67426334e-02, -3.98143195e-02, -1.87466200e-02,
          -9.48556289e-02, -1.01212770e-01, 1.50522264e-02,
          1.13554541e-02, -2.28638593e-02, 2.87392084e-02,
          3.24383713e-02, -1.84085835e-02, 5.51112033e-02,
          -3.53172980e-02, -2.86329519e-02, -2.79774442e-02,
          -1.03785209e-02, -6.48783594e-02, -4.81499322e-02,
          -7.56124109e-02, -5.41025288e-02, 2.00024229e-02,
          3.53359058e-02, -4.98492606e-02, -5.74256107e-02,
          3.84760313e-02, 2.89524365e-02, 4.10920149e-03, 1.09197441e-02,
          8.34189132e-02, 2.89273541e-02, 1.61678363e-02,
          -7.56752938e-02, -2.08233297e-02, 3.79104987e-02,
          -6.08427972e-02, -4.20795679e-02, 4.29127216e-02,
          6.87134266e-02, -4.15393040e-02, 5.49501106e-02,
          -2.92967930e-02, -7.46613145e-02, 2.76102424e-02,
          2.52203108e-03, 4.54681031e-02, 3.98185626e-02, 1.07576273e-01,
          8.92656893e-02, 8.11121333e-03, -5.04633263e-02,
          -2.63561402e-02, 8.14342033e-03, -4.61744927e-02,
          -2.40983590e-02, 4.96738106e-02, 8.13157335e-02,
          4.46794666e-02, 9.29567665e-02, -1.00578265e-02,
          -6.41851500e-02, -4.00888212e-02, 5.70950750e-03,
          -3.05222850e-02, -1.54690286e-02, -2.37892624e-02,
          6.07854780e-03, 6.06953464e-02, 3.54424492e-02,
          -2.04637810e-03, -6.31767660e-02, 9.86101851e-02,
          -7.06367493e-02, -1.11889206e-01, -3.80208604e-02,
          -3.46233249e-02, -5.40971048e-02, 1.43494355e-02,
          6.66968105e-03, 4.67998795e-02, 3.70563492e-02,
          -7.14151412e-02, -7.25037530e-02, -5.77924587e-02,
          -4.53032441e-02, 3.52176055e-02, 2.78678723e-02,
          3.38833802e-03, 7.60632157e-02, 9.76339281e-02,
          -3.12285386e-02, 1.91113399e-03, 1.59594342e-02,
          -6.73315674e-02, -1.12148553e-01, -6.08636513e-02,
          -3.57953273e-03, -4.20064852e-02, 4.90114838e-02,
          -4.22328711e-02, -1.52640343e-02, -1.67668071e-02,
          -7.20915422e-02, -6.12186491e-02, 4.38927673e-03,
          6.29079565e-02, 1.48628196e-02, 2.30240002e-02,
          -4.16890793e-02, 5.79316951e-02, 5.45955896e-02,
          -6.97048753e-02, -7.71017820e-02, -1.09568506e-03,
          7.40266219e-03, -2.16864627e-02, 5.40149473e-02,
          -4.63732518e-03, -1.26088448e-02, -3.81877162e-02,
          -1.04942091e-01, 3.73746976e-02, 8.28979816e-03,
          2.50744894e-02, 3.78531627e-02, 3.74943875e-02, 7.33237714e-02,
          -1.08533055e-02, 1.81464516e-02, -2.20221058e-02,
          -1.05030149e-01, -6.41414663e-04, -1.11227564e-03,
          1.00878510e-03, 1.21383280e-01, -6.67557586e-03,
          2.86642667e-02, 9.91769880e-03, -1.01633608e-01,
          -2.51536630e-02, 2.37736776e-02, -3.86698060e-02,
          -6.94786310e-02, 2.46272553e-02, -5.73486201e-02,
          -1.96360052e-02, -9.58281849e-03, -1.39937282e-01,
          -6.97753206e-03, -4.79422696e-02, 1.95308160e-02,
          1.45963719e-02, 1.09443456e-01, 4.01781350e-02,
          -6.97461069e-02, -1.19431755e-02, -4.01469879e-02,
          -5.50741255e-02, -6.75618425e-02, -6.47624135e-02,
          -4.07061353e-02, 2.67404914e-02, -2.99985651e-02,
          -2.95698270e-02, -5.05470596e-02, -9.81389433e-02,
          1.33772334e-02, 5.29539324e-02, -9.57820099e-03,
          -8.38574395e-02, -3.35547561e-03, -5.35867214e-02,
          6.05737939e-02, -1.01801353e-02, -1.06390774e-01,
          -7.19413310e-02, 3.82248946e-02, -3.53464559e-02,
          -5.71376719e-02, 3.32811512e-02, -4.08140123e-02,
          8.54872763e-02, 1.72480606e-02, -7.44794384e-02,
          -2.11485177e-02, -3.60254683e-02, -1.28930528e-02,
          -3.47013585e-02, -4.34776545e-02, -9.07549113e-02,
          3.25002261e-02, -1.04553411e-02, -3.03551760e-02,
          -3.39388847e-02, 6.19088709e-02, -1.57345608e-02,
          -6.09509349e-02, 3.96913029e-02, -9.28372145e-02,
          5.59359454e-02, -6.37664348e-02, 3.48351081e-03,
          9.76487622e-03, -9.87016782e-03, -4.45997380e-02,
          -7.31444880e-02, 8.51645768e-02, -2.73523759e-02,
          1.20248385e-02, -6.89055771e-02, -1.04257993e-01,
          3.92252579e-02, -6.26582578e-02, -1.41976774e-03,
          -8.24687853e-02, 1.39506489e-01, 2.64738705e-02,
          -2.34387051e-02, -2.82015651e-02, -9.73039120e-02,
          -2.46358328e-02, 3.45678860e-03, -3.53136174e-02,
          -1.31701782e-01, 4.08685356e-02, -6.23152964e-02,
          9.26568173e-03, -6.53542280e-02, -4.18691970e-02,
          1.39407786e-02, 5.96921146e-03, -9.79705434e-03,
          -7.08279535e-02, 3.49953808e-02, -1.83933750e-02,
          -7.71290362e-02, -2.88498979e-02, -6.41655177e-02,
          -1.96750574e-02, -2.40177494e-02, -3.10579892e-02,
          -9.54908580e-02, 8.62724409e-02, -4.18073721e-02,
          -5.35958819e-02, 2.17139386e-02, -6.39744177e-02,
          -1.60247050e-02, 4.69988324e-02, 3.17144953e-02,
          -3.64404432e-02, 8.27529654e-02, -8.52421895e-02,
          -4.64516412e-03, 2.74725165e-02, 3.32573541e-02,
          -9.18462873e-02, -6.38057888e-02, -7.14282170e-02,
          -1.20142095e-01, 2.65487041e-02, -1.24908790e-01,
          -7.30868503e-02, -3.43405046e-02, -1.23315819e-01,
          -7.45282397e-02, -4.49932367e-03, -1.00008156e-02,
          -1.00333467e-01, 3.68771628e-02, -9.14059952e-02,
          -1.71819273e-02, 5.64691909e-02, -4.14838605e-02,
          4.15126383e-02, 1.83689371e-02, -2.99013089e-02,
          -5.60335144e-02, -1.31605845e-02, -9.17583480e-02,
          2.97910031e-02, 2.72038560e-02, -1.24440938e-02,
          9.23577845e-02, 7.48861209e-02, -7.33207762e-02,
          -1.06693655e-01, 5.46435826e-02, -4.43351641e-02,
          -6.49975939e-03, -5.26294634e-02, 3.42890546e-02,
          -5.78590855e-02, 9.45334043e-03, -9.59062949e-02,
          -9.88087356e-02, -1.91698801e-02, -1.20604500e-01,
          2.93255951e-02, -1.56382588e-03, -7.77814686e-02,
          8.22675973e-03, 9.24529955e-02, -6.96627498e-02,
          -1.38270453e-01, -2.28291266e-02, -6.84083551e-02,
          2.67155506e-02, -4.83201962e-04, -8.61834921e-03,
          2.79183388e-02, 3.10251699e-03, -5.10553233e-02,
          -5.13647273e-02, 9.51198861e-03, 1.06819533e-02,
          9.39930230e-03, 6.80405321e-03, 2.63248105e-02,
          -6.39064535e-02, -4.94730547e-02, -6.72208471e-03,
          -4.51667346e-02, 7.03087375e-02, -5.42004295e-02,
          5.76778241e-02, 1.03449486e-01, 3.30954082e-02, 2.39569340e-02,
          2.21564677e-02, 5.54379541e-03, -6.50569648e-02,
          -4.78816815e-02, -2.01158435e-03, 1.59139116e-03,
          -3.34550887e-02, 3.01355943e-02, -3.25507633e-02,
          1.44263674e-02, 4.69209999e-02, 1.74082704e-02,
          -4.57712729e-03, -3.38712037e-02, 4.23740000e-02,
          4.58911359e-02, 1.95942931e-02, -3.18959891e-03,
          -4.82448675e-02, 5.09460717e-02, -1.67471934e-02,
          5.48389331e-02, -7.23981485e-02, 2.35296134e-02,
          4.02624682e-02, 6.53267140e-03, -3.39090824e-03,
          -7.15364218e-02, -4.28122133e-02, -6.15115836e-03,
          1.17206216e-01, -5.08953398e-03, -4.43641357e-02,
          -5.85853718e-02, 4.24949452e-03, -3.57627240e-03,
          4.74443100e-03, 5.99863268e-02, 1.27704963e-02, 4.43660421e-03,
          -6.31017089e-02, 2.75488645e-02, 3.96701023e-02,
          3.35484631e-02, -4.25099060e-02, -4.50991951e-02,
          -8.85604769e-02, 1.20035652e-02, 9.70817879e-02,
          -6.01992337e-03, -4.27860431e-02, 3.43627967e-02,
          -2.04224586e-02, 6.26971386e-03, -4.76274714e-02,
          -1.10569626e-01, -4.33082245e-02, 7.23483190e-02,
          4.72890865e-03, -4.37416695e-02, -2.48414241e-02,
          7.19399974e-02, 2.11625136e-02, -1.41065344e-02,
          -9.65176709e-03, -2.23104823e-02, 2.87987590e-02,
          -5.19366143e-03, 5.58673888e-02, 3.59346569e-02,
          1.57664232e-02, -1.26325246e-02, 1.76545116e-03,
          -1.03366733e-01, -4.65040561e-03, 6.15264885e-02,
          -4.59371619e-02, -4.04562280e-02, 7.23778456e-03,
          2.16501802e-02, 7.55148828e-02, 2.25650836e-02, 5.96801890e-03,
          5.52474800e-03, 8.56984183e-02, -3.71957719e-02,
          2.60339025e-02, -2.72522052e-03, 2.61237454e-02,
          -3.18721011e-02, -5.59068546e-02, -4.64104824e-02,
          -5.54570891e-02, 4.12171036e-02, -2.22412460e-02,
          -5.73079940e-03, -6.01597764e-02, 9.71296337e-03,
          7.61130601e-02, -2.15880983e-02, -4.44356315e-02,
          4.34212899e-03, 4.31433022e-02, 3.04614417e-02, 5.89344045e-03,
          2.56827399e-02, 8.63325223e-02, 5.85070997e-02, 1.92869361e-02,
          4.03989456e-04, -1.51882917e-02, 1.49382651e-03,
          -2.29139086e-02, -1.73099595e-03, -3.79898325e-02,
          1.16180638e-02, 4.10587117e-02, 1.65997501e-02, 3.39084156e-02,
          1.20187663e-02, 3.81934680e-02, 6.16177730e-02, 2.66409013e-02,
          4.74359058e-02, -1.44680450e-02, 5.47158010e-02,
          9.80421714e-03, 8.03746190e-03, -2.71600615e-02,
          -1.61468275e-02, -4.39141355e-02, -2.98200063e-02,
          5.03541902e-02, 1.36030028e-02, 4.65566777e-02,
          -1.35141322e-02, 2.30155047e-02, -1.98679231e-02,
          -6.38381317e-02, -8.30577090e-02, -9.69104320e-02,
          4.50218618e-02, -2.27970397e-03, 8.95682443e-03,
          -6.23955280e-02, 4.71203588e-03, 3.23850475e-02,
          3.45119238e-02, -4.67856042e-02, 4.49574552e-02,
          6.48029223e-02, -3.76497917e-02, 4.16706018e-02,
          -7.09889010e-02, -1.26593374e-02, -6.06886782e-02,
          -2.29647337e-03, -7.48618767e-02, -1.16928890e-02,
          2.97624394e-02, -1.40603427e-02, 3.29782590e-02,
          -3.24647548e-03, -3.47698145e-02, -5.10087125e-02,
          7.23278001e-02, -7.31948614e-02, 9.36227515e-02,
          -4.14737798e-02, -5.65693248e-03, -7.54196793e-02,
          -3.99832167e-02, -4.30007949e-02, -2.72058118e-02,
          8.14386010e-02, 3.47762778e-02, 4.57457714e-02,
          -1.12340182e-01, -4.66430858e-02, -6.42489363e-03,
          -5.04353968e-03, -7.37105310e-02, -8.78036767e-02,
          -2.70594880e-02, -4.84370776e-02, 5.97003102e-02,
          7.32566463e-03, 2.12468598e-02, -1.50832925e-02,
          -3.14676277e-02, -6.96252435e-02, 2.33086273e-02,
          9.04150382e-02, 4.68779057e-02, 2.23017540e-02,
          -3.41120102e-02, -1.13819681e-01, -9.86234173e-02,
          -1.92287434e-02, 5.21800928e-02, -1.20999874e-03,
          4.98220064e-02, 6.57587424e-02, 5.30454963e-02,
          -9.64295045e-02, -3.91035601e-02, -1.08433865e-01,
          -5.01507521e-02, -5.35277724e-02, -1.46702146e-02,
          -1.71521902e-02, -6.47945330e-02, -7.59788752e-02,
          -9.15922895e-02, -3.62840667e-02, -2.73824576e-02,
          -3.65220197e-02, -2.11018715e-02, 5.71616180e-02,
          3.82308662e-02, 3.16986581e-03, 1.07103780e-01,
          -1.78820477e-03, -5.83456196e-02, -4.26586755e-02,
          9.45096184e-03, -2.51783393e-02, -5.84775442e-03,
          -7.56937861e-02, -9.81728733e-02, -3.78220193e-02,
          -1.07267657e-02, 6.76288642e-03, -1.99419301e-05,
          5.99874444e-02, -3.25153954e-02, 5.52431196e-02,
          9.22721550e-02, 4.77526076e-02, -1.14289382e-02,
          4.51219492e-02, 2.24753711e-02, -6.94092587e-02,
          1.48660149e-02, -1.11433463e-02, -9.36393626e-03,
          3.05065829e-02, -6.03114553e-02, -4.85710986e-02,
          7.80103803e-02, -1.42726712e-02, 1.94326416e-02,
          7.48228729e-02, 1.58540495e-02, 6.10656515e-02, 4.73423339e-02,
          -3.87058258e-02, 5.33880945e-03, 1.75052397e-02,
          4.29656133e-02, 4.09621708e-02, 3.61144007e-03,
          -4.24513705e-02, 4.70939949e-02, 1.09235309e-01,
          -5.08441217e-02, -9.21296477e-02, 3.27326655e-02,
          4.01840359e-02, -6.18647672e-02, 2.90883686e-02,
          5.20908125e-02, 5.13071530e-02, 7.04683959e-02,
          -1.93242338e-02, -2.49143597e-02, 7.15172477e-03,
          -4.51976508e-02, 6.10700715e-03, 4.67443801e-02,
          2.58215498e-02, 5.28342556e-03, 4.28970493e-02,
          -6.44752011e-02, -2.50954367e-02, 4.04807180e-02,
          -4.83814068e-02, 2.64259558e-02, -2.44357437e-02,
          -1.81835033e-02, 1.97408497e-02, 1.34836197e-01,
          1.74832344e-02, -3.31674889e-02, 5.35962619e-02,
          6.52246550e-02, 2.88183820e-02, -1.25085013e-02,
          3.60629223e-02, -7.08894283e-02, 2.12215669e-02,
          -3.69814299e-02, -9.48644131e-02, -1.04916783e-03,
          3.47984135e-02, -1.77856609e-02, -4.15308997e-02,
          -4.57905196e-02, -2.95021553e-02, 2.73113921e-02,
          -4.64306101e-02, -2.86351014e-02, 4.88913096e-02,
          -5.45313321e-02, 3.11582889e-02, -4.41522710e-03,
          -7.94408098e-03, -1.31496023e-02, 9.08190832e-02,
          4.78225127e-02, -3.18533853e-02, 1.98563226e-02,
          2.50161998e-02, -8.24553594e-02, -9.84750763e-02,
          -7.80721521e-03, -9.62334275e-02, 1.92533694e-02,
          -1.11462869e-01, -8.14352632e-02, -6.29113242e-02,
          4.66398895e-03, -1.61054097e-02, -3.08639277e-02,
          1.81015749e-02, 7.77628319e-03, 4.60186228e-02,
          -6.19688630e-02, -8.65145698e-02, -4.31358367e-02,
          2.38846503e-02, -1.25070810e-02, 1.08471196e-02,
          3.25194634e-02, 5.19976066e-03, 1.33762971e-01, 3.41983549e-02,
          -6.18327707e-02, -5.72485477e-02, -1.60596110e-02,
          -9.32593122e-02, -4.05581519e-02, -2.29467507e-02,
          -6.10335208e-02, -2.04052459e-02, -2.80542653e-02,
          1.04789101e-02, -6.77521229e-02, -1.10341944e-01,
          -9.29515343e-03, 1.85740143e-02, 2.51570977e-02,
          -5.31801954e-04, 8.49279687e-02, -3.28007974e-02,
          -2.70477291e-02, -8.56594667e-02, -5.61458021e-02,
          -2.45647188e-02, 6.13410724e-03, -7.39028025e-03,
          -9.08876508e-02, 3.48091163e-02, -5.97690456e-02,
          -2.61131171e-02, -3.38604376e-02, -4.89088260e-02,
          -6.70229718e-02, 7.75432680e-03, 2.10519787e-02,
          -4.17771116e-02, 2.30843620e-03, -9.22041312e-02,
          -3.13016493e-03, -6.88835606e-02, -1.13282956e-01,
          -7.03814104e-02, -3.45440917e-02, 2.74748765e-02,
          -4.66915146e-02, 8.40139855e-03, -8.48732665e-02,
          -2.16603000e-03, -7.85278231e-02, -8.10269639e-02,
          -2.24995073e-02, 3.24436277e-02, 8.44814628e-03,
          -7.02139288e-02, 1.52993230e-02, -6.87374547e-02,
          6.52620452e-04, -3.75380740e-02, 2.46597398e-02,
          -7.54301026e-02, 1.34888534e-02, 4.85629477e-02,
          -5.52053489e-02, 5.20480163e-02, -7.17267394e-02,
          -3.72494338e-03, -4.84841987e-02, -6.66971970e-03,
          1.80341899e-02, 3.97589384e-03, -1.81331318e-02,
          -6.01803958e-02, 3.17042880e-02, -7.54653290e-02,
          -1.79873197e-03, -1.79328816e-03, 4.40087020e-02,
          -4.79504429e-02, -6.77243099e-02, -8.76057148e-02,
          -5.87078650e-03, 4.96624038e-02, -5.99229932e-02,
          -5.28034568e-02, 7.48747215e-02, 4.16127630e-02,
          -2.92744357e-02, -2.42389254e-02, -1.96222309e-02,
          -5.96204735e-02, 6.02081865e-02, -7.54335746e-02,
          -1.63880419e-02, 4.09131832e-02, 6.92996159e-02,
          5.78832440e-03, 4.97448929e-02, -4.79123816e-02,
          1.64650995e-02, 9.46679264e-02, -8.58644173e-02,
          -1.05749980e-01, 5.07841036e-02, -9.14284028e-03,
          -7.16544166e-02, -8.82717147e-02, -1.46399841e-01,
          -1.10888302e-01, 4.60397862e-02, -1.07143432e-01,
          2.41862424e-02, 1.00839742e-01, -7.13647762e-03,
          2.46642600e-03, -1.98358297e-02, -2.99457572e-02,
          -5.03314883e-02, 1.17098659e-01, -6.18769228e-03,
          3.05717476e-02, 7.00537041e-02, -5.37033938e-03,
          2.51225494e-02, -9.66229942e-03, -3.43638472e-02,
          -8.86275545e-02, 1.85727626e-02, -1.30201980e-01,
          -1.05802035e-04, 2.13747211e-02, -4.49487194e-02,
          3.51995640e-02, 8.52241367e-02, 9.41657349e-02, 4.13166871e-03,
          2.53982656e-02, -8.02627131e-02, 2.89329756e-02,
          8.03832561e-02, 3.57695557e-02, -9.60476324e-02,
          -1.06165662e-01, -8.35874751e-02, -5.25590591e-02,
          3.64321508e-02, -4.50876914e-02, 3.53518687e-02,
          1.92178469e-02, -7.13883042e-02, -2.97157690e-02,
          5.69058694e-02, -2.11966932e-02, -4.55042310e-02,
          -2.03223974e-02, -4.67331633e-02, 5.14227487e-02,
          -9.20961890e-03, 2.93604657e-02, -1.13916829e-01,
          -5.60790375e-02, 3.08830310e-02, -2.55269166e-02,
          -3.35702077e-02, -3.07931984e-03, 5.18968154e-04,
          -2.98851803e-02, -7.95479640e-02, -5.63028306e-02,
          4.94610192e-03, 3.05252708e-02, -3.79577056e-02,
          -3.31095580e-05, 6.45820564e-03, 5.92519194e-02,
          5.66031039e-02, 7.84887467e-04, -1.69327743e-02,
          1.19816419e-02, 3.16123478e-02, -1.86688416e-02,
          -6.30432069e-02, -3.04235723e-02, 4.93609998e-03,
          -2.45493818e-02, -7.59989070e-03, -7.37302452e-02,
          4.34326380e-03, 5.85699119e-02, 5.88070713e-02,
          -2.02148352e-02, -1.51453782e-02, -2.10440531e-02,
          -4.20330800e-02, -3.39977667e-02, -1.93609260e-02,
          4.46680672e-02, -2.61546914e-02, -5.74570410e-02,
          -2.94479690e-02, -7.72805884e-02, 2.80990750e-02,
          1.41474260e-02, -5.08973971e-02, -8.20613727e-02,
          5.30095436e-02, 6.32044226e-02, -3.96503787e-03,
          3.79088856e-02, -3.26621644e-02, -8.96402076e-03,
          -1.16665633e-02, -9.47310030e-02, -1.02742031e-01,
          -6.69105351e-03, 4.96132448e-02, 2.83497460e-02,
          4.24363418e-03, 6.50958670e-03, -6.69724420e-02,
          1.93827674e-02, -4.73303460e-02, -1.77885648e-02,
          -1.19537124e-02, -3.06137395e-03, 1.19674508e-03,
          8.88163224e-02, -4.69866907e-03, -9.62438360e-02,
          -2.19570100e-02, 1.13718556e-02, -5.68084978e-02,
          4.06521745e-02, 3.35941426e-02, -2.55776532e-02,
          -1.78053435e-02, -2.13388372e-02, -9.12692305e-03,
          -1.06709339e-02, -7.37884417e-02, -6.91313436e-03,
          9.44415294e-03, 4.43264768e-02, 2.15724539e-02, 4.72382978e-02,
          -4.70339619e-02, -4.33825105e-02, 1.55035965e-02,
          -9.95441154e-03, 1.72834024e-02, -2.43221205e-02,
          -2.47702878e-02, 2.76262593e-03, 2.22258829e-02,
          -9.02509689e-02, -7.72066414e-02, -4.66052741e-02,
          -6.54703844e-03, 6.60252012e-03, 5.57551766e-03,
          -9.26776440e-04, -1.20191998e-03, 7.45662451e-02,
          -5.84954061e-02, 3.05882506e-02, 4.21756767e-02,
          1.05050877e-02, -3.78521495e-02, -2.69026104e-02,
          -8.78124498e-03, -2.82041216e-03, 5.11506293e-03,
          -2.26815213e-02, -1.57191921e-02, 3.47992568e-03,
          -1.32697979e-02, 6.64443104e-03, 2.55048238e-02,
          2.54541356e-03, -4.92876433e-02, 3.03987786e-02,
          -1.94760412e-02, 1.80189591e-02, 9.89578292e-03,
          4.31663096e-02, -4.70482782e-02, 2.05509849e-02,
          1.52588720e-02, -5.84794488e-03, 1.47253927e-02,
          1.83690879e-02, 3.32189165e-02, -1.78969484e-02,
          -4.49075215e-02, -3.12986858e-02, 3.19695175e-02,
          4.96287690e-03, -3.10243014e-02, 5.49486689e-02,
          9.07866191e-03, 1.57262608e-02, 5.83459111e-03,
          -2.43174620e-02, -1.89604778e-02, -6.31861389e-03,
          -1.77247599e-02, -2.73697451e-02, -1.27651514e-02,
          4.52798512e-03, 2.96881776e-02, -2.18066033e-02,
          2.27230247e-02, -4.68294276e-03, 6.83507249e-02,
          -3.02140620e-02, -6.76011592e-02, 8.88692774e-03,
          -2.94276215e-02, 6.07341267e-02, -1.98647548e-02,
          -3.24171339e-03, 1.76332090e-02, -6.17095865e-02,
          -2.79367492e-02, 2.84478329e-02, 8.86619240e-02,
          -7.88238551e-03, 6.40233830e-02, 1.35770803e-02,
          -2.46183239e-02, 1.21065713e-02, -6.65478632e-02,
          -8.01325031e-03, -1.12265319e-01, 2.73025073e-02,
          7.73829222e-03, 1.03260174e-01, 7.51119852e-03,
          -1.87201868e-03, 4.58224155e-02, 3.81659269e-02,
          1.79277118e-02, -3.36119309e-02, 2.17558499e-02,
          -8.53286982e-02, -1.43760201e-02, -6.62581250e-02,
          -1.23578291e-02, 2.08732742e-03, -4.74844500e-02,
          -4.36756723e-02, -4.19209301e-02, -2.89194640e-02,
          -4.51492220e-02, 4.14127950e-03, 1.01166293e-02,
          -1.54024940e-02, 5.62790595e-02, 3.91078703e-02,
          4.88569587e-02, -8.62246193e-03, -6.10538200e-02,
          -9.69823450e-02, 2.30673589e-02, 6.02073967e-02,
          6.70700893e-02, 1.08069433e-02, -4.09293100e-02,
          -3.40133882e-03, 2.70435140e-02, -9.47660133e-02,
          1.07138790e-02, -3.86142754e-03, -4.95815603e-03,
          -2.38134153e-03, -6.47974983e-02, 1.19260559e-03,
          8.12368244e-02, 7.05719367e-02, 4.46473993e-02,
          -2.14716978e-02, -2.68894825e-02, 1.42828748e-02,
          -5.55980876e-02, -6.39990866e-02, -4.02985215e-02,
          5.75897843e-02, 2.28149034e-02, -8.08292255e-02,
          -2.54435297e-02, 1.89463161e-02, 2.09386386e-02,
          -3.25091183e-02, 4.15689349e-02, -2.33386103e-02,
          -4.49425057e-02, -9.08974838e-03, -4.91018891e-02,
          1.38053745e-02, 1.11746527e-01, -5.35512529e-02,
          -3.74231115e-02, -4.98613790e-02, 3.98539677e-02,
          -2.51717735e-02, -2.25239247e-02, -3.16129364e-02,
          -1.23240259e-02, 2.03324668e-03, -6.14802055e-02,
          1.63884833e-02, -4.06000204e-02, -4.83013317e-02,
          1.34728877e-02, -2.12308001e-02, -7.53075629e-02,
          4.20077294e-02, 3.80469747e-02, 2.01611612e-02,
          -3.10742054e-02, -1.01179192e-02, -2.99192984e-02,
          6.54031336e-03, 5.57551384e-02, 8.92315581e-02, 7.81581551e-02,
          4.48501334e-02, 3.78025398e-02, 1.91643685e-02,
          -5.73397763e-02, 3.40448390e-03, -1.51688978e-02,
          -1.33387111e-02, 6.59964532e-02, -3.36873084e-02,
          -1.22879162e-01, -1.01325594e-01, 2.96657514e-02,
          4.24490031e-03, -4.09347378e-02, -2.15226300e-02,
          2.64513176e-02, 9.61112306e-02, -4.68456373e-02,
          -3.33767757e-02, -8.13808367e-02, 6.53772429e-02,
          5.38277179e-02, 1.64868701e-02, -1.55390585e-02,
          4.23321426e-02, 1.11132994e-01, 2.47669592e-02,
          -4.10854034e-02, -3.61192152e-02, 5.55047533e-03,
          2.58530788e-02, 4.19762805e-02, -1.10664731e-03,
          -4.39287256e-03, 4.52901684e-02, -3.92478630e-02,
          -6.12103939e-02, -2.30956245e-02, -7.02499822e-02,
          -5.59807718e-02, -1.82293523e-02, -8.95102601e-03,
          -1.57669317e-02, 7.51705989e-02, -9.98355914e-03,
          -1.22087225e-02, -1.10245720e-02, -1.25863366e-02,
          8.77571106e-03, 2.14116443e-02, 1.07950881e-01,
          -3.03287078e-02, -2.35509425e-02, -1.57593656e-02,
          -1.38622984e-01, -1.05302751e-01, -8.81898962e-03,
          2.81516667e-02, 7.38793463e-02, -9.53746086e-04,
          -9.66738984e-02, 7.35698268e-02, -2.35930625e-02,
          2.72675008e-02, -1.23645505e-02, 9.15110504e-05,
          -7.37771392e-02, -3.32046747e-02, -2.66942214e-02,
          -9.94600356e-02, 1.36311706e-02, -1.17273657e-02,
          3.76517363e-02, -1.85787380e-02, -1.09283417e-03,
          -1.02897495e-01, -3.03079579e-02, 5.43355383e-02,
          -5.12790792e-02, 6.10733554e-02, 1.50831696e-03,
          3.04530151e-02, -7.36562982e-02, 2.41481271e-02,
          -2.54700705e-02, 2.48041693e-02, 8.83909166e-02,
          -2.86155008e-02, 2.96240747e-02, -7.51480982e-02,
          -5.99257909e-02, -4.24932279e-02, 1.17291451e-01,
          -3.78472097e-02, -8.26826915e-02, -2.33991928e-02,
          -4.42829691e-02, 8.05246681e-02, -2.46465690e-02,
          -2.61200313e-02, -9.17653218e-02, 2.19373591e-03,
          3.10901590e-02, -1.85421668e-02, 6.19762912e-02,
          8.81778449e-03, 7.85437524e-02, -1.18044645e-01,
          -5.32423519e-02, -2.96359006e-02, 8.11504200e-02,
          -5.53854220e-02, -1.77068561e-02, 8.64509344e-02,
          -4.39610891e-02, 5.66750653e-02, -1.57136191e-02,
          4.29898947e-02, -9.67546478e-02, 5.55934198e-03,
          -6.44019991e-02, -5.07878363e-02, 2.32926421e-02,
          -5.76515272e-02, 9.66460183e-02, 4.09947038e-02,
          4.19478193e-02, -2.83909552e-02, -4.04250482e-03,
          2.96169594e-02, -9.54620838e-02, 2.87891645e-03,
          -1.48871103e-02, 5.05071878e-02, -9.25156847e-02,
          9.65656713e-04, -4.73493338e-02, 7.62607232e-02,
          6.43891690e-04, -1.06932461e-01, -3.37770395e-02,
          -5.44042997e-02, -1.20056875e-03, -5.00680096e-02,
          -1.73941366e-02, -2.80803982e-02, 2.21076654e-03,
          -9.12218243e-02, -1.11039029e-02, 2.36696042e-02,
          -5.98327518e-02, -1.63458381e-02, 2.19264824e-04,
          5.49404547e-02, -7.45079713e-03, -8.48838985e-02,
          -6.68010190e-02, -3.32307592e-02, 2.74538286e-02,
          -1.37098189e-02, -2.77460590e-02, -3.47635634e-02,
          8.95105749e-02, -4.76080459e-03, -7.17996210e-02,
          -4.87599783e-02, -2.80247442e-02, -4.09011351e-04,
          -1.15165971e-02, -3.45798358e-02, -1.34894317e-02,
          2.06020605e-02, -9.36791152e-02, -3.70772257e-02,
          -1.62070300e-02, -6.41366169e-02, 2.37207953e-02,
          6.60172384e-03, -8.77644718e-02, -1.10532515e-01,
          -2.40496770e-02, -7.21054748e-02, -4.97171469e-02,
          -9.95364860e-02, 2.09366248e-04, -1.53074069e-02,
          5.12699597e-04, -1.37371011e-03, -6.57706484e-02,
          3.88106033e-02, 7.85426274e-02, -8.09854716e-02,
          -7.90954679e-02, 3.50403562e-02, -5.39272279e-02,
          2.04044599e-02, 4.26637530e-02, -1.55948494e-02,
          -6.55630743e-03, 5.75851873e-02, -4.91417050e-02,
          -3.08885425e-03, -5.75483963e-02, -4.11951402e-03,
          -3.76659520e-02, -8.25717002e-02, -1.43022805e-01,
          -1.15298033e-02, 3.64756957e-02, 3.20788510e-02,
          -3.88040543e-02, -4.14516516e-02, -1.99797060e-02,
          4.36569713e-02, 3.45210247e-02, 1.39608881e-06,
          -4.86368574e-02, 2.06504576e-02, 4.56963144e-02,
          -9.17368848e-03, 3.26464837e-03, -9.95093677e-03,
          -1.89442672e-02, 2.29102932e-03, -3.54081616e-02,
          -4.76246066e-02, -5.74202947e-02, -3.89044778e-03,
          4.00008783e-02, -7.93129730e-04, 4.45652381e-02,
          1.62285585e-02, -1.99465211e-02, -4.63515408e-02,
          1.24456631e-02, 2.78867292e-03, 3.41622159e-03,
          -5.66635132e-02, -6.95146173e-02, -1.04864715e-02,
          -4.10131961e-02, 2.50027832e-02, -6.93169013e-02,
          -9.08963382e-02, -8.31699520e-02, 1.44852921e-02,
          4.96321581e-02, -2.26948746e-02, -1.42106898e-02,
          -4.74252738e-02, 1.20052753e-03, -5.24813198e-02,
          -1.11163326e-01, 1.71463955e-02, -1.90336127e-02,
          1.00576021e-02, -5.86824790e-02, -1.95656647e-03,
          -6.21229596e-02, -3.49750891e-02, -1.06812073e-02,
          -3.21691893e-02, -7.02861622e-02, 5.00071619e-05,
          7.17919618e-02, -1.09285638e-01, -9.50174592e-03,
          -4.64979522e-02, -7.18264505e-02, -1.99128501e-03,
          -5.75470775e-02, -1.13330018e-02, -5.83292590e-03,
          -1.63658959e-04, -3.75680551e-02, -1.35400230e-02,
          -5.76810576e-02, -2.56321207e-02, -2.56107301e-02,
          -1.33534253e-01, 1.96084101e-02, -1.47256255e-02,
          -2.19358294e-03, -1.90539658e-02, 1.92589685e-02,
          -2.53952015e-02, 3.85822691e-02, -4.27051336e-02,
          -9.84501913e-02, -4.76151668e-02, 2.49135401e-02,
          1.48931388e-02, -9.26890131e-03, -2.51064841e-02,
          -6.55455515e-02, -4.43439931e-02, -4.30510305e-02,
          1.37574216e-02, 2.91020796e-02, -7.13998973e-02,
          -7.97422230e-02, 6.85361549e-02, 1.59965968e-03,
          -4.13136110e-02, 9.11891237e-02, -5.27977757e-02,
          -1.75738782e-02, -5.95447496e-02, -1.51259542e-01,
          2.18809885e-03, 2.01379005e-02, 1.55980084e-02,
          -2.45557204e-02, 3.58643010e-02, -3.82152200e-03,
          1.32885231e-02, 2.50083469e-02, -4.99051921e-02,
          -8.54239911e-02, -4.35815006e-02, 2.41857655e-02,
          2.57287752e-02, 4.68354076e-02, 4.34466787e-02, 2.16670968e-02,
          1.53918592e-02, -1.07790716e-01, -6.78491145e-02,
          9.63759869e-02, 2.00942435e-04, -8.33442900e-03,
          2.36803479e-02, -1.25518534e-02, -1.56848300e-02,
          -1.24723911e-01, -4.91295084e-02, 3.30214645e-03,
          1.08848596e-02, 4.47244523e-03, -4.70989803e-03,
          -3.43995765e-02, -5.51936962e-02, -6.64179698e-02,
          -6.14819005e-02, 2.48460267e-02, -3.08986437e-02,
          -2.71006599e-02, 1.69527568e-02, -2.34912839e-02,
          -3.16127166e-02, 1.62914209e-02, -1.95071232e-02,
          -1.27896639e-02, -1.01847257e-02, -1.29210390e-02,
          -3.00737880e-02, 3.63819301e-02, -4.10530381e-02,
          -5.83909452e-02, 3.16264952e-04, -3.66299190e-02,
          -1.45272622e-02, 1.88975390e-02, -3.60610187e-02,
          -4.19617966e-02, -1.63026582e-02, -3.90829891e-02,
          -7.83340260e-02, -8.12883750e-02, -4.24864143e-03,
          2.44397111e-03, 3.33329313e-03, 1.87725981e-03, 4.67316881e-02,
          -2.59433202e-02, -4.59382981e-02, -5.26558608e-02,
          -5.87044321e-02, 6.33726269e-02, 2.93115117e-02,
          -2.21974440e-02, 3.99645418e-02, -8.08703341e-03,
          6.31556064e-02, 1.26474770e-02, -3.58683802e-02,
          -5.87496981e-02, 1.02469083e-02, -9.17685032e-03,
          3.85871194e-02, 3.04081645e-02, 1.97690558e-02, 4.38705971e-03,
          1.08983498e-02, -3.27057093e-02, -6.53260350e-02,
          -2.13326383e-02, -4.83566374e-02, -3.51314154e-03,
          -3.83817255e-02, 5.06977849e-02, -7.29339756e-03,
          -3.38340998e-02, -5.86896464e-02, -2.08402774e-03,
          3.29138264e-02, -4.98053851e-03, -7.62639120e-02,
          9.39493626e-03, 9.25117582e-02, -7.31556956e-03,
          -6.52598217e-02, -7.55035952e-02, 1.80380568e-02,
          1.32167628e-02, 9.62936319e-03, -1.75223965e-02,
          3.65427546e-02, -7.89903384e-03, 3.62299718e-02,
          1.07227149e-03, -7.24322200e-02, -4.47323918e-02,
          -4.02609073e-02, -3.98813337e-02, 1.88809596e-02,
          -7.70308003e-02, 2.51724776e-02, -2.87994719e-03,
          4.94924970e-02, -3.94355766e-02, -3.68337817e-02,
          -2.62968820e-02, -1.37982843e-02, 7.05457409e-04,
          -7.15899020e-02, 3.85448299e-02, 7.35342095e-04,
          3.24045196e-02, 7.01684598e-03, -1.26428986e-02,
          -9.14806686e-03, -2.11155657e-02, -2.73499750e-02,
          -5.19483127e-02, -3.45685259e-02, 7.09825382e-03,
          -4.12313975e-02, -4.59005982e-02, -2.26225685e-02,
          -2.57105343e-02, -4.13168147e-02, -5.23159690e-02,
          -1.22573689e-01, -9.09092370e-03, 1.88608859e-02,
          6.33477569e-02, -5.97200636e-03, -1.78773906e-02,
          -1.41108846e-02, -5.48900329e-02, -3.56337689e-02,
          -3.40875098e-03, -5.09625673e-02, -5.44458628e-02,
          -5.79308271e-02, -6.94491938e-02, -4.27697748e-02,
          6.28031567e-02, 5.69147198e-03, -1.62096340e-02,
          7.86186680e-02, 2.61990316e-02, 3.10902055e-02, 2.97686215e-02,
          3.80387381e-02, -3.11567113e-02, -2.50129923e-02,
          5.53302206e-02, 1.05250761e-01, 5.04469164e-02,
          -5.72907142e-02, 3.85855371e-03, -2.38110721e-02,
          -1.15096502e-01, 2.21954426e-04, -3.68276536e-02,
          -8.56585894e-03, 3.42236571e-02, 1.17461503e-01,
          3.54550593e-02, 6.32377993e-03, -1.96914691e-02,
          -2.86108907e-02, -4.18223143e-02, -2.04358418e-02,
          3.80359590e-02, 4.16923463e-02, 1.00153051e-01, 1.60489660e-02,
          2.79993024e-02, 2.27422025e-02, 2.98447139e-03,
          -2.42144223e-02, -5.91173256e-03, 3.32453884e-02,
          3.92109975e-02, 3.07201017e-02, -4.99497689e-02,
          -1.16693201e-02, -4.66560423e-02, -3.44882049e-02,
          1.83868688e-02, -2.18831524e-02, -3.76699977e-02,
          4.19939570e-02, -7.80690238e-02, -1.72633305e-02,
          -3.09274322e-03, -2.30600275e-02, -1.05872862e-02,
          1.12131434e-02, 5.18356869e-03, 4.59479280e-02, 3.83990891e-02,
          3.99196707e-02, 1.24384956e-02, 7.68579841e-02, 7.46039078e-02,
          2.28862688e-02, 6.04788847e-02, 3.58490273e-02,
          -6.80428883e-03, 4.76744538e-03, 6.61626039e-03,
          5.52761964e-02, 7.86634311e-02, 5.92552498e-02, 3.92639590e-03,
          1.11014009e-01, 4.49443348e-02, 7.23878667e-02,
          -3.06972787e-02, 4.50957380e-02, 4.12801020e-02,
          -2.33573150e-02, -3.69432718e-02, -1.56839043e-02,
          -3.02297100e-02, -7.52895176e-02, 1.67901032e-02,
          7.19447359e-02, 3.28458436e-02, 6.26870915e-02,
          -2.08554426e-04, -1.77976191e-02, 7.97673240e-02,
          -6.68408200e-02, -3.85762416e-02, 2.34108511e-02,
          2.82377675e-02, 1.86528582e-02, 5.96529897e-03,
          -5.37182093e-02, -1.72639620e-02, 4.45787460e-02,
          3.62088601e-03, -4.54438366e-02, 1.15353772e-02,
          5.55274170e-03, 2.51129791e-02, 1.06032314e-02,
          -4.73271981e-02, -4.79541020e-03, 4.38410752e-02,
          -2.72425469e-02, -8.85318667e-02, -2.64691580e-02,
          -3.63741107e-02, 9.89286005e-02, 7.11601377e-02,
          -8.29573534e-03, -8.42493866e-03, 1.06433146e-01,
          2.11834926e-02, 1.22968026e-01, 4.88606058e-02, 3.24730091e-02,
          4.51933406e-02, 3.39617953e-02, -3.16430554e-02,
          -2.53501218e-02, 4.30719554e-02, -5.69258491e-03,
          3.03446576e-02, -3.63508496e-03, 1.31226834e-02,
          7.85207748e-03, -3.32174227e-02, -5.25255166e-02,
          -2.51094196e-02, 6.66775852e-02, 1.38893109e-02,
          9.36316978e-03, 7.74721382e-03, 1.36297825e-03, 5.61642274e-02,
          -2.20246650e-02, -3.99024924e-03, 8.01259193e-06,
          3.43939848e-02, 2.47639418e-02, -4.41274159e-02,
          -7.92378932e-02, 2.77133044e-02, 6.44779131e-02,
          7.95956030e-02, 7.62227997e-02, 5.40333055e-02, 1.45257860e-01,
          4.79124971e-02, 7.75411502e-02, -1.28183672e-02,
          1.16159488e-02, -1.17044915e-02, 6.30526096e-02,
          1.08196229e-01, 8.50378871e-02, 9.97561142e-02,
          -4.98348437e-02, -1.56552938e-03, -4.14885674e-03,
          -4.05661389e-03, 5.91018908e-02, 4.99554574e-02,
          4.41834889e-02, 7.41770118e-02, 8.61986503e-02, 6.22517914e-02,
          -1.07604363e-04, -5.03852516e-02, -2.12990381e-02,
          4.35368940e-02, 5.69081306e-02, 1.41204447e-02,
          -1.71572678e-02, -3.70510481e-02, -4.75018173e-02,
          1.03027031e-01, -3.27762663e-02, -2.02809814e-02,
          1.01915710e-02, 6.04660176e-02, 4.69231457e-02, 8.18963442e-03,
          6.68154880e-02, -4.27903756e-02, 1.14344358e-01,
          -4.58718496e-05, 5.61924744e-03, 4.52977605e-02,
          1.18960224e-01, 3.28050964e-02, 7.69790933e-02, 3.98008935e-02,
          8.02164003e-02, 1.59629330e-01, 1.29044443e-01, 5.34232482e-02,
          -3.67101394e-02, 5.79656474e-02, -4.39134333e-03,
          -4.23586816e-02, -1.96967926e-02, -4.56798561e-02,
          7.98838660e-02, -7.41023049e-02, -1.06399812e-01,
          -6.72560930e-02, 1.75954178e-02, -1.40201300e-02,
          2.29088459e-02, 3.31165902e-02, -1.06743556e-02,
          7.79706985e-02, -1.35042416e-02, -4.52738851e-02,
          -4.65218872e-02, 9.82923806e-03, -3.94210815e-02,
          -6.78544957e-03, -1.25068035e-02, -1.34949433e-02,
          6.26389310e-02, 1.90652050e-02, 3.89146409e-03, 2.87281107e-02,
          -1.96283273e-02, -1.89511217e-02, -1.65533181e-02,
          -6.53360039e-02, 2.91648973e-02, -1.18545098e-02,
          -3.49941291e-02, -3.82976234e-02, -9.44620594e-02,
          -4.21378277e-02, -1.22737894e-02, -3.76660153e-02,
          7.62134194e-02, 1.55046042e-02, -1.11342911e-02,
          -8.95127580e-02, -1.10977650e-01, -4.01746202e-03,
          3.11804209e-02, 3.37649952e-03, -2.41192486e-02,
          4.82202508e-02, 1.20754391e-01, 5.26342681e-03,
          -8.58846232e-02, 1.96794569e-02, 2.87812054e-02,
          1.84712205e-02, -4.90252264e-02, -4.38708402e-02,
          -1.17439069e-01, -4.18418124e-02, -6.08860627e-02,
          -6.49315193e-02, -7.12381164e-03, -2.04789243e-03,
          -4.55698706e-02, 1.44430539e-02, 9.28258970e-02,
          -1.91724263e-02, 3.46832201e-02, 4.33046147e-02,
          4.00341824e-02, 6.89635146e-03, -2.60796808e-02,
          3.78007367e-02, -1.16630783e-02, 3.47196870e-02,
          4.06552888e-02, 1.02022044e-01, -1.50624448e-02,
          -1.02297597e-01, -5.93621507e-02, 2.98701646e-03,
          1.02035888e-02, -5.64970598e-02, 7.97241107e-02,
          7.02922940e-02, 1.00321554e-01, 6.22858256e-02,
          -3.77111174e-02, -7.86723197e-03, -7.06664845e-02,
          -6.95600957e-02, 6.63001984e-02, 5.57646975e-02,
          -5.42583689e-02, -1.24071456e-01, -1.23893112e-01,
          -3.70355994e-02, -6.90836459e-02, 2.05956437e-02,
          2.05755234e-02, 8.16691518e-02, 4.21825685e-02,
          -2.60693692e-02, -4.23649661e-02, -1.09486528e-01,
          4.25107637e-03, -3.46603021e-02, -5.31219169e-02,
          1.70786213e-03, -3.93105783e-02, -1.57498401e-02,
          -7.68179074e-02, -5.29144406e-02, -9.91827548e-02,
          -6.12598732e-02, -1.01005957e-01, -2.27389429e-02,
          9.40158889e-02, 8.32360014e-02, 5.67597263e-02,
          -3.91263142e-03, 6.35550544e-03, -3.31758223e-02,
          3.29530537e-02, 3.10278609e-02, 2.31704451e-02, 1.78773236e-02,
          -1.72971701e-03, -3.03533562e-02, -7.39624202e-02,
          -5.53816371e-02, -1.59421831e-01, -4.18089367e-02,
          -4.55047600e-02, 7.98514392e-03, 4.02542725e-02,
          1.67009828e-03, -4.45724875e-02, 3.59841101e-02,
          -3.60242687e-02, -9.92696807e-02, -5.04480936e-02,
          3.24360095e-03, -1.89721361e-02, 3.40148322e-02,
          -3.31273559e-03, -1.89722553e-02, -5.81675023e-02,
          1.08840188e-03, -5.95278107e-02, -3.18908207e-02,
          -2.73227450e-02, 4.98473123e-02, -3.61740440e-02,
          -5.42234117e-03, -4.27597053e-02, 3.11132297e-02,
          7.67046660e-02, -2.91724578e-02, -8.23607966e-02,
          1.53090665e-02, 2.89662015e-02, -1.68624651e-02,
          1.50991632e-02, -4.56307270e-02, -4.80737537e-03,
          3.98544734e-03, -7.68415481e-02, -1.88279338e-02,
          7.11167678e-02, 2.17388794e-02, -1.87639520e-02,
          -2.52999458e-02, -4.22533303e-02, -1.86853185e-02,
          3.03083640e-02, -3.55142541e-02, -7.93558639e-03,
          -5.10304840e-03, 3.48016284e-02, -3.58074456e-02,
          -1.83539502e-02, -3.12077422e-02, -3.49225365e-02,
          1.53667815e-02, -5.37279323e-02, -7.62318224e-02,
          -9.28726606e-03, -8.78466386e-03, -5.15504628e-02,
          -2.45760437e-02, -3.43936644e-02, -1.05512843e-01,
          -3.98958474e-02, -6.89480305e-02, -5.81670068e-02,
          -5.98651543e-02, 6.46270439e-03, -5.03607653e-02,
          -1.54072950e-02, -7.40554556e-02, -7.84396753e-02,
          -5.21860272e-02, -6.21260330e-02, -1.10412277e-02,
          1.16401045e-02, -7.53818229e-02, 1.58766601e-02,
          2.08132695e-02, -6.92245886e-02, -1.79644022e-02,
          -1.04912268e-02, -8.07921439e-02, 2.21310742e-02,
          -2.94824969e-02, -1.04763256e-02, -8.54646415e-02,
          -2.98384726e-02, -4.58173715e-02, -8.38617533e-02,
          -1.16840281e-01, -6.10397682e-02, 1.51118254e-02,
          -5.90820506e-04, -6.25710860e-02, -7.05948845e-02,
          -3.32767591e-02, -2.47151940e-04, -2.75161695e-02,
          -3.29093933e-02, -4.59493436e-02, 4.20609415e-02,
          2.75394134e-02, 5.89474514e-02, 2.37976983e-02, 6.96378052e-02,
          -2.07355227e-02, -9.11736302e-03, -2.80659031e-02,
          -2.80944780e-02, -1.79758165e-02, 5.26892543e-02,
          6.44797757e-02, 2.45147515e-02, 6.86492696e-02,
          -4.14067693e-02, -8.73279646e-02, -9.28279087e-02,
          -5.86689599e-02, -1.30998731e-01, 1.49154719e-02,
          3.16910520e-02, -1.63182598e-02, -2.83432398e-02,
          -2.28300430e-02, 1.00346468e-02, 6.10781461e-02,
          1.65054630e-02, 5.01145124e-02, 6.12261184e-02,
          -1.27009293e-02, -4.43899538e-03, 2.45254152e-02,
          -9.34043750e-02, -1.25554591e-01, -2.60571893e-02,
          -8.22665449e-03, -6.78256899e-02, -3.79669629e-02,
          7.97552764e-02, -4.44098413e-02, 2.92750206e-02,
          3.14301215e-02, -2.41000187e-02, -7.52066299e-02,
          -1.08271673e-01, -8.22645500e-02, 8.51051360e-02,
          -1.21554518e-02, -5.80120832e-03, -7.48018622e-02,
          8.52672011e-02, 8.98354221e-03, -2.73516439e-02,
          2.00173655e-03, -3.82836238e-02, 9.16159526e-02,
          -1.30128337e-03, 1.94463460e-03, -1.52206458e-02,
          9.68363136e-03, -7.39234090e-02, -7.75436610e-02,
          -1.00205094e-01, -3.33102345e-02, -1.03438844e-03,
          7.27928928e-05, -2.75339112e-02, -7.12933019e-02,
          3.43068466e-02, -5.59953190e-02, 2.26869266e-02,
          -1.06870487e-01, 3.00543141e-02, 4.84512821e-02,
          -3.23000662e-02, -5.14775654e-03, -6.72022067e-03,
          2.36833356e-02, -1.85802337e-02, -1.76393092e-02,
          2.94838455e-02, -3.31966057e-02, 5.49937412e-03,
          -3.41857709e-02, -8.32853913e-02, -1.07987367e-01,
          -4.54647206e-02, -8.37701410e-02, -5.36754392e-02,
          3.81113552e-02, 2.41676662e-02, 4.58652154e-02,
          -3.82871591e-02, 7.20592262e-03, -8.91518407e-03,
          2.71422812e-03, 1.25357322e-02, -1.24382284e-02,
          -8.12990963e-02, 3.58048379e-02, 3.47732976e-02,
          -1.00632817e-01, -2.96685155e-02, -5.42435534e-02,
          4.88419905e-02, -6.85743317e-02, 2.07141265e-02,
          -1.03667125e-01, 5.85163664e-03, 5.10646775e-02,
          -9.51028429e-03, -2.12607998e-02, 9.45604499e-03,
          5.04104653e-03, 4.17124555e-02, 9.43584181e-03, 1.83692593e-02,
          5.52728586e-03, -1.34512093e-02, -4.81786802e-02,
          2.06026854e-03, 3.52242179e-02, 1.02733020e-02, 1.59837455e-02,
          6.44442067e-03, 7.15807453e-03, -8.17799009e-03,
          -4.60750461e-02, 5.40502258e-02, -9.91761778e-03,
          4.34145033e-02, 1.56540275e-02, 3.22504970e-03, 3.47151309e-02,
          6.01806305e-02, 1.49437031e-02, 6.12859502e-02,
          -3.34774330e-03, -1.39024695e-02, -1.09281356e-03,
          2.00236607e-02, -9.09099430e-02, 1.11490302e-02,
          1.69684850e-02, -7.28659332e-02, 1.02260588e-02,
          9.52774286e-03, -2.16252152e-02, 1.49342157e-02,
          1.23362476e-02, 2.53428780e-02, 4.27622255e-03, 1.84936393e-02,
          2.23526731e-02, 2.61722803e-02, -6.24653175e-02,
          -4.67294641e-02, -1.13602616e-02, 4.14204039e-03,
          -5.15400283e-02, -1.17532052e-02, -5.45101613e-02,
          -4.40993048e-02, -4.31584343e-02, -5.64478375e-02,
          -2.84425039e-02, 2.93141063e-02, 3.72785665e-02,
          5.57661913e-02, 4.05398384e-02, 4.70005795e-02,
          -2.07533278e-02, -7.59711638e-02, 4.98050638e-03,
          5.02492823e-02, 3.90584953e-02, -1.97795164e-02,
          9.50247720e-02, 1.11625483e-02, 1.71921104e-02, 1.09390114e-02,
          1.42725036e-02, -2.24049622e-03, -7.34381657e-03,
          4.31459285e-02, 7.39896717e-03, -3.56573449e-03,
          -3.07864584e-02, -7.47343600e-02, -4.39434201e-02,
          3.48637043e-03, -3.33287641e-02, 2.24398449e-02,
          4.79391031e-02, -3.33494730e-02, -2.33250558e-02,
          -2.42813881e-02, -8.22518170e-02, -7.27738887e-02,
          -2.95429025e-02, 7.88733885e-02, 1.83074735e-02,
          4.05629016e-02, -5.82548650e-03, 1.68133043e-02,
          -2.30400153e-02, -3.29903699e-02, -1.24174384e-02,
          2.28658710e-02, 9.87232197e-03, 6.55255318e-02, 1.11405335e-01,
          -4.37898673e-02, 7.83495512e-03, 1.53070660e-02,
          -3.34210391e-03, -2.57172827e-02, -1.20183453e-02,
          1.70978240e-03, 4.65968661e-02, 1.52747016e-04,
          -6.30179048e-02, -1.08030796e-01, -1.54151665e-02,
          -4.70621772e-02, -5.25171645e-02, -1.74861513e-02,
          4.88602594e-02, 4.64950055e-02, 7.29508027e-02,
          -4.03545890e-03, 3.58790830e-02, 8.40585027e-03,
          1.25689041e-02, -3.17081413e-03, 4.05122451e-02,
          -6.11607917e-02, 4.39374782e-02, 6.89155310e-02,
          -2.80963555e-02, 2.50659175e-02, 2.77524423e-02,
          7.66380802e-02, 5.04258275e-02, -6.72619268e-02,
          -4.62375470e-02, -2.37859227e-02, 9.85209048e-02,
          -1.25208870e-02, 8.48131347e-03, 1.03583764e-02,
          1.27371000e-02, -2.72272415e-02, -1.09205812e-01,
          1.34600289e-02, 1.36110233e-03, 8.50166604e-02, 2.41312161e-02,
          1.02816254e-01, 3.61072347e-02, 5.30342013e-02,
          -1.01135699e-02, 1.02094496e-02, -1.59310699e-02,
          -4.08315882e-02, -2.70592868e-02, -1.04578193e-02,
          9.30281729e-02, 5.36192320e-02, 8.65219757e-02,
          -2.96596251e-02, -5.62409218e-03, -3.32389213e-02,
          4.48904112e-02, 1.17323980e-01, -2.80758105e-02,
          -1.29391542e-02, 1.07211852e-02, -7.37376735e-02,
          -1.00495584e-01, -4.46007587e-02, -6.85695652e-03,
          -1.71474312e-02, 9.41951126e-02, 7.19503209e-04,
          6.54168129e-02, 4.25508507e-02, 2.82636024e-02, 1.30333053e-02,
          1.22479899e-02, -3.72888856e-02, -3.35611179e-02,
          -8.15348625e-02, 3.55965807e-03, 3.94990109e-02,
          3.66970375e-02, 6.83157593e-02, -3.61275300e-02,
          -4.08513881e-02, 3.62260193e-02, 6.56681508e-02,
          1.01251759e-01, 3.31778787e-02, 8.97339918e-03, 1.15734972e-02,
          9.66137275e-03, -6.81805611e-02, 9.90231056e-03,
          2.68265232e-02, 1.15237460e-02, 2.59627644e-02, 2.28260141e-02,
          7.11184517e-02, 7.03726113e-02, 6.24709278e-02, 5.07250950e-02,
          2.64439322e-02, -4.22673188e-02, 1.00431658e-01,
          4.98160534e-02, 6.12241551e-02, 1.61725730e-02, 3.60634476e-02,
          -2.20496766e-02, -1.86715815e-02, -3.65986899e-02,
          2.32579987e-02, 5.18631265e-02, 4.87615392e-02, 9.19048209e-03,
          -6.31552413e-02, -1.02042565e-02, 4.12535667e-02,
          -1.53158670e-02, -1.53885288e-02, 1.45026203e-02,
          9.71436780e-03, -6.89945742e-02, -2.61161979e-02,
          5.50964396e-05, -4.40382399e-02, -5.09043001e-02,
          -3.33997868e-02, 2.02564150e-02, -3.44071910e-02,
          1.19277790e-01, 5.80904596e-02, 1.99495200e-02,
          -3.08841597e-02, 1.56581737e-02, 5.73142394e-02,
          1.80786643e-02, -3.12976278e-02, -1.07797131e-01,
          -4.15125601e-02, -3.58260833e-02, 3.63163799e-02,
          5.71066178e-02, -3.72724421e-02, -2.34796535e-02,
          4.76196036e-02, -4.53739315e-02, -1.55701358e-02,
          3.11433431e-02, -5.10809477e-03, -2.52595954e-02,
          -5.47032878e-02, -5.02481349e-02, -1.40130192e-01,
          -7.59771690e-02, -5.15500046e-02, -6.55514747e-02,
          -4.17824893e-04, 1.93484891e-02, 3.64460493e-03,
          -2.24725511e-02, -3.82567085e-02, -1.30373180e-01,
          -6.13042191e-02, -4.93167900e-02, 4.14141305e-02,
          7.06268772e-02, -8.09443835e-03, -2.61694063e-02,
          -1.93757445e-01, -3.31291370e-02, -3.60961482e-02,
          2.08964329e-02, 7.18557239e-02, 6.93428656e-03, 2.93671340e-03,
          1.96698904e-02, -1.93824957e-03, -1.85154863e-02,
          -6.15328625e-02, -1.90242920e-02, 3.46949659e-02,
          2.95577031e-02, -1.97647121e-02, -3.66360396e-02,
          6.10628771e-03, 6.25090078e-02, -2.29578838e-02,
          -8.07115901e-03, -4.76974547e-02, -3.08358632e-02,
          4.65221843e-03, -2.87360344e-02, 3.85360746e-03,
          -1.74310673e-02, 2.77006417e-03, -5.08939512e-02,
          -2.86714416e-02, 4.06049341e-02, -4.53168713e-03,
          3.69125940e-02, -3.66238877e-02, -8.02865177e-02,
          -2.79567167e-02, 3.32319066e-02, -4.13414724e-02,
          2.76479218e-02, -4.89718728e-02, 6.54171705e-02,
          1.74720935e-03, -1.61354057e-02, -4.65514883e-02,
          1.86868403e-02, 2.91759763e-02, -1.11993030e-01,
          -2.28881091e-02, 1.18702501e-02, -8.77620652e-03,
          -8.11341591e-03, -5.01630222e-03, -6.42591622e-03,
          -4.95914482e-02, -5.42769395e-02, -6.19650935e-04,
          -6.87270835e-02, 1.21200815e-01, 8.26632902e-02,
          4.20379452e-02, 4.62208316e-02, -1.13060474e-02,
          -2.83624455e-02, -3.37178111e-02, -8.56528431e-03,
          -1.32744923e-01, 2.33733021e-02, 2.42234971e-02,
          7.89812021e-03, -1.95017457e-02, -4.89209667e-02,
          -6.65729046e-02, -3.47254425e-02, -6.02021702e-02,
          -1.40266381e-02, 1.73084550e-02, -4.63823639e-02,
          5.85978031e-02, 1.49558270e-02, -4.52313721e-02,
          4.88109663e-02, 6.94763511e-02, 3.15299146e-02, 2.03277636e-02,
          2.05611605e-02, -5.07808814e-04, 4.24604453e-02,
          5.00224642e-02, -4.00441960e-02, -1.66999549e-02,
          -2.10746937e-02, 4.09704559e-02, -7.88145959e-02,
          2.44062357e-02, -3.17955995e-03, 4.20305207e-02,
          -5.85115775e-02, 2.81980149e-02, 3.82214063e-03,
          -5.39660864e-02, -5.63300960e-02, -4.19235155e-02,
          3.38617414e-02, 2.02069082e-03, -4.37234007e-02,
          7.85721093e-03, -3.85789089e-02, 6.35334402e-02,
          6.09321296e-02, -1.06997183e-02, -7.52652297e-04,
          -3.07387896e-02, -1.16274886e-01, 3.96279171e-02,
          -8.07401538e-02, -9.70987324e-03, -3.10152005e-02,
          -1.67072602e-02, 1.03744872e-01, -4.21935646e-03,
          7.77233485e-03, 3.36169563e-02, -5.61187491e-02,
          -2.88855620e-02, 1.00441352e-02, 5.79154715e-02,
          -1.36724729e-02, -1.74766053e-02, -1.79655030e-02,
          2.41387635e-02, -1.76042486e-02, -2.66379621e-02,
          6.76461263e-03, -6.10810369e-02, 6.90363767e-03,
          7.60154612e-03, -1.25031307e-01, -3.46796401e-02,
          4.14845832e-02, 2.76169623e-03, 3.30728316e-03, 1.11951716e-02,
          2.51389258e-02, 3.11936066e-03, 5.36412408e-04, 1.82236254e-01,
          7.32056424e-02, 5.67968898e-02, -1.08546170e-03,
          3.12300101e-02, -7.76907522e-03, 3.79574597e-02,
          3.81359388e-03, 3.38098332e-02, 9.40432101e-02,
          -2.11202423e-03, 2.27296408e-02, -2.51128990e-03,
          -4.62022349e-02, 2.02057767e-03, -4.55933176e-02,
          1.35633210e-02, -4.56725955e-02, -4.22691897e-04,
          -8.92136060e-03, 1.90997366e-02, 1.97369829e-02,
          2.86583547e-02, 1.92506146e-02, -5.13340309e-02,
          -5.00891581e-02, -3.17604877e-02, 1.42154768e-01,
          -1.98291652e-02, -7.37865493e-02, -6.96176142e-02,
          4.03966717e-02, 3.49526033e-02, -7.29305148e-02,
          5.10726534e-02, 1.91406235e-02, 5.96400015e-02,
          -6.84564710e-02, 1.20507494e-01, 3.17884795e-02,
          1.11474218e-02, -2.02069059e-03, 2.51860078e-02,
          -6.54999390e-02, -1.33791836e-02, -6.05278052e-02,
          -4.22761356e-03, 4.37891036e-02, -2.18124725e-02,
          -1.03163626e-02, 4.80439188e-03, -3.71957831e-02,
          -4.49115708e-02, -3.34122367e-02, 7.22284392e-02,
          2.82645458e-03, -7.84546882e-02, -5.89003302e-02,
          1.39398035e-02, -2.63490272e-03, 1.17965983e-02,
          -1.41022634e-02, -3.30621079e-02, -3.93977426e-02,
          -2.62671802e-02, -1.10964561e-02, 7.85473920e-03,
          1.63039267e-02, -6.79016858e-02, -3.83556001e-02,
          -5.50697818e-02, -6.44010445e-03, -3.07519455e-02,
          1.55324824e-02, 3.75603959e-02, -3.18113081e-02,
          -3.33244056e-02, 1.72125176e-02, -3.62295918e-02,
          -1.45691941e-02, -2.17665499e-03, -5.45257404e-02,
          6.30281344e-02, 4.57340367e-02, 5.92280403e-02, 2.18707393e-03,
          -9.43530500e-02, 5.27427113e-03, -2.19418295e-02,
          -6.37392886e-03, 8.48021433e-02, -1.23451520e-02,
          1.66264158e-02, 5.74923754e-02, -1.32781612e-02,
          -8.98699909e-02, -8.50448385e-02, -4.37436029e-02,
          5.48574934e-03, 1.05937570e-01, 2.54340563e-02, 5.10393232e-02,
          3.82364206e-02, -1.78912748e-03, -4.43058684e-02,
          8.93919356e-03, -6.62711868e-03, 1.77450497e-02,
          1.08513094e-01, 5.18575609e-02, 4.91328798e-02, 1.75081752e-02,
          -2.84420457e-02, 1.24652974e-01, 1.70424916e-02,
          -6.23736810e-03, -1.69808697e-02, -4.48905304e-02,
          1.22164339e-02, -3.76053825e-02, -3.02922260e-02,
          1.19317338e-01, -6.70633279e-03, 1.79172438e-02,
          3.85824963e-03, 7.13236770e-03, -9.72520094e-03,
          1.74298659e-02, 3.74646932e-02, 3.49393860e-02, 1.45786209e-03,
          -4.59693081e-04, -1.02988034e-01, -2.76337285e-02,
          8.36899504e-03, 4.62181214e-03, 5.87698771e-04, 2.66851466e-02,
          -2.05891244e-02, 1.75269265e-02, -5.38987182e-02,
          -2.08477043e-02, -8.15902874e-02, -6.01134598e-02,
          -7.19737485e-02, -8.68436135e-03, -6.93981498e-02,
          -5.80064207e-02, -6.59392849e-02, -6.63814396e-02,
          2.50655860e-02, -4.41194773e-02, -5.91311306e-02,
          2.30390392e-02, -2.04032082e-02, 1.93229760e-03,
          -2.68620811e-02, -9.53815654e-02, -1.48413442e-02,
          -6.25209957e-02, 1.55183775e-02, 2.84508243e-02,
          -5.28443083e-02, -2.03265212e-02, 1.85464206e-03,
          -2.79279016e-02, 1.21609587e-02, 6.44100532e-02,
          -8.10080208e-03, 7.83112496e-02, -8.14823154e-03,
          -3.53773199e-02, -3.33827287e-02, -6.03966266e-02,
          -1.84662882e-02, 9.02451202e-02, 7.54093379e-02,
          -4.77460548e-02, -3.17540579e-02, -1.11512626e-02,
          7.04543069e-02, -4.41517830e-02, -6.95491303e-03,
          2.12373193e-02, 6.82254359e-02, 1.74375940e-02,
          -4.99593467e-02, 2.07418203e-02, -3.53103206e-02,
          -2.52069086e-02, -6.00979142e-02, -8.64827782e-02,
          5.90193979e-02, 1.77558195e-02, -1.27109978e-03,
          1.52253732e-02, 2.47364361e-02, -3.13939750e-02,
          4.35722433e-02, -1.96440257e-02, -5.26079461e-02,
          4.55114171e-02, 2.75472621e-03, -4.54478152e-02,
          -4.69322279e-02, 4.09201719e-02, -4.74692276e-03,
          8.50951299e-02, 2.71852333e-02, -3.70464586e-02,
          -2.67962236e-02, -4.94273826e-02, -2.74449703e-03,
          7.15409173e-03, 2.62301299e-03, 2.69223703e-03, 2.90405154e-02,
          5.22249080e-02, -1.41212374e-01, -8.59873462e-03,
          6.55021146e-02, -3.19484733e-02, 2.94731390e-02,
          5.08789793e-02, -3.54405725e-03, 8.45568031e-02,
          9.51272994e-03, 1.81573313e-02, -9.95051954e-03,
          -5.96761666e-02, -7.04610720e-02, -3.10626738e-02,
          9.05744657e-02, 3.85197029e-02, 4.34900224e-02, 2.47939266e-02,
          5.94856218e-02, 3.19836289e-02, -5.65663725e-02,
          -1.29720062e-01, -3.80113870e-02, 1.04727328e-01,
          1.94079001e-02, 2.29482092e-02, 1.74693894e-02, 2.82398686e-02,
          -1.72389541e-02, -7.71950632e-02, 4.45749843e-03,
          6.16971031e-03, -1.66924726e-02, 5.13821421e-03,
          -3.70394215e-02, -6.17281022e-03, -6.38861731e-02,
          2.32607815e-02, 1.05416691e-02, 1.43768325e-01,
          -2.35399860e-03, -4.95460667e-02, -3.67665407e-03,
          -5.23895025e-02, -8.10297765e-03, -2.01119371e-02,
          -2.08797492e-02, 1.60749793e-01, 6.54134750e-02,
          4.05726507e-02, 1.69934437e-01, 6.69371663e-03,
          -6.05664067e-02, -4.03005816e-03, -6.06666058e-02,
          -1.01780901e-02, 1.95767749e-02, 6.04415201e-02,
          -2.36041062e-02, 8.49171504e-02, 1.85744148e-02,
          -5.46004400e-02, 2.28855517e-02, 5.47537506e-02,
          9.19410437e-02, 6.31518364e-02, 1.08336508e-02,
          -8.63495097e-03, 2.12052022e-03, -3.50346952e-03,
          -8.66166502e-02, 4.61825432e-04, -9.20593888e-02,
          -2.56608669e-02, 4.26920392e-02, 3.96367814e-03,
          -5.92416413e-02, 6.36552507e-03, 1.64438449e-02,
          -7.76911853e-03, 3.87794746e-04, 5.67257814e-02,
          1.29820913e-01, 3.43357064e-02, -2.25484790e-03,
          -5.84337348e-03, -2.48989724e-02, 2.82949042e-02,
          6.40705694e-04, 5.26423156e-02, 1.52787091e-02, 9.23974812e-02,
          -4.41581383e-03, 7.29746837e-03, 7.99486786e-02,
          -4.43913862e-02, 4.40440252e-02, -5.30973524e-02,
          8.42247903e-02, 9.68777016e-02, 1.02183342e-01, 2.95446068e-02,
          -5.23741730e-02, -8.28906819e-02, -3.46555412e-02,
          1.09802997e-02, -5.72008565e-02, 2.00493671e-02,
          -1.37148695e-02, 6.95637167e-02, 1.47363227e-02,
          -8.24757069e-02, 4.10183817e-02, -5.21109067e-03,
          5.79749085e-02, -1.06828004e-01, 4.33365330e-02,
          1.87709313e-02, 9.31215510e-02, -5.27683608e-02,
          -2.24085953e-02, 9.23622325e-02, -3.92784774e-02,
          5.68206720e-02, -5.11908205e-03, 1.83310658e-02,
          4.51893918e-02, -7.64915161e-03, -1.14575200e-01,
          -8.44297558e-02, 1.75606981e-02, 6.04467141e-03,
          5.83021790e-02, 7.44553804e-02, -4.10772189e-02,
          -5.26656732e-02, 7.92651549e-02, -3.02919541e-02,
          -8.75054952e-03, 6.44114688e-02, 4.82086428e-02,
          8.04004148e-02, -5.00198826e-02, 2.11843252e-02,
          4.41600420e-02, 8.84267613e-02, 2.74839699e-02,
          -4.32013273e-02, 1.50024127e-02, -2.86629647e-02,
          9.54248607e-02, -4.45122086e-02, -4.56903577e-02,
          2.50760335e-02, 3.76093239e-02, -3.48342508e-02,
          -5.32597629e-03, 6.07121177e-02, -2.90376097e-02,
          -4.04378772e-02, -3.46331038e-02, -3.81084792e-02,
          -2.75507905e-02, 4.60378751e-02, 1.38549907e-02,
          -9.06005576e-02, 7.65335336e-02, 4.93684299e-02,
          -1.49574028e-02, -2.15063943e-03, -4.45928387e-02,
          -3.18777660e-04, 1.07463501e-01, -3.49068977e-02,
          6.58120215e-02, 5.97386137e-02, 5.36213256e-02, 2.36541331e-02,
          -8.00765492e-03, -5.77233508e-02, 5.66991745e-03,
          -2.55720448e-02, 2.15583351e-02, -6.49944087e-03,
          1.15996696e-01, 1.06973210e-02, 3.54496650e-02, 3.70308720e-02,
          2.13126335e-02, 1.56748258e-02, -4.84874006e-03,
          -5.83675597e-03, 3.75892445e-02, 8.87509659e-02,
          4.55448218e-02, 4.19728570e-02, 2.57392619e-02, 4.43340167e-02,
          2.42608562e-02, 8.89126062e-02, 4.65620458e-02, 9.46888849e-02,
          4.56349403e-02, 5.56326248e-02, 1.74347572e-02, 7.04413429e-02,
          -4.40343358e-02, -1.02477796e-01, -2.30923779e-02,
          3.43079679e-02, -5.28004393e-02, -1.07880477e-02,
          -5.31069152e-02, 4.48306277e-02, 3.67825925e-02,
          4.23498936e-02, -5.68559058e-02, -4.86637931e-03,
          -3.72564606e-02, 7.85646737e-02, 1.69062521e-02,
          -6.37916755e-03, 5.53931408e-02, 1.62744317e-02,
          5.43942638e-02, -4.37756702e-02, 2.07050797e-02,
          2.12415513e-02, 4.24133651e-02, 1.14212809e-02,
          -5.79523332e-02, 1.46943331e-02, 7.79972896e-02,
          5.94358072e-02, 1.50837526e-02, -5.62562281e-03,
          6.30748346e-02, 2.10219137e-02, 7.57716736e-03, 5.52775189e-02,
          1.48948580e-02, 2.58941809e-03, -1.18614277e-02,
          -1.18885702e-02, 3.47343273e-02, 1.22684449e-01,
          -1.94511302e-02, 3.84362042e-02, 2.62261685e-02,
          3.68879139e-02, 4.45929579e-02, 6.44127950e-02,
          -8.57231244e-02, -6.63269311e-02, -5.30140437e-02,
          1.23564526e-02, 3.09712533e-02, 3.53219323e-02,
          -1.41003542e-02, 4.52893153e-02, -3.59936920e-03,
          -9.87824891e-03, 1.91921759e-02, 6.42362982e-02,
          -5.54140657e-02, -6.52046427e-02, -7.19636306e-03,
          2.24518981e-02, 5.40568158e-02, -1.18692126e-02,
          3.09810620e-02, 3.65490131e-02, 4.68496457e-02,
          -1.92349721e-02, 2.58673616e-02, 6.87394068e-02,
          3.59653793e-02, 6.79400116e-02, 3.65773737e-02, 2.41237544e-02,
          5.52630760e-02, 2.43645441e-02, -8.14983770e-02,
          6.59589330e-03, 2.11284924e-02, -8.29791371e-03,
          -6.84427023e-02, -3.35480720e-02, -3.47572081e-02,
          6.15473054e-02, -1.34578375e-02, -5.44014648e-02,
          2.89932825e-02, -8.53163656e-03, 4.00791457e-03,
          7.12384209e-02, 1.39788333e-02, 3.55232358e-02, 1.61919352e-02,
          -5.71639091e-02, -1.71141326e-02, 1.40092410e-02,
          3.92017253e-02, 1.88370757e-02, 5.23177385e-02, 2.61299219e-02,
          -8.47673416e-02, 6.46702573e-03, -1.37294242e-02,
          -6.08486421e-02, -1.33763757e-02, -5.76394424e-02,
          -3.14133838e-02, 9.04102251e-02, -2.14663018e-02,
          -5.41986376e-02, -6.20350242e-02, -3.24107520e-02,
          -1.69547852e-02, -1.42961508e-02, -1.75104551e-02,
          3.71510834e-02, -1.49029503e-02, 2.57010739e-02,
          4.55134585e-02, 4.44432311e-02, -1.40975532e-03,
          2.91291662e-02, 3.33246589e-02, 6.88269385e-04, 8.17201138e-02,
          8.27701986e-02, 1.95852201e-02, 7.40308613e-02, 7.29001388e-02,
          3.37312147e-02, 1.92483291e-02, -4.57318760e-02,
          -3.97637226e-02, -4.82387953e-02, 3.00081465e-02,
          -1.13784987e-02, 1.00888900e-01, 3.50529910e-03,
          2.19766945e-02, 2.53960267e-02, -2.11392529e-02,
          -6.54767081e-02, 2.29297876e-02, -9.13641788e-03,
          1.60606541e-02, 5.70745803e-02, 6.52161893e-03, 8.95408541e-02,
          6.71588480e-02, 5.41382097e-02, 5.85971251e-02, 1.94601323e-02,
          1.01925828e-01, -1.59177594e-02, 1.40122715e-02,
          -9.59598180e-03, 3.56752314e-02, 3.72221868e-04,
          7.39096180e-02, 7.20920181e-03, -2.39728279e-02,
          -4.42717969e-02, 9.16502029e-02, 1.15645342e-01,
          -9.62970853e-02, 1.54462978e-02, -8.88901006e-04,
          -1.91473663e-02, -4.63355891e-02, 5.56688718e-02,
          5.46782054e-02, 3.53302397e-02, 7.13309869e-02, 3.63160670e-02,
          8.86554047e-02, -4.30988893e-02, -3.36447172e-02,
          -3.85096110e-02, 6.68387711e-02, -9.27034691e-02,
          4.55088466e-02, 5.24703637e-02, 3.22251543e-02, 5.47626652e-02,
          -1.04814526e-02, 8.16514716e-02, -6.21556416e-02,
          2.05712579e-02, 4.01135497e-02, 5.35336584e-02, 8.58442038e-02,
          -5.03184535e-02, 4.15764712e-02, 2.23347638e-03,
          2.13297480e-03, 1.77184585e-02, 1.33037539e-02,
          -9.78574082e-02, -1.79430563e-02, -5.42860068e-02,
          -3.00779138e-02, 5.48375770e-02, -6.73850253e-03,
          -1.19447266e-03, -6.37524053e-02, 3.56690213e-02,
          -3.47547652e-03, 6.78937361e-02, 5.02538979e-02,
          -1.07127540e-02, -3.56912650e-02, -1.17758466e-02,
          2.24683378e-02, 1.69725586e-02, -6.10033330e-03,
          6.22103177e-02, 6.66699335e-02, 2.44116820e-02,
          -3.23871523e-02, -4.82201762e-02, -8.48190859e-02,
          -6.90225214e-02, -6.33010417e-02, 1.18748760e-02,
          -6.30457774e-02, -4.54943404e-02, 5.22931805e-03,
          -8.16814601e-02, -2.62037963e-02, 6.91927895e-02,
          3.89621258e-02, -2.18851529e-02, 5.98274097e-02,
          -9.96252373e-02, 1.65597890e-02, 1.19536757e-01,
          8.83830944e-04, 3.19004729e-02, -2.44414601e-02,
          -2.28585154e-02, -4.45203707e-02, -2.33244784e-02,
          -9.58495289e-02, -3.81262451e-02, -8.06483328e-02,
          -5.61951026e-02, -1.80857871e-02, 8.01106449e-03,
          4.69876714e-02, 2.32552253e-02, -9.16663650e-03,
          -8.37770998e-02, -8.03196281e-02, -5.51875345e-02,
          -5.03734909e-02, -1.09366663e-02, 2.19418611e-02,
          5.36957458e-02, 3.90081853e-02, -4.53836517e-03,
          -3.87981571e-02, -2.76884306e-02, -1.88285280e-02,
          -2.45124176e-02, 1.26721784e-02, -4.98296879e-03,
          -4.03317362e-02, 5.49539477e-02, -3.16533297e-02,
          -1.17113411e-01, -3.64584215e-02, 6.30047172e-02,
          -2.61211954e-02, 1.45236701e-02, 8.17408320e-03,
          5.63354008e-02, 8.04011896e-02, 1.69685632e-02,
          -1.91763975e-02, -4.63569649e-02, -3.55351828e-02,
          3.03574204e-02, 4.92386473e-03, 8.14106781e-03,
          -4.73356526e-03, 5.11331204e-03, -1.32921524e-02,
          -3.40145566e-02, -7.18130395e-02, -8.75632614e-02,
          -6.99018463e-02, -1.27660856e-03, 3.33267264e-02,
          -4.44817655e-02, 4.77021970e-02, 2.30489275e-03,
          6.85047731e-02, 3.32930475e-03, -4.56675366e-02,
          -1.24012865e-02, 4.89381626e-02, -1.44103011e-02,
          -3.55414301e-02, -1.60537586e-02, -4.41940166e-02,
          9.08370838e-02, -1.27949882e-02, -1.74180325e-02,
          -2.31327284e-02, 1.15733165e-02, -5.99249303e-02,
          -3.07058897e-02, 3.24502587e-02, -1.96022373e-02,
          -2.87995134e-02, -2.50374302e-02, -8.03098157e-02,
          1.25999060e-02, 4.71726209e-02, 3.96291204e-02, 5.97695857e-02,
          -8.95167887e-03, -3.02544702e-02, 8.08722675e-02,
          -1.57575067e-02, -5.69300279e-02, 3.94512378e-02,
          2.77658133e-03, -2.05631694e-03, -4.69659716e-02,
          -3.22370864e-02, -1.83601305e-02, 3.82359815e-03,
          -5.37619833e-03, 1.32011324e-02, 8.65353364e-03,
          4.84093577e-02, -8.03647563e-02, 2.41754632e-02,
          4.49332334e-02, 6.12682626e-02, 5.02922162e-02, 8.78009573e-03,
          -3.44577953e-02, 3.34565565e-02, -1.04744937e-02,
          -1.19727012e-02, 4.77628112e-02, -8.02965239e-02,
          9.96074378e-02, -1.01547334e-02, -1.12201246e-02,
          -4.11833785e-02, 5.70347905e-03, -2.10878756e-02,
          6.12915047e-02, 6.66843876e-02, -1.26580913e-02,
          -9.42065008e-03, -5.70360087e-02, -2.01647580e-02,
          5.21331765e-02, -1.39887910e-02, 6.26577064e-02,
          -8.76213703e-03, 2.86474116e-02, 3.45318764e-02,
          1.42340306e-02, 5.32598011e-02, 4.33957800e-02, 4.43931147e-02,
          1.47917885e-02, 5.55414408e-02, 4.07413282e-02, 7.31358901e-02,
          -7.66670983e-03, -9.36484896e-03, -1.04375571e-01,
          1.71387419e-02, -1.61347818e-02, -1.25291233e-04,
          2.49741320e-02, 2.08730474e-02, -1.63996487e-03,
          3.33289430e-02, 9.65188351e-03, 2.02105809e-02, 1.13547174e-03,
          1.55379567e-02, 1.72523614e-02, 1.45878028e-02, 2.74981614e-02,
          1.16666534e-03, 6.58652708e-02, 5.44068683e-03, 3.81964892e-02,
          2.35050526e-02, 4.48919013e-02, 1.41631439e-01, 8.75742659e-02,
          1.20827392e-01, -1.38725210e-02, -1.44653814e-02,
          -3.38504016e-02, -2.40772422e-02, 1.92506202e-02,
