%YAML:1.0
category: long_sleeves
classifier: !!opencv-ml-svm
   svm_type: C_SVC
   kernel: { type:LINEAR }
   C: 1.0000000000000001e-01
   term_criteria: { epsilon:2.2204460492503131e-16, iterations:1000 }
   var_all: 7560
   var_count: 7560
   class_count: 2
   class_labels: !!opencv-matrix
      rows: 1
      cols: 2
      dt: i
      data: [ 0, 1 ]
   sv_total: 1
   support_vectors:
      - [ 2.79051717e-02, -2.00704634e-02, 3.56156193e-02,
          -1.74593348e-02, -1.88710019e-02, -1.56102469e-03,
          5.25219627e-02, 4.52248603e-02, 3.69719788e-02,
          -4.67253337e-03, 4.00535949e-03, 2.13795938e-02,
          -2.04589427e-03, -1.86789669e-02, -3.77878733e-02,
          2.03986801e-02, -3.07652224e-02, -2.45191362e-02,
          -2.26631351e-02, -6.71975911e-02, 5.38157150e-02,
          2.46408451e-02, 5.56904338e-02, 1.03812754e-01, 4.15905528e-02,
          2.26716641e-02, -3.95429283e-02, 9.94504080e-04,
          -7.66065493e-02, 5.14603108e-02, 3.04239448e-02,
          6.71351776e-02, 1.31057464e-02, 1.68598071e-02, 1.75005123e-02,
          -4.55641560e-02, -3.30087245e-02, -2.13385858e-02,
          -9.24006011e-03, 5.20962700e-02, -5.65062091e-02,
          -1.14751840e-02, -2.54649147e-02, -4.62626927e-02,
          -3.97052616e-02, 4.10295539e-02, -2.75782077e-03,
          1.29235508e-02, 1.28308833e-02, 6.79611368e-03,
          -1.38097361e-03, 1.72169600e-02, -3.32621369e-03,
          2.39323918e-02, -2.48080194e-02, -6.78568855e-02,
          -1.47870509e-02, 1.83913093e-02, -2.91631054e-02,
          -1.92257557e-02, -2.26806309e-02, 1.05499034e-03,
          -3.62675786e-02, 6.79904446e-02, 4.43853177e-02,
          1.33010969e-02, 1.51396347e-02, 1.59414206e-02,
          -4.47977856e-02, 2.02330779e-02, -5.91482297e-02,
          2.00762842e-02, -2.62192320e-02, 1.12612061e-02,
          1.42581053e-02, -2.56337766e-02, -6.01284243e-02,
          -5.60864210e-02, -1.55036058e-03, 3.29090096e-02,
          -4.16709632e-02, -6.84257373e-02, -3.23292017e-02,
          2.05795523e-02, 1.94373392e-02, -2.35503297e-02,
          -2.23020799e-02, 1.05257910e-02, 1.41374981e-02,
          -4.82147699e-03, 2.30966583e-02, 8.40343162e-02,
          1.23139480e-02, -5.79179730e-03, 3.61777619e-02,
          -1.30454386e-02, 1.29147237e-02, -2.03199801e-03,
          1.50826282e-03, 6.26751557e-02, -1.36875419e-03,
          -3.46493791e-03, -1.82253756e-02, 9.96581279e-03,
          -1.13918968e-02, -4.87821773e-02, 4.41483893e-02,
          5.22128157e-02, -1.55788194e-02, -9.84895322e-03,
          8.38053063e-04, 3.32671255e-02, -3.39626856e-02,
          5.25380895e-02, 7.17910454e-02, 3.80602255e-02, 1.96194164e-02,
          5.36697358e-02, 3.92654836e-02, 5.68877608e-02, 8.42171628e-03,
          2.29517836e-02, 3.16660479e-02, 4.74988148e-02, 2.18180772e-02,
          2.36062519e-03, 2.47696321e-02, -6.04999438e-02,
          -2.95473505e-02, 1.92736145e-02, -8.07704590e-03,
          2.02694535e-02, -2.61756312e-02, -7.00687873e-04,
          1.01911351e-02, 2.14469656e-02, 2.68328586e-03, 5.26158810e-02,
          -2.70600896e-03, 4.31525372e-02, 2.49610562e-02,
          2.52477974e-02, 9.96060949e-03, -1.85141340e-02,
          -5.83126657e-02, 5.85892051e-02, -3.25252227e-02,
          9.41297505e-03, 6.18242770e-02, 1.38438987e-02, 3.00502200e-02,
          5.30096404e-02, -2.51770467e-02, -2.05600932e-02,
          -4.47837040e-02, -9.52229078e-04, -9.30433627e-03,
          3.40800397e-02, 5.53944428e-03, -1.18760159e-03,
          1.92998927e-02, -3.87832858e-02, 2.97907717e-03,
          8.88184085e-02, 1.15264636e-02, -2.33171089e-03,
          6.54903576e-02, 6.02650307e-02, 6.38886839e-02, 5.50755523e-02,
          -2.55797356e-02, -7.73369847e-03, -1.32291401e-02,
          6.22980250e-03, 3.27109657e-02, 2.87212655e-02, 1.60496254e-02,
          9.26828682e-02, 9.32724252e-02, 1.46292225e-02,
          -2.78514181e-03, -5.84023558e-02, -3.96720972e-03,
          -6.41861232e-03, -2.34784633e-02, -5.48034795e-02,
          -3.28495800e-02, -6.67236894e-02, -6.93836191e-04,
          -4.91555221e-03, -1.04399398e-02, 4.26664576e-02,
          -5.52409329e-03, -7.84745347e-03, -5.82090467e-02,
          3.32007222e-02, 3.90401781e-02, 6.71067787e-03, 7.13405237e-02,
          3.03037968e-02, 1.06794490e-02, 1.77798122e-02, 3.09235752e-02,
          -1.08809909e-02, 1.61586720e-02, -1.46448845e-02,
          1.22644482e-02, 3.10452431e-02, 1.21686086e-02, 3.00347935e-02,
          -1.78780053e-02, -5.98668382e-02, -6.20988272e-02,
          -1.97512042e-02, -6.50349422e-04, -2.90669668e-02,
          -7.60936663e-02, -4.80051003e-02, -9.84763280e-02,
          -8.84936675e-02, -1.35924146e-02, -3.55619118e-02,
          3.24199274e-02, 5.32901622e-02, -3.84968482e-02,
          6.99597690e-03, 2.02675845e-04, -6.49297833e-02,
          3.52317020e-02, 3.12459152e-02, -3.14346701e-02,
          -2.83801500e-02, 6.73181424e-03, 4.62443233e-02,
          1.26626557e-02, -5.44977002e-02, 2.08021514e-03,
          -6.59078136e-02, 1.97905060e-02, -4.71469052e-02,
          1.03640957e-02, 2.68351194e-02, -7.13525619e-03,
          -1.53063983e-02, 1.48323625e-02, -2.21224111e-02,
          1.60076190e-02, -2.98765302e-02, -4.51602936e-02,
          6.59622699e-02, 1.73771568e-02, -2.93445606e-02,
          1.70580875e-02, -1.33550109e-03, -4.25738655e-02,
          1.72467937e-03, -3.74518298e-02, -2.76538618e-02,
          -5.18899150e-02, 1.19410250e-02, -2.93748733e-02,
          1.13687869e-02, 3.29957604e-02, -1.43591352e-02,
          -2.53485106e-02, 9.92519222e-03, -5.20734936e-02,
          -4.53272313e-02, -5.29462472e-02, -5.51223056e-03,
          3.15521918e-02, -4.96445782e-03, -2.56380066e-02,
          8.50996934e-03, -8.95359963e-02, -6.39225096e-02,
          -3.59571278e-02, -2.26828661e-02, -8.13075230e-02,
          5.28024556e-03, -4.36187759e-02, -2.36940868e-02,
          -3.15175429e-02, -3.89850102e-02, -2.11327877e-02,
          -3.59274037e-02, 1.20614422e-02, 6.62827045e-02,
          -1.26959784e-02, 2.11123396e-02, 4.12032157e-02,
          2.19716225e-03, -1.94733609e-02, -4.31519523e-02,
          -2.10463572e-02, -1.55315017e-02, -2.49279328e-02,
          -1.59578901e-02, -2.29491852e-02, -2.84854043e-02,
          -1.21580269e-02, -3.84712256e-02, 1.68191660e-02,
          -1.77977825e-04, 1.69092708e-03, 2.10973788e-02,
          -5.35626197e-03, -9.81947780e-03, -4.15840894e-02,
          2.19054036e-02, -2.96463054e-02, -3.60541977e-02,
          9.45128500e-03, -2.69212779e-02, -1.52392406e-02,
          1.35374768e-02, 2.04103142e-02, -1.24093341e-02,
          3.79818268e-02, -4.39822823e-02, -2.60974187e-02,
          -3.48180868e-02, 1.80649534e-02, 1.86254289e-02,
          -6.64908290e-02, 8.00741836e-03, -2.39616409e-02,
          3.22654732e-02, 1.44545585e-02, 2.66995821e-02, 2.04207227e-02,
          -3.25723775e-02, -1.59097686e-02, 2.99193002e-02,
          3.40184979e-02, 2.77890591e-03, 1.60740968e-02, 8.77554994e-03,
          1.91345699e-02, 5.95722953e-03, -4.64273840e-02,
          -2.87774168e-02, 2.35726759e-02, -1.88064203e-02,
          -3.23432428e-03, 2.96751242e-02, -4.52800281e-02,
          -3.44782285e-02, -6.24417253e-02, 1.12337954e-02,
          -4.95862514e-02, 4.66335863e-02, 5.76731972e-02,
          5.80868050e-02, 5.94503693e-02, 1.40260756e-02,
          -1.54058840e-02, 3.27295214e-02, 5.96382143e-03,
          3.56608443e-02, 2.63230801e-02, -4.16318700e-02,
          5.32365497e-03, -1.29770450e-02, -4.54890653e-02,
          9.85183846e-03, -3.46832164e-02, -4.04227525e-02,
          3.30920145e-03, 5.45464717e-02, -1.39757609e-02,
          3.21794115e-02, 6.06318004e-03, 1.10514825e-02, 4.66005504e-03,
          -1.08686939e-03, -2.23644897e-02, 3.20130866e-03,
          2.33264733e-02, -3.64818349e-02, 6.65893313e-03,
          -2.82166852e-03, -7.42710233e-02, 1.93562824e-02,
          1.51408138e-02, -1.64962094e-02, -2.09325831e-02,
          2.62311790e-02, 8.11811723e-03, -3.40756588e-02,
          1.86088495e-03, -1.53720723e-02, 1.58676561e-02,
          -3.13882716e-02, -3.79964858e-02, 1.01345349e-02,
          5.79112791e-04, -5.25391772e-02, 9.16727819e-03,
          -5.90551905e-02, 3.29427607e-02, 1.04139075e-02,
          1.18874786e-02, 1.92753412e-02, -1.81714147e-02,
          -1.62332281e-02, 2.11363528e-02, -9.06757638e-03,
          -1.06844129e-02, 6.70355838e-03, -3.39474007e-02,
          -1.50316842e-02, 3.07332110e-02, 2.23162887e-03,
          -2.99259014e-02, -1.17141381e-02, -3.39295790e-02,
          -3.62334326e-02, 2.89124362e-02, 4.90383618e-03,
          -3.08719967e-02, -1.77072696e-02, -1.65122058e-02,
          4.63108085e-02, -6.44107116e-03, -3.89377289e-02,
          -3.16527579e-03, 2.80407127e-02, 2.11088303e-02,
          -1.14846211e-02, -2.52394155e-02, 1.61564890e-02,
          -1.13210287e-02, 2.63182558e-02, -2.50309799e-02,
          1.84382256e-02, -1.27430009e-02, -1.26950881e-02,
          -8.16479996e-02, 1.04388325e-02, 2.07963251e-02,
          -7.28893140e-03, -2.89889472e-03, -3.81601453e-02,
          -6.48988187e-02, -8.68224278e-02, -2.05056220e-02,
          -1.15540167e-02, 8.99153203e-03, 2.72066053e-02,
          1.29533280e-02, 1.13032106e-03, -4.31988807e-03,
          -1.85624454e-02, 1.85981411e-02, 2.00565848e-02,
          -9.21483487e-02, -6.25670627e-02, -4.87300195e-02,
          -1.39681920e-02, 1.99679751e-02, -2.62541696e-02,
          -8.92113298e-02, 1.12057310e-02, 7.59084746e-02,
          -1.88362761e-03, 6.56397222e-03, -4.31780331e-02,
          -1.01528494e-02, 4.95732622e-03, -4.18189168e-03,
          -3.31025049e-02, -4.20675352e-02, -4.44001183e-02,
          1.13036670e-02, -3.00397817e-02, 1.21325776e-02,
          -2.18748432e-02, -1.18411658e-02, -1.79561693e-02,
          -3.89087833e-02, 2.19570310e-03, 7.21396692e-03,
          1.33664692e-02, -3.44511680e-02, -5.07022515e-02,
          1.22162141e-02, 5.07387668e-02, 3.91330570e-02,
          -1.48392217e-02, 1.73865538e-02, 7.81486277e-03,
          -7.48206163e-03, 2.13287212e-02, 5.04351258e-02,
          -2.97370888e-02, -1.49551211e-02, 1.07755028e-02,
          -1.12724612e-02, -5.87442308e-04, 8.94196481e-02,
          -1.70841385e-02, 2.83342078e-02, 8.35463312e-03,
          5.75406216e-02, 2.81949993e-02, -9.54084389e-04,
          -1.53245153e-02, -5.23357987e-02, -1.13176117e-02,
          -4.31735218e-02, -8.15587789e-02, 2.57004285e-03,
          3.78922224e-02, -1.18639721e-02, 1.57145187e-02,
          4.89026774e-03, 2.43067965e-02, 3.31527963e-02,
          -4.41715540e-03, -4.69052456e-02, 5.75694069e-03,
          3.22596133e-02, 9.25691740e-04, 4.68843803e-02,
          -1.68381119e-03, 2.41023395e-02, 5.70958443e-02,
          -6.72107562e-02, -2.08871383e-02, 1.37749556e-02,
          -3.56888622e-02, -6.57942742e-02, -6.78757653e-02,
          -8.50163121e-03, 1.08059095e-02, 6.95747957e-02,
          2.51421034e-02, 2.95309555e-02, 2.89556989e-03,
          -2.07651816e-02, -3.31478305e-02, -9.86773986e-03,
          -6.05930611e-02, -1.38693741e-02, 6.82077408e-02,
          -8.23391788e-03, -1.22068578e-03, -1.56463590e-02,
          -2.38989964e-02, -1.78334005e-02, -1.91105250e-02,
          -2.92946994e-02, -6.56791497e-03, 1.13420412e-02,
          -2.40080319e-02, -6.31663622e-03, -4.53384146e-02,
          -1.42173292e-02, 3.39993322e-03, 1.51780425e-02,
          -3.75796966e-02, -2.56513171e-02, 1.88268218e-02,
          5.40607572e-02, 4.88942116e-02, -5.87986149e-02,
          -1.04688857e-04, -7.59015903e-02, -1.05171623e-02,
          -8.30286890e-02, -3.29964720e-02, -2.95197163e-02,
          -2.00641602e-02, 4.06569541e-02, 2.70258002e-02,
          -3.24103907e-02, 3.36691225e-03, -4.10000421e-02,
          -2.39412431e-02, -9.13242251e-03, 2.98797828e-03,
          -1.37311919e-02, 1.72736067e-02, 1.96473692e-02,
          -4.24014330e-02, -1.34410411e-02, -4.20801155e-03,
          2.00723130e-02, 3.03730890e-02, -3.21879461e-02,
          1.21139893e-02, 3.12821269e-02, -7.83758797e-03,
          -1.37115913e-02, -7.15593994e-02, -2.48341891e-03,
          5.14042983e-03, 8.65139253e-03, -5.34676351e-02,
          1.15253241e-03, -9.73461010e-03, -2.48337947e-02,
          3.67490342e-03, -6.98606372e-02, 5.57640940e-03,
          -1.85671169e-02, -2.26574987e-02, -4.11998667e-02,
          5.34314066e-02, 4.13134834e-03, 1.04482612e-02, 6.84749894e-03,
          2.79391892e-02, -4.66238968e-02, -4.47495468e-03,
          4.19153385e-02, 1.21579993e-04, 4.10949215e-02, 2.33512912e-02,
          -1.87574197e-02, 1.02530438e-02, -2.64753141e-02,
          4.81918640e-02, 6.90369913e-03, -2.13140268e-02,
          -4.80947606e-02, -2.87481397e-03, 4.27518599e-03,
          -5.15900925e-03, 4.49834503e-02, -4.52967137e-02,
          -7.10454807e-02, -5.41143753e-02, 5.01055084e-03,
          -3.57200392e-02, 2.19015907e-02, 4.93418425e-02,
          2.36639008e-02, 4.57732715e-02, -1.07954200e-02,
          8.16353876e-03, -5.79389706e-02, -6.90700561e-02,
          -6.70587569e-02, 4.46158536e-02, -3.58513482e-02,
          1.84255640e-03, -4.34915088e-02, -5.11617102e-02,
          3.34034562e-02, 6.95931865e-03, -7.13999732e-04,
          -3.90455239e-02, -4.55063134e-02, -3.61716002e-02,
          -4.42404300e-02, 5.42138703e-02, 5.19665517e-02,
          1.34339988e-01, -2.90255174e-02, 6.31542727e-02,
          4.94455844e-02, 6.40013888e-02, 2.52458695e-02,
          -1.84294477e-03, -1.65754720e-03, -2.16441173e-02,
          -1.60894080e-04, 2.91620884e-02, 4.79118787e-02,
          1.85072646e-02, 4.41373363e-02, -1.52084231e-02,
          -7.88538076e-04, 4.39966768e-02, -3.19076888e-02,
          -1.34656914e-02, 2.96117663e-02, 3.55312452e-02,
          2.70396713e-02, 8.79001766e-02, 8.27952027e-02, 7.22391019e-03,
          -1.12360073e-02, 4.82622394e-03, 4.97591449e-03,
          -5.99389672e-02, 6.70894459e-02, 3.71635966e-02,
          3.80906016e-02, -3.86760794e-02, -4.67372909e-02,
          6.03688136e-03, -5.80289448e-03, 1.58371739e-02,
          6.46743104e-02, 1.18017346e-02, 2.94901896e-02, 4.00257632e-02,
          2.13321429e-02, -4.33688425e-03, 4.26987559e-02,
          1.93152241e-02, 2.78516430e-02, 1.30630080e-02, 4.81440462e-02,
          -2.05872599e-02, 1.31775746e-02, -2.54809950e-03,
          3.31953317e-02, 8.87238085e-02, 1.48597984e-02,
          -3.21383355e-03, 4.02583592e-02, 2.35421713e-02,
          -2.11773701e-02, 1.60728674e-03, 2.78901663e-02,
          4.91326712e-02, 7.74227083e-03, -3.31199504e-02,
          -4.29463573e-02, -2.25648694e-02, -9.18463543e-02,
          -2.40912382e-02, -3.53668816e-02, -7.56070390e-02,
          -3.21192443e-02, 4.16729599e-02, -3.08207683e-02,
          -2.99042719e-03, -4.09390777e-02, -1.17223427e-01,
          -2.18566470e-02, -2.65259165e-02, -3.36427763e-02,
          2.77442839e-02, -1.51375895e-02, -4.76467982e-02,
          -3.97333913e-02, 4.36733700e-02, -4.94243056e-02,
          -5.62465703e-03, -5.82191069e-03, -5.46139292e-02,
          1.94443408e-02, 3.47106084e-02, 3.44511680e-02, 3.28610837e-02,
          7.90292025e-02, -8.94384272e-03, 2.25691479e-02,
          -7.70506304e-05, 1.81806721e-02, 4.77465317e-02,
          -4.49474752e-02, -4.29586433e-02, -5.27652651e-02,
          -6.02404475e-02, -4.95205633e-02, 6.86540641e-03,
          7.30552478e-03, -2.00368874e-02, -4.04770337e-02,
          1.06672896e-02, -3.56436893e-03, -5.97049259e-02,
          -1.94756556e-02, -1.67152882e-02, 5.28921490e-04,
          5.69731109e-02, -4.55450155e-02, -1.54864090e-02,
          4.81883921e-02, -4.62235920e-02, 7.95187242e-03,
          -1.21503882e-02, 3.18595842e-02, 1.57147925e-02,
          -1.66040368e-03, -2.07299879e-03, -1.97622888e-02,
          2.50300742e-03, -1.30547449e-01, -4.89839762e-02,
          -3.59245320e-03, 2.66051497e-02, 5.62439300e-02,
          3.26025933e-02, -3.82995531e-02, -3.90556864e-02,
          1.57646146e-02, -3.53866513e-03, -4.62590978e-02,
          1.42883183e-03, -4.80763875e-02, -3.15788537e-02,
          6.57370463e-02, 7.17179803e-03, -6.25765473e-02,
          5.72975539e-03, -9.18253977e-03, -5.56853116e-02,
          -3.27685028e-02, 1.21483803e-02, -3.01829968e-02,
          1.17836846e-02, 9.57990531e-03, 2.49187294e-02,
          -5.18352091e-02, -3.06305438e-02, -3.28174345e-02,
          -2.15243101e-02, 2.74721114e-03, -3.48915942e-02,
          9.55102313e-03, -1.72236115e-02, -1.25962421e-02,
          -9.18768048e-02, -6.59201220e-02, -2.48805527e-02,
          2.73587939e-04, 5.35161234e-03, -2.64204275e-02,
          -3.84431854e-02, -2.26281956e-02, -1.41930450e-02,
          -5.76530658e-02, 2.29296591e-02, -3.98623422e-02,
          8.74676555e-03, -5.82293011e-02, -2.86867283e-02,
          4.24379297e-02, -1.29485251e-02, 5.52688667e-04,
          -1.30310915e-02, -7.20177293e-02, -3.97965834e-02,
          -3.41338268e-03, -7.73897767e-02, -7.85170775e-03,
          2.81262212e-02, 3.29956673e-02, -8.35710950e-03,
          -6.17584623e-02, -3.83594446e-02, 1.10655394e-03,
          -8.57141800e-03, -4.35721241e-02, -5.02428226e-03,
          -9.12903529e-03, -3.47272903e-02, -3.79018933e-02,
          -2.64042895e-02, 1.76624118e-04, 4.78266515e-02,
          -2.57662740e-02, 1.31985731e-02, 3.17249149e-02,
          4.61144969e-02, 4.52172533e-02, -3.26091684e-02,
          -8.17579124e-03, -5.25234863e-02, 2.02287454e-03,
          2.81353295e-03, -3.44709828e-02, -4.09599431e-02,
          -2.58678268e-03, 2.70002596e-02, -3.91524471e-02,
          2.02326979e-02, -2.08565891e-02, -7.89136719e-03,
          -1.70166045e-02, -1.33291387e-03, 2.48834621e-02,
          2.33113281e-02, 1.25930356e-02, -1.38334725e-02,
          -6.34273840e-03, -9.89024527e-03, -8.04717094e-03,
          -1.72768384e-02, -9.35398508e-03, -1.68950353e-02,
          -3.11253034e-02, 5.37751243e-03, 3.89013626e-02,
          -3.36307101e-02, 1.29079977e-02, -4.44217399e-02,
          -3.06051113e-02, 2.01982111e-02, 3.31890993e-02,
          -1.19399671e-02, -3.39361392e-02, -2.95205470e-02,
          3.42261828e-02, 5.69109339e-03, 8.19262862e-03,
          -6.15744572e-03, 3.59457061e-02, 4.08527404e-02,
          3.35330106e-02, 1.46180578e-02, -4.40179221e-02,
          -2.60087810e-02, -4.41451408e-02, 3.10321283e-02,
          4.44536749e-03, -2.00182702e-02, 5.32459654e-03,
          -1.15863848e-02, -5.56960665e-02, -3.82740013e-02,
          -2.09772903e-02, 3.17463391e-02, -8.07305425e-03,
          4.30823863e-03, 5.93143441e-02, -2.04357859e-02,
          6.75856136e-03, -1.37464711e-02, -2.98479833e-02,
          -1.47920484e-02, 3.21020298e-02, 3.86931486e-02,
          4.22031656e-02, -1.02300048e-02, -1.95945147e-02,
          -1.58420000e-02, -3.78960408e-02, -2.88753230e-02,
          -1.31928809e-02, -2.82417191e-03, -1.70728713e-02,
          -5.01236282e-02, 1.88462678e-02, 1.29046457e-04,
          -2.06846725e-02, -1.77393109e-02, 4.89659347e-02,
          4.56600003e-02, -2.37057991e-02, -2.21190993e-02,
          7.45594036e-03, -4.67743315e-02, -3.69133204e-02,
          2.54808809e-03, 2.93821543e-02, 1.11490220e-01,
          -2.31579621e-03, 3.44105512e-02, 8.98747984e-03,
          -5.60275801e-02, 2.09441576e-02, 2.92206500e-02,
          3.13983439e-03, -2.23240536e-03, -1.55444618e-03,
          1.11776907e-02, 1.91008989e-02, -4.33716364e-03,
          4.54698503e-02, 5.16548790e-02, -1.38793597e-02,
          -2.91190948e-02, -2.68150941e-02, 6.32083556e-03,
          2.38228142e-02, -5.91149591e-02, 3.59270982e-02,
          1.75370518e-02, -1.31723387e-02, -5.18665463e-02,
          -4.54461016e-02, -1.67152360e-02, 2.24892925e-02,
          1.90932471e-02, 2.19541136e-02, 3.74251343e-02,
          -6.90520927e-02, -3.27376649e-02, -5.92861907e-04,
          3.15902829e-02, 5.33645451e-02, -1.77066680e-02,
          -3.43978368e-02, -3.67623344e-02, 2.35359389e-02,
          -5.78799611e-03, -2.69594863e-02, -2.48277690e-02,
          -4.10049781e-02, -3.12714055e-02, -3.23152281e-02,
          -4.38601896e-02, 2.22306550e-02, -1.05324527e-02,
          -2.62973942e-02, -2.87540443e-02, -1.09973755e-02,
          1.07209804e-02, 4.81294189e-03, -2.89893709e-02,
          -4.52058390e-02, 2.28366293e-02, 2.68690903e-02,
          -5.69537953e-02, -8.22758023e-03, -5.02738096e-02,
          3.44488374e-03, -1.91479344e-02, -4.32562195e-02,
          -5.35343029e-02, -3.05150431e-02, -2.52651609e-02,
          -3.30696590e-02, 6.10430166e-03, 1.85166672e-02,
          9.37123038e-03, 1.22153629e-02, -4.68674935e-02,
          -4.49813567e-02, 1.64355198e-03, 2.00754683e-02,
          5.06530106e-02, 1.17366910e-02, -7.69016966e-02,
          -4.37329337e-02, -4.52561770e-03, 1.90294050e-02,
          1.00904992e-02, -2.34952662e-02, -2.76882965e-02,
          -2.42909286e-02, 4.38985527e-02, -8.20524618e-03,
          -2.73314118e-03, -5.64368628e-02, -2.71375570e-03,
          2.63132099e-02, -2.94256955e-02, 4.38188948e-02,
          1.19418977e-02, -1.35844387e-02, 1.30602317e-02,
          -6.77349279e-03, -2.99752355e-02, -8.94023199e-03,
          4.77258489e-02, -1.21070510e-02, -1.52319996e-02,
          -2.61818897e-02, -3.98360007e-02, 2.17876714e-02,
          2.69682240e-02, 6.42988598e-04, 1.95480026e-02,
          -2.81728953e-02, 1.88521743e-02, 5.39750755e-02,
          5.87408571e-03, -3.73038165e-02, 2.30986513e-02,
          -1.22670559e-02, -5.80855720e-02, -7.36812800e-02,
          3.83254476e-02, 3.72445285e-02, 1.97354704e-02, 4.15094011e-02,
          -9.99245886e-03, 3.96031067e-02, 1.95610393e-02,
          -1.66126527e-02, 1.62934465e-03, 3.51109877e-02,
          -2.79402249e-02, 6.93699485e-03, 3.30252163e-02,
          -4.80792020e-03, -2.45518181e-02, 7.01574190e-03,
          -1.64705887e-02, 6.66822121e-02, -2.12353785e-02,
          -3.60038988e-02, -2.96044406e-02, -7.59709403e-02,
          -4.42044847e-02, -1.22036422e-02, -3.52680720e-02,
          -1.37652587e-02, 6.69062464e-03, 1.13777993e-02,
          -1.48897078e-02, 1.09157022e-02, -1.30958678e-02,
          6.83354065e-02, 2.28853002e-02, 3.80626530e-03, 5.75413108e-02,
          -1.59717891e-02, -1.33762304e-02, -7.76077211e-02,
          -6.66088313e-02, -3.07515115e-02, -4.93213236e-02,
          -9.44268480e-02, -6.58299029e-02, 2.82294247e-02,
          1.56975016e-02, 2.60033160e-02, -1.78844463e-02,
          -1.07346731e-03, 5.17972326e-03, 3.97715485e-03,
          8.90073460e-03, 2.98199113e-02, -3.55285816e-02,
          -2.71929987e-02, -2.02537365e-02, -5.97930215e-02,
          -1.99315306e-02, -2.72181798e-02, -1.24713704e-02,
          -2.10749693e-02, 4.02801251e-03, -5.34388684e-02,
          -6.37182314e-03, 6.36127871e-03, 1.90665666e-02,
          2.59502865e-02, 1.61179490e-02, 9.79485735e-03,
          -9.53088049e-03, 1.40859336e-02, 2.11376697e-02,
          8.35394673e-03, -3.83434519e-02, 2.50828303e-02,
          3.27203274e-02, 4.89106961e-03, -6.56628609e-02,
          -3.93706113e-02, 4.45176102e-03, -9.66477499e-04,
          -4.97126393e-02, -1.48129379e-02, -2.10299473e-02,
          5.54390531e-03, 1.11374743e-02, -2.56681163e-02,
          -1.42577058e-02, -6.50205882e-04, 3.12716700e-02,
          2.79968362e-02, 8.44237022e-03, 2.12767702e-02,
          -8.58230796e-03, 1.93449482e-02, -1.06010893e-02,
          -1.41447997e-02, -1.35183241e-02, -1.95295364e-02,
          3.10113635e-02, -4.53281403e-02, 2.86397412e-02,
          9.57032666e-02, 1.74724888e-02, -1.72687378e-02,
          -1.86145753e-02, 5.31847998e-02, -1.28991501e-02,
          1.45242447e-02, -1.69946998e-02, -3.71014550e-02,
          3.06974463e-02, 6.26191031e-03, 1.63993854e-02,
          -2.27602967e-03, 1.63357705e-02, -2.29185149e-02,
          -1.13110337e-02, -5.05084991e-02, -2.43569426e-02,
          -1.08601917e-02, 2.03157160e-02, 4.11859713e-02,
          2.25972719e-02, 1.13987802e-02, -6.29925057e-02,
          -2.08512284e-02, 3.96362506e-02, 2.70513985e-02,
          2.88551697e-03, 2.68799067e-02, 6.76392093e-02, 5.14721125e-02,
          3.86680774e-02, 1.61463767e-02, 3.18492278e-02,
          -6.50756285e-02, 1.45904883e-03, -4.58101602e-03,
          3.61407213e-02, 2.04614494e-02, 6.27154997e-03, 2.72844844e-02,
          -2.76412498e-02, 7.93207996e-03, 6.14337027e-02,
          2.32681986e-02, 3.65847871e-02, -2.31422819e-02,
          7.80727640e-02, 3.86192128e-02, 1.05050337e-02,
          -6.53036982e-02, 3.48877460e-02, -1.53722204e-02,
          -7.58524090e-02, 3.31016369e-02, 4.26883101e-02,
          2.43911520e-02, 2.77122967e-02, -3.58127989e-02,
          -7.01648667e-02, 1.91415963e-03, 4.01931182e-02,
          -1.22550586e-02, -1.99127570e-02, 4.70738783e-02,
          -2.32214108e-02, 1.29978852e-02, 2.84784921e-02,
          4.53323983e-02, 2.58546285e-02, -4.95015755e-02,
          -2.38772649e-02, -1.15751280e-02, -1.53143164e-02,
          8.46824888e-03, 2.00419873e-02, -2.67465580e-02,
          -8.27028304e-02, -3.53001687e-03, -5.44332201e-03,
          3.12351473e-02, 5.80147048e-03, 3.72630879e-02, 1.87284574e-02,
          -2.67345384e-02, -1.75549872e-02, 1.44733414e-02,
          5.85330352e-02, 1.11685051e-02, -6.11805953e-02,
          -5.24146557e-02, -1.50819295e-04, -1.17417179e-01,
          3.57038411e-03, 3.56265493e-02, 2.86634313e-03,
          -4.33170088e-02, -3.75925638e-02, -1.77017860e-02,
          4.94207870e-06, 2.24580895e-02, -6.60940260e-02,
          -1.35158477e-02, -5.49024791e-02, -1.73805133e-02,
          -3.07450946e-02, 2.10915040e-02, 6.19811995e-04,
          1.06164729e-02, -3.64156850e-02, -5.73470490e-04,
          -1.95241962e-02, 2.71870196e-02, -2.58162562e-02,
          -1.73090734e-02, 6.29279613e-02, -2.09650062e-02,
          3.65877897e-02, 1.15139829e-03, -6.98130950e-02,
          -1.59537587e-02, 1.22170541e-02, -1.81642026e-02,
          2.35408749e-02, -1.13331471e-02, -5.73477335e-02,
          5.59402583e-03, -3.71411182e-02, -5.19790724e-02,
          -3.39570991e-03, 3.32325958e-02, 1.43109104e-02,
          -2.92273276e-02, 1.87789537e-02, -7.13622198e-02,
          5.60899312e-03, -1.39575787e-02, -5.75144663e-02,
          3.73488590e-02, 3.23531665e-02, 1.65381357e-02,
          -6.70020729e-02, 4.27721366e-02, -4.37398665e-02,
          2.52988916e-02, -2.04531923e-02, -1.11317113e-02,
          -4.09437940e-02, 4.34149094e-02, -5.43521624e-03,
          2.47951876e-02, 7.00903013e-02, -7.02768639e-02,
          3.58047150e-02, 2.46984349e-03, 1.25396182e-03, 4.94218282e-02,
          3.00229285e-02, -1.48584284e-02, 7.11771622e-02,
          3.51223908e-02, 2.72542220e-02, 1.70842763e-02,
          -1.07168220e-02, -5.19005507e-02, -3.99409123e-02,
          2.99903043e-02, 1.98106207e-02, -2.62811184e-02,
          -4.49230373e-02, 3.84312379e-03, -6.05500601e-02,
          -1.89239020e-03, -5.45893386e-02, -1.78340934e-02,
          -2.98085026e-02, -6.16097776e-03, -8.83203894e-02,
          6.33941172e-03, -1.47177121e-02, 1.67777482e-03,
          -4.41922843e-02, -1.23345163e-02, 2.08787825e-02,
          1.30568510e-02, -4.09429558e-02, 2.55696289e-02,
          -6.82178885e-02, -2.84055881e-02, -5.37404269e-02,
          2.28941645e-02, 4.66531701e-02, -4.46732109e-03,
          -4.31380905e-02, 3.90673243e-02, 1.25575857e-02,
          -3.05914246e-02, -3.58342007e-02, -2.24644430e-02,
          -5.96777722e-03, -2.03061420e-02, -2.55172215e-02,
          -9.35288984e-03, -2.37677116e-02, -5.76531440e-02,
          4.02546972e-02, 2.52864845e-02, 3.03826649e-02,
          -2.76319496e-02, 2.87937280e-02, -4.58625704e-02,
          -1.42508233e-02, -1.95944011e-02, 2.10815389e-02,
          -3.12030185e-02, -3.29353660e-02, -1.12194493e-02,
          4.51420853e-03, -3.61186340e-02, -2.20238939e-02,
          -7.61523843e-03, 1.96764898e-02, -3.52332219e-02,
          2.58700345e-02, -4.02694196e-02, 2.49301158e-02,
          4.86772507e-03, 4.48407531e-02, -4.13184017e-02,
          4.22685500e-03, -1.28438957e-02, 5.39543368e-02,
          -4.61641178e-02, 7.77755976e-02, 3.27277742e-02,
          -2.70664543e-02, 9.07681696e-03, 1.82703175e-02,
          -3.93280201e-02, -5.43146022e-02, -3.83798755e-03,
          -1.94496606e-02, 3.01355328e-02, -2.32305825e-02,
          -2.05382220e-02, 1.29437074e-02, 1.76513772e-02,
          3.25975083e-02, -3.09986304e-02, -1.89061929e-02,
          -3.71334851e-02, -9.59178358e-02, -4.80043422e-03,
          -1.60240978e-02, -9.76979826e-03, -8.92087817e-03,
          3.46140675e-02, -1.52284000e-03, 7.23790228e-02,
          -3.61166708e-02, 7.68489717e-03, -8.06669050e-05,
          -1.04554901e-02, -6.44194009e-03, -2.53642338e-05,
          -1.07974662e-02, 2.05198620e-02, -3.74839753e-02,
          1.77788250e-02, -1.96205848e-03, -5.05367480e-02,
          -1.10797722e-04, 2.91050039e-02, -5.60839884e-02,
          1.56392772e-02, -5.31494897e-03, 1.02214729e-02,
          -2.23897528e-02, -1.38153723e-02, -7.17854884e-04,
          1.51807414e-02, -7.26191746e-03, -7.60227218e-02,
          4.71416190e-02, 2.26979647e-02, -1.05429543e-02,
          4.05401215e-02, 1.06167020e-02, 2.18626428e-02, 3.10610677e-03,
          -5.73439116e-04, 1.55150266e-02, 2.47442387e-02,
          -2.06108093e-02, 1.53176067e-02, 3.73086259e-02,
          4.28262400e-03, 1.19217474e-03, 5.72510296e-03, 7.57335499e-02,
          -3.17611210e-02, -1.02298139e-02, -1.96592044e-02,
          1.72136072e-02, -2.13713516e-02, -3.65592800e-02,
          -3.22424211e-02, -5.25312424e-02, -1.03519028e-02,
          -2.99581252e-02, 2.87896977e-03, -1.06750289e-02,
          -1.23907821e-02, -3.28394175e-02, -3.53718698e-02,
          1.73832674e-03, -2.60878243e-02, -4.15004455e-02,
          2.97982693e-02, 2.21524984e-02, -1.82209983e-02,
          -9.32527415e-04, 2.63821110e-02, -1.97685920e-02,
          1.83304474e-02, 1.54867005e-02, 9.60316882e-02, 2.57635210e-02,
          4.91674356e-02, -6.09291205e-03, 5.09209186e-02,
          -3.15680429e-02, 1.05055152e-02, 1.21652754e-02,
          3.88591588e-02, 6.56954106e-03, 2.60784611e-04, 6.18861131e-02,
          -2.75998674e-02, 3.85917835e-02, -1.99817792e-02,
          3.99723463e-03, 1.68492999e-02, 3.83005552e-02,
          -1.64870564e-02, 3.58589832e-03, -4.97679673e-02,
          2.37944126e-02, 5.92479424e-04, -1.07482839e-02,
          2.33501252e-02, -6.57761563e-03, -1.36330631e-02,
          1.82955991e-02, -1.36545273e-02, -1.84243787e-02,
          4.97057848e-03, -7.88582023e-03, -4.72736172e-02,
          2.72732303e-02, -1.93590615e-02, 4.84138504e-02,
          -3.76254842e-02, -1.09604932e-02, -1.60167622e-03,
          -1.46547891e-02, 7.88958685e-04, -3.26139592e-02,
          3.01457886e-02, 3.89520861e-02, -5.41819893e-02,
          -3.17561142e-02, -4.16961033e-03, -4.14564274e-02,
          6.77672029e-03, 2.05406174e-02, 1.14748301e-02, 1.26312543e-02,
          2.66371481e-02, 2.94284690e-02, 2.38448214e-02,
          -3.15013379e-02, 1.72544606e-02, 2.93733981e-02,
          3.86650451e-02, -4.04291563e-02, -3.33147123e-02,
          -1.45140905e-02, -7.38903973e-03, 4.01285663e-03,
          -5.29292459e-03, -2.36004256e-02, 3.40763368e-02,
          3.89252300e-03, 2.82709356e-02, -1.86889786e-02,
          -8.36624112e-03, -3.82926464e-02, -3.45925130e-02,
          -1.27089424e-02, 3.12626511e-02, 1.05405012e-02,
          4.40499783e-02, 9.72590689e-03, -5.02210818e-02,
          -3.33718695e-02, 1.76996663e-02, 4.65658568e-02,
          -3.08951270e-02, 3.20989713e-02, 4.23002057e-03,
          2.83729332e-03, 4.13623825e-02, 3.16281281e-02, 2.61892378e-02,
          1.84799042e-02, -3.23524661e-02, -4.76222411e-02,
          -2.30102073e-02, -1.09220028e-03, 7.61422934e-03,
          2.46195178e-02, -7.50021357e-03, -1.47102401e-02,
          4.53608707e-02, -5.40572926e-02, 2.83700004e-02,
          4.80894186e-02, -2.02193707e-02, -1.79323610e-02,
          4.95012552e-02, -7.47095421e-03, -1.56680476e-02,
          3.34580727e-02, -1.51464166e-02, -1.06273126e-02,
          3.92541215e-02, 2.15740744e-02, 7.48472139e-02, 1.42749306e-02,
          2.42488682e-02, 1.14848036e-02, 2.01787166e-02, 5.10957092e-02,
          2.26922147e-02, 4.89820801e-02, -3.43387946e-02,
          -2.48851776e-02, 2.20813435e-02, -1.58668794e-02,
          1.00327972e-02, -1.21432887e-02, 1.05047151e-01,
          3.64295878e-02, 5.85176274e-02, 6.99344575e-02,
          -3.10209673e-02, 1.50196319e-02, -4.94824648e-02,
          -8.55285078e-02, -5.59215201e-04, 2.23370586e-02,
          -6.88734800e-02, 2.00763494e-02, -2.16439795e-02,
          1.53787648e-02, 3.39767709e-02, -2.46430095e-02,
          4.28068414e-02, -3.69179510e-02, -1.92035604e-02,
          3.72232758e-02, 4.14734036e-02, 6.42900467e-02, 5.41704595e-02,
          -3.90973985e-02, -7.50290379e-02, 7.33227888e-03,
          -3.83951776e-02, -6.62715808e-02, -3.78166363e-02,
          3.74421254e-02, -5.92482723e-02, 4.39123288e-02,
          -6.59121200e-03, -1.43963732e-02, -6.18734583e-03,
          5.64316101e-02, -2.61094365e-02, -3.01680639e-02,
          7.04135001e-02, -8.29788297e-03, 6.18463866e-02,
          -7.49546960e-02, -3.59238237e-02, 1.04228640e-02,
          -1.03096850e-02, -3.26601155e-02, -1.79111883e-02,
          2.24187747e-02, -2.94831255e-03, 2.66372546e-04,
          2.47746352e-02, -1.98088530e-02, 2.98573598e-02,
          1.99319720e-02, -1.06493682e-02, 5.52024553e-03,
          1.07656054e-01, 5.78106008e-02, 6.17039762e-03, 2.03473773e-02,
          -6.29333556e-02, -4.92465161e-02, -6.03986271e-02,
          3.14070694e-02, -2.76728850e-02, -3.40235159e-02,
          -1.90581251e-02, -1.80773996e-02, -3.54106240e-02,
          -8.13514739e-03, 9.67361592e-03, 1.59818754e-02,
          1.69799104e-02, 7.47624934e-02, 1.66557506e-02, 7.48189539e-03,
          3.47827710e-02, -1.71411957e-04, -5.05515896e-02,
          8.41807667e-03, 1.05818389e-02, -3.90259811e-04,
          3.57905664e-02, 4.30773944e-02, -2.10792683e-02,
          -5.50171509e-02, 3.13563086e-02, 7.07453489e-03,
          -2.85685286e-02, -1.34886312e-03, 2.92103533e-02,
          1.07395850e-01, 7.96889961e-02, 4.52034287e-02,
          -3.05340197e-02, 9.79918167e-02, 2.70801913e-02,
          7.64167979e-02, 8.78545339e-04, 4.46620509e-02, 4.23240475e-02,
          4.58862586e-03, 8.89451522e-03, 2.55510006e-02,
          -3.90877277e-02, -1.80074386e-02, 4.19709180e-03,
          4.70588263e-03, 7.07473829e-02, -1.56099759e-02,
          3.63437869e-02, -8.05601850e-02, -4.13267650e-02,
          5.68298204e-03, 8.51029530e-03, 4.91593257e-02, 3.83253619e-02,
          7.05119222e-02, 2.74516996e-02, 4.24086377e-02,
          -4.92468849e-02, -5.00090979e-03, 2.96838228e-02,
          -2.67489403e-02, 5.54512255e-02, -7.52250012e-03,
          4.55557778e-02, -5.56847341e-02, -7.15812389e-03,
          -6.21219277e-02, 3.91941108e-02, 7.78257335e-03,
          -2.15621851e-03, 4.91444245e-02, 1.30140632e-02,
          5.10317832e-02, -6.46313326e-03, 4.48545851e-02,
          5.26686125e-02, -1.07153761e-03, -2.56580897e-02,
          -3.72964516e-02, -2.13486440e-02, -4.19526808e-02,
          1.62019860e-02, 5.48133031e-02, 3.64504755e-02,
          -5.53005487e-02, -2.31295954e-02, 3.94290835e-02,
          1.13916313e-02, 1.74225029e-02, -2.31523477e-02,
          -2.71850619e-02, -4.25504055e-03, 6.06611092e-03,
          4.83529381e-02, 6.71633780e-02, -2.66016275e-02,
          -7.92489015e-03, -2.89549716e-02, 2.22676490e-02,
          4.16464657e-02, 4.28959057e-02, -1.04223490e-02,
          -7.99511746e-02, -7.80908093e-02, 1.45633696e-02,
          -4.82361503e-02, 4.55825254e-02, 2.01806407e-02,
          -2.18339078e-02, 2.27383226e-02, 2.11300328e-02,
          3.02822348e-02, 3.65029126e-02, 8.14898312e-03, 1.14948070e-03,
          3.92732061e-02, -3.79796103e-02, -2.92620193e-02,
          3.48786329e-04, -2.03710911e-03, -3.31524014e-02,
          -3.55289802e-02, 3.61451916e-02, 7.03693135e-03,
          4.29441519e-02, 2.04365794e-02, -1.38719315e-02,
          -2.09131185e-02, -9.69521888e-03, -3.69049385e-02,
          1.78776253e-02, -2.27327365e-02, -2.92376913e-02,
          1.47453528e-02, -2.02586018e-02, -2.75140982e-02,
          -1.38017163e-02, 1.25461565e-02, 8.63924064e-03,
          1.65956467e-02, 5.15773753e-03, -2.41514691e-03,
          5.03770169e-03, 2.35535111e-03, -3.85109894e-02,
          -5.34124635e-02, -1.43658696e-02, 3.54223475e-02,
          2.56264526e-02, -4.72518504e-02, -1.88740902e-02,
          3.80543172e-02, -2.11101025e-02, 1.04667014e-02,
          -3.59542519e-02, -3.42077464e-02, -3.47313434e-02,
          -8.39488953e-02, -8.48863125e-02, -4.29355279e-02,
          -5.38032353e-02, -3.11042950e-03, -2.15121824e-02,
          5.39270826e-02, -1.65230893e-02, -1.32368477e-02,
          -2.68470310e-02, -3.38724777e-02, -2.56172824e-03,
          -2.81744469e-02, -1.96052548e-02, -1.25777237e-02,
          -5.52667379e-02, 4.24339063e-02, -1.62524655e-02,
          1.70457717e-02, -5.70139401e-02, 1.32351685e-02,
          -2.44358536e-02, 1.19996900e-02, -1.02675349e-01,
          -2.36852337e-02, -3.01345848e-02, -1.40346466e-02,
          3.83310281e-02, -5.21890586e-03, -5.22236398e-04,
          9.22559667e-03, -1.53514871e-03, 1.75056346e-02,
          3.27626104e-03, -4.16987240e-02, -3.03773358e-02,
          2.12022103e-03, -4.22344133e-02, 1.19502479e-02,
          2.32151449e-02, -1.53680807e-02, 3.83681245e-02,
          4.20248806e-02, -4.84831352e-03, 2.73589529e-02,
          -1.64120030e-02, -4.49106321e-02, 5.82086574e-03,
          -5.46636619e-03, 5.36239613e-03, -4.47441563e-02,
          -5.65392002e-02, -3.54107916e-02, -4.87838015e-02,
          -3.62784900e-02, -4.13528867e-02, 1.03081919e-01,
          8.93177986e-02, -2.19264184e-03, -1.56987761e-03,
          4.26870352e-03, -2.82268859e-02, -3.30630690e-02,
          -2.42684949e-02, -5.15931919e-02, 2.46799085e-02,
          5.85257858e-02, -3.86796668e-02, -1.70376319e-02,
          1.57150310e-02, 5.74141964e-02, -2.25670729e-02,
          -5.50305136e-02, 3.63094805e-05, 3.26593183e-02,
          5.52235134e-02, 2.80437600e-02, 5.16480627e-03, 2.92143761e-03,
          -3.17548104e-02, -4.15269360e-02, -7.47381418e-04,
          -4.14042212e-02, 4.87346798e-02, 3.79708819e-02,
          -3.95353772e-02, -2.09131446e-02, 5.59476111e-03,
          3.55419256e-02, -1.36918877e-03, 5.86954923e-03,
          -1.45187359e-02, 6.04563346e-03, 3.31709869e-02,
          3.99270393e-02, -3.04525741e-03, -1.76963583e-02,
          -3.93108727e-04, 2.80852616e-02, 1.53749334e-02,
          1.62215251e-02, -4.63135913e-02, -1.79672390e-02,
          -1.50713986e-02, 2.03913283e-02, -1.56055093e-02,
          -4.21938952e-03, -1.99168418e-02, 6.93850045e-04,
          1.20357359e-02, 2.10566875e-02, 2.03843191e-02,
          -4.47541103e-02, 1.95441395e-02, -2.83877160e-02,
          -3.97000788e-03, 3.78706641e-02, 3.25494260e-02,
          3.79618350e-03, 3.38281458e-03, 1.26691861e-02,
          -1.86258815e-02, 1.74245145e-02, 1.03597343e-02,
          -2.18247436e-02, -1.74028464e-02, -8.57508462e-03,
          -3.54667716e-02, 2.12247837e-02, 3.22565287e-02,
          -9.34624970e-02, -9.70343070e-04, 4.37507173e-03,
          2.56278552e-02, 1.21959243e-02, 3.87351923e-02, 1.78407249e-03,
          2.23080777e-02, 7.57104680e-02, 2.30238773e-02,
          -7.17200488e-02, 8.57276656e-03, -3.91281620e-02,
          -3.40160937e-03, 7.13030668e-03, -3.69660743e-03,
          -3.91297117e-02, 5.01198322e-03, 6.91476744e-03,
          2.48371940e-02, 2.14140471e-02, 5.97582385e-03, 3.57172005e-02,
          3.38674076e-02, -2.08256654e-02, 1.82010420e-02,
          6.76085660e-03, -2.17429884e-02, -3.92589979e-02,
          -1.41151836e-02, -4.13847808e-03, 8.31391569e-03,
          3.07453778e-02, -9.09523200e-03, 9.91655421e-03,
          2.67081223e-02, -1.30859427e-02, 2.95233522e-02,
          3.00710499e-02, 2.29800418e-02, -1.06537649e-02,
          -1.01827076e-02, -4.22034413e-02, 1.44081637e-02,
          9.57127102e-03, 1.21510495e-02, 5.97368926e-03, 2.80523188e-02,
          1.54880593e-02, -4.87950742e-02, 4.40827794e-02,
          -8.20278302e-02, 8.00941139e-02, 2.53074858e-02,
          1.93996634e-02, 2.75669675e-02, -1.98109839e-02,
          3.16007882e-02, -4.75737490e-02, 4.00816090e-02,
          -5.39752357e-02, 9.13131144e-03, -2.70467568e-02,
          -3.43499556e-02, 2.14484427e-03, 6.20233789e-02,
          7.85289332e-02, 1.81776639e-02, 3.99255417e-02,
          -1.19010068e-01, 1.01179036e-03, -1.49737978e-02,
          -3.26768495e-02, -4.39026114e-03, -3.19612063e-02,
          3.28170396e-02, -1.81188975e-02, 2.09163334e-02,
          1.91365369e-02, 7.57926330e-02, 1.41579267e-02, 7.34678004e-03,
          -1.73525549e-02, -4.17461060e-02, -1.26026915e-02,
          -2.80577466e-02, 1.81141607e-02, 8.42702016e-03,
          4.52530533e-02, 1.09981587e-02, -4.83533777e-02,
          2.01124623e-02, 3.62369977e-02, -3.17959338e-02,
          -2.24530119e-02, 7.89037626e-03, -6.24020174e-02,
          3.31482254e-02, -1.25006726e-02, -1.25138825e-02,
          -3.74181345e-02, -5.03573008e-02, 4.64684740e-02,
          -1.27176577e-02, 9.31894232e-04, -2.43409146e-02,
          1.51448892e-02, -3.21819372e-02, -1.33344838e-02,
          3.53841670e-03, 6.39924547e-04, -1.07242074e-02,
          -2.45769285e-02, -4.58869152e-02, 1.48474108e-02,
          -8.46773200e-03, 1.17441756e-04, -2.45030713e-03,
          6.82605952e-02, 1.70877129e-02, -3.78061575e-03,
          -3.21784727e-02, 7.62293208e-03, 5.58755593e-03,
          3.56395240e-03, -1.64456181e-02, 5.49134538e-02,
          -6.52790535e-03, -1.68080796e-02, 1.04586752e-02,
          -3.13609876e-02, -2.94616818e-02, -6.27124906e-02,
          -2.44178902e-02, -3.55821624e-02, -1.61710283e-04,
          2.13721842e-02, 1.43767232e-02, 2.25796755e-02, 2.78051943e-02,
          -9.71558783e-03, -5.70097528e-02, 1.55895269e-02,
          -2.23520081e-02, -1.43215386e-03, 3.73126976e-02,
          -5.15436940e-02, 2.13300847e-02, 3.92476376e-03,
          -1.07108587e-02, 3.91178317e-02, 6.50033951e-02,
          2.35058852e-02, 3.39597352e-02, -5.44498442e-03,
          1.40374564e-02, 1.95041075e-02, 1.68762319e-02,
          -1.67798884e-02, 4.49129604e-02, 8.78998265e-02,
          3.47938277e-02, -1.72529779e-02, -1.12040192e-02,
          -3.04829702e-02, 2.97875367e-02, -5.50102536e-03,
          3.21824831e-04, -3.72018330e-02, -3.93632688e-02,
          -3.88933420e-02, 2.78129745e-02, -2.57744547e-02,
          2.14810967e-02, 3.10834572e-02, 3.44061619e-03, 5.86542021e-03,
          3.24001424e-02, 1.01399273e-02, 4.58253771e-02,
          -3.22250538e-02, -1.85650531e-02, -2.43491996e-02,
          6.72305701e-03, 5.23738414e-02, 7.72800520e-02, 4.50215451e-02,
          2.86874231e-02, 1.87979862e-02, 2.20195614e-02, 5.06603010e-02,
          1.55549590e-02, -2.78504491e-02, 7.05326572e-02,
          4.63405922e-02, -7.53696337e-02, -6.07164465e-02,
          -7.65766948e-03, -5.07240668e-02, -8.88525471e-02,
          -3.44971009e-02, 3.49794999e-02, -6.76326379e-02,
          -9.21387821e-02, -1.15445070e-02, 4.35007401e-02,
          2.95106717e-03, -2.17632065e-03, -3.30503099e-02,
          2.58799898e-03, -2.51007620e-02, 5.89199066e-02,
          -6.58395737e-02, -4.77293506e-03, 3.36966515e-02,
          5.21469042e-02, 7.31774746e-03, -1.04970969e-01,
          -1.11860149e-02, -1.64569952e-02, -4.55956310e-02,
          -1.01712495e-01, 1.90240156e-03, -2.40566209e-02,
          2.90129893e-02, 6.04338292e-03, -5.82948923e-02,
          -5.56431338e-02, 1.04097845e-02, -2.76141111e-02,
          -2.98746862e-02, 1.32281892e-02, -4.10908833e-02,
          1.11603513e-02, -3.94588038e-02, -2.14012414e-02,
          -7.31271878e-02, -2.04767846e-02, 2.71065403e-02,
          5.39470352e-02, 5.39722629e-02, 4.31775823e-02, 5.08782640e-02,
          2.74304934e-02, -1.02535479e-01, -3.26810032e-02,
          3.69134434e-02, -7.26945251e-02, -2.38775238e-02,
          1.74374636e-02, 4.55269217e-02, 1.98714510e-02, 9.80414698e-05,
          1.47371897e-02, 6.28946489e-03, -7.10189342e-04,
          2.34575011e-03, -3.37795238e-03, 4.88751158e-02,
          5.65694869e-02, 1.52621651e-02, -4.14316095e-02,
          3.90472487e-02, 6.45272136e-02, 5.86758964e-02, 4.12553959e-02,
          3.95455286e-02, 5.32894768e-02, 1.43045373e-02, 3.99331637e-02,
          -3.29168998e-02, -1.53012509e-02, -4.99775559e-02,
          -3.56978215e-02, -4.84827347e-02, 1.33320261e-02,
          -5.46926744e-02, 2.39810832e-02, 1.23776123e-02,
          -3.40256393e-02, 2.45407876e-02, 6.14086688e-02,
          -2.43880488e-02, -1.77567136e-02, 2.27657650e-02,
          -3.05643938e-02, -2.85478905e-02, -4.96668275e-03,
          -1.66518874e-02, 7.06002265e-02, -3.61636393e-02,
          -4.64792922e-02, 1.80525929e-02, 8.28174036e-03,
          1.77168157e-02, 9.26415523e-05, 2.60562189e-02,
          -2.17426475e-02, 2.15592440e-02, 7.51852840e-02,
          -6.64603636e-02, -2.34017633e-02, -3.95472758e-02,
          -2.63680480e-02, 2.14828923e-02, 1.99015792e-02,
          -3.95562425e-02, 1.67110618e-02, 7.20188022e-02,
          1.36872176e-02, 5.58543839e-02, 5.17147072e-02, 3.56612429e-02,
          -2.76834443e-02, 1.11752879e-02, -2.16226075e-02,
          3.97811309e-02, 4.49807048e-02, 5.38817141e-03, 3.06977816e-02,
          5.07421978e-03, 2.31155939e-02, 1.51435360e-02, 1.17905373e-02,
          -3.97272855e-02, 1.01677456e-03, 8.50766972e-02,
          -3.22377891e-03, -5.25795557e-02, -1.69624649e-02,
          -5.48129156e-02, -2.31381468e-02, -2.16788780e-02,
          -2.74405573e-02, -1.49303405e-02, 4.25156131e-02,
          -1.39131593e-02, -1.79589316e-02, 1.14093209e-03,
          1.04308100e-02, 2.00429466e-02, 3.53253931e-02, 8.31525773e-02,
          4.91848476e-02, 3.48978676e-02, -4.47903387e-03,
          3.92509215e-02, 1.06377043e-01, -1.58186536e-02,
          -6.09161928e-02, 9.54013038e-03, 3.55481170e-02,
          -1.22319730e-02, 6.67324662e-03, 4.59198467e-02,
          -5.27989790e-02, -5.29970005e-02, 1.80294458e-02,
          1.93945169e-02, 4.77599278e-02, 7.60080516e-02,
          -1.17455106e-02, -1.70981832e-04, -1.42012313e-02,
          2.73873154e-02, 1.84140094e-02, 9.28251538e-03,
          -1.65836196e-02, -5.32584451e-03, 7.58889888e-04,
          -7.21359067e-03, 4.19855379e-02, 3.83736119e-02,
          5.35767712e-02, 2.92281136e-02, -2.64027156e-02,
          -4.55218693e-03, -1.70647521e-02, 2.49528699e-02,
          -3.41766663e-02, -1.12125352e-02, -1.77384634e-02,
          3.32332551e-02, -1.65152531e-02, -1.23416632e-02,
          -3.76779698e-02, -2.08794940e-02, -1.01597402e-02,
          -9.97481123e-02, 6.65306859e-03, -9.96023323e-03,
          3.62042226e-02, -8.89168680e-03, 6.07016571e-02,
          3.23133878e-02, -4.30665389e-02, 4.85904776e-02,
          -5.21831065e-02, 2.15380788e-02, -2.82382090e-02,
          3.26658040e-02, 2.65806187e-02, -3.41243371e-02,
          3.12881954e-02, 1.21928817e-02, -5.01490682e-02,
          -5.64095341e-02, -4.43740748e-02, 4.80148848e-03,
          -2.16723699e-03, -4.78162207e-02, -1.02668069e-03,
          3.71497534e-02, -4.42934185e-02, -2.50079595e-02,
          -3.86104099e-02, 2.74455976e-02, 3.74867693e-02,
          -3.66433710e-02, -3.62343676e-02, -5.30569023e-03,
          3.70490067e-02, -6.33059144e-02, -2.28023287e-02,
          -4.78163399e-02, -7.34020723e-03, -7.36024696e-03,
          -5.61211631e-03, -4.65227515e-02, -6.17035031e-02,
          4.23199870e-02, -6.16660714e-02, -2.75768917e-02,
          -2.38097198e-02, 1.00861669e-01, 3.60409580e-02,
          -3.41098346e-02, -3.33972424e-02, 1.56782679e-02,
          -2.06940826e-02, -6.75538555e-02, -8.29299446e-03,
          -1.30174973e-03, -4.46986705e-02, -3.40472385e-02,
          -2.81088911e-02, -4.11506509e-03, 5.52609228e-02,
          4.19756211e-02, -1.75839402e-02, 2.93241441e-02,
          -1.13527570e-02, -7.18286913e-03, -5.69301732e-02,
          -4.34543602e-02, 6.25534216e-03, 1.43523291e-02,
          -2.54063699e-02, -5.83017990e-02, 4.45064018e-03,
          7.60924444e-02, 3.90766598e-02, -5.69157396e-03,
          -1.95243657e-02, -6.76369388e-03, -2.19750311e-02,
          -7.42017329e-02, -3.01103294e-02, 6.50433823e-03,
          -1.06184725e-02, 6.65608887e-03, 3.00522745e-02,
          3.49343084e-02, -5.06697595e-02, 1.26361521e-02,
          -1.74643826e-02, -6.19060509e-02, 3.26916613e-02,
          1.84707176e-02, -1.95362139e-02, -6.30031386e-03,
          -6.70851618e-02, -6.38860315e-02, 9.62927844e-03,
          1.70194004e-02, 1.46416249e-02, -2.57587284e-02,
          -6.49493793e-03, -3.40109388e-03, 2.84649804e-02,
          2.49259751e-02, 1.25313001e-02, -3.13609280e-02,
          -4.55489978e-02, -3.91185544e-02, -2.12783143e-02,
          -2.80616283e-02, -2.19246391e-02, -2.53600795e-02,
          -2.16682255e-02, -1.79896634e-02, -9.41031724e-02,
          -1.73638891e-02, 8.36369488e-03, -3.22433561e-02,
          2.10450822e-03, -2.27809977e-02, -2.59261448e-02,
          8.09221528e-03, -8.91807489e-03, -2.02354267e-02,
          3.86355147e-02, -7.52914790e-03, -4.36844751e-02,
          -3.26746106e-02, -3.94516299e-03, -1.18492320e-02,
          -3.60205700e-03, -6.85476046e-03, -9.71928798e-03,
          2.07737163e-02, 1.28358630e-02, 1.71197187e-02, 6.30506724e-02,
          3.43206190e-02, 4.55228165e-02, 2.21232120e-02, 2.45539397e-02,
          -1.94255728e-02, 4.56690229e-03, 2.01211739e-02,
          -3.00380662e-02, -2.98315799e-03, -4.49715033e-02,
          2.15828838e-03, -3.49164894e-03, 9.11317207e-03,
          1.50390668e-02, -1.72430382e-03, 2.67642513e-02,
          -1.26868011e-02, 9.77461506e-03, -7.05425302e-03,
          1.28664980e-02, -4.67112362e-02, 1.00806477e-02,
          -2.81575285e-02, 4.62100320e-02, -2.11873325e-03,
          6.52705467e-06, -1.23998085e-02, -6.06904086e-03,
          2.81442925e-02, -1.81435701e-02, -4.89796745e-03,
          -3.09952293e-02, 1.99242998e-02, -5.43496618e-03,
          -6.82560727e-03, -1.29701551e-02, 1.04369326e-02,
          5.96605502e-02, -3.16059552e-02, 1.68805365e-02,
          -2.80482173e-02, -4.45887307e-03, 3.03454716e-02,
          -7.77497366e-02, -8.31913552e-04, -9.21702886e-04,
          2.13751271e-02, -4.00231853e-02, 1.66203212e-02,
          -4.36747633e-02, -3.72305661e-02, 1.68094896e-02,
          -2.49465108e-02, 1.33486735e-02, -1.88440795e-03,
          4.00205702e-03, 3.92526537e-02, 5.72427958e-02,
          -9.50948894e-03, 4.27995343e-03, -7.32874963e-03,
          -2.72266082e-02, -2.95057216e-05, -5.75248944e-03,
          1.28313191e-02, -1.05797115e-03, 7.32470527e-02,
          -2.08239984e-02, 2.73339674e-02, -5.71230948e-02,
          -1.65858492e-02, 4.17209938e-02, 9.38854832e-03,
          4.51296382e-03, -5.25898580e-03, 4.06757137e-03,
          -2.95602158e-02, -5.25384955e-02, -9.11591778e-05,
          -2.85099838e-02, 1.13190524e-02, 1.00502325e-02,
          -2.06782129e-02, 1.87747106e-02, 3.47504467e-02,
          -4.33480777e-02, -5.38628399e-02, -2.99337786e-02,
          -1.52720399e-02, -1.46289766e-02, -1.19946776e-02,
          -2.49887668e-02, 3.14271748e-02, 5.10251662e-03,
          1.84276197e-02, 5.22872135e-02, -4.90069166e-02,
          -1.09964116e-02, 2.19800184e-03, -3.16787213e-02,
          4.97139767e-02, 3.50299031e-02, -3.62157151e-02,
          -6.27650553e-03, 1.53436642e-02, -1.64751485e-02,
          1.74279194e-02, -9.12761688e-03, -7.89401587e-03,
          -3.24007124e-03, -1.20622150e-04, -5.19354567e-02,
          -3.78961898e-02, 3.77139710e-02, -3.29245962e-02,
          -1.27991783e-02, -5.03768399e-02, 1.06073292e-02,
          -5.10454997e-02, 1.57477073e-02, -3.79048055e-04,
          8.61984491e-03, 7.11264461e-02, -3.88957858e-02,
          -2.38602832e-02, -2.63701621e-02, 4.80381027e-02,
          1.46737685e-02, -9.93469823e-03, -2.29162183e-02,
          -1.62488762e-02, 1.26898671e-02, 4.66809422e-02,
          -2.02468392e-02, -2.39588991e-02, -7.06501156e-02,
          -2.05341633e-02, -1.73299760e-02, -3.36174369e-02,
          -2.67942110e-03, 4.13287245e-02, -2.16226019e-02,
          -1.78335663e-02, -5.25791710e-03, 7.96650944e-04,
          8.19606334e-03, -2.77547669e-02, -2.44308822e-02,
          1.12477271e-02, -8.37305747e-03, -4.79403511e-03,
          -5.65938950e-02, 3.43202637e-03, 8.13875161e-03,
          1.79871302e-02, 1.36319129e-02, -1.99636929e-02,
          -4.04156037e-02, -3.14676166e-02, -2.42160112e-02,
          -2.66203340e-02, -5.82039207e-02, -2.42255125e-02,
          -3.43520939e-02, -2.47090403e-03, -2.08759345e-02,
          -3.19527425e-02, -1.83042698e-02, -2.90624313e-02,
          8.91086552e-03, 3.69217396e-02, 6.26523271e-02,
          -2.46063136e-02, -3.79712991e-02, 2.89739650e-02,
          -5.41553274e-02, -3.88380103e-02, -1.21409725e-02,
          -2.03883704e-02, 4.23365310e-02, 2.36908477e-02,
          -3.77162658e-02, -2.13090163e-02, 1.52744958e-02,
          1.15456544e-02, 3.98390479e-02, -1.69612151e-02,
          -4.52635735e-02, -2.91930940e-02, -8.43736925e-04,
          4.52551525e-03, -2.99049914e-02, 2.19216291e-02,
          -7.21078180e-03, -1.50393518e-02, -1.15941437e-02,
          -2.25112624e-02, -2.27818023e-02, 2.65652332e-02,
          -7.90494308e-03, -4.89647314e-03, 2.57100463e-02,
          -6.32894263e-02, -1.90972667e-02, 1.07162669e-02,
          -4.31856625e-02, -3.96791212e-02, -3.09013538e-02,
          2.38802843e-02, 5.39260209e-02, -3.72931957e-02,
          5.67337498e-03, -7.90530071e-02, -3.15699391e-02,
          -5.78165352e-02, -2.65470836e-02, -1.70074347e-02,
          8.09694361e-03, 1.51009737e-02, -4.99787973e-03,
          -3.56484167e-02, -9.10137594e-03, 5.93179185e-03,
          -1.55737037e-02, 1.90728810e-02, 4.02790457e-02,
          -2.69147996e-02, -1.69964917e-02, -6.18140474e-02,
          -5.76703530e-03, 2.47019879e-03, -2.53566308e-03,
          1.49302538e-02, -3.94586921e-02, 2.78698504e-02,
          9.18373466e-03, -1.51286302e-02, 2.20217183e-03,
          3.85693498e-02, -4.36717346e-02, 1.94739681e-02,
          1.58602446e-02, -9.43452399e-03, 1.54326539e-02,
          4.71555144e-02, -9.45786238e-02, -3.76410270e-03,
          4.10420634e-03, 2.18143873e-02, -2.85140891e-02,
          -7.54546700e-03, 1.62074305e-02, 4.27231677e-02,
          3.96312959e-02, -1.21666733e-02, -1.42809376e-03,
          5.34717813e-02, 9.87481885e-03, 2.23331619e-03, 3.94045040e-02,
          -3.84151749e-02, 3.97464409e-02, -3.55437808e-02,
          -3.70839797e-02, 2.60109901e-02, 6.13804441e-03,
          2.17877212e-03, 5.00266477e-02, 7.93302245e-03, 5.67532368e-02,
          5.49484715e-02, -8.04527551e-02, -1.24716191e-02,
          -1.47067504e-02, -6.72924072e-02, 4.73925471e-02,
          1.53389096e-03, -6.82974514e-03, 1.42580830e-02,
          7.20366985e-02, 3.27455476e-02, -3.70111279e-02,
          1.64975822e-02, -4.08677198e-02, -4.50235006e-04,
          -2.82201339e-02, 4.64313617e-03, 2.97400579e-02,
          1.05781229e-02, -2.34225914e-02, -3.00722057e-03,
          7.36919343e-02, 3.81090790e-02, 2.73488257e-02, 3.08957808e-02,
          2.10751221e-02, -6.17656251e-03, 4.94494215e-02,
          -1.49937924e-02, 3.37431543e-02, -2.49837395e-02,
          -1.56118125e-02, -2.45223716e-02, -6.34130388e-02,
          -2.36384217e-02, 6.94414834e-03, -1.19963447e-02,
          8.21460690e-03, 1.14821736e-02, -2.94470247e-02,
          -1.34902028e-02, 3.35279815e-02, -3.20094614e-03,
          -4.08677459e-02, 4.44732569e-02, 6.07254654e-02,
          1.46477658e-03, 2.33741626e-02, -4.94656619e-03,
          3.59911062e-02, 4.74976562e-02, 2.98473705e-02,
          -5.69025613e-02, 3.61247621e-02, 2.26412956e-02,
          9.17713065e-03, 2.18228512e-02, 6.61298484e-02, 4.71724048e-02,
          6.97963638e-04, -4.89318520e-02, -4.42993082e-02,
          5.22259530e-03, -2.13652197e-02, 3.39412363e-04,
          3.54592502e-02, 2.85920613e-02, -4.51396108e-02,
          7.86816254e-02, -7.16638798e-03, 3.63148190e-02,
          5.19244559e-02, -1.57397911e-02, 2.46426836e-02,
          1.31596001e-02, -5.50165139e-02, 2.64778268e-02,
          3.85758583e-03, 3.11950035e-03, 7.51596584e-04, 6.42229989e-02,
          3.31513062e-02, 5.86329959e-02, -1.17794657e-02,
          3.50583345e-02, 1.78120770e-02, 1.33617725e-02, 4.50639725e-02,
          1.57114696e-02, 2.17427500e-02, 1.45828491e-02,
          -1.49852810e-02, 2.55279113e-02, 1.26449153e-01,
          -4.33045439e-02, -4.96511050e-02, -3.37366425e-02,
          -6.25772728e-03, 3.51806469e-02, -4.66059428e-04,
          -1.00118956e-02, -3.99977863e-02, -1.24731343e-02,
          -7.95686338e-03, -3.44805419e-03, 4.11962047e-02,
          1.81610566e-02, 1.83284897e-02, 5.36368508e-03,
          -3.12075275e-03, -1.27980579e-02, 4.92590182e-02,
          -3.74626480e-02, -2.79228650e-02, 2.94297021e-02,
          4.98998677e-03, -4.32055108e-02, 2.17785258e-02,
          -4.74846624e-02, -3.52493785e-02, 5.07287346e-02,
          1.82272177e-02, 6.72258297e-03, -2.23382711e-02,
          2.31611356e-02, -2.65290961e-03, -1.01814140e-02,
          -9.75640211e-03, -2.21641697e-02, 1.91412922e-02,
          -2.17315853e-02, -5.94322719e-02, -2.43297219e-02,
          5.40442299e-03, -4.81626764e-02, -3.40745039e-02,
          5.50192222e-03, -4.69507761e-02, 7.77436770e-04,
          -3.84698734e-02, 4.07680832e-02, -1.95662584e-02,
          4.94594686e-03, -7.21247569e-02, -3.95088829e-02,
          -4.55212407e-02, -2.57715513e-03, 2.87369117e-02,
          -3.39003354e-02, -1.13675660e-02, -5.66466190e-02,
          -3.13925482e-02, 4.43970226e-03, -2.95363199e-02,
          2.42727548e-02, -2.33876593e-02, -6.73626587e-02,
          -2.17193883e-04, -2.26225378e-03, -5.74462004e-02,
          -2.78746989e-02, -2.41293348e-02, -1.08678604e-03,
          3.60628106e-02, -1.95459221e-02, -3.32680158e-02,
          -6.03271872e-02, 9.06721130e-03, -5.89306019e-02,
          -3.58396769e-02, -4.12205197e-02, -1.93642545e-02,
          -5.55001460e-02, 1.63191818e-02, 4.83997725e-03,
          -4.12689075e-02, -8.30948167e-03, -5.60343936e-02,
          -9.50609334e-03, -3.72684486e-02, -3.11771259e-02,
          -2.93874019e-03, -5.36109554e-03, 5.43392450e-02,
          4.09159623e-03, -1.48626007e-02, -2.74095405e-02,
          -8.32196884e-03, -1.35719618e-02, 2.73339059e-02,
          -7.43768066e-02, -7.62738436e-02, -4.08067554e-02,
          -3.72806378e-02, -2.89687961e-02, 4.14448157e-02,
          3.21240351e-02, 2.86809057e-02, 1.40692052e-02, 1.04480824e-02,
          1.70729104e-02, 2.69306470e-02, -6.70853490e-03,
          2.45768912e-02, -3.45720090e-02, -1.86243039e-02,
          -6.71767518e-02, -3.70512418e-02, -8.14787969e-02,
          -7.02721775e-02, 4.58122604e-03, 1.76707432e-02,
          -1.82050373e-02, -1.07208418e-03, -1.03953318e-03,
          3.04702036e-02, 2.33648494e-02, -8.17288607e-02,
          1.71662401e-02, 2.16491334e-02, -4.04394940e-02,
          -2.91583184e-02, -2.79017282e-03, -1.27791036e-02,
          2.91443914e-02, 3.11218342e-03, -1.46592883e-02,
          -3.02994289e-02, -3.52380872e-02, -2.15196908e-02,
          9.28421970e-03, 5.37961386e-02, -5.58944792e-03,
          -3.62881534e-02, 1.09481663e-02, -6.69636205e-02,
          -7.80006424e-02, -2.40920931e-02, 1.98269798e-03,
          -4.94627878e-02, -1.52740395e-02, -4.63810079e-02,
          -9.91901159e-02, 4.47210297e-03, -5.99522796e-03,
          -1.46117937e-02, -1.37001844e-02, 3.04991342e-02,
          -6.83708640e-04, 3.54023576e-02, -5.25101200e-02,
          -1.02892607e-01, -6.71091154e-02, -3.89795229e-02,
          -6.01216219e-02, 4.19384204e-02, -5.68386866e-04,
          2.70060729e-02, 1.72064677e-02, 5.01061510e-03,
          -2.78336406e-02, -4.29088920e-02, -6.22652173e-02,
          -3.82018797e-02, 2.43174098e-02, -9.72385108e-02,
          -1.65452920e-02, -1.59944762e-02, -1.20523404e-02,
          2.48783529e-02, -2.61054896e-02, 2.96453163e-02,
          -2.61771884e-02, 1.88341725e-03, -9.17762890e-02,
          -5.35651408e-02, -3.91518883e-03, -3.19191925e-02,
          -3.98412831e-02, -5.33896349e-02, -4.25648056e-02,
          -5.67839853e-02, 2.89255455e-02, -6.40480667e-02,
          -6.44429401e-02, -2.97960583e-02, -7.25619402e-03,
          -6.71423413e-03, -1.00322673e-02, 8.28811061e-03,
          -2.38991808e-02, 3.42305750e-02, -3.01996451e-02,
          -4.34776628e-03, 5.46942279e-02, -8.10071733e-03,
          -3.29447277e-02, 9.18170623e-03, 5.85200563e-02,
          -6.20725052e-03, 3.82707119e-02, -9.62625071e-03,
          3.85872368e-03, -1.68123692e-02, -3.23119275e-02,
          7.34987296e-03, -6.52946951e-03, -3.64320874e-02,
          -3.09354216e-02, -7.60667585e-03, 1.13662821e-03,
          -1.13056283e-02, 1.88318025e-02, -1.07593657e-02,
          -2.81247590e-03, -8.51024757e-04, 6.36127591e-02,
          -4.74303328e-02, 1.91119239e-02, 1.59363896e-02,
          -1.37641523e-02, 8.43125209e-03, -2.91802697e-02,
          -4.84895483e-02, -2.36294363e-02, 3.64321936e-03,
          -2.30780300e-02, 4.13694121e-02, -3.22093628e-03,
          -7.85161648e-03, 2.44773086e-03, -1.50444508e-02,
          -2.60630008e-02, 1.46253593e-02, 2.57624723e-02,
          1.18083262e-03, -2.12714374e-02, -1.15566170e-02,
          -2.91248076e-02, 4.63661738e-03, 1.14014205e-02,
          2.36644093e-02, 3.78811844e-02, -2.13984512e-02,
          -5.59512479e-03, 8.63774680e-03, 2.82124076e-02,
          -1.34799862e-02, 1.10829785e-03, -1.06553431e-03,
          -6.52017668e-02, -4.01391871e-02, 2.79510897e-02,
          1.24120563e-02, 7.20549896e-02, 2.01284364e-02, 6.31486159e-03,
          1.66176222e-02, -4.72295322e-02, 2.56353654e-02,
          -2.22926475e-02, 4.99119982e-03, 3.87168140e-03,
          4.50504646e-02, 6.48411438e-02, 1.30279912e-02,
          -9.35501792e-03, 2.72271447e-02, -2.96131913e-02,
          4.39910125e-03, -1.60153001e-03, -5.68888709e-02,
          -1.68745973e-04, 2.69211233e-02, 1.67719182e-02,
          -4.43978421e-02, -3.56278121e-02, -2.04207618e-02,
          6.88597411e-02, 5.48911048e-03, -1.57310050e-02,
          -2.91832108e-02, -7.70426169e-03, -4.84511107e-02,
          -3.17294374e-02, -3.39119732e-02, -6.55936748e-02,
          -1.67743266e-02, -8.25184304e-03, -5.30843362e-02,
          -3.37100886e-02, 1.27898324e-02, 1.44580826e-02,
          -2.23633759e-02, -3.36418375e-02, -9.29629710e-03,
          6.95329159e-03, 1.79658085e-02, -2.24496145e-02,
          -3.16917114e-02, -9.41307109e-04, 1.54683064e-03,
          -3.36568877e-02, -4.54174690e-02, 4.40789610e-02,
          3.20430957e-02, -1.36652431e-02, -2.16520149e-02,
          -1.43521493e-02, -3.07611935e-02, -1.19365221e-02,
          1.50759835e-02, 3.69200408e-02, 4.38324735e-02, 2.43811216e-02,
          -2.81371288e-02, -2.04839017e-02, -2.48409845e-02,
          -1.25932123e-03, -2.31101923e-02, -3.15857716e-02,
          -2.27000546e-02, -2.67461408e-02, 2.93684518e-03,
          1.19636608e-02, 1.42062074e-02, 5.01873903e-03, 2.35262085e-02,
          7.93416705e-03, -6.64453581e-02, -5.65713681e-02,
          -4.55003455e-02, -1.67158083e-03, -3.60653847e-02,
          -3.45297493e-02, 7.01253582e-03, -9.01189575e-04,
          2.93299053e-02, 4.42973077e-02, 8.09670612e-02, 5.54220751e-02,
          2.92340424e-02, -1.30166197e-02, -1.95419658e-02,
          -1.10313846e-02, -3.40102389e-02, -1.90113671e-02,
          6.41003475e-02, 5.96827902e-02, 4.64331731e-02, 2.70686466e-02,
          2.00880952e-02, 4.48626950e-02, -2.22433060e-02,
          6.04064018e-02, -1.53668283e-03, -1.95865799e-02,
          4.85033616e-02, 5.70110716e-02, 4.92831282e-02,
          -1.87157635e-02, 1.62985809e-02, 3.48027572e-02,
          8.50465428e-03, -6.01494014e-02, 1.68037079e-02,
          3.62514555e-02, 2.89647505e-02, 2.70793997e-02,
          -8.02069809e-03, 2.92553976e-02, 3.62383500e-02,
          1.05317812e-02, 5.45472000e-03, -7.04879733e-03,
          -5.06737158e-02, -5.11655584e-02, -2.74243020e-03,
          -1.26400227e-02, 3.19794677e-02, -3.31026339e-03,
          -4.95302724e-03, -2.23150174e-03, 5.24447719e-03,
          -3.35714035e-02, -5.24153188e-02, 1.17452070e-02,
          1.01590995e-02, 2.97213849e-02, -1.63925420e-02,
          -2.22798493e-02, -1.15522202e-02, -3.21827382e-02,
          -5.54086566e-02, -3.45088355e-02, -4.82039042e-02,
          3.03317755e-02, 2.54274290e-02, -8.36432278e-02,
          1.96729023e-02, 5.42956591e-03, 1.49068711e-02,
          -4.81354706e-02, 3.43720056e-02, -3.31607051e-02,
          3.31765451e-02, 3.38444263e-02, 2.11609323e-02, 2.17328779e-02,
          -2.36082301e-02, -1.00398408e-02, -4.42361720e-02,
          -1.80458985e-02, 2.52113678e-02, 3.74087356e-02,
          3.03859953e-02, 1.06763048e-02, -8.58514849e-03,
          -5.72657250e-02, 3.46706784e-03, -5.67636527e-02,
          -3.33277844e-02, 2.96012163e-02, -8.70896690e-03,
          1.90004315e-02, 5.16803302e-02, 1.62625853e-02, 3.59922089e-03,
          2.08488405e-02, -1.27667347e-02, 3.48968394e-02,
          4.38554958e-02, 1.59900412e-02, 2.86331214e-02,
          -9.13175475e-03, -5.99702075e-02, -5.45314420e-03,
          3.38542722e-02, 4.43356186e-02, 5.70338145e-02, 2.88834218e-02,
          -2.37136222e-02, 1.35349305e-02, -6.88418970e-02,
          -1.26904137e-02, 6.52241632e-02, 3.42243351e-02,
          3.14660855e-02, 8.95314943e-03, 1.45365596e-02,
          -3.70242167e-03, 1.84193514e-02, -3.24142445e-03,
          -5.29367924e-02, -3.65066365e-03, -6.94059655e-02,
          -5.38704470e-02, -6.40864968e-02, -5.69585264e-02,
          3.63711268e-02, 3.82528477e-03, 1.26190279e-02, 1.45149818e-02,
          9.75518115e-03, 9.25725512e-03, 3.98365855e-02, 3.36423628e-02,
          2.03481875e-02, -2.54978798e-02, -4.26639058e-02,
          -4.98738512e-02, 1.27736907e-02, -2.49048732e-02,
          -4.19926420e-02, 1.06088640e-02, 6.92273199e-04,
          6.35503232e-02, -1.78877320e-02, -3.86750475e-02,
          -2.88453698e-02, 6.09092321e-03, 3.52490656e-02,
          -3.41666751e-02, -1.36384303e-02, -2.81855464e-02,
          -2.98099425e-02, -1.18801901e-02, -5.15407184e-03,
          7.42793083e-03, -6.74499571e-02, 4.80454117e-02,
          2.19778586e-02, 2.93257693e-03, 4.71460037e-02, 1.13094347e-02,
          3.67388665e-03, -6.36627991e-03, -9.45822569e-04,
          3.68073024e-02, 2.77938899e-02, -3.32488604e-02,
          1.92780569e-02, -2.13900823e-02, 4.10602540e-02,
          2.05223858e-02, 3.15796584e-02, -5.08461008e-03,
          -1.20037319e-02, 5.83909489e-02, 1.10123642e-02,
          4.05533612e-02, 2.17044279e-02, -2.55438648e-02,
          5.46746515e-02, 5.15547246e-02, 1.85710527e-02, 1.86869432e-03,
          4.02284116e-02, 5.72281517e-02, 4.06709984e-02, 9.91037562e-02,
          -5.48511883e-03, 8.86512978e-04, 5.58024123e-02,
          1.93295367e-02, -5.35645382e-03, 2.52861902e-02,
          8.16182569e-02, 3.79640311e-02, 9.60071236e-02, 1.51526863e-02,
          1.96782239e-02, -6.60038274e-03, 4.08591628e-02,
          -4.60235542e-03, 3.53048369e-02, 4.33840491e-02,
          4.35939021e-02, 6.04137313e-04, -2.62465142e-02,
          3.96747561e-03, -1.44054444e-04, -3.19639519e-02,
          -7.40428492e-02, -1.44370506e-02, 8.58600959e-02,
          5.45474999e-02, 4.95659932e-02, 6.37134910e-02, 5.22847138e-02,
          -8.34035920e-04, -3.12218461e-02, -4.73069660e-02,
          -2.74888724e-02, 5.34920916e-02, 5.87767102e-02,
          -7.73913984e-04, 6.03617448e-03, 7.31934085e-02,
          6.79833516e-02, 3.43728215e-02, -8.58884305e-03,
          4.95431088e-02, 3.18752453e-02, 5.45427874e-02,
          -2.98629496e-02, 3.59520912e-02, 4.69604395e-02,
          8.57236609e-02, 6.79606870e-02, 2.24205665e-02,
          -2.76439395e-02, 4.06659432e-02, -5.99840609e-03,
          -5.86597696e-02, 9.28818621e-03, 1.73463282e-04,
          -4.48137410e-02, -3.37834749e-03, 7.16276094e-02,
          3.47080044e-02, 5.06340787e-02, 3.16056311e-02,
          -6.11883774e-02, 2.07741540e-02, 1.07165994e-02,
          -2.78184265e-02, 3.59653383e-02, -2.93682665e-02,
          -1.38772717e-02, -3.23325396e-04, -6.02523657e-03,
          -2.98126638e-02, -4.15127277e-02, -1.94356162e-02,
          4.94696759e-02, 4.87847291e-02, -6.24775551e-02,
          -1.17141576e-02, -1.00829946e-02, 1.71969626e-02,
          -7.19558820e-02, -2.59828661e-02, 4.64144920e-04,
          1.30719095e-02, 3.31423506e-02, -3.68401245e-03,
          -1.90297011e-02, 1.33461459e-02, 1.95133220e-02,
          2.75475029e-02, 7.30242068e-03, -5.20894974e-02,
          -9.27703455e-02, -3.46255116e-02, 3.83603163e-02,
          -6.85477676e-03, -5.95550612e-03, 1.25180604e-02,
          -4.29361098e-04, 6.66125268e-02, -1.04857553e-02,
          1.09503102e-02, 6.06794655e-02, -1.02110684e-01,
          -2.43352149e-02, -5.55933155e-02, 6.04050374e-03,
          -3.99905555e-02, -1.21416505e-02, -1.74306277e-02,
          -2.83320062e-02, -3.29434983e-02, -6.69738725e-02,
          -1.09262839e-02, -4.22658101e-02, 1.64805595e-02,
          1.49378711e-02, 4.74512130e-02, -1.20034060e-02,
          -3.61888371e-02, 5.16562313e-02, 1.19694800e-03,
          -4.62982841e-02, -7.39863794e-03, -3.46380062e-02,
          1.78505126e-02, 5.46911135e-02, -9.78535693e-03,
          -1.08169420e-02, -3.78350988e-02, -3.96280549e-02,
          -2.05205800e-03, -8.46600253e-03, -1.21953599e-01,
          7.13676633e-03, 1.39826145e-02, 6.81085661e-02, 1.69090144e-02,
          3.28066126e-02, -3.13279703e-02, -4.57304008e-02,
          -3.92051563e-02, -2.37755049e-02, -2.20298041e-02,
          1.83772650e-02, -1.71208829e-02, -1.28866043e-02,
          1.57848541e-02, 1.98569940e-03, 4.89005679e-03, 1.03623560e-02,
          8.71195807e-04, -2.67363433e-02, -5.53414738e-03,
          3.21155856e-03, -3.68213058e-02, 4.12758812e-02,
          -3.27070989e-02, -2.74657086e-02, -3.40320580e-02,
          -4.85545285e-02, 1.08070606e-02, -7.77435675e-03,
          2.46660896e-02, 6.52098516e-03, 3.05487923e-02, 2.60258690e-02,
          2.50690188e-02, -1.42089808e-02, 6.78991824e-02,
          2.34755538e-02, 5.11327982e-02, 4.72036563e-02, 2.11444106e-02,
          1.16434759e-02, 6.86691469e-03, -3.72482948e-02,
          4.65257242e-02, 1.41044054e-02, -3.02320402e-02,
          -4.25830036e-02, -1.41665870e-02, -4.32483256e-02,
          8.86580255e-03, 7.55323702e-03, -1.85362296e-04,
          5.20644849e-03, -9.23138764e-03, 4.19813134e-02,
          9.47007537e-03, 7.64268544e-03, -3.39595489e-02,
          5.77616552e-03, -2.14467924e-02, -6.23554289e-02,
          -9.65816826e-02, -3.41315405e-03, -1.22850332e-02,
          -1.27768088e-02, 3.10886186e-02, 1.17633976e-02,
          -2.82639228e-02, 2.47974508e-02, -4.42076959e-02,
          -9.11222324e-02, -6.40456825e-02, 5.98301329e-02,
          -4.34757732e-02, -4.04887348e-02, -2.05023158e-02,
          1.32826390e-02, 4.74175774e-02, -1.52708532e-03,
          6.00056835e-02, -5.11203967e-02, 1.39239046e-03,
          5.46894185e-02, -1.35582043e-02, -3.40135358e-02,
          2.74014808e-02, 6.76953346e-02, -9.08784382e-03,
          2.73615234e-02, 1.54817440e-02, 3.74480970e-02, 8.04969445e-02,
          5.02110645e-02, 4.01545726e-02, 3.17435972e-02, 2.00898424e-02,
          -1.12186428e-02, -1.51656885e-02, -6.86744675e-02,
          1.07769305e-02, -3.96385156e-02, -8.33028108e-02,
          1.21376580e-02, 5.71555495e-02, 4.85987216e-02, 1.74258370e-02,
          4.67500687e-02, 3.92634943e-02, 2.33530998e-02,
          -3.40566156e-03, -6.24298956e-03, -2.74958648e-02,
          1.06346067e-02, -3.72460596e-02, 1.89812854e-02,
          3.69725153e-02, -1.89496838e-02, 1.61912595e-03,
          2.29129512e-02, -1.26111775e-03, 1.47728715e-02,
          4.43256013e-02, -2.22913921e-02, -1.20780207e-02,
          1.59668922e-02, -3.29535790e-02, 4.97359857e-02,
          3.29836048e-02, -1.01801679e-02, -1.82186253e-02,
          4.34092768e-02, 4.44837026e-02, 2.79709455e-02, 6.89779036e-03,
          6.25338114e-04, -2.39027999e-02, 5.99219347e-04,
          -2.24399511e-02, -3.11836917e-02, -4.60371561e-02,
          5.44353053e-02, 1.45203015e-02, -4.44391416e-03,
          -2.57404726e-02, 3.76116857e-02, -1.92989670e-02,
          -5.10040484e-03, 2.00511944e-02, -2.36973818e-02,
          -9.66218039e-02, -4.42151055e-02, -2.08850540e-02,
          6.50350237e-03, -8.03415850e-02, -1.45016219e-02,
          -6.73652291e-02, -6.00251928e-02, 2.21174620e-02,
          -5.12519255e-02, 2.21997518e-02, 4.04214039e-02,
          2.47566365e-02, 2.82498021e-02, -2.71872338e-02,
          -2.24192105e-02, 1.78216456e-03, -2.52766977e-03,
          2.56703533e-02, 1.02157416e-02, 1.66724268e-02,
          -3.93514335e-02, -8.22373386e-03, -3.45579796e-02,
          2.40025837e-02, 1.40550416e-02, -9.43395868e-03,
          2.60654949e-02, 2.43790410e-02, 3.29045095e-02,
          -9.26319417e-03, 4.33369447e-03, -2.47269664e-02,
          5.42566776e-02, 2.92538144e-02, 3.19976546e-02, 2.12428812e-02,
          6.15211762e-02, 2.93210614e-02, -7.75909517e-03,
          -5.36292121e-02, -4.59783487e-02, -1.64236501e-02,
          -1.00146316e-03, 3.07383910e-02, -2.77023792e-04,
          -1.19427545e-02, 2.68200273e-03, -2.43795961e-02,
          3.42006832e-02, 2.94083450e-02, -3.71235609e-02,
          2.70390511e-02, 2.10015643e-02, -3.37738693e-02,
          -5.45033999e-03, -1.38336811e-02, -3.61760668e-02,
          -7.83235133e-02, -1.31328879e-02, -9.48146265e-03,
          -1.24844266e-02, 2.33487766e-02, -5.39053157e-02,
          2.16219835e-02, 3.71922404e-02, 1.51861338e-02, 5.19347191e-02,
          4.79658283e-02, -5.08529991e-02, -5.97728090e-03,
          1.48188472e-02, -3.43506634e-02, -3.83859538e-02,
          -2.51721535e-02, 3.57484147e-02, -4.89086173e-02,
          2.61628106e-02, -4.58597317e-02, -6.70036152e-02,
          -7.60323331e-02, 3.01339626e-02, 3.83648016e-02,
          5.36798164e-02, 8.09008107e-02, 2.74888668e-02, 5.92224039e-02,
          4.66127396e-02, 3.33403647e-02, 2.75693256e-02,
          -5.35353012e-02, 4.47914423e-03, 8.12111720e-02,
          3.86290215e-02, -3.98713127e-02, -1.00065616e-03,
          -3.03799696e-02, -3.34067307e-02, -3.47983348e-03,
          -1.04785478e-02, 2.01115403e-02, 3.60760652e-03,
          -1.13187451e-03, 6.41450053e-03, -1.00019109e-02,
          4.39832881e-02, 1.81135535e-02, 6.66205073e-03, 1.02047576e-02,
          -7.65735144e-03, -1.23197976e-02, -1.02974502e-02,
          -5.53787053e-02, -3.64852836e-03, -1.55928889e-02,
          4.70864540e-03, 9.26198531e-03, 2.21784152e-02, 8.31326917e-02,
          2.30569206e-02, 1.37103815e-03, 6.95822760e-03, 1.08129689e-02,
          1.44656957e-03, -1.41059626e-02, -1.96301867e-03,
          4.60894667e-02, -5.05058235e-03, -5.79418335e-03,
          2.16057651e-05, -5.88320792e-02, 2.53443867e-02,
          3.22992206e-02, 3.10360594e-03, 3.27190198e-02,
          -4.01335619e-02, 3.68565656e-02, -7.69771934e-02,
          8.29921046e-04, -8.67602676e-02, -1.12653505e-02,
          -1.74935646e-02, -6.96163774e-02, -6.16324693e-02,
          3.91093530e-02, 4.41959873e-02, -7.98918121e-03,
          1.89191094e-04, 6.47902954e-03, 2.25586761e-02, 5.25369635e-03,
          -8.92774900e-04, 3.17207947e-02, 1.38996355e-02,
          -2.89880000e-02, -9.95313562e-03, 1.65539030e-02,
          3.85019951e-03, -1.28175644e-03, -1.21599214e-05,
          2.65756603e-02, 2.18916200e-02, 3.10477968e-02, 2.29160748e-02,
          -2.68565286e-02, 3.22442548e-03, 2.21377444e-02,
          -5.75037906e-03, -1.74769945e-02, -4.79302257e-02,
          -4.94125439e-03, 4.83823456e-02, 2.91860364e-02,
          -9.40172561e-03, 1.38892727e-02, -1.05260247e-02,
          9.51103028e-03, 1.66103635e-02, 1.00135356e-02,
          -3.56382281e-02, 5.88649660e-02, 1.35842832e-02,
          4.01009843e-02, 3.27044819e-03, -3.25797722e-02,
          -5.18540759e-03, -1.66376121e-02, -4.66268370e-03,
          2.87340041e-02, 9.70671943e-04, 3.69484834e-02, 1.74490474e-02,
          2.26835459e-02, -7.90435895e-02, -5.43386862e-03,
          -5.53495549e-02, -1.40077611e-02, -1.74671859e-02,
          4.27459441e-02, 2.30891779e-02, 3.88780399e-03,
          -2.05975468e-03, 1.21782003e-02, 3.86248529e-02,
          3.83080915e-02, -5.19296341e-03, -3.10557690e-02,
          6.14239052e-02, 9.89171024e-03, -4.58003543e-02,
          5.86646423e-02, -4.08369256e-03, 1.44073553e-02,
          -3.65135558e-02, -7.33978814e-03, -7.34295114e-04,
          3.18196043e-02, 5.30426688e-02, 3.40889953e-02, 1.53823961e-02,
          -4.23766822e-02, 2.53994996e-03, -3.36750485e-02,
          -3.91039951e-03, 3.32834683e-02, 6.26139194e-02,
          4.99138683e-02, 3.52962152e-03, -4.61441465e-03,
          -6.31585792e-02, -7.58282980e-03, -3.03419475e-02,
          2.77222833e-03, 5.67433685e-02, -2.94619147e-02,
          4.84118564e-03, -7.44380057e-02, 1.34473788e-02,
          -6.10600784e-03, 8.67657959e-02, -7.40738644e-04,
          4.85063903e-02, -1.70461615e-04, -5.52671216e-03,
          3.24638039e-02, -3.19793820e-02, -9.08333156e-03,
          -1.06309459e-01, 4.77996841e-03, 9.51454975e-03,
          3.88528258e-02, -3.29109579e-02, -3.18531953e-02,
          -4.81847487e-03, 7.67120626e-03, -5.25739230e-03,
          6.82955561e-03, 3.50071746e-03, 3.12423799e-03, 1.71295516e-02,
          -2.71114055e-02, -3.64237912e-02, -8.42995755e-03,
          5.11801466e-02, -1.41734090e-02, -1.45840654e-02,
          1.02775963e-02, 1.49265891e-02, 1.10904211e-02,
          -5.62253110e-02, -8.43110401e-03, -3.24671604e-02,
          -3.09674200e-02, -3.04787457e-02, 3.82507369e-02,
          -2.44028773e-02, -3.35082505e-03, 2.23256908e-02,
          5.04114479e-03, -8.85027985e-04, 3.44035663e-02,
          6.37437450e-03, -1.05532855e-02, -1.95043609e-02,
          -1.65396817e-02, 1.98926381e-03, -3.22735310e-02,
          -8.03771317e-02, -3.32040563e-02, -4.44445051e-02,
          -1.11379055e-02, -2.35611387e-02, -2.10312903e-02,
          1.36856558e-02, 1.10387597e-02, 4.49911319e-03,
          -1.90599188e-02, -3.08557358e-02, -8.75322428e-03,
          -2.74745394e-02, -1.81593709e-02, -2.04646159e-02,
          6.17521908e-03, 1.23239234e-02, -1.56692825e-02,
          -3.13176438e-02, 5.05369604e-02, 2.88049579e-02,
          -5.36551327e-02, -3.20017412e-02, -1.73110031e-02,
          1.03249224e-02, 1.83865819e-02, -6.95724972e-03,
          -3.85362618e-02, 7.18194097e-02, 9.38723795e-03,
          -1.84544120e-02, -2.94351764e-02, 8.99298396e-03,
          -2.18360173e-03, 3.83552490e-03, -3.26293893e-02,
          -1.50085902e-02, -1.49783343e-02, -8.15619081e-02,
          1.49307447e-02, -2.74068732e-02, -3.59343626e-02,
          3.04334098e-03, 2.41013002e-02, -1.85927022e-02,
          -4.67790626e-02, 9.02281329e-03, -5.22156097e-02,
          -6.57931296e-03, -1.99665986e-02, -5.71973063e-03,
          -3.18439618e-07, 3.74820619e-03, -4.84201871e-03,
          1.88194010e-02, 2.44848188e-02, 5.77706471e-02, 1.63730066e-02,
          -1.17509468e-02, -6.29020333e-02, -1.17551712e-02,
          1.76246539e-02, -7.56603945e-03, 1.91880092e-02,
          -2.00112276e-02, 2.64602434e-02, 6.04304485e-02,
          1.55116720e-02, 1.24221137e-02, -1.18084135e-03,
          5.26725128e-03, -8.71747173e-03, -5.79414219e-02,
          1.91572327e-02, -3.10215596e-02, -5.30052148e-02,
          -3.03954110e-02, -2.12304927e-02, 2.33822837e-02,
          -1.22535508e-02, 1.12894215e-02, 2.39948370e-02,
          -1.20788272e-02, 7.34482799e-03, -1.16004031e-02,
          -3.63214612e-02, -8.02997351e-02, 3.20907719e-02,
          1.45431161e-02, -2.27480885e-02, -5.31010292e-02,
          1.29219180e-03, -2.48507895e-02, -1.15014566e-02,
          -1.27091864e-03, 1.71685722e-02, 1.96758751e-02,
          -7.32263550e-04, -3.16489451e-02, -1.15407230e-02,
          1.89005379e-02, 5.42229265e-02, 8.23961850e-03,
          -1.75690204e-02, 5.12724034e-02, 3.11834402e-02,
          1.18924147e-02, -2.90237777e-02, -6.27831444e-02,
          6.32272568e-03, -6.19541621e-04, -1.84586309e-02,
          -4.82270634e-03, -6.99398294e-02, -1.37040308e-02,
          2.69572693e-03, 1.77773666e-02, -2.98879612e-02,
          2.32977923e-02, -6.37620594e-03, -3.28253061e-02,
          -2.19006743e-02, -3.00876121e-03, -5.56763541e-03,
          8.91091395e-03, 1.38435196e-02, -9.17045027e-03,
          -2.15232894e-02, 3.98936048e-02, -8.57274607e-03,
          -5.23777865e-02, 3.41682136e-02, -3.44500355e-02,
          7.72927254e-02, 1.87583733e-02, -6.71994537e-02,
          1.86589863e-02, 3.57517563e-02, -1.83369499e-02,
          -5.17590642e-02, -2.76090354e-02, -2.62973681e-02,
          -4.04419489e-02, -1.26149096e-02, 5.40744420e-03,
          3.63344960e-02, 1.09791569e-02, -1.09314928e-02,
          -3.10021639e-02, -8.20123311e-03, -1.28109576e-02,
          4.28835377e-02, 3.20925005e-02, 1.81891546e-02, 4.24164124e-02,
          1.75916962e-02, -1.62329376e-02, -1.20632863e-02,
          -2.29389183e-02, -3.41062583e-02, -2.39443146e-02,
          -4.13669422e-02, 3.01037952e-02, 6.41248235e-03,
          2.30098907e-02, -3.87862660e-02, -1.11634377e-02,
          9.67561919e-03, 6.59722015e-02, 8.58789310e-03, 2.52457131e-02,
          1.58849750e-02, 9.41810431e-04, 1.75649356e-02,
          -2.49640942e-02, 1.37350895e-02, 3.62460464e-02,
          5.05957752e-02, 2.53243819e-02, 1.10158864e-02, 1.81959141e-02,
          -1.37606412e-02, -1.96094196e-02, -3.77626112e-03,
          -2.62202055e-04, -3.78603823e-02, 8.14050529e-03,
          1.17987199e-02, -1.58507600e-02, -9.91608761e-03,
          5.32250665e-02, -3.18351798e-02, 3.81125696e-02,
          -3.71858664e-02, -2.14423873e-02, -3.53760608e-02,
          3.95209752e-02, 8.92148353e-03, 5.45107052e-02, 1.87029056e-02,
          1.77511796e-02, -1.66961588e-02, 2.02633254e-03,
          5.46031184e-02, -2.85669286e-02, 2.53305994e-02,
          5.39205298e-02, 3.12321782e-02, -3.60488296e-02,
          -4.05285321e-02, 1.11300703e-02, -1.76609121e-02,
          -2.16481299e-03, -4.64669429e-04, 4.34756987e-02,
          2.48958226e-02, -1.85082164e-02, 1.86237227e-02,
          -2.65998803e-02, 2.10188497e-02, -3.30795348e-02,
          1.61208678e-02, -2.86031514e-02, 5.04122153e-02,
          -5.20568229e-02, 3.72284204e-02, -4.03935649e-02,
          -6.31974265e-02, 2.09523942e-02, 3.68509926e-02,
          3.43190203e-03, 1.69532336e-02, 8.49746866e-04,
          -1.01108616e-03, 8.44409317e-03, 3.26696155e-03,
          -1.92384608e-02, -1.94200128e-02, -2.02019755e-02,
          4.62151840e-02, -1.79439057e-02, 2.72679422e-02,
          -4.83341701e-02, -6.43350184e-02, 6.58739451e-03,
          -3.49071845e-02, -1.56289618e-02, 8.83146375e-03,
          1.15769003e-02, 6.66152395e-04, 1.70737673e-02,
          -2.19023041e-02, -5.34036160e-02, -2.53652707e-02,
          -5.76536395e-02, 2.17953250e-02, 2.85072941e-02,
          2.11959630e-02, 4.04575728e-02, -3.95621844e-02,
          1.09753618e-02, 2.62132809e-02, 9.09550174e-04,
          -3.93280061e-03, 4.84195091e-02, 1.66697185e-02,
          -1.51560912e-02, 3.52843967e-03, -4.74912263e-02,
          -6.97670365e-03, 1.84433591e-02, 5.12802117e-02,
          -5.66566177e-02, -1.63738139e-03, -8.94194376e-03,
          8.80122557e-02, -1.43915322e-02, -3.63476784e-03,
          -3.16430163e-03, -6.37853891e-03, 1.51432566e-02,
          -4.26406786e-03, -3.82572375e-02, 6.12781420e-02,
          4.58828025e-02, -1.61730349e-02, 2.35570106e-03,
          -3.80391628e-02, 8.91610887e-03, -7.77416537e-03,
          -1.67510845e-02, -1.58882178e-02, -3.28404382e-02,
          1.51118380e-03, -9.80957691e-03, 8.74285214e-03,
          -7.48480251e-03, 3.00594866e-02, 3.33848111e-02,
          1.62362773e-02, 3.05021442e-02, 5.96734881e-03, 6.44577965e-02,
          3.23759839e-02, 1.12936556e-01, 4.75638099e-02, 4.13367078e-02,
          2.29847860e-02, 2.76794191e-02, -3.58072780e-02,
          4.17945273e-02, -3.42462584e-02, -1.39936088e-02,
          4.16054390e-02, -3.45256887e-02, -6.37673866e-03,
          1.36131868e-02, 1.71248335e-02, -2.17015725e-02,
          2.32463162e-02, 2.28032619e-02, 3.41371750e-03, 1.01492992e-02,
          -1.64961722e-02, -1.88713260e-02, 3.84691879e-02,
          2.58553326e-02, -1.70198400e-02, 3.60214412e-02,
          8.27524811e-03, 3.56383133e-03, 1.59364883e-02,
          -3.25928479e-02, 2.43944488e-02, 4.03167903e-02,
          -3.32852476e-03, -1.43469740e-02, 7.15110973e-02,
          8.31709709e-03, 2.66276170e-02, 1.10315783e-02,
          -4.39021289e-02, 2.27001552e-02, -2.83089485e-02,
          7.83252809e-03, 2.03699693e-02, 1.05098495e-02, 3.10888253e-02,
          4.48125340e-02, -6.47836402e-02, -3.56213748e-02,
          -1.54945524e-02, 3.92301194e-02, -3.06112934e-02,
          5.59715508e-03, 2.79790517e-02, 2.53212675e-02, 4.82889563e-02,
          -2.69547924e-02, -6.03937693e-02, 7.03326687e-02,
          1.95030142e-02, -1.30065316e-02, -2.71311328e-02,
          2.24408717e-03, 2.23825015e-02, 3.05266492e-02, 6.02055565e-02,
          4.22240887e-03, 4.51498106e-03, -6.53317757e-03,
          -3.83726903e-03, -7.52330618e-03, -1.18163684e-02,
          -2.24128296e-03, 1.05802249e-02, 3.84135800e-03,
          -2.26279441e-02, -3.13828811e-02, 8.37924483e-04,
          -1.38051333e-02, -1.65495947e-02, 4.58665006e-03,
          -5.86511828e-02, -7.78457709e-03, 2.21471782e-05,
          -6.03645481e-03, -1.02188820e-02, 5.38553186e-02,
          -7.37832338e-02, -1.23303132e-02, -2.74320282e-02,
          6.10322617e-02, -3.17108929e-02, -4.11883481e-02,
          2.15876196e-02, -4.96166646e-02, -1.07272761e-02,
          -8.82368162e-03, -3.56795825e-02, -2.87411623e-02,
          1.68922022e-02, -1.46362167e-02, -7.93394633e-03,
          -4.40809913e-02, -4.55097631e-02, 6.82209730e-02,
          1.99754885e-03, -2.42436659e-02, 3.25790159e-02,
          1.28982849e-02, -1.40054701e-02, -3.26291844e-02,
          -2.80217491e-02, 1.65397599e-02, 3.00031081e-02,
          -3.33582684e-02, 2.97273770e-02, 1.86874010e-02,
          5.89824794e-03, -6.09051669e-03, 2.20553093e-02,
          2.68629082e-02, 1.39363818e-02, 1.62460990e-02, 3.98959294e-02,
          -2.09760014e-02, 1.03016393e-02, -2.03375779e-02,
          -4.38302830e-02, 6.25379011e-02, 1.66509226e-02,
          -6.13137037e-02, 4.85642664e-02, -4.17759968e-03,
          -5.79188392e-02, -1.47435088e-02, -4.47087213e-02,
          1.33573776e-02, 3.45548280e-02, 2.09123082e-02, 1.51975295e-02,
          7.17832968e-02, 4.26440500e-02, -6.60803029e-03,
          -1.15850018e-02, 2.71319342e-03, 4.48907577e-02,
          3.15858498e-02, -2.23782249e-02, 3.15614268e-02,
          -9.33608040e-03, 2.20522508e-02, 1.92014426e-02,
          -1.33366883e-02, -3.10587194e-02, -4.83935187e-03,
          2.05718875e-02, -3.26152742e-02, -4.08864506e-02,
          2.56226473e-02, 2.59428527e-02, -2.70537212e-02,
          3.81466895e-02, 2.40605604e-03, 1.58855729e-02, 6.49187202e-03,
          -1.68429688e-02, 1.51866022e-02, 4.15908918e-03,
          4.19825837e-02, 2.78162770e-02, 2.55252309e-02, 5.42564737e-03,
          4.02355678e-02, -2.38149650e-02, -2.93081719e-02,
          2.29991935e-02, 1.16238641e-02, 2.27658078e-02,
          -3.48323472e-02, -2.13288441e-02, 2.77311616e-02,
          1.39160957e-02, 2.32627578e-02, 2.64981817e-02, 5.28550558e-02,
          -4.53651175e-02, 4.94780838e-02, 6.11087829e-02,
          -2.14420408e-02, 3.54569741e-02, 5.32667674e-02,
          3.66956810e-03, -7.36077800e-02, -2.66841613e-02,
          5.80603853e-02, 5.26378490e-02, 7.52828568e-02, 3.01780123e-02,
          5.62807061e-02, 1.08042238e-02, -2.95088310e-02,
          -4.38854098e-03, 4.85330597e-02, -9.18919686e-03,
          8.74910057e-02, -3.00221029e-03, -2.90863682e-02,
          4.99107316e-02, -7.07707193e-04, 2.32564528e-02,
          5.64828813e-02, 3.80003639e-03, 5.96317351e-02,
          -4.92320731e-02, 1.68728479e-03, 2.23663934e-02,
          4.05088738e-02, 1.19478321e-02, -2.62099691e-03,
          3.07975896e-02, 7.20227584e-02, -1.62665993e-02,
          -7.59672094e-03, -8.96668993e-03, 3.05564310e-02,
          -2.21798774e-02, 2.02889368e-02, -5.88555671e-02,
          -3.61864530e-02, 4.75759692e-02, 3.16216573e-02,
          -6.77473769e-02, 3.78501080e-02, 1.07723298e-02,
          -3.13383155e-02, 4.80630668e-03, 9.06381942e-03,
          3.72742787e-02, 4.71403599e-02, 9.74834803e-03,
          -4.84372936e-02, 1.21129880e-04, -1.81054417e-02,
          -7.35006332e-02, 6.98706415e-03, 4.25905734e-03,
          1.69520583e-02, -2.90597808e-02, 3.42166312e-02,
          9.77596715e-02, -2.24033720e-03, -2.70070676e-02,
          2.35118754e-02, 3.79653014e-02, 8.82442221e-02, 7.20949471e-02,
          -9.28193703e-03, 3.02694719e-02, 3.03529631e-02,
          -4.02116682e-03, -4.45326976e-02, -5.08170947e-02,
          -2.24555731e-02, -6.81447312e-02, -6.51696557e-03,
          -8.18708632e-03, 1.48746464e-02, 4.50771675e-02,
          -5.27201742e-02, 5.79452375e-03, 1.15099531e-02,
          -4.13946472e-02, -2.09894832e-02, 4.99720909e-02,
          1.21427001e-02, 2.48997770e-02, 1.06974309e-02,
          -4.75957990e-02, 4.60588299e-02, 3.74930911e-02,
          4.28605964e-03, 2.37224754e-02, 4.21751104e-02, 4.11190316e-02,
          -2.90925950e-02, 9.54725221e-03, 7.45315151e-03,
          2.60415450e-02, 3.87734398e-02, -9.81864519e-03,
          -5.66775389e-02, 1.37440255e-02, 9.54186078e-04,
          1.38295647e-02, -1.24041531e-02, -3.06009911e-02,
          2.73128673e-02, 3.91562171e-02, -2.25116909e-02,
          -2.16407236e-02, 1.12637011e-02, 2.47126352e-03,
          3.17369215e-02, -2.15498693e-02, -5.35610132e-02,
          1.59771666e-02, 8.82306229e-03, -2.08984967e-02,
          -5.38350381e-02, -2.68450566e-02, -3.32521088e-02,
          -2.48373263e-02, -6.61440864e-02, -6.28236821e-03,
          4.93341088e-02, 4.00640257e-02, 1.21173635e-03,
          -4.47813096e-03, -1.83919054e-02, 2.06237361e-02,
          3.33018485e-03, 5.90731092e-02, -1.81057286e-02,
          1.87139604e-02, -2.62291990e-02, 1.18293222e-02,
          1.13909066e-01, 3.02146934e-02, -9.20039718e-04,
          1.52955046e-02, -4.72484343e-03, -2.67648846e-02,
          3.63680720e-02, 5.44059323e-03, -4.03938927e-02,
          1.37310261e-02, -1.31451068e-02, -2.86532007e-02,
          -1.08800270e-02, 8.61386582e-02, 5.18994704e-02,
          1.43343592e-02, -3.17727681e-03, 8.01942125e-03,
          -1.79478433e-02, -2.53023878e-02, 1.02048891e-03,
          1.43340016e-02, 1.72274914e-02, 1.90606830e-03, 1.37108359e-02,
          -1.63917076e-02, -2.90773734e-02, 3.29972766e-02,
          6.27512708e-02, 2.58972086e-02, 9.83254239e-03, 4.79561426e-02,
          5.35120722e-03, -3.74932848e-02, -3.39350924e-02,
          -4.99199070e-02, 2.70856488e-02, 1.17413569e-02,
          5.48016950e-02, -3.53165460e-03, 3.15219611e-02,
          -1.69051420e-02, 4.11051102e-02, 3.12723257e-02,
          1.52049987e-02, 8.22810605e-02, -2.85693794e-03,
          1.21879578e-02, 4.12176084e-03, -3.36692557e-02,
          -6.03904724e-02, -2.30893381e-02, -7.43333921e-02,
          -1.90890506e-02, -4.29787748e-02, -5.10674529e-02,
          2.00697482e-02, -9.70797986e-03, 6.18688064e-05,
          -6.81168362e-02, -3.09489202e-02, -4.59339619e-02,
          -7.99250510e-03, 9.32807475e-03, -3.28022502e-02,
          -2.38442551e-02, -1.71587355e-02, 4.25844230e-02,
          -2.55482569e-02, 2.14233641e-02, -4.16819267e-02,
          2.31581423e-02, -1.35890802e-03, -1.33494567e-02,
          -1.31072924e-02, -4.22628559e-02, -2.88960934e-02,
          -5.62194362e-02, -2.29534768e-02, 3.31678949e-02,
          4.30135578e-02, 1.52275255e-02, 7.05184788e-03,
          -3.29653285e-02, 3.99516225e-02, 2.53006350e-03,
          -4.82515842e-02, -1.95358749e-02, -2.73042936e-02,
          1.02386633e-02, -1.09567074e-02, -5.58866514e-03,
          3.52765359e-02, 9.82976612e-03, 2.71961298e-02,
          -4.72734906e-02, 1.91405639e-02, -5.99823846e-03,
          -5.40179312e-02, -3.50616314e-02, 6.68445677e-02,
          -1.08134896e-02, -1.61747970e-02, 4.04186770e-02,
          1.09070996e-02, -2.53641885e-02, -5.32795005e-02,
          3.64107415e-02, 8.37881491e-03, -5.06856199e-03,
          -2.62483992e-02, -4.59092669e-02, -4.08387445e-02,
          -5.68615906e-02, 2.50451826e-02, 6.28183261e-02,
          -2.51331180e-02, -2.16340311e-02, 1.43560674e-02,
          -4.42852229e-02, 9.93269263e-04, 2.68373750e-02,
          4.65986803e-02, -1.54868122e-02, -2.40976140e-02,
          7.25342780e-02, 1.41797652e-02, -3.67360190e-02,
          1.89565886e-02, 3.11723407e-02, 6.81613088e-02, 5.27018495e-02,
          3.59940110e-03, 1.66563410e-02, 1.65577251e-02,
          -2.09111031e-02, -2.84533203e-02, 1.73970051e-02,
          3.34294066e-02, 3.13491561e-02, 4.62494493e-02, 1.31266611e-03,
          -1.30689023e-02, 2.53233407e-02, 1.84917804e-02,
          6.41466724e-03, -2.21487395e-02, 2.19266135e-02,
          -5.73868048e-04, 2.76411306e-02, -5.70555814e-02,
          3.12958844e-02, 1.00760661e-01, 1.06573217e-01,
          -3.90721895e-02, -1.68905351e-02, -8.46053381e-03,
          -1.23761930e-02, -5.25274351e-02, 1.78794954e-02,
          1.66554041e-02, 1.03162751e-02, -3.60017791e-02,
          -4.92745116e-02, -4.79561947e-02, 2.62393449e-02,
          -4.09713984e-02, -4.21575503e-03, -5.44702355e-03,
          -6.16587438e-02, 1.31622367e-02, -2.90852766e-02,
          2.28663720e-02, -2.68311445e-02, 5.20452000e-02,
          -1.45270042e-02, -1.43127656e-02, -2.00314969e-02,
          -5.48171811e-02, 4.73273033e-03, 3.47409397e-02,
          1.52295986e-02, 2.95119379e-02, 5.02401255e-02,
          -6.72535831e-03, 8.19146109e-04, 4.64398712e-02,
          -5.07836975e-02, 1.64326746e-02, 1.30882794e-02,
          2.75027342e-02, -1.80815160e-02, 2.77621076e-02,
          1.33519638e-02, -1.93742365e-02, -5.92208514e-03,
          3.57517898e-02, -3.07045467e-02, -3.23144197e-02,
          -4.80167009e-02, 4.21338044e-02, 4.20818711e-03,
          2.06147823e-02, -1.36988210e-02, 5.36075607e-03,
          3.23443934e-02, -2.65421122e-02, -1.02408463e-03,
          -4.50884551e-03, 1.90855004e-02, 3.49686928e-02,
          -1.46151166e-02, 7.35649839e-04, 5.59557229e-04,
          3.28094177e-02, -5.80260567e-02, 3.15763317e-02,
          1.73266158e-02, 4.20258045e-02, -4.69290949e-02,
          2.52642017e-02, -1.38313463e-02, -3.10072638e-02,
          6.52256310e-02, 2.73724329e-02, 3.82604869e-03, 6.18655086e-02,
          -6.32937402e-02, -2.12459918e-02, 2.43856851e-02,
          -8.52573942e-03, -8.98731174e-04, 2.41495539e-02,
          -3.33153233e-02, -3.67192663e-02, -1.17654130e-02,
          -4.35968349e-03, 2.15089042e-03, -1.55842081e-02,
          3.91356163e-02, -5.21464050e-02, -8.26030821e-02,
          3.24723287e-03, -4.71139178e-02, 9.26726032e-03,
          1.18460916e-02, 2.46976502e-04, -1.71775203e-02,
          5.36028668e-02, 2.44434085e-02, -2.10953429e-02,
          6.12918735e-02, 1.63236707e-02, 1.46939547e-03, 5.05735502e-02,
          -1.99877303e-02, -2.86806263e-02, -5.20556979e-02,
          -3.31388190e-02, 5.09756096e-02, -2.72374563e-02,
          8.80885962e-03, 6.87641129e-02, -1.52725307e-02,
          -1.49075612e-02, -1.40465945e-02, -1.47309937e-02,
          2.28568092e-02, 7.07947277e-03, -2.32790951e-02,
          2.37389393e-02, -1.95623673e-02, -2.23534573e-02,
          1.85223445e-02, -2.23140288e-02, -2.80557685e-02,
          -1.54061113e-02, 3.35865989e-02, -7.77760707e-03,
          -1.46319009e-02, -8.98236502e-03, 2.20439378e-02,
          2.82245707e-02, 5.00763282e-02, -3.12269758e-02,
          -3.52203436e-02, -1.09483069e-02, -4.02482860e-02,
          -3.47533152e-02, 5.42778037e-02, -4.96829674e-03,
          -3.60891446e-02, -1.05859209e-02, 6.01975843e-02,
          4.76778857e-02, -6.51008263e-02, -1.21976249e-02,
          -2.66901888e-02, 8.34354013e-02, 1.07599946e-03,
          -2.65847575e-02, 1.24731958e-02, -5.72074540e-02,
          -3.42988782e-02, -5.24840429e-02, -7.25242943e-02,
          -4.69545648e-02, 2.06951052e-02, 3.49937472e-03,
          3.89830731e-02, 3.61749455e-02, -1.83496233e-02,
          6.47047162e-02, 7.79998526e-02, 4.20638546e-03, 4.24620556e-03,
          -5.77390660e-03, 1.53730111e-02, 5.27354069e-02,
          -2.89968457e-02, -2.95992829e-02, 6.86835870e-03,
          1.43909222e-02, -3.54499929e-02, 8.36150907e-03,
          -9.75153130e-03, -6.98858174e-03, 2.18500383e-02,
          4.73349635e-03, 5.33770071e-03, 3.75655852e-02,
          -2.34060697e-02, -3.65667343e-02, 2.77822856e-02,
          1.79378930e-02, 7.80661358e-03, -6.13002293e-03,
          -7.39632407e-03, 8.88145994e-03, -3.80526595e-02,
          -2.20320858e-02, -1.78571194e-02, 4.67581786e-02,
          -7.93090742e-03, -1.76112540e-02, 9.17248651e-02,
          -3.34147364e-02, -4.17636707e-02, -3.00469138e-02,
          -1.20468186e-02, -3.93307917e-02, -1.40754832e-02,
          -6.59815446e-02, 2.81646587e-02, 1.14012128e-02,
          -7.66914757e-03, -6.16887175e-02, -3.05633922e-03,
          1.54732782e-02, 4.75787222e-02, 4.75598872e-03,
          -1.48270624e-02, 2.49244440e-02, -3.07018906e-02,
          -4.16170023e-02, 2.00219899e-02, -2.19514407e-02,
          5.34658544e-02, 1.58272721e-02, 4.80755642e-02,
          -3.16888541e-02, -3.99752297e-02, 3.06433736e-04,
          -2.19541378e-02, 7.91009143e-03, 2.31647603e-02,
          -6.87152073e-02, -3.68354470e-02, -3.15969884e-02,
          -8.07232186e-02, -3.91752049e-02, 4.49096179e-03,
          2.30081622e-02, -5.52898422e-02, -3.07959393e-02,
          5.55840647e-03, 2.51290202e-02, 1.23844910e-02,
          -2.95364554e-03, 6.62685633e-02, -5.14695272e-02,
          5.38226515e-02, 1.71949342e-02, 3.50923687e-02,
          -9.35565382e-02, 4.82019328e-04, 2.82279011e-02,
          1.79896671e-02, -2.34140996e-02, 3.89608815e-02,
          7.38484273e-03, -3.65745276e-02, 1.56704783e-02,
          3.09500843e-02, 6.07493706e-03, 8.91673118e-02,
          -1.92526903e-03, 3.71421836e-02, -9.11544636e-03,
          4.80273366e-02, 1.00817718e-02, -3.70587856e-02,
          -5.50648682e-02, 1.87255144e-02, -1.50898648e-02,
          2.11214107e-02, 2.88775507e-02, -5.29143251e-02,
          8.28814879e-03, -6.21838942e-02, 7.20744580e-02,
          -2.25217058e-03, 1.51108364e-02, 2.88904179e-02,
          2.13465784e-02, 6.54895371e-03, 5.50025851e-02,
          -4.41150293e-02, -6.01748796e-03, -2.08421275e-02,
          -2.73900777e-02, -1.54778278e-02, 3.46732400e-02,
          3.56341675e-02, 4.27609645e-02, -6.19872138e-02,
          -5.18138669e-02, -2.74658296e-02, -4.31564711e-02,
          9.98242646e-02, 1.10718543e-02, 7.74684176e-02, 7.56066740e-02,
          4.24699113e-02, -3.74087319e-03, -4.81791049e-02,
          3.21203247e-02, -4.85569052e-02, -3.18318978e-02,
          -1.17565747e-02, 4.63319663e-03, 5.00960089e-02,
