%YAML:1.0
category: long_hair_new
classifier: !!opencv-ml-svm
   svm_type: C_SVC
   kernel: { type:LINEAR }
   C: 5.0000000000000000e-01
   term_criteria: { epsilon:2.2204460492503131e-16, iterations:1000 }
   var_all: 7560
   var_count: 7560
   class_count: 2
   class_labels: !!opencv-matrix
      rows: 1
      cols: 2
      dt: i
      data: [ 0, 1 ]
   sv_total: 1
   support_vectors:
      - [ 3.83254699e-02, -1.93815511e-02, -9.39237922e-02,
          -3.45226899e-02, 5.13022766e-02, 4.67326082e-02,
          7.56211672e-03, 1.44216372e-02, 5.64798154e-02,
          -2.69542225e-02, 7.56536191e-03, -1.54727846e-02,
          9.61354561e-03, 7.64175802e-02, 4.09440286e-02,
          -9.30995960e-03, 2.27266066e-02, -8.73796716e-02,
          -1.64617673e-02, -1.82958022e-02, 6.09680414e-02,
          -7.35059788e-04, -1.00566596e-02, 6.37647063e-02,
          1.23635396e-01, -5.73577173e-03, 4.38704761e-03,
          -4.64598648e-02, -3.35716307e-02, 5.76345101e-02,
          4.19938676e-02, 1.31148919e-02, 7.29239658e-02, 2.12258585e-02,
          -4.28627618e-02, -4.81211720e-03, -1.70666762e-02,
          2.94047631e-02, 1.27340583e-02, 2.85589211e-02,
          -4.73276228e-02, -4.02851813e-02, -4.11090441e-02,
          -7.19429413e-03, -2.89701447e-02, 2.53038537e-02,
          2.89959274e-02, 5.66136688e-02, -6.42910774e-04,
          8.83581024e-03, 5.42119741e-02, 1.97314397e-02,
          -4.97219078e-02, 5.15273400e-03, -2.80867727e-03,
          -3.52471694e-02, 8.92555062e-03, 1.98365021e-02,
          -9.89539921e-03, -3.88745815e-02, -8.01696163e-03,
          -3.59263197e-02, 3.80167849e-02, -4.43822844e-03,
          -6.24991357e-02, 3.65244299e-02, -3.77243981e-02,
          -2.59891190e-02, -1.81249455e-02, 1.07103558e-02,
          -6.15442656e-02, 2.10278369e-02, -4.36360203e-03,
          4.06926349e-02, 2.57777661e-04, -8.62868503e-02,
          -1.43889617e-03, -6.63480302e-03, 3.84478271e-02,
          -2.40333565e-03, -1.07479943e-02, -2.38460507e-02,
          3.29739451e-02, -6.18061125e-02, -2.62136031e-02,
          1.34878438e-02, 6.42226636e-03, -3.19011919e-02,
          3.16581875e-02, 1.07756527e-02, 2.61278059e-02,
          -3.10698971e-02, 1.45249153e-02, -5.94772510e-02,
          -8.83121323e-03, -4.60251868e-02, -2.18703188e-02,
          -1.00005954e-03, 1.36711700e-02, -2.36658510e-02,
          -7.44266659e-02, -2.36006994e-02, -1.49835180e-02,
          1.69963948e-02, 3.65003087e-02, 8.32775142e-03, 9.04399378e-04,
          7.78669273e-05, 1.97551236e-03, 2.89230188e-03,
          -7.69433975e-02, -1.15236305e-02, -4.54550289e-04,
          -3.93740507e-03, -5.05767912e-02, 1.40878391e-02,
          -6.35438487e-02, 1.63789410e-02, 7.14434385e-02,
          -3.13907191e-02, 3.56692784e-02, 8.93913507e-02,
          2.32921559e-02, 1.38049284e-02, 5.70018776e-03,
          -4.77381907e-02, 1.63804274e-02, -1.47478089e-01,
          -4.65967022e-02, 3.75859858e-03, 2.21394449e-02,
          -3.40027059e-03, -4.14135307e-02, -4.76339720e-02,
          -8.28454420e-02, 3.59263904e-02, -5.14350086e-02,
          -3.76228094e-02, -8.35637562e-03, -3.54237631e-02,
          -1.86146367e-02, -6.53453320e-02, -5.88496849e-02,
          -3.05129811e-02, 3.55273262e-02, 2.56125145e-02,
          -3.04674339e-02, -4.11404669e-03, -3.79947200e-02,
          -1.57656949e-02, 1.40647404e-02, 5.12248790e-03,
          -1.47548085e-02, 4.21462059e-02, 2.53123022e-03,
          2.40524858e-02, -1.24324430e-02, -5.07262722e-02,
          1.71657931e-02, 3.07333264e-02, 6.82105869e-03,
          -5.14544100e-02, 1.43462578e-02, -3.98439392e-02,
          3.50739919e-02, -3.16248499e-02, -7.13898987e-02,
          -3.11637484e-02, -7.85595179e-02, -2.31181346e-02,
          6.89199008e-03, -1.43670011e-03, -2.67227199e-02,
          4.88309935e-03, -3.26146372e-02, -8.06614757e-03,
          3.84095199e-02, 1.67783070e-02, 1.30550880e-02,
          -4.72799055e-02, -2.15427037e-02, -6.99193543e-03,
          -4.90431860e-03, -1.52424136e-02, -1.53385559e-02,
          4.99718338e-02, 1.66197456e-02, 1.26213599e-02,
          -3.29543874e-02, 1.92570742e-02, 2.84027923e-02,
          -2.65598372e-02, -2.58786622e-02, 9.26575810e-03,
          3.15736383e-02, -1.51121244e-02, -3.22501478e-03,
          9.99536738e-02, -1.10729840e-02, -1.06835198e-02,
          1.17100626e-02, -3.93002853e-02, -7.39176944e-03,
          9.15993527e-02, 3.85656655e-02, -3.42250019e-02,
          -3.21319550e-02, 2.55122706e-02, -2.94871312e-02,
          -2.80139074e-02, -4.15998809e-02, 8.36474076e-02,
          5.75934239e-02, 4.77370881e-02, -1.99284609e-02,
          4.98192646e-02, -5.15505159e-03, 5.06812930e-02,
          5.33603355e-02, -3.95554490e-02, -4.72585559e-02,
          7.31088873e-03, -3.84228975e-02, -1.96884573e-02,
          -6.64358307e-03, 5.39567173e-02, 3.66916656e-02,
          3.13372798e-02, -3.99162024e-02, 7.26116821e-03,
          1.78996660e-02, 7.30559155e-02, 5.72458059e-02, 4.54388261e-02,
          -3.19059342e-02, -1.83363464e-02, -1.31706512e-02,
          -2.47944444e-02, 3.30554172e-02, 2.44288531e-04,
          -3.25506069e-02, -4.83594835e-02, -1.84948798e-02,
          4.46944833e-02, 5.67695946e-02, 1.26240114e-02,
          -2.56392565e-02, -2.98211165e-03, -1.14894211e-02,
          -1.69111546e-02, -2.79655084e-02, -4.22574505e-02,
          2.76558008e-02, -2.95684282e-02, -5.78734726e-02,
          -3.75635996e-02, -4.38623354e-02, -8.72255210e-03,
          2.88546290e-02, 7.75856525e-02, 1.56290904e-02,
          -5.51853366e-02, -4.20226306e-02, -6.50818795e-02,
          -4.06004377e-02, -6.91982135e-02, -3.16184349e-02,
          -1.80707835e-02, 4.09200378e-02, -3.47931385e-02,
          -3.09990603e-03, -1.43866073e-02, 1.10074822e-02,
          -2.17596237e-02, -4.08126181e-03, -2.66532302e-02,
          -4.30513658e-02, -3.10771409e-02, -3.19285654e-02,
          -1.44572812e-03, -5.97885326e-02, -5.67388572e-02,
          -6.37445301e-02, -5.75930551e-02, -3.95701900e-02,
          1.54120126e-03, -1.53286746e-02, 2.36502433e-06,
          -2.00535942e-04, -7.43555725e-02, -9.59614888e-02,
          -1.69507600e-02, 4.37944084e-02, 4.10000887e-03,
          -3.33566777e-02, 1.12846559e-02, 6.63843565e-03,
          -1.13864904e-02, -7.67133683e-02, -8.13704357e-02,
          -2.05253810e-02, 6.89359829e-02, 1.64703070e-03,
          -1.77150983e-02, 3.81527878e-02, 2.72115972e-02,
          1.27660567e-02, -1.66894589e-02, -4.63435911e-02,
          -3.48343141e-02, -3.38775851e-02, -2.65090540e-02,
          -2.18228195e-02, 1.96180716e-02, -3.06730182e-03,
          -3.68242059e-03, -3.74073535e-02, 2.35596136e-03,
          -6.98143318e-02, 1.71081517e-02, -7.33507723e-02,
          -2.15469711e-02, -8.04049894e-03, 1.93071030e-02,
          -4.82029729e-02, -5.11682816e-02, 3.66363935e-02,
          2.37195231e-02, -1.44025311e-02, 1.05109541e-02,
          7.66359083e-03, 1.17755784e-02, 6.15465594e-03,
          -3.51894908e-02, -5.36129288e-02, 3.62305678e-02,
          1.45725720e-02, -3.89502791e-04, 3.63655053e-02,
          1.06613087e-02, -1.24238115e-02, 1.43250478e-02,
          1.91068295e-02, -4.40196954e-02, 4.07583416e-02,
          -3.94342132e-02, 7.66662369e-03, -4.67709033e-03,
          1.69523992e-02, 6.21017534e-03, 2.16234848e-02, 4.28994484e-02,
          -3.16330157e-02, -1.37543287e-02, -2.58172881e-02,
          -5.64941838e-02, -8.44329115e-05, 2.33012903e-02,
          -3.32669057e-02, -1.17420843e-02, 1.31389294e-02,
          -3.42519581e-02, 2.16031936e-03, -6.55932799e-02,
          3.38499658e-02, 2.04197541e-02, 1.91854103e-03,
          -3.13531645e-02, 3.26886005e-03, -1.51008936e-02,
          2.42536571e-02, 2.25072522e-02, -2.10326221e-02,
          4.41703461e-02, -4.86606099e-02, -9.13995970e-03,
          -1.24274939e-05, -1.61902644e-02, 5.37818810e-03,
          -1.61516611e-02, -6.32563755e-02, -4.00197953e-02,
          -3.15570980e-02, -1.68290325e-02, -1.87645610e-02,
          1.50125902e-02, -2.86876317e-02, -1.86738074e-02,
          -2.23434903e-02, -4.34477255e-02, -2.62167770e-02,
          1.43891545e-02, -7.98083097e-02, 2.89612915e-03,
          -4.77240384e-02, -2.62690336e-02, -4.44080532e-02,
          5.95062599e-02, 1.17497006e-02, 8.46698415e-03, 2.67535001e-02,
          -6.30587190e-02, -6.33377060e-02, -2.96190158e-02,
          -1.19633796e-02, -2.69148741e-02, 2.12534685e-02,
          8.58471636e-03, 1.69410501e-02, -5.74468188e-02,
          -9.09088459e-03, -1.87494475e-02, 1.53679429e-02,
          1.04090441e-02, -5.70704825e-02, 2.49127652e-02,
          2.61304099e-02, -3.50731090e-02, 6.07057065e-02,
          -1.41097242e-02, 2.83521274e-03, -1.04970925e-01,
          -2.14956030e-02, -3.63543518e-02, -4.83076088e-03,
          5.79334870e-02, 7.90526718e-03, -7.35912845e-03,
          4.10540737e-02, -1.70987360e-02, -1.45898210e-02,
          -1.27134323e-02, -2.64571374e-03, 3.73012051e-02,
          -2.13460065e-02, -1.41746467e-02, -6.56242818e-02,
          -1.40625965e-02, -3.22671235e-02, 4.55910660e-04,
          4.74919938e-03, -1.39828743e-02, 2.43774410e-02,
          -1.93360951e-02, -4.01059315e-02, -2.58193212e-03,
          -1.62350051e-02, 5.74222708e-04, 4.77017649e-02,
          4.90112826e-02, -1.48361344e-02, 4.81763296e-02,
          -3.22274142e-03, -1.50724349e-03, -6.23449730e-03,
          -2.87161749e-02, -5.09079732e-03, 1.77922193e-03,
          1.36342049e-02, -5.04862443e-02, 3.52677293e-02,
          -1.18500218e-02, -1.30336089e-02, 4.00650464e-02,
          -6.52827322e-03, 1.05623389e-02, -9.88743454e-03,
          -5.34420013e-02, -1.96619201e-02, -1.25365509e-02,
          3.76146398e-02, -3.86983268e-02, -5.60331857e-03,
          6.27262285e-03, 3.66219855e-03, 6.93792105e-02, 4.18331064e-02,
          -6.43747374e-02, -4.67542373e-03, 2.15934906e-02,
          -2.29017828e-02, -8.32765624e-02, -3.73187067e-04,
          1.24763399e-02, 4.00911570e-02, 1.16610741e-02,
          -2.74067987e-02, -1.48328124e-02, 2.09965091e-02,
          -5.75321019e-02, 1.40236942e-02, 3.54513898e-02,
          -2.33393665e-02, 4.04565595e-02, -1.52350543e-03,
          -3.71514298e-02, 3.91015597e-02, 1.13376258e-02,
          -5.76904081e-02, 1.35560036e-02, -3.63839157e-02,
          -1.34084781e-03, 3.89673398e-03, -6.51211524e-03,
          -1.97444446e-02, 4.68524247e-02, 2.56893896e-02,
          -3.52389249e-03, -3.50851230e-02, 2.07500160e-02,
          5.55858482e-03, -2.28116121e-02, 3.89006687e-03,
          -2.95305904e-02, -3.17655019e-02, 7.20155658e-03,
          -2.42678057e-02, -3.60731706e-02, -5.99776395e-02,
          -6.07064664e-02, -2.61639208e-02, -2.11120378e-02,
          3.35877691e-03, -2.33604130e-03, 2.15737354e-02,
          -4.88631949e-02, 3.38079520e-02, -5.00872396e-02,
          -2.62812264e-02, -7.51352757e-02, 1.84856877e-02,
          -1.37437312e-02, -4.80278209e-02, 1.23830345e-02,
          -7.48221204e-03, -1.42082321e-02, -4.68631461e-02,
          -1.08506024e-01, -2.23422814e-02, -6.28134143e-03,
          -1.96846435e-03, 1.93469003e-02, 2.13866085e-02,
          -4.44248915e-02, -3.56628969e-02, -4.09508236e-02,
          9.10907388e-02, 6.76826760e-03, 4.38774154e-02,
          -5.84611334e-02, -4.67687137e-02, 3.25321965e-02,
          -2.81600952e-02, 4.20128331e-02, -9.54671483e-03,
          3.21929269e-02, -3.75247747e-02, 4.05524857e-02,
          2.92456932e-02, 1.20508187e-02, 1.42153632e-02,
          -1.60502344e-02, 1.64480228e-02, -3.94653454e-02,
          2.87395939e-02, 2.46037822e-02, 8.87143165e-02,
          -2.58846488e-03, 2.41585094e-02, 4.12767008e-02,
          6.35921434e-02, 9.72198024e-02, -2.21629981e-02,
          2.72799041e-02, 2.72720208e-04, -3.52971777e-02,
          -5.76890819e-02, -4.23271358e-02, -2.16876380e-02,
          6.20458322e-03, 1.58140957e-02, -3.47943567e-02,
          6.47754921e-03, -3.90374400e-02, 3.92743610e-02,
          -8.44056085e-02, -2.86253765e-02, -9.31899529e-03,
          -1.49637209e-02, 6.19763322e-02, -2.82047819e-02,
          5.89312576e-02, -4.79761437e-02, -1.96097605e-02,
          -2.57228222e-02, -1.66209005e-02, -3.63329127e-02,
          5.87512366e-03, -3.46108945e-03, -3.13434787e-02,
          3.92326713e-02, -7.14363763e-03, 1.43633168e-02,
          -3.41767706e-02, -7.30198771e-02, -5.62509373e-02,
          -2.54706517e-02, 9.65602172e-04, -1.34873195e-02,
          3.92433591e-02, -2.92299613e-02, -6.05905661e-03,
          -4.50174585e-02, 4.36836518e-02, 4.18396033e-02,
          -1.71347093e-02, -2.26403698e-02, -9.35244188e-02,
          3.14860158e-02, -2.36957567e-03, -1.45539949e-02,
          -7.11283311e-02, 2.51627695e-02, -2.48416886e-02,
          -1.61965303e-02, 5.25501743e-02, -4.42178510e-02,
          1.57463960e-02, 3.07675377e-02, 6.24359539e-03,
          -4.41523939e-02, 2.27807425e-02, 1.78297404e-02,
          9.63884965e-03, -8.02301019e-02, -9.66586173e-02,
          1.17745427e-02, -4.41105962e-02, -3.44681414e-03,
          -7.35571459e-02, -2.65882574e-02, -2.11255699e-02,
          -8.95873979e-02, -3.60807367e-02, -2.97140256e-02,
          2.04093717e-02, -5.76166809e-03, 1.18707102e-02,
          -1.08778393e-02, -9.36154835e-03, 1.11542130e-02,
          -1.05695054e-02, 8.47738516e-03, -2.97345519e-02,
          -1.93806086e-02, 6.12542033e-03, -3.33272964e-02,
          6.81602433e-02, 3.82314213e-02, 1.22669544e-02, 2.09234003e-03,
          -2.93199793e-02, -5.19041112e-03, -2.49636155e-02,
          3.28983068e-02, 2.72749253e-02, -3.13312411e-02,
          -2.03077327e-02, 2.50530080e-03, 3.97843309e-03,
          2.08894792e-03, -4.99958508e-02, 4.36229957e-03,
          -5.34297107e-03, -5.14927432e-02, 3.59245241e-02,
          6.51325509e-02, -1.14555899e-02, 4.69936505e-02,
          1.65574457e-02, 1.86455771e-02, -4.45339233e-02,
          -3.10620274e-02, 6.53294548e-02, 3.81085649e-02,
          -4.87793796e-03, 2.96057593e-02, -2.92770602e-02,
          -6.81134611e-02, -3.46965641e-02, -5.50631173e-02,
          2.23015025e-02, -2.44543329e-03, 1.11713412e-03,
          4.08352986e-02, 3.54145318e-02, -2.73722857e-02,
          3.78688169e-03, 1.03194052e-02, -2.31541861e-02,
          1.89614426e-02, -2.48319395e-02, -1.88074820e-02,
          2.04488076e-02, 1.37646333e-03, -1.62353963e-02,
          -5.44314981e-02, 1.39656411e-02, -3.60797606e-02,
          2.08752416e-02, -2.36320891e-03, -2.84134094e-02,
          6.90142512e-02, -2.26591714e-02, -1.10248448e-02,
          4.39920984e-02, -1.74272321e-02, -2.79047042e-02,
          3.74585018e-03, -3.95667590e-02, -3.16629782e-02,
          2.69328221e-03, -4.33545634e-02, -5.36967367e-02,
          5.79737164e-02, 1.19072208e-02, -6.23595715e-02,
          -2.71658637e-02, -1.74199473e-02, -4.23803702e-02,
          1.20275905e-02, -4.69112992e-02, -6.27412647e-02,
          5.73523603e-02, 1.09733939e-02, -3.44098061e-02,
          -1.04192896e-02, -2.34392457e-04, -1.08235376e-02,
          -1.49294753e-02, 4.16854164e-03, -2.98955832e-02,
          9.83337983e-02, -1.22319337e-03, 2.80712135e-02,
          2.61390544e-02, 1.90793921e-03, 5.11040576e-02,
          -2.58169267e-02, -5.83725050e-03, 9.68827587e-03,
          5.83443083e-02, 1.65553316e-02, 3.35240300e-04,
          -4.16301424e-03, -9.62647703e-03, -4.43039322e-03,
          -3.38056907e-02, -6.31777048e-02, -4.72903848e-02,
          6.61057904e-02, 1.53611053e-03, -1.51739651e-02,
          2.49078814e-02, 5.79095669e-02, -1.15458826e-02,
          3.18547785e-02, -8.06099400e-02, -1.37365917e-02,
          2.75980346e-02, -1.94561370e-02, -5.26112467e-02,
          -4.72656786e-02, 1.12132207e-02, 1.53428558e-02,
          -8.44266415e-02, -7.39211813e-02, -3.33039090e-02,
          6.69747731e-03, 2.81994534e-03, -8.63967557e-03,
          -4.82558385e-02, -1.60160158e-02, -3.89607553e-03,
          -2.73635369e-02, -3.69445868e-02, -2.79340576e-02,
          -2.09380947e-02, -1.63272731e-02, -3.25498879e-02,
          2.15918571e-03, -9.19377711e-03, -7.50647634e-02,
          -1.34552019e-02, -3.66185303e-03, -2.91890893e-02,
          2.57698838e-02, 8.67740158e-03, -1.75967701e-02,
          -3.76594365e-02, -2.75241453e-02, -4.14977036e-02,
          -2.35255226e-03, -1.29586144e-03, -3.47826332e-02,
          3.04344781e-02, -3.73039320e-02, 1.58167537e-02,
          -4.43127863e-02, -9.36374813e-02, -2.81619858e-02,
          1.94276422e-02, 1.86100528e-02, -3.46310101e-02,
          3.14516313e-02, 1.41556477e-02, 2.30633028e-04,
          -3.44954319e-02, -4.16149125e-02, -2.42763590e-02,
          -8.61501507e-03, -9.72748548e-03, -8.66020937e-03,
          5.33605576e-04, -3.38564888e-02, 3.93570773e-03,
          5.35471924e-03, -4.41071391e-02, 4.96112220e-02,
          9.36726481e-03, -2.79829046e-03, -1.09320069e-02,
          -1.97510440e-02, -1.43938586e-02, 7.66257048e-02,
          4.30793501e-02, -4.22256775e-02, -7.89970160e-03,
          2.12617218e-02, 1.96737889e-02, -9.81860608e-03,
          -7.53962714e-03, -3.72807384e-02, -5.03459163e-02,
          -7.13343769e-02, -5.60211726e-02, 5.01019470e-02,
          7.43507082e-03, -4.35366370e-02, -1.35725178e-02,
          6.00104146e-02, 4.87471446e-02, 5.14246300e-02, 2.40244605e-02,
          5.75433578e-03, 4.81264368e-02, 1.20590730e-02, 2.64469143e-02,
          1.03392331e-02, -3.49478535e-02, 3.67132425e-02,
          -4.54307944e-02, -5.03929742e-02, -2.91783214e-02,
          -1.07529582e-02, -8.19951389e-03, -1.41974539e-02,
          1.94509625e-02, 1.72108430e-02, 3.17443050e-02,
          -2.69545466e-02, 6.35526096e-03, 3.17728147e-02,
          2.70673204e-02, -3.77693633e-03, 5.36649395e-03,
          3.62445824e-02, -1.62621366e-03, 6.26708865e-02,
          -2.32183840e-02, 1.70302670e-02, 6.80661425e-02,
          1.28601668e-02, -5.83666377e-03, -7.52372434e-03,
          4.98243645e-02, -7.00329943e-03, 2.08808705e-02,
          -2.97978949e-02, -3.69363539e-02, -1.40563678e-02,
          -1.75531243e-03, -5.33978157e-02, -1.74590554e-02,
          4.95350957e-02, 4.55993190e-02, 1.45952739e-02,
          -1.81446299e-02, -1.02061769e-02, 8.73517096e-02,
          3.21904793e-02, 3.24980728e-03, -1.02878362e-02,
          5.01117148e-02, 5.52833937e-02, 3.65876816e-02,
          -3.55377346e-02, 1.53784687e-02, 4.54388931e-02,
          -2.28425805e-02, 4.42018770e-02, -1.05316686e-02,
          -5.65957336e-04, -1.14297774e-02, -6.04985096e-03,
          2.83108819e-02, 4.18325588e-02, 5.87817049e-03,
          -9.49508511e-03, 6.90728649e-02, -7.99434353e-03,
          -6.80892868e-03, -6.62720250e-03, 9.42267827e-04,
          4.47481684e-03, -9.96923633e-03, 2.04801280e-02,
          3.11854351e-02, 4.36240286e-02, -1.16022360e-02,
          -7.03205690e-02, -2.42695231e-02, -4.60259691e-02,
          4.62609902e-02, 3.06111816e-02, -1.02862744e-02,
          -6.26765862e-02, 1.86646935e-02, 1.01882312e-02,
          3.46288383e-02, 1.20937480e-02, 1.90888550e-02,
          -1.01366797e-02, -3.24608870e-02, -1.32119488e-02,
          4.64188457e-02, 2.18170956e-02, 1.17449574e-02, 8.43708590e-02,
          -6.23429194e-02, 8.54684487e-02, -6.95124827e-03,
          1.22265900e-02, 5.11530228e-02, -4.96860296e-02,
          -1.81906372e-02, 2.34115142e-02, 7.44952587e-03,
          6.38303440e-03, -4.40144204e-02, 1.43714147e-02,
          1.91435814e-02, -6.17886940e-03, 3.43112350e-02,
          2.94089317e-02, 4.65048365e-02, 2.53607072e-02,
          -5.24720410e-03, 2.55480001e-04, 3.30729294e-03,
          2.86832210e-02, 7.63284564e-02, -4.46584672e-02,
          -2.18240656e-02, -5.23031093e-02, 1.85439195e-02,
          -3.94875137e-03, 1.38625680e-02, 2.25921124e-02,
          2.52894592e-02, -4.40511517e-02, -6.20415546e-02,
          -1.82276294e-02, 7.34264497e-03, -1.18650738e-02,
          4.69672540e-03, -1.63010228e-02, 4.32211049e-02,
          2.56135892e-02, -9.02075395e-02, 2.89629470e-03,
          2.19058711e-02, 4.90179472e-02, -1.68777462e-02,
          6.11988492e-02, 1.83299016e-02, 1.75139727e-03, 4.47081327e-02,
          1.36349536e-02, -1.18606109e-02, 1.14119466e-04,
          2.03887969e-02, -5.81230558e-02, 1.65445230e-03,
          -4.80186846e-03, -7.60731567e-03, 1.96764227e-02,
          8.00184831e-02, -2.95290463e-02, -5.90154843e-04,
          -1.65172110e-04, 9.24553070e-03, 2.87215244e-02,
          2.39510946e-02, 1.61176752e-02, 2.31567230e-02,
          -4.51273331e-03, 1.63371880e-02, 7.40888938e-02,
          1.25790928e-02, 1.64167602e-02, -2.65271887e-02,
          2.27857828e-02, -1.62273515e-02, 1.85845792e-02,
          2.37006843e-02, 2.72634951e-03, -3.69745940e-02,
          1.42108118e-02, 2.14188755e-03, 5.59382364e-02,
          -2.72474252e-03, 1.21205049e-02, 3.59072685e-02,
          2.17142664e-02, 1.07562309e-02, 2.93217618e-02, 1.04010832e-02,
          6.57706475e-03, -1.14396922e-02, 6.18714280e-03,
          -6.12841081e-03, 7.25808516e-02, -1.80687495e-02,
          -5.83230890e-03, 4.63060550e-02, 2.68547563e-03,
          -4.63084225e-03, -1.28850131e-03, -3.81583013e-02,
          -8.52512009e-03, -6.73532039e-02, 1.73459370e-02,
          1.41479708e-02, -2.69370945e-03, -7.34353112e-03,
          -2.62879524e-02, 3.49906124e-02, -3.58231738e-02,
          -1.43163325e-02, 1.08398022e-02, -9.84139740e-03,
          5.58301527e-03, 5.51069947e-03, 7.18688518e-02,
          -1.68558694e-02, -2.62506064e-02, -6.26676437e-03,
          1.39243733e-02, 2.16411054e-02, -3.80094443e-03,
          -5.62115647e-02, -4.55130078e-02, -2.67565697e-02,
          -2.11124588e-02, -2.05537584e-02, -8.20216315e-04,
          5.35110123e-02, 4.40400140e-03, 5.07803680e-03, 3.87796238e-02,
          2.90008057e-02, -9.67136770e-03, -5.29219359e-02,
          -4.34032530e-02, -6.05539344e-02, 6.12137932e-03,
          1.23176584e-03, 6.48554564e-02, 2.69992109e-02,
          -1.84748843e-02, 3.09275463e-02, 1.86471660e-02,
          6.01758137e-02, -2.75277160e-02, -5.25824539e-02,
          -3.42522226e-02, 4.63210698e-03, -4.91593480e-02,
          -1.36785852e-02, -3.60346735e-02, 4.27369587e-02,
          3.18155736e-02, -5.02787111e-03, -1.80835184e-02,
          -1.53034208e-02, -3.91190499e-02, 8.53564665e-02,
          -2.09214054e-02, -7.00628012e-03, 2.98762079e-02,
          4.99097668e-02, -3.59573290e-02, -1.03786429e-02,
          -3.55830565e-02, 4.93105762e-02, -4.18173000e-02,
          1.63994990e-02, 9.66746639e-03, -7.08096102e-03,
          4.04205732e-02, -5.98398643e-03, 4.63794395e-02,
          2.54171304e-02, 3.67797054e-02, -6.74851835e-02,
          -4.77081425e-02, 9.85198840e-03, -6.56381324e-02,
          1.62687432e-02, -1.16237551e-02, 6.08511679e-02,
          -5.19169145e-04, -7.17710257e-02, 1.58760734e-02,
          -6.88968822e-02, 3.90469059e-02, -6.55018613e-02,
          -1.48721477e-02, -4.49284799e-02, 6.34749606e-03,
          3.58199957e-03, 8.37006345e-02, -9.19024497e-02,
          -9.31021199e-02, 4.11821641e-02, -3.51474173e-02,
          5.01888022e-02, -5.05159758e-02, 3.29947323e-02,
          -4.79440503e-02, -6.52557565e-03, -5.05142510e-02,
          1.82166230e-02, -8.94783437e-03, 3.70900370e-02,
          4.38739359e-02, -1.34744449e-02, 6.68225139e-02,
          -6.75416440e-02, -4.43237796e-02, 7.77653186e-03,
          2.31625531e-02, -1.93824004e-02, 1.07372571e-02,
          -2.55886174e-04, -1.53624713e-02, 6.04052693e-02,
          -4.22034897e-02, -4.91742082e-02, -7.22260177e-02,
          -9.04122442e-02, 9.71378293e-03, -2.22780858e-03,
          2.95787305e-03, -2.99694762e-02, 3.62840481e-02,
          -1.71966013e-02, -2.82201990e-02, -2.81409193e-02,
          -4.24890593e-02, 3.08870319e-02, 1.47828367e-02,
          -1.94831025e-02, 3.57855372e-02, 1.28544301e-01,
          9.04232915e-03, -3.44630182e-02, 2.31030732e-02,
          4.64450605e-02, -1.43568441e-02, 2.97018886e-02,
          -6.64154217e-02, -1.04612455e-01, 3.18947667e-03,
          -9.43197682e-02, -2.59627146e-03, -3.81635875e-02,
          7.21709132e-02, 4.80965333e-04, 3.97755764e-02,
          -3.78539413e-02, -2.42861900e-02, -1.06605636e-02,
          -3.49433608e-02, 4.58694324e-02, 3.96340229e-02,
          2.43970901e-02, -2.18511559e-02, 5.47818840e-03,
          4.33855411e-03, -2.85183471e-02, 5.60556427e-02,
          -1.91681292e-02, 1.92331094e-02, 4.01581228e-02,
          -6.43540397e-02, -3.04164868e-02, 2.80098394e-02,
          4.75009270e-02, 4.47907746e-02, 4.47735302e-02, 6.14520460e-02,
          3.96640748e-02, -2.64735557e-02, -2.78305151e-02,
          -4.95591909e-02, -4.50630113e-02, -2.97019593e-02,
          -3.76935750e-02, -7.19233006e-02, -3.23985107e-02,
          6.28364831e-02, 2.17895582e-02, 2.71321069e-02,
          -2.94489460e-03, -3.25053409e-02, 6.80046827e-02,
          -2.09819749e-02, -2.46226750e-02, -1.95387155e-02,
          1.93220936e-02, 8.33789725e-03, -5.60035817e-02,
          -6.10228777e-02, -6.77631348e-02, -3.31028621e-03,
          -4.65795286e-02, 2.69350577e-02, 2.22810544e-02,
          5.30943461e-02, 3.89812998e-02, 5.30585982e-02,
          -1.69472788e-02, -7.09493598e-03, -3.96661051e-02,
          1.81908682e-02, 3.17723374e-03, -9.12130903e-03,
          7.40232393e-02, 4.18086052e-02, -4.77505475e-03,
          -3.64447990e-03, 1.06928265e-03, 4.43327650e-02,
          -3.99206439e-03, -4.72059613e-03, -1.18054170e-02,
          4.13975958e-03, 2.69320328e-02, 3.35025899e-02,
          -2.33747046e-02, 6.75327629e-02, 3.38043943e-02,
          -1.87245489e-03, -4.39570332e-03, -3.10177412e-02,
          -5.06271329e-03, -1.43734142e-02, 4.36425060e-02,
          8.47362727e-03, -5.09517156e-02, 2.25799177e-02,
          3.34808342e-02, -5.94502874e-03, -1.29771177e-02,
          -1.64996274e-02, 1.37067335e-02, -1.95700284e-02,
          3.48107703e-02, 3.28875594e-02, 4.53645550e-02,
          -1.04444409e-02, 3.47956158e-02, -1.31869623e-02,
          1.53605863e-02, -3.10137402e-02, -5.26480898e-02,
          -6.27661422e-02, 3.75212990e-02, -5.74273542e-02,
          -9.15677939e-03, 4.26157974e-02, -1.14776213e-02,
          -4.95746955e-02, -3.17678116e-02, 5.80789812e-04,
          -1.26837436e-02, 9.96463816e-04, -1.53186200e-02,
          -2.64415443e-02, -1.52894408e-02, 3.74526456e-02,
          7.08897831e-03, -5.01079671e-02, 2.02827640e-02,
          5.94844446e-02, 3.04575413e-02, -1.29923783e-02,
          -3.88573110e-02, 2.50849221e-02, 2.99226982e-03,
          -3.35202664e-02, 9.30759311e-03, -1.35095557e-02,
          5.69959320e-02, -2.02283892e-03, -4.04938236e-02,
          -1.24647503e-03, 5.59481941e-02, 7.40855699e-03,
          8.44621472e-03, -1.90090835e-02, 5.57064116e-02,
          3.49267721e-02, -2.82739336e-03, 1.40445726e-02,
          1.64447669e-02, 1.09384758e-02, 5.59933484e-02,
          -3.07972245e-02, -5.15153818e-02, 8.48286040e-03,
          -1.98278837e-02, 1.57569908e-02, -6.14665821e-02,
          -1.49058932e-02, -1.29062375e-02, 4.17052507e-02,
          -7.58466944e-02, -2.30593812e-02, -3.20483111e-02,
          -2.11646687e-02, -2.00912487e-02, -7.90753588e-03,
          -7.92528081e-05, 1.20593151e-02, 2.89204232e-02,
          -3.94927748e-02, 3.91307399e-02, -3.21889929e-02,
          -2.15742961e-02, 5.78864478e-03, -1.07769944e-01,
          2.20071562e-02, 1.08090425e-02, -5.03888689e-02,
          -9.60564148e-03, 4.61840769e-03, -1.09783756e-02,
          -3.58736739e-02, -1.89518053e-02, 1.18195480e-02,
          7.68616842e-03, 3.61639983e-03, 9.10189468e-03, 1.55939143e-02,
          1.67297069e-02, 2.87053417e-02, 5.81608666e-03, 9.99525003e-03,
          -2.42513046e-02, 4.88161715e-03, -3.94986235e-02,
          -3.38158123e-02, -3.72979641e-02, 4.80076112e-02,
          -3.82075794e-02, 1.12063461e-03, 6.23088405e-02,
          -6.01308979e-02, 3.20594124e-02, -1.03093293e-02,
          -4.01579700e-02, 2.65795048e-02, -6.76712021e-02,
          -2.02409271e-02, -5.05572483e-02, 5.55956876e-03,
          3.75891700e-02, 4.65379916e-02, 1.00897136e-03,
          -3.73311788e-02, -5.15872724e-02, 7.17867492e-03,
          -1.04221301e-02, -1.29280537e-02, 3.57130058e-02,
          5.89385768e-03, 2.99329143e-02, 7.04982728e-02, 7.20379082e-03,
          -3.19790915e-02, 1.81034729e-02, 1.40850395e-02,
          -1.71908252e-02, 7.90072754e-02, -9.99840908e-03,
          7.32984301e-03, 3.37319560e-02, 2.23618816e-03, 3.54779512e-02,
          -1.23875700e-02, 1.48911169e-02, -1.28472596e-02,
          -1.86367650e-02, -3.89205031e-02, 4.25596125e-02,
          5.71002029e-02, 1.12873800e-02, -5.60451634e-02,
          8.22949689e-04, 8.81636224e-04, 2.35776864e-02, 4.25125286e-02,
          -2.72578113e-02, 9.55590047e-03, 4.83132042e-02,
          7.86303803e-02, 1.90052539e-02, 4.68694754e-02, 9.23414901e-02,
          -1.44117046e-02, 8.22604727e-03, 8.39067809e-03,
          4.28740110e-04, 4.42500785e-03, -3.89540717e-02,
          4.01225090e-02, 1.17050139e-02, 1.26892086e-02, 1.13429651e-02,
          -2.28820443e-02, -3.35130244e-02, -1.49537763e-02,
          9.08104982e-03, 3.81439505e-03, 3.04786535e-03, 8.58175848e-03,
          -3.21213752e-02, 3.61038209e-03, -1.78138213e-03,
          -6.48199627e-03, -1.54552739e-02, 2.50746012e-02,
          -4.45391685e-02, 5.16805681e-04, -3.98854017e-02,
          -3.56308706e-02, 1.62755065e-02, -6.56972174e-03,
          -2.88708191e-02, 3.08123399e-02, 3.35479081e-02,
          6.57310057e-03, -6.51227310e-02, -3.84201407e-02,
          -2.58939024e-02, 2.11841855e-02, 1.10004726e-03,
          3.14252414e-02, -2.82391487e-03, 1.44885862e-02,
          1.23273646e-02, -1.99714191e-02, 7.01445015e-03,
          1.45369191e-02, 9.46318582e-02, 3.91280715e-04,
          -1.77337807e-02, -8.00838135e-03, -1.21945888e-02,
          -7.19642313e-03, -1.56807322e-02, 3.06741614e-02,
          2.27863993e-02, 6.60824552e-02, 1.34247476e-02,
          -2.08843537e-02, 2.72466689e-02, 2.13511419e-02,
          9.84291174e-03, -1.69271864e-02, 4.09967415e-02,
          2.20609531e-02, -1.48811219e-02, 1.97934862e-02,
          -4.39413376e-02, 3.48083787e-02, 1.08059747e-02,
          -2.26717535e-02, 3.92627483e-03, 2.75342856e-02,
          3.51163968e-02, 8.40037223e-03, 5.94503339e-03, 6.46371618e-02,
          -5.70996897e-03, 1.94522943e-02, 3.20925526e-02,
          -7.49928085e-03, 3.11556328e-02, 2.35757753e-02,
          -7.92258477e-04, -6.24980370e-04, 4.05368358e-02,
          5.67546580e-03, -5.40247709e-02, -2.85799857e-02,
          1.64211281e-02, 6.74817637e-02, 3.93909216e-03,
          -3.43921594e-02, -2.14468967e-02, -1.66401044e-02,
          -3.39633934e-02, 1.00032194e-02, 1.46356383e-02,
          1.23413755e-02, -5.06503647e-03, -4.36417647e-02,
          -3.46977860e-02, 5.68591664e-03, -4.69880514e-02,
          -2.73911897e-02, -1.24228615e-02, 3.44682783e-02,
          2.66898405e-02, 1.41981859e-02, -2.51266416e-02,
          -2.67359540e-02, -2.55102031e-02, 1.72419213e-02,
          -8.70285835e-03, -3.10516041e-02, 5.29440772e-03,
          4.04227525e-02, -3.07861040e-03, 1.89611148e-02,
          -1.60695184e-02, 4.59461361e-02, 1.58947818e-02,
          -7.00319745e-03, -6.62977323e-02, 3.01166321e-04,
          -7.82396831e-03, -1.39244162e-02, -7.19281435e-02,
          -2.61912420e-02, -4.16110910e-04, -4.46090139e-02,
          -6.60876138e-03, -6.03767037e-02, 6.51812106e-02,
          1.63355041e-02, -2.63668224e-02, -1.41913248e-02,
          1.08877756e-02, 3.65807898e-02, 4.97310795e-03, 1.27465874e-02,
          -1.02967527e-02, 7.31391972e-03, -6.35503456e-02,
          1.74456276e-02, -9.51211713e-03, -7.30806449e-03,
          4.17683795e-02, -2.28690617e-02, 3.87301762e-03,
          -3.33702713e-02, -5.12479572e-03, 3.39436680e-02,
          5.62539361e-02, -2.15543341e-02, 2.47422680e-02,
          -2.39312854e-02, -5.68199940e-02, 4.61878115e-03,
          -2.61417795e-02, -3.62773687e-02, 9.72386356e-03,
          -7.88407400e-03, 4.07155640e-02, 3.64147387e-02,
          5.44317402e-02, -6.55610561e-02, 1.14610605e-02,
          -2.29739714e-02, -2.19469704e-02, -9.02326591e-03,
          2.24182773e-02, -1.48542207e-02, 5.34035899e-02,
          -9.55784786e-03, -9.49217230e-02, -7.72649597e-04,
          2.42526326e-02, 1.73238497e-02, 2.51905303e-02, 2.45079100e-02,
          -4.10717539e-02, 3.64043228e-02, -1.19393328e-02,
          2.79159322e-02, -2.98611987e-02, 3.00906934e-02,
          -4.88383848e-05, -2.35313363e-02, 5.56798577e-02,
          4.54695616e-03, 6.33995906e-02, 3.69159393e-02, 8.10462907e-02,
          -2.72412207e-02, -2.93996464e-02, -4.18409817e-02,
          2.63103843e-02, 2.91416538e-03, -6.77240863e-02,
          -1.90008469e-02, -3.29568721e-02, 1.35507276e-02,
          -2.69556567e-02, 2.70795319e-02, 6.11901982e-03,
          4.38289680e-02, 1.05558403e-01, -4.90512140e-02,
          -2.96096038e-03, -3.42052840e-02, 5.93487620e-02,
          6.58574840e-03, -2.87854914e-02, -1.22181341e-01,
          2.17050575e-02, 5.26707619e-02, 2.78700851e-02, 5.65962084e-02,
          -7.83347618e-03, 6.17946312e-02, -9.47050285e-03,
          2.34590266e-02, -3.18783931e-02, 5.58748059e-02,
          3.06559098e-03, 1.51344314e-02, 2.39334442e-02,
          -1.87726021e-02, 3.64416428e-02, -5.10043502e-02,
          5.90619408e-02, -6.10255450e-02, -6.40355470e-03,
          9.65343043e-03, -1.50260692e-02, 3.17229331e-02,
          5.03620179e-03, 1.32616147e-01, 5.38112260e-02, 2.95874979e-02,
          -2.45036781e-02, 2.23618057e-02, -7.64066055e-02,
          -9.02702957e-02, -3.36760730e-02, -7.19189122e-02,
          6.55138716e-02, 3.05337296e-03, 3.06101982e-02,
          -1.47922030e-02, -4.03610896e-03, -4.20820899e-02,
          -2.33602151e-02, -2.02853605e-02, 1.21512123e-04,
          2.67906934e-02, -2.95907389e-02, 6.16529845e-02,
          -4.80422340e-02, -3.68314013e-02, -3.20525356e-02,
          -3.03113274e-02, 1.82091743e-02, -4.45347875e-02,
          1.71230398e-02, 4.71003577e-02, 3.87689583e-02,
          -3.05296164e-02, -3.26841995e-02, -6.98934644e-02,
          -7.66165927e-02, -4.72088754e-02, -1.72567498e-02,
          3.95010002e-02, -5.96358180e-02, 8.10813624e-03,
          -4.83201705e-02, -5.68930432e-02, -4.27414887e-02,
          -4.82076779e-02, 2.07806341e-02, -8.72670487e-03,
          -3.11704911e-02, 2.70507988e-02, 5.17203398e-02,
          8.41339119e-03, -6.48602378e-03, -1.41921695e-02,
          4.04006131e-02, 5.53448237e-02, 1.85843259e-02, 1.35495076e-02,
          -4.45295312e-02, 5.15324064e-03, -5.57267144e-02,
          -5.91455121e-03, 8.22179858e-03, 2.66030934e-02,
          3.73224206e-02, 6.61076605e-02, 9.79534816e-03, 2.71243397e-02,
          4.07450050e-02, 3.80453542e-02, 4.99077402e-02,
          -3.35692801e-02, -1.10062752e-02, -3.83565165e-02,
          -5.83892539e-02, -9.57932249e-02, -3.93267944e-02,
          1.54892495e-02, 3.94892246e-02, -3.63765135e-02,
          6.64258783e-04, 3.41634192e-02, 7.71768112e-03, 6.97431117e-02,
          3.14712934e-02, 1.61684249e-02, 1.71084814e-02, 1.91768371e-02,
          -2.14472432e-02, -3.27820634e-03, -4.61888686e-02,
          -3.17038521e-02, -1.15233110e-02, -1.17250323e-01,
          -5.59271723e-02, 8.15800577e-03, 1.43243773e-02,
          6.02768436e-02, -3.09178010e-02, 2.28457190e-02,
          6.54968023e-02, 2.90390495e-02, -2.14694049e-02,
          3.35008837e-02, -5.82609102e-02, 2.46070568e-02,
          4.74383235e-02, 2.86353193e-02, -1.32700335e-03,
          2.52165552e-02, 3.92941423e-02, 3.43353264e-02,
          -4.08775881e-02, 1.57106444e-02, 1.38299130e-02,
          8.76931846e-02, -4.00464758e-02, -9.64473933e-03,
          -1.84553545e-02, 2.42273696e-02, -1.83462654e-03,
          4.18153731e-03, -4.07412536e-02, 2.50633992e-02,
          7.64904246e-02, -4.68796538e-03, 6.67631105e-02,
          8.82076547e-02, -2.72806995e-02, 3.03369239e-02,
          2.61196159e-02, -2.12357044e-02, -1.13227060e-02,
          -5.62605038e-02, -2.08644327e-02, 1.17600029e-02,
          8.97241607e-02, -5.58328815e-04, 4.74858321e-02,
          2.57527549e-02, 3.70447943e-03, -2.36289445e-02,
          -1.53289475e-02, -4.28327657e-02, -7.30276434e-03,
          -3.99013236e-03, -2.18039360e-02, 1.10975467e-02,
          -3.86766940e-02, -2.51713172e-02, 3.22352573e-02,
          7.18283409e-04, -2.77329348e-02, -5.48958816e-02,
          7.37479934e-03, 1.20461704e-02, 8.87973234e-03, 6.84023951e-04,
          -7.25254696e-03, -3.98591859e-03, 3.29951569e-02,
          -8.91418532e-02, 2.56135613e-02, 3.40816341e-02,
          -1.49996066e-02, -4.08395268e-02, -2.11235508e-02,
          -7.93361384e-03, -8.54862202e-03, -1.76059958e-02,
          5.10864407e-02, 8.43365043e-02, 7.85316601e-02,
          -4.79418077e-02, -8.06384310e-02, -2.40342226e-02,
          6.66341782e-02, 8.64735432e-03, 1.90254245e-02,
          -7.50144199e-02, -2.72300579e-02, -4.99902256e-02,
          -5.76371141e-03, -6.92598671e-02, 5.53287426e-03,
          -2.34751180e-02, -2.16369238e-02, 1.90334283e-02,
          -6.81415619e-03, 4.06739078e-02, 2.53672246e-02,
          -8.91750865e-03, -6.69440255e-02, -2.05417406e-02,
          5.65988496e-02, 1.23338988e-02, -5.44944452e-03,
          -9.64542793e-04, -7.35833868e-02, -1.39228413e-02,
          -1.97354630e-02, -1.11064492e-02, -7.16211554e-03,
          9.06360336e-03, 2.79134214e-02, -6.49031810e-03,
          2.67974846e-02, 2.94872234e-03, -2.11788880e-04,
          -4.52108048e-02, -1.23349585e-01, 7.23965168e-02,
          -7.58394087e-03, -3.48375812e-02, -1.03896568e-02,
          2.90360432e-02, -3.68349925e-02, 3.48623507e-02,
          -5.98124275e-03, -5.53150028e-02, -4.25858311e-02,
          9.33250319e-03, -1.27482228e-03, 5.52116253e-04,
          -2.28061769e-02, -2.75876895e-02, -2.94943452e-02,
          -7.11378083e-02, -3.68395746e-02, 6.40610084e-02,
          8.11623409e-03, -7.17335008e-03, -5.89224212e-02,
          2.73765810e-02, -3.14490758e-02, -1.27494074e-02,
          4.90452275e-02, -8.45392123e-02, 6.19572513e-02,
          -3.35538834e-02, -4.83733378e-02, 1.04228891e-02,
          9.82792210e-03, -5.27652912e-02, -4.37118672e-02,
          5.11781126e-03, -1.64656006e-02, 1.24821300e-02,
          -5.18220738e-02, -5.48119731e-02, 7.51069281e-03,
          -6.57174038e-03, 2.04404024e-03, -2.83122770e-02,
          -3.69420126e-02, -2.74408236e-02, 7.06574470e-02,
          7.28034065e-04, -2.13046428e-02, -2.43001170e-02,
          3.29002645e-03, -5.15406653e-02, -5.51880077e-02,
          2.23179199e-02, 1.01540110e-03, 1.70646713e-03,
          -6.56859204e-02, -4.17512543e-02, 2.74593383e-02,
          1.81339625e-02, -4.48981971e-02, -2.43950393e-02,
          -2.15986259e-02, -3.20441425e-02, -2.43929750e-03,
          -2.42160279e-02, -1.24473153e-02, -3.13809663e-02,
          -3.18389647e-02, -1.88527741e-02, -1.66275818e-02,
          3.50504592e-02, -3.06468401e-02, -2.73356084e-02,
          8.34847800e-03, 2.50198841e-02, 1.07399467e-02, 4.29253206e-02,
          -8.44021589e-02, -1.77088585e-02, 4.50906828e-02,
          -5.36593236e-02, 9.82941478e-04, -3.63139585e-02,
          6.58003539e-02, 4.79646474e-02, -3.18331160e-02,
          2.00440772e-02, -2.14815233e-02, 6.74880994e-03,
          -9.27491859e-02, 1.93598885e-02, -1.05730146e-02,
          2.16043591e-02, 2.55274121e-02, 2.07596198e-02, 1.93159524e-02,
          5.98857319e-03, 4.75211926e-02, 1.82574317e-02, 5.71011938e-03,
          3.98744643e-02, -2.09239163e-02, 5.00880331e-02,
          -2.69362354e-03, 2.07876880e-02, 5.89804091e-02,
          2.79549472e-02, 5.96074499e-02, 1.33816674e-02, 7.87217095e-02,
          1.90698840e-02, 1.87340807e-02, -2.96644792e-02,
          3.16853486e-02, -2.83253118e-02, 1.76819060e-02,
          -3.92852724e-02, 1.71326790e-02, -2.66560186e-02,
          -1.85325760e-02, -2.41205376e-02, -3.21394950e-02,
          3.07229185e-03, -1.67817436e-02, 3.67118008e-02,
          -3.91230881e-02, -1.94309873e-03, 5.41359326e-03,
          8.34725518e-03, -2.94337254e-02, 7.38774985e-02,
          5.67020252e-02, 3.29118334e-02, -1.50003517e-02,
          -1.14306877e-05, 2.16654334e-02, 3.89994830e-02,
          2.25982983e-02, 1.37549052e-02, 7.00474456e-02, 3.61468680e-02,
          5.99174155e-03, -4.06682268e-02, -3.56708057e-02,
          3.61476876e-02, 8.83520767e-02, 3.61489803e-02, 4.67209741e-02,
          2.81914026e-02, 5.01196869e-02, -1.74150933e-02,
          -2.32739896e-02, -3.43326591e-02, 2.88516488e-02,
          4.91272025e-02, -2.60103419e-02, -1.50708240e-02,
          5.52926864e-03, 4.24059704e-02, -1.38626304e-02,
          -3.69426981e-02, -3.43809184e-03, -5.32093085e-03,
          2.03978121e-02, -6.10561594e-02, 3.62520739e-02,
          -5.36702108e-04, 9.78755299e-04, 1.81973632e-02,
          -4.23655435e-02, 1.56598203e-02, 8.79104715e-03,
          9.20290500e-02, 2.85431696e-03, -3.84981781e-02,
          -8.25539604e-03, -4.03836817e-02, 3.48989060e-03,
          -7.12321745e-03, 5.55862859e-02, 1.37968082e-02,
          1.75811742e-02, 3.58423926e-02, -4.38180417e-02,
          9.22801066e-03, 3.20077352e-02, 2.97677126e-02, 6.37798710e-03,
          9.41481628e-03, -3.50218415e-02, 1.41752632e-02,
          2.20224122e-03, 7.02255731e-03, -1.46937901e-02,
          5.65523840e-03, 5.64602315e-02, -2.15169713e-02,
          -3.94267077e-03, 4.23551537e-02, 2.22651362e-02,
          2.93811355e-02, 1.16143906e-02, -4.05695252e-02,
          -2.00372469e-02, 4.07390408e-02, -5.38738957e-03,
          1.26680881e-02, -9.61339474e-03, -2.30776090e-02,
          7.26130903e-02, -2.99186204e-02, -3.70228221e-03,
          1.15721906e-02, -9.10738856e-03, -1.70064752e-03,
          -1.13231670e-02, -7.47319236e-02, -4.20396216e-02,
          2.73552928e-02, -5.95965795e-02, -3.29741612e-02,
          -2.45727915e-02, 1.37022613e-02, -3.65097560e-02,
          -6.14262372e-02, 1.21989427e-02, -1.50784748e-02,
          -2.15388909e-02, -2.01490372e-02, -7.35416487e-02,
          -4.08670306e-03, 5.37607633e-03, -5.18636331e-02,
          -3.10951471e-02, -4.94575761e-02, -2.42645945e-02,
          -2.50758715e-02, -1.86492242e-02, -3.37013118e-02,
          3.24069634e-02, -7.71405466e-04, 5.57602420e-02,
          -4.72029336e-02, 1.48634911e-02, -1.39032751e-02,
          5.52170090e-02, -3.09753064e-02, -2.09225286e-02,
          2.01505888e-03, 1.47232017e-03, 6.88098371e-02,
          -5.84530011e-02, 3.48275080e-02, 2.79517472e-02,
          3.30734253e-02, -2.72041373e-03, -2.33730990e-02,
          -4.16965447e-02, -1.80113409e-02, 5.34593388e-02,
          -7.28623895e-03, -8.54011998e-03, -1.44870440e-02,
          -1.42603507e-02, -2.13803723e-03, 2.45784596e-02,
          -4.69103679e-02, 1.80524006e-03, 2.04300005e-02,
          -6.70340471e-03, 1.08501771e-02, -2.44718958e-02,
          -2.36703716e-02, 6.91649783e-03, 5.83735183e-02,
          -1.18189557e-02, 1.50079187e-02, -4.74310219e-02,
          3.86164561e-02, -2.79302876e-02, 9.62946936e-02,
          1.92199741e-02, 3.31366584e-02, 1.41119331e-01, 1.82408970e-02,
          4.62153070e-02, 4.90843877e-03, 2.90672611e-02,
          -6.45701662e-02, -8.34797323e-03, -3.81524637e-02,
          6.58219978e-02, 2.27248818e-02, -7.44001521e-03,
          -4.47959974e-02, -7.16292337e-02, 2.53729373e-02,
          -1.88749172e-02, 1.31583139e-01, 2.67161522e-02,
          -2.71759052e-02, 1.04486950e-01, -2.67875511e-02,
          -9.99760721e-03, -6.90757716e-03, 1.11058855e-03,
          -3.97825837e-02, 5.77009693e-02, -4.78822812e-02,
          6.51796255e-03, 3.07249948e-02, -7.84258079e-03,
          -1.87523430e-03, -2.94302776e-02, 6.02101870e-02,
          -2.55020875e-02, 5.28527983e-02, -5.98704591e-02,
          5.74029535e-02, -5.06433770e-02, -2.81210467e-02,
          2.47660652e-02, -8.70105624e-02, 2.47432347e-02,
          -2.03851201e-02, -2.05408689e-02, -5.65432310e-02,
          6.34457963e-03, -2.16071736e-02, -4.82005626e-02,
          -5.01664802e-02, -2.50118524e-02, 5.83796911e-02,
          3.03809587e-02, -1.30409608e-02, -8.28255266e-02,
          -3.95670012e-02, 2.91922037e-02, -1.09635144e-02,
          6.01032516e-03, -4.60077124e-03, 2.10368149e-02,
          1.72434971e-02, 7.10021192e-03, -9.12130773e-02,
          -6.33300394e-02, -1.64610483e-02, 7.81077100e-03,
          1.61800273e-02, -7.30654597e-02, 2.59924792e-02,
          -6.46303669e-02, -3.26939821e-02, -1.24368027e-01,
          -4.75248583e-02, -2.45090239e-02, -3.34559008e-02,
          2.08192691e-02, -1.68994407e-03, -3.29391249e-02,
          1.87191069e-02, 6.09055199e-02, -1.07959248e-02,
          -4.75391485e-02, -4.66504209e-02, -9.34500322e-02,
          6.22233422e-03, -4.09266911e-02, 3.43430787e-02,
          1.94309503e-02, 9.94020253e-02, -2.95620058e-02,
          -3.63821909e-02, -3.32177170e-02, -8.97799581e-02,
          7.35303201e-03, -6.31349236e-02, 7.95534346e-03,
          1.82532053e-03, 4.29021977e-02, 1.66380517e-02,
          -3.23700905e-02, 1.40509370e-03, -6.62684673e-03,
          2.06465349e-02, 1.75251719e-02, 5.58718108e-02,
          -1.68771707e-02, 1.08286291e-01, 4.26502004e-02,
          -5.50119057e-02, 3.06090284e-02, 6.09902292e-02,
          -1.35688456e-02, 1.52510330e-02, 3.25318016e-02,
          -5.22311889e-02, -2.89323386e-02, -1.30182132e-02,
          2.02957611e-03, -4.19945177e-03, -1.50152389e-02,
          9.77885630e-03, -9.53873396e-02, -2.64536906e-02,
          -1.25635061e-02, 5.03854379e-02, 4.84975055e-02,
          -2.02054381e-02, 6.56279549e-02, 4.49154414e-02,
          -1.20556271e-02, -2.71538738e-02, 1.09179942e-02,
          -3.48487571e-02, 1.92061029e-02, 3.80597264e-02,
          -2.03727558e-02, 7.54278675e-02, 4.94685629e-03,
          -2.70658173e-02, -2.65368447e-02, 5.65821975e-02,
          -5.77138625e-02, -3.91964652e-02, -4.06568311e-02,
          1.35975927e-02, 3.36356461e-02, 2.59876791e-02, 2.52522063e-02,
          6.52494505e-02, 9.50724930e-02, 4.41118777e-02,
          -2.41267867e-02, 1.93122458e-02, 4.89301160e-02,
          5.35132810e-02, -5.43174148e-02, -9.09800529e-02,
          -7.52877295e-02, -1.31653957e-02, -5.11104353e-02,
          -3.90369184e-02, -4.30212822e-03, 2.91825235e-02,
          -5.70956469e-02, -1.00635216e-02, -3.90345305e-02,
          -3.18103395e-02, 3.62666398e-02, -1.22921225e-02,
          -2.29964089e-02, 1.23203155e-02, 4.75642011e-02,
          -7.14114904e-02, -4.59007174e-02, 4.13319655e-02,
          -1.33739533e-02, 6.94197565e-02, -1.00755375e-02,
          1.77246425e-02, 3.22704576e-03, -7.23395497e-02,
          -1.84673071e-02, -1.74104217e-02, 1.34519697e-03,
          1.91073176e-02, 4.01391014e-02, -3.32320035e-02,
          3.97204049e-02, -1.55460797e-02, 3.42972167e-02,
          3.59802432e-02, 3.41028236e-02, -3.69582698e-03,
          -3.07288673e-02, 1.12024061e-02, -7.14512840e-02,
          -2.13867775e-03, 2.35822126e-02, 6.93675056e-02,
          3.10992282e-02, 7.66163180e-03, -4.88473959e-02,
          1.13497637e-02, 6.93077520e-02, -2.10625660e-02,
          -2.06452962e-02, -3.86487320e-03, 6.85845464e-02,
          -1.26491468e-02, -2.83329077e-02, -5.00633791e-02,
          -4.23750319e-02, -3.10229063e-02, -3.54754180e-02,
          1.39774140e-02, -2.09082048e-02, -5.81445033e-03,
          3.65516655e-02, -7.69643625e-03, 5.77107891e-02,
          3.31690512e-03, 1.64994486e-02, -7.57022062e-03,
          3.47242784e-03, -8.66588112e-03, -1.47128664e-02,
          5.43477908e-02, 3.81771438e-02, -4.12197895e-02,
          -1.26229692e-02, -5.05947368e-03, -1.70598608e-02,
          3.24827209e-02, 1.89582948e-02, -1.70009043e-02,
          -8.19910318e-03, -1.63175892e-02, -8.01413227e-03,
          -2.54610237e-02, 5.65800667e-02, -1.56703871e-02,
          4.68911082e-02, -2.08689645e-02, -6.96161687e-02,
          -2.28334125e-02, -5.77842332e-02, 2.44681388e-02,
          4.89842482e-02, -6.54601902e-02, -2.27582897e-03,
          2.10744869e-02, 1.51439607e-02, -3.07278875e-02,
          3.18466425e-02, -4.24269661e-02, -3.67339817e-03,
          3.25625613e-02, -6.06948286e-02, 2.07963269e-02,
          2.10763365e-02, 3.35041061e-02, 1.44874295e-02,
          -4.73331884e-02, -1.27102528e-02, -8.07553902e-03,
          -8.55484046e-03, -3.12690288e-02, 1.53024616e-02,
          7.10007176e-03, -3.68358009e-02, -4.67324667e-02,
          -2.47118063e-02, -6.39258837e-03, -5.03278784e-02,
          4.11417056e-03, -2.42475718e-02, 4.48268093e-02,
          -2.16382090e-02, -1.70813166e-02, -3.50496988e-03,
          -1.52673982e-02, -9.39245708e-03, 1.22729801e-02,
          -1.82870887e-02, -6.27249759e-03, 3.67935821e-02,
          -1.39487684e-02, -1.03291441e-02, -7.73417670e-03,
          5.33428090e-03, 2.62581985e-02, -2.99522677e-03,
          -3.40719288e-03, 4.79533290e-03, -2.37369793e-03,
          -2.85184141e-02, -2.15550940e-02, -2.94647999e-02,
          -1.73051576e-05, -3.73169594e-02, -6.95890412e-02,
          -1.51069500e-02, 1.31753786e-02, 1.49308452e-02,
          -3.64031047e-02, -1.82384253e-02, 9.15386714e-03,
          1.52574275e-02, -3.78560275e-02, -4.41973843e-02,
          2.91006621e-02, -2.65927147e-02, -3.66564095e-02,
          -1.04778968e-02, 4.47067469e-02, -6.91879392e-02,
          3.18838935e-03, -3.64714563e-02, 2.90755592e-02,
          7.07569197e-02, -3.12093664e-02, 2.97463350e-02,
          -1.08536184e-02, 3.17797363e-02, -1.98767055e-03,
          -5.12909666e-02, 1.03907855e-02, -3.05128656e-02,
          8.24467838e-02, 2.88672447e-02, 5.04906140e-02,
          -8.32758844e-03, -2.44080145e-02, -2.03727521e-02,
          4.42158878e-02, 1.34849166e-02, 4.99907136e-03, 2.33369339e-02,
          -6.21239357e-02, 1.53109357e-02, -4.86934464e-03,
          5.38751520e-02, 2.43104063e-02, -4.08960786e-03,
          -3.18146423e-02, -5.05512133e-02, 2.90750079e-02,
          -5.88767650e-03, 2.18096115e-02, -3.53368521e-02,
          -3.02465893e-02, 5.51805124e-02, 5.56726009e-03,
          5.03162667e-02, 1.13216620e-02, 5.01795635e-02,
          -5.57817938e-03, 6.82401937e-03, -1.36052435e-02,
          3.72181996e-03, 7.29787629e-03, -2.97347885e-02,
          -2.31593568e-02, -9.65378620e-03, -4.55644466e-02,
          -6.51647300e-02, 3.26279998e-02, 4.57151681e-02,
          7.17470571e-02, 4.07773107e-02, -1.37602529e-02,
          -3.24198045e-02, -2.66337320e-02, 7.41971061e-02,
          7.23936781e-02, 1.73141027e-03, -3.74209806e-02,
          -1.76766794e-02, 6.59244554e-03, 4.80455719e-02,
          -3.90264019e-02, -4.58781198e-02, -3.54337208e-02,
          4.14696243e-03, 1.56900822e-03, 2.22487915e-02,
          -3.63513641e-02, 1.26846246e-02, -1.94511954e-02,
          -1.22030964e-02, -4.10661437e-02, -2.67232507e-02,
          -2.49532964e-02, 2.59863548e-02, 2.76155211e-02,
          -5.16857021e-03, -1.60858892e-02, 1.53468074e-02,
          -1.14943972e-02, -5.57862781e-02, -1.52347414e-02,
          1.61684640e-02, 1.33932577e-02, 4.07344215e-02,
          -3.61564457e-02, -2.87692845e-02, 5.17352112e-02,
          3.86949517e-02, 7.84982890e-02, -3.75175774e-02,
          6.97501376e-03, 2.25167945e-02, -8.89629778e-03,
          -9.54528712e-03, 3.06306891e-02, -2.37051048e-03,
          3.45999151e-02, 3.00148819e-02, 6.84593767e-02,
          -1.06571557e-03, -7.41596334e-04, 1.13682840e-02,
          1.76449362e-02, 6.16273656e-02, -2.27618385e-02,
          7.53994274e-04, 1.39532173e-02, 2.49966104e-02, 5.63351102e-02,
          -3.40858959e-02, 4.12511528e-02, -1.20049370e-02,
          1.68434586e-02, -4.94887587e-03, 1.61878541e-02,
          1.66313890e-02, -7.91619997e-03, 1.60536021e-02,
          3.06336172e-02, 4.19318341e-02, -9.85761918e-03,
          -6.77760271e-03, -2.78831292e-02, -1.45770274e-02,
          -1.10192308e-02, 4.46823146e-03, 2.33934093e-02,
          8.52850359e-03, 2.53297556e-02, 4.07919139e-02, 2.75918730e-02,
          -1.11221345e-02, 3.22345607e-02, -1.45078897e-02,
          1.88068952e-02, -1.66329555e-02, 6.25991896e-02,
          -2.32220460e-02, -1.23034110e-02, 2.42349412e-03,
          -3.16777863e-02, 2.98343282e-02, -2.83966213e-02,
          -4.74476218e-02, -4.75635827e-02, 2.65819412e-02,
          1.67176519e-02, -4.73835990e-02, -2.26944070e-02,
          -8.37092176e-02, 1.46065615e-02, -1.94045212e-02,
          -8.24742857e-03, -3.65196243e-02, 1.33697607e-03,
          1.84815619e-02, -7.73901958e-03, 4.09791172e-02,
          -3.76285017e-02, 5.09750738e-04, -4.65363115e-02,
          -4.81020696e-02, -5.73641099e-02, -4.72727716e-02,
          -4.11031321e-02, -1.87089853e-02, -3.16135921e-02,
          -7.19515933e-03, -1.16725191e-02, 2.85171717e-03,
          4.06792983e-02, -5.29317558e-02, -2.42495406e-02,
          -5.77129144e-03, -3.52730043e-03, 1.47823226e-02,
          -3.91010419e-02, -2.27342155e-02, 1.33679565e-02,
          4.49235924e-02, -5.18268831e-02, -1.60326473e-02,
          -1.64247658e-02, -2.50179000e-04, 7.02612028e-02,
          8.01573135e-03, 3.10924333e-02, 5.35081066e-02, 2.14646384e-02,
          -3.11497115e-02, -8.17639232e-02, -2.60241590e-02,
          1.75147932e-02, 2.47695185e-02, -1.71436090e-02,
          4.92754485e-03, -3.49890664e-02, 3.35039645e-02,
          -7.77808279e-02, -6.97658688e-04, 1.17009021e-02,
          1.50967948e-02, 1.71922930e-02, -5.21215722e-02,
          2.83865212e-03, -6.31736368e-02, -1.82164852e-02,
          -6.66437596e-02, -4.86430340e-02, -6.84777647e-02,
          -9.07685887e-03, 2.87925098e-02, -9.53424722e-03,
          -2.37599798e-02, -1.77939199e-02, -4.93893325e-02,
          2.61142086e-02, 9.35623981e-03, 9.91076007e-02, 9.10395756e-03,
          4.24554106e-03, 2.66320575e-02, 3.64201441e-02,
          -3.16950195e-02, 5.45120835e-02, 7.57081294e-03,
          7.43862465e-02, 9.88821592e-03, -3.97987477e-02,
          1.42098013e-02, 2.90168053e-03, 1.55786518e-02, 4.69909981e-03,
          -8.89789965e-03, -2.89803147e-02, 8.74090474e-03,
          8.71675014e-02, 4.88492996e-02, 5.51059842e-02,
          -1.97120011e-02, 1.37658184e-02, 1.93050411e-02,
          5.09329922e-02, -2.02177232e-03, 1.40147284e-02,
          8.50992575e-02, -2.80275159e-02, -5.74145727e-02,
          -4.27467516e-04, -9.44404118e-03, -2.97831316e-02,
          -3.92402299e-02, 2.96745133e-02, 3.29765044e-02,
          -2.84768268e-02, -8.83120522e-02, -7.55395647e-03,
          2.83000879e-02, 7.43650831e-03, 1.49078593e-02,
          -4.58147936e-03, 2.13976130e-02, 2.14555226e-02,
          -3.59202959e-02, -6.46980479e-02, -4.35408540e-02,
          -4.51921634e-02, -2.42318455e-02, 1.58256777e-02,
          -4.01811711e-02, -1.42456908e-02, 1.18985707e-02,
          5.65487854e-02, -2.47327834e-02, -5.80022410e-02,
          -1.18622612e-02, -2.59554200e-02, -2.07099896e-02,
          -3.31785865e-02, -7.50889117e-03, 1.09431706e-02,
          -7.26395920e-02, -1.01958610e-01, -4.71521392e-02,
          -2.26269457e-02, -4.50214632e-02, -2.55896095e-02,
          -5.15053198e-02, -5.89169450e-02, -2.12620161e-02,
          3.34860943e-02, -8.90459865e-02, -7.79063702e-02,
          4.99252640e-02, -2.00786050e-02, -5.03509231e-02,
          -5.33826463e-02, -1.46000134e-02, -1.93814952e-02,
          1.60559826e-02, -4.65465449e-02, -6.53295368e-02,
          -1.87219791e-02, 6.61775749e-03, -3.08646094e-02,
          -2.12620497e-02, -5.81068285e-02, -2.47912090e-02,
          1.07271364e-02, -5.89568764e-02, -6.68113381e-02,
          5.39790131e-02, 1.10462802e-02, -2.73828655e-02,
          2.77527462e-04, -3.89635973e-02, -4.70731966e-02,
          1.49819870e-02, -5.39919622e-02, -1.69609319e-02,
          8.30848515e-02, 4.30183895e-02, -1.82092551e-03,
          -4.54329140e-02, 2.75624469e-02, 3.56999598e-03,
          -2.97851656e-02, -2.27841772e-02, -4.03799042e-02,
          -6.91939285e-03, 2.34475564e-02, 2.27042697e-02,
          2.27918383e-03, 3.43172736e-02, -2.90943924e-02,
          -8.75709672e-03, 5.74466586e-02, -9.00725052e-02,
          1.09700644e-02, -3.97991799e-02, -2.19163056e-02,
          1.79419585e-03, 6.74633635e-03, 2.19406858e-02, 6.97988868e-02,
          1.65127590e-02, -1.14565697e-02, 1.32566702e-03,
          3.85535210e-02, 1.62108783e-02, -4.21551429e-03,
          1.61825791e-02, 4.47909683e-02, 2.42805388e-02,
          -1.39023568e-02, 4.08567935e-02, -6.61078561e-03,
          -1.56548084e-03, -6.85140956e-03, 5.50199300e-03,
          -5.21123074e-02, -3.81762418e-03, -8.74936301e-03,
          4.51612100e-02, -2.69799475e-02, -2.12386865e-02,
          8.76120012e-03, -3.88455018e-02, 1.11019257e-02,
          3.05268914e-02, 3.94553766e-02, 4.39389274e-02, 3.37419361e-02,
          8.82342737e-03, -3.04478630e-02, 3.44414748e-02,
          -9.73486528e-03, -2.56979605e-03, -2.95659211e-02,
          2.73977593e-02, 4.61525330e-03, 7.23087043e-03, 3.09393406e-02,
          -4.48539928e-02, -3.67886350e-02, -1.74733102e-02,
          -1.26757426e-02, 5.45295514e-02, -3.17865703e-03,
          -2.23484356e-02, 5.94888180e-02, -8.43531545e-03,
          2.73663923e-02, 5.05808294e-02, -3.90212098e-03,
          3.60101648e-02, 4.28804234e-02, -7.84089789e-04,
          2.48288866e-02, 1.74857292e-03, -2.08535306e-02,
          6.75451607e-02, 3.90221104e-02, -3.26470882e-02,
          1.56833492e-02, 6.21483810e-02, 4.17213216e-02,
          -2.88103824e-03, -4.86101285e-02, -5.72359227e-02,
          -2.53111441e-02, -4.07540910e-02, -1.37947164e-02,
          6.41347235e-03, 5.02233207e-02, -4.77687940e-02,
          -7.92751610e-02, -4.77002049e-03, 4.54565622e-02,
          5.21231256e-02, -2.58674230e-02, -3.40390555e-03,
          -3.05333156e-02, 4.98903058e-02, -2.17918064e-02,
          -3.06826625e-02, -1.94792189e-02, 9.36331376e-02,
          3.81122418e-02, 3.82307265e-03, -3.22207552e-03,
          2.03984007e-02, -8.44797865e-03, -1.74557324e-02,
          3.47301178e-03, -6.58169575e-03, -9.17946771e-02,
          5.07237539e-02, -2.18700394e-02, 1.84414610e-02,
          7.56615447e-03, 2.28246618e-02, -4.89253132e-03,
          4.17367034e-02, 3.00452728e-02, -4.34437022e-02,
          -2.36422638e-03, -2.98802033e-02, 5.64357825e-03,
          -4.89755720e-02, -3.68447006e-02, -5.75292222e-02,
          -6.21436425e-02, -7.05688149e-02, -5.62426588e-03,
          -1.32836150e-02, -5.23371249e-02, 2.93635037e-02,
          -6.13422096e-02, 5.50270602e-02, -4.74381037e-02,
          -2.00232863e-02, -3.15807238e-02, -2.82341372e-02,
          -4.27412195e-03, -5.10310531e-02, 2.62226473e-04,
          -7.16158771e-04, 1.27830915e-02, -1.51576055e-02,
          1.19140958e-02, 3.15595046e-02, -1.92340314e-02,
          8.89830850e-03, -3.00848838e-02, -5.44808730e-02,
          1.18772220e-02, -1.62653606e-02, 8.86071008e-03,
          -2.53933556e-02, -5.24742249e-03, 1.34080695e-02,
          4.99423705e-02, -3.60680446e-02, -5.99449640e-03,
          -5.32782860e-02, -1.80587377e-02, -6.17532060e-02,
          -6.06379360e-02, -1.76324528e-02, 4.73104380e-02,
          7.01756701e-02, -6.60705268e-02, 7.43779121e-03,
          -3.38910781e-02, -9.05064866e-02, 1.91764217e-02,
          -5.24879992e-02, 2.39534862e-02, 1.11318259e-02,
          -1.32378321e-02, 3.18035558e-02, -5.46276793e-02,
          -7.00556440e-03, 9.45558026e-03, 1.07945818e-02,
          -3.60200517e-02, -2.65090354e-02, 1.85507741e-02,
          5.15522016e-03, 1.50774256e-03, -5.91359660e-03,
          3.73132862e-02, 2.78777331e-02, 1.16700800e-02, 8.81773070e-04,
          4.53522317e-02, -5.30804060e-02, -5.12630679e-02,
          -2.32319646e-02, 4.72493283e-02, -3.50724272e-02,
          -1.28884399e-02, 5.39298914e-02, -3.20724286e-02,
          9.41684842e-03, -1.99707020e-02, -3.98706309e-02,
          5.77384094e-03, 1.18717197e-02, 3.35214436e-02, 2.79696155e-02,
          7.80502036e-02, -1.79580785e-02, 9.18352883e-03,
          -2.61652544e-02, -4.84204851e-03, 1.55294798e-02,
          4.10481058e-02, 3.69952731e-02, -1.73147228e-02,
          1.37559101e-02, 4.30428348e-02, 7.06714913e-02, 1.87601186e-02,
          -7.89760263e-04, 2.32643317e-02, 3.16687822e-02,
          -1.86448563e-02, -2.88297497e-02, -3.18720825e-02,
          3.50635103e-03, 2.76261009e-02, 3.40149850e-02,
          -2.54072528e-02, 3.31774838e-02, -5.95549345e-02,
          1.22772502e-02, 1.32775633e-02, 7.70068318e-02, 4.98637445e-02,
          4.80045751e-02, 4.80728298e-02, 6.22772910e-02, 1.55523121e-02,
          2.89884191e-02, -2.50932090e-02, -1.15206791e-02,
          -6.72414014e-03, 2.93634329e-02, 2.83690225e-02,
          6.89473152e-02, -2.30397042e-02, -4.70745843e-03,
          -3.80639546e-02, 3.20149027e-02, 7.41185062e-03,
          -1.09512238e-02, -1.61614344e-02, -3.13148722e-02,
          -1.65247917e-02, 1.51710538e-02, 1.94226004e-06,
          3.66459787e-02, -3.60566899e-02, -5.97011717e-03,
          -1.13157900e-02, 4.58228728e-03, -1.69667602e-02,
          -1.23248622e-02, 1.61028421e-03, 1.83541812e-02,
          -3.45305051e-03, 1.15584740e-02, 1.10982684e-02,
          -8.96496756e-04, -4.69971495e-03, 3.14679183e-03,
          1.38694877e-02, 1.10715060e-02, 2.47095972e-02, 1.08882058e-02,
          3.10678612e-02, -3.17074843e-02, 2.61676032e-03,
          1.47082545e-02, 2.03624833e-02, 3.54614900e-03, 7.70921782e-02,
          1.31074968e-03, 6.46153605e-03, -5.76684065e-02,
          -3.98802897e-03, 3.30999717e-02, 3.84436958e-02,
          -8.06466397e-03, -6.65502157e-03, 6.25546277e-02,
          1.44028515e-02, 4.52003665e-02, 6.71348441e-03, 4.95352317e-03,
          -2.98957434e-02, 1.00417919e-02, -4.96805385e-02,
          -4.05128226e-02, 4.64551374e-02, 4.03545313e-02,
          -2.76596285e-02, 4.27090600e-02, -1.00894803e-02,
          3.50602865e-02, 2.16395501e-02, 4.54169139e-02, 5.79508673e-03,
          7.64306262e-02, 2.10185703e-02, 1.74558479e-02, 3.47324871e-02,
          1.19844694e-02, 2.17615031e-02, -4.26842645e-03,
          1.92489345e-02, 1.98025275e-02, 3.78283970e-02, 3.69849280e-02,
          3.75533514e-02, -1.53361838e-02, 1.22816050e-02,
          -2.45197508e-02, -1.03211775e-02, -6.37413980e-03,
          3.69145581e-03, -5.12522198e-02, 1.38476584e-02,
          3.72241437e-02, 2.25371961e-02, -2.21772250e-02,
          4.65127267e-02, -3.22341844e-02, 2.59087961e-02,
          -5.05251288e-02, 1.23901330e-02, 2.10782327e-02,
          3.92355919e-02, 2.12410484e-02, 1.07992878e-02,
          -1.01049123e-02, 8.62104259e-03, 2.60450784e-02,
          -4.19703312e-02, 1.37132751e-02, -1.73542276e-03,
          7.83966854e-02, 4.76904400e-02, -1.16755357e-02,
          5.76464087e-02, -2.06368733e-02, -1.84450764e-02,
          -4.04901430e-02, -2.98767835e-02, -2.39396151e-02,
          1.72827560e-02, -1.23274652e-02, 3.00247017e-02,
          1.26215126e-02, -5.85241243e-02, 4.43197377e-02,
          -1.48355998e-02, -3.89747396e-02, -8.17179959e-03,
          -2.82045230e-02, 2.15901062e-02, -2.20725243e-03,
          -1.82635672e-02, -3.91113162e-02, 1.76148042e-02,
          -5.22148348e-02, 3.99896828e-03, 1.65521279e-02,
          4.13467698e-02, -2.27943305e-02, 2.14943625e-02,
          2.33446937e-02, 2.94929370e-02, 1.60946194e-02,
          -1.93477776e-02, -1.38046723e-02, -1.27817283e-03,
          3.92308608e-02, 3.85098681e-02, -9.65179130e-03,
          -4.53142636e-02, -1.12351608e-02, 5.02231717e-02,
          -3.72369960e-02, -3.20859700e-02, -5.87149151e-03,
          -6.07365184e-02, 4.70556412e-03, -4.36572470e-02,
          1.38437226e-02, 3.91824543e-02, 5.47221042e-02, 7.63746211e-03,
          -3.01840436e-03, 2.13897452e-02, -3.03559285e-02,
          -3.04582585e-02, -6.80877864e-02, 1.54877908e-03,
          -2.55562384e-02, 1.46307498e-02, 7.59024099e-02,
          -1.40997767e-02, 4.94367816e-03, -1.81845867e-03,
          -2.14075074e-02, -2.09959480e-03, -5.00564799e-02,
          -5.85426297e-03, 7.99214989e-02, 2.56007612e-02,
          7.12027028e-02, 5.04068360e-02, 4.61675711e-02, 9.26841982e-03,
          -3.70268822e-02, -1.60423759e-02, -3.12743224e-02,
          -4.27747257e-02, 4.60750647e-02, 8.91055446e-03,
          -3.82103249e-02, 7.82394875e-03, 4.71910164e-02,
          4.33178805e-02, -3.08457240e-02, -8.75973608e-03,
          -4.78855595e-02, 9.66800228e-02, -5.29803447e-02,
          -7.05738505e-03, 2.59942934e-02, 3.21172774e-02,
          3.67704704e-02, -1.69585608e-02, -2.13125125e-02,
          -1.64105874e-02, -1.77584440e-02, 1.02505134e-03,
          1.07680829e-02, 1.46883754e-02, 1.15494635e-02, 1.18701860e-01,
          5.78658357e-02, 4.67653498e-02, 5.53080216e-02, 4.81816344e-02,
          -2.80130375e-02, 2.03655544e-03, 4.30510640e-02,
          -2.88707495e-04, 6.53267875e-02, 2.35216152e-02,
          6.77340552e-02, 6.98950083e-04, -6.84179217e-02,
          2.34189685e-02, -2.29590349e-02, 1.43851293e-03,
          -3.76839936e-02, -1.83072798e-02, 1.27632730e-02,
          4.15846407e-02, 1.68010816e-02, 6.25392720e-02,
          -2.23912392e-02, 2.37843823e-02, 1.73115544e-02,
          2.30394844e-02, 1.14138220e-02, -1.62815731e-02,
          -4.33719866e-02, -1.03140749e-01, -4.00567278e-02,
          2.04919800e-02, -3.00390217e-02, 1.77888828e-03,
          -1.81109291e-02, -5.36271855e-02, -1.61967892e-02,
          3.42115052e-02, 4.38981280e-02, 5.13864011e-02, 2.08710898e-02,
          6.74782926e-03, 3.02374847e-02, 4.31391373e-02,
          -1.51881846e-02, 1.29791042e-02, -1.32291997e-02,
          -3.90423164e-02, -2.87851281e-02, 5.11615239e-02,
          -2.79682372e-02, -8.76517873e-03, -3.77058424e-02,
          1.24083282e-02, -4.30716276e-02, 1.08006289e-02,
          -1.49123343e-02, -2.00996138e-02, -5.66587970e-03,
          -4.50160988e-02, -1.24929729e-03, -5.68287149e-02,
          -5.41934110e-02, -2.05701049e-02, 5.25607876e-02,
          -1.29393786e-02, -3.09351180e-02, 6.11820817e-02,
          -1.71827953e-02, -1.85291357e-02, -5.95573969e-02,
          -6.16813253e-04, -6.33616820e-02, -1.26440907e-02,
          -4.16087955e-02, -1.86977405e-02, 8.00920650e-02,
          4.32333983e-02, 6.84651136e-02, 9.73699428e-03, 7.77900638e-03,
          1.19987698e-02, 2.09432207e-02, 1.83190610e-02, 8.95474292e-03,
          3.56181711e-02, -7.33824447e-02, -6.80159125e-03,
          1.45793892e-02, 6.46909475e-02, 1.29443230e-02, 7.85208791e-02,
          -6.07302366e-03, 4.06749401e-04, -2.91805752e-02,
          1.20117702e-03, -1.26541555e-02, -2.45250612e-02,
          -6.71607554e-02, -2.08787583e-02, -3.27982791e-02,
          -9.23033431e-02, 3.53608243e-02, 1.77911520e-02,
          3.90279852e-03, 5.67960516e-02, 5.93112893e-02, 1.07861750e-01,
          2.08521150e-02, 5.99865355e-02, 3.72635163e-02,
          -1.12903127e-02, 5.32331541e-02, -1.61036942e-02,
          3.23631875e-02, 3.82078737e-02, 2.76492033e-02,
          -2.70919930e-02, -4.56481725e-02, 4.55587544e-03,
          4.77684103e-03, -1.64782908e-02, 1.13973524e-02,
          8.94189160e-03, 1.69734657e-02, -3.44198793e-02,
          2.78180726e-02, -1.13529176e-03, -5.08505255e-02,
          4.14562374e-02, -1.34058604e-02, -6.77253157e-02,
          1.08503168e-02, 4.23628092e-02, 1.35468710e-02, 3.95559035e-02,
          -6.05929783e-03, -1.26980536e-03, 9.42271724e-02,
          -3.20818764e-03, 1.91480946e-02, 2.98738759e-02,
          -7.01210042e-03, -5.19953184e-02, 2.94242371e-02,
          -4.08547581e-04, 1.61355659e-02, -5.21443114e-02,
          -4.33571711e-02, 8.77504516e-03, -1.32870721e-02,
          -1.47707751e-02, -5.89669347e-02, -2.01155599e-02,
          2.57728696e-02, 6.87078238e-02, 1.36761917e-02,
          -4.25933264e-02, -6.72811344e-02, -4.59287781e-03,
          5.18507175e-02, 2.57564895e-02, -3.20407487e-02,
          -1.38268303e-02, 3.91801819e-02, 3.50335687e-02,
          2.48664711e-03, -5.99230304e-02, 3.94209363e-02,
          -1.11044515e-02, 1.17382584e-02, -5.05125895e-02,
          3.45681841e-03, 1.21570257e-02, 3.36260684e-02,
          -4.05434817e-02, 6.75957836e-03, 8.15177802e-03,
          2.96570663e-03, -2.09321361e-02, -4.71990407e-02,
          1.71594564e-02, 7.09682927e-02, -3.53984199e-02,
          -6.22773729e-03, 6.47947704e-03, -8.13025702e-03,
          -6.84260502e-02, -1.57359019e-02, -3.29308845e-02,
          -6.07616594e-03, 4.81462516e-02, 2.39774282e-03,
          -2.76227947e-02, -6.06013462e-02, 3.51378061e-02,
          -3.25274244e-02, 3.14267874e-02, -3.42024229e-02,
          -3.84550244e-02, -4.15572003e-02, -1.12369433e-02,
          -4.22278978e-02, -2.73482315e-02, -1.02403443e-02,
          2.69273333e-02, 8.86657313e-02, -4.16965596e-02,
          3.18366550e-02, -3.60116996e-02, -4.33080904e-02,
          -2.63633728e-02, -7.59862270e-03, 1.33077595e-02,
          -1.42254243e-02, 3.89894620e-02, -2.66428813e-02,
          -2.13202499e-02, 6.56321645e-02, -8.54216237e-03,
          -1.56192556e-02, 5.99095151e-02, 4.59546642e-03,
          1.79877020e-02, 1.06385492e-01, -4.71433923e-02,
          2.49425024e-02, 3.08119468e-02, 1.93130877e-02, 3.71678025e-02,
          -4.88841487e-03, -2.34212168e-02, -5.86370379e-02,
          2.66207004e-04, -7.41742477e-02, -5.48657328e-02,
          -5.64901866e-02, 1.84272341e-02, 1.57972462e-02,
          3.32520390e-03, 6.30352348e-02, -4.51272679e-03,
          2.69327275e-02, 1.57216955e-02, -6.19707368e-02,
          1.54543491e-02, 9.76474490e-03, 1.44777130e-02, 6.34885356e-02,
          -2.00381819e-02, -5.84395304e-02, -7.06900358e-02,
          -4.66603041e-02, -3.26369219e-02, -3.93197164e-02,
          -1.76951941e-02, 5.86322956e-02, -2.51083896e-02,
          6.86586089e-03, 2.14260165e-02, -6.25006631e-02,
          2.07908228e-02, 3.69458497e-02, 4.48746234e-02, 6.02086335e-02,
          2.48633400e-02, 1.16139129e-02, 6.32590801e-02,
          -3.04944851e-02, -3.38921770e-02, 3.54221538e-02,
          -1.23336464e-02, 4.68254760e-02, 5.06666675e-02,
          1.90838166e-02, 1.15039581e-02, 1.47044938e-02,
          -1.00121554e-02, 3.55924591e-02, 5.53480089e-02,
          -3.71582508e-02, -1.90939307e-02, 3.19370888e-02,
          2.49843765e-02, -3.93965766e-02, -3.69980149e-02,
          -3.80298160e-02, -4.05378500e-03, -2.03080643e-02,
          3.05251069e-02, 3.41134258e-02, 9.50972959e-02,
          -8.46843049e-03, 1.71688758e-02, -7.27312714e-02,
          -4.58358265e-02, -6.54538348e-03, 2.92858891e-02,
          6.09550439e-02, 1.50184417e-02, 1.86481252e-02, 6.35436252e-02,
          1.02061210e-02, -4.26879562e-02, -2.07267478e-02,
          -2.60553230e-02, 4.97761089e-03, -5.43318205e-02,
          1.35713620e-02, 3.33891548e-02, 2.18793601e-02,
          -2.92107519e-02, 9.12126340e-03, -1.93807296e-02,
          -5.01231961e-02, -1.69014484e-02, -2.67209858e-02,
          -2.41202693e-02, 3.17258239e-02, 6.54424056e-02,
          6.60590157e-02, -1.12171704e-02, -3.72192226e-02,
          2.01249067e-02, 1.04155419e-02, 4.23934311e-02, 4.87028211e-02,
          1.53552145e-02, 4.85707410e-02, 1.68449376e-02, 8.97772703e-03,
          3.48626077e-02, -3.77209336e-02, -1.65012497e-02,
          -3.33892219e-02, -5.26353531e-02, -2.48317607e-02,
          -8.22028294e-02, -8.21556300e-02, -4.19012941e-02,
          -6.76061735e-02, 1.43611524e-02, -3.23018469e-02,
          1.86998937e-02, 2.68514454e-02, -1.75058749e-02,
          1.86072383e-02, 4.29131165e-02, -1.10197039e-02,
          -6.05465565e-03, -3.55040655e-02, -3.98514904e-02,
          1.62086182e-03, 4.42001298e-02, -5.03365286e-02,
          6.20706677e-02, -3.31371278e-02, 3.38163669e-03,
          -7.27101639e-02, 2.75839102e-02, -4.34254780e-02,
          3.38070374e-03, 3.46928998e-03, -3.22097614e-02,
          4.62657586e-02, 9.00643319e-03, 8.15453902e-02,
          -5.41812666e-02, -4.34026681e-02, -2.83030365e-02,
          -2.15798672e-02, -2.77337711e-02, -1.64877740e-03,
          -7.37177581e-02, 1.68708880e-02, -4.35817279e-02,
          2.68872771e-02, -2.52024624e-02, 3.98999825e-03,
          -8.49166885e-03, -2.17568222e-02, -7.02535268e-03,
          -1.90691631e-02, -1.72079410e-02, -8.74438435e-02,
          -5.53083159e-02, -5.93866035e-02, -3.47411446e-02,
          -6.14142939e-02, -9.30619519e-03, -2.37731934e-02,
          7.92257767e-03, 2.40346733e-02, 1.84778534e-02, 5.26277767e-03,
          1.60220060e-02, -1.82106700e-02, -7.44501129e-03,
          1.67318378e-02, -1.19072618e-03, -2.79998556e-02,
          3.34395319e-02, -4.21160869e-02, -3.56337503e-02,
          -6.50005639e-02, 2.73744613e-02, -2.92066075e-02,
          4.44109291e-02, 2.98935454e-03, 2.39249058e-02, 1.33013697e-02,
          2.96092816e-02, -5.25159836e-02, -4.52732220e-02,
          -3.63749126e-03, -1.48917707e-02, 4.27609980e-02,
          -1.26092406e-02, -5.97110949e-02, -7.14325011e-02,
          3.64083573e-02, -5.96603975e-02, -3.80410850e-02,
          -1.72985289e-02, -4.05994616e-02, 4.61090542e-03,
          -4.22721775e-03, 1.96102969e-02, 8.25820044e-02,
          2.69391518e-02, 3.82893649e-03, 4.21264721e-03, 7.03684837e-02,
          -3.88793251e-03, -2.86345556e-03, 2.52900422e-02,
          -4.02321406e-02, -1.67890619e-02, -8.80170055e-03,
          -2.08507460e-02, 8.14205408e-02, 1.02399578e-02,
          -4.69967723e-02, -6.14085272e-02, -6.15475774e-02,
          -5.32001071e-02, -4.62623723e-02, 2.02477165e-02,
          -3.99967618e-02, -2.05984688e-03, -4.33006883e-02,
          4.16758619e-02, 4.98717614e-02, -2.33582966e-02,
          -5.37111424e-03, -1.10973546e-03, 4.77909707e-02,
          1.88239608e-02, -1.09740172e-03, -8.04814398e-02,
          4.60128561e-02, -4.01765518e-02, -1.14312857e-01,
          -3.38860862e-02, -2.80783065e-02, -1.43024279e-02,
          -2.28678808e-02, 6.25424534e-02, 3.46848592e-02,
          2.05459893e-02, 1.62275098e-02, 2.56203837e-03,
          -1.52452398e-04, 1.39191095e-02, -2.03054748e-03,
          1.46904271e-02, -2.55612712e-02, -2.12856811e-02,
          -9.52534098e-03, -2.76948363e-02, -1.97198540e-02,
          6.19581109e-03, -2.39739176e-02, 2.24407483e-02,
          -3.94216888e-02, 3.20950411e-02, -3.67274508e-02,
          3.37425806e-02, 1.05058979e-02, -3.68530937e-02,
          -1.41115077e-02, -4.90954667e-02, 2.82111648e-03,
          -4.69086282e-02, 7.67777674e-03, -2.28225049e-02,
          -5.20249158e-02, -6.40981197e-02, 1.00234617e-02,
          1.74768531e-04, -1.73833827e-03, -4.60986048e-02,
          -1.31918804e-03, -3.48838642e-02, -1.03250379e-03,
          -1.32987751e-02, -6.37788046e-03, 1.58801544e-02,
          1.95067488e-02, -1.97991841e-02, -6.46337941e-02,
          -4.00808454e-02, -3.06534022e-02, -7.38880411e-02,
          -4.12754118e-02, -2.48484090e-02, -1.74480416e-02,
          -2.06332114e-02, 1.28243084e-03, -3.42717580e-02,
          5.93339885e-03, -2.55656354e-02, 1.09734591e-02,
          3.47563103e-02, 4.68541570e-02, -1.92859699e-03,
          8.88320617e-03, 2.19050981e-03, 1.12596005e-02, 1.36009390e-02,
          5.15089035e-02, 2.38434933e-02, 3.46975289e-02, 6.41376674e-02,
          4.06424887e-02, -8.55731778e-03, 2.90476624e-02,
          6.12668619e-02, 2.99105179e-02, 3.53674367e-02,
          -2.31597926e-02, -4.56289668e-03, 1.72095075e-02,
          6.92889153e-04, -2.05473956e-02, -6.47391900e-02,
          -3.97707932e-02, -4.38158773e-02, 2.00117622e-02,
          -3.52412574e-02, 4.02099825e-03, 2.47432720e-02,
          -5.20930067e-03, -2.33615469e-02, 1.18144080e-02,
          4.76427525e-02, 9.73591767e-03, -7.51526002e-03,
          1.58035513e-02, 5.97987883e-02, 7.34766349e-02,
          -1.69788375e-02, 2.01416612e-02, 1.46354847e-02,
          3.83182094e-02, -5.83906006e-03, 5.23947068e-02,
          -3.28939334e-02, -4.03600885e-03, 2.21843664e-02,
          1.09563880e-02, 1.18040722e-02, -2.72748005e-02,
          3.46228038e-03, -3.08723822e-02, -3.69859599e-02,
          -2.56568007e-02, 8.66628662e-02, 5.98425046e-02,
          4.63416055e-03, 9.92939807e-03, 1.58376366e-04, 2.06357036e-02,
          -2.71117799e-02, 1.19942822e-01, -4.70098667e-02,
          5.70034683e-02, 2.35421564e-02, -4.30553705e-02,
          2.38439273e-02, 1.44104185e-02, 5.01830727e-02, 7.26584904e-03,
          5.23280241e-02, -2.67833564e-02, -5.14043868e-02,
          -1.63043104e-03, 3.07170842e-02, -1.20888054e-02,
          -7.28466455e-03, 1.78511571e-02, 1.70982815e-02,
          2.23089894e-03, 1.04695121e-02, -6.18966855e-02,
          -1.04713971e-02, 1.09699125e-04, -1.44253885e-02,
          6.59227371e-03, -2.22459268e-02, -2.25722790e-02,
          -3.59129682e-02, 3.66033310e-05, 5.46912700e-02,
          2.27300338e-02, -3.02774776e-02, 2.12643500e-02,
          8.30514804e-02, -6.97486009e-03, -3.32163982e-02,
          3.74043845e-02, -2.47469470e-02, -4.15381938e-02,
          2.45909262e-02, 1.59870228e-03, -3.82101275e-02,
          -2.46009082e-02, 7.58643746e-02, 2.09648404e-02,
          -3.27578895e-02, 3.57559603e-03, -4.77777682e-02,
          -3.88149731e-02, -4.26891446e-02, 5.69487624e-02,
          -2.08704527e-02, -8.27128906e-03, 1.06699755e-02,
          -1.08669559e-02, 1.03775980e-02, -1.14307133e-02,
          -3.04973368e-02, 4.51278649e-02, 3.81168835e-02,
          2.63751252e-03, -4.94549312e-02, -3.06407772e-02,
          1.54350102e-02, 3.02151255e-02, 4.77257408e-02,
          -1.08379927e-02, 2.96149570e-02, -9.94980801e-03,
          4.21977863e-02, -3.45722996e-02, 1.13574574e-02,
          -2.49734223e-02, 1.52457424e-03, 8.63350742e-03,
          -2.06341669e-02, -3.19284620e-03, 4.15543392e-02,
          2.87821777e-02, 4.58820211e-03, -4.10664733e-03,
          3.16215903e-02, -3.79710435e-03, -2.07169745e-02,
          -6.24325126e-02, 3.59802581e-02, 9.31849889e-03,
          1.45182526e-02, 9.54395533e-03, -5.03675546e-03,
          3.78420297e-03, 2.69574076e-02, 4.78802156e-03, 1.48312356e-02,
          1.50645878e-02, 3.02516073e-02, -2.38875858e-02,
          -3.37220319e-02, -8.27600248e-03, 2.19408958e-03,
          -2.87697352e-02, -5.95642403e-02, -5.41781895e-02,
          2.12833937e-02, 3.37670324e-03, 5.54227531e-02,
          -1.57943889e-02, -5.03886081e-02, -3.21048684e-02,
          -3.73133346e-02, -1.26394004e-01, -3.18343304e-02,
          -6.53218776e-02, -5.86004741e-02, -2.29292549e-02,
          -3.73034924e-02, 8.85344855e-03, -2.24369187e-02,
          6.58961236e-02, 7.60624930e-02, 4.07342017e-02,
          -5.48362806e-02, -8.06382578e-03, 5.41266799e-02,
          3.27362455e-02, 8.44574627e-03, 5.59116714e-02, 2.44859252e-02,
          2.34279856e-02, -1.67873390e-02, -4.65600528e-02,
          7.63284159e-04, 3.78660578e-03, -3.54168937e-02,
          9.71481577e-03, 3.17679234e-02, 5.97489811e-02,
          -4.74327095e-02, -8.89312103e-03, -4.41833623e-02,
          -1.23384735e-02, 1.44001525e-02, 4.67949435e-02,
          -1.51201747e-02, 2.37723459e-02, 3.18263173e-02,
          -1.80890486e-02, -1.29771326e-02, -1.66798402e-02,
          -3.83097753e-02, 1.90301090e-02, 1.83949620e-02,
          1.36553426e-04, 1.28217209e-02, 1.50908362e-02, 5.44438977e-03,
          -4.27055024e-02, -4.79267836e-02, 1.35666905e-02,
          2.01888895e-03, -1.92204136e-02, -8.06109607e-03,
          4.37231474e-02, 1.26566570e-02, 1.21141970e-02,
          -5.40363751e-02, 2.58605424e-02, -1.39439187e-03,
          -3.28817777e-03, -1.01647163e-02, -2.60177534e-02,
          5.34488223e-02, 2.30146796e-02, 1.24421213e-02,
          -4.12689149e-02, 6.52689580e-03, -2.36088093e-02,
          5.82735762e-02, 3.80309373e-02, 3.75296455e-03, 1.59731433e-02,
          2.51043718e-02, -3.54881883e-02, -4.82314937e-02,
          5.47674969e-02, -1.77203361e-02, 1.49481725e-02,
          -5.31033799e-03, 1.54187027e-02, -3.54958139e-02,
          1.87592898e-02, 1.19880633e-02, -7.18593225e-03,
          -1.10970186e-02, -9.98324365e-04, -1.33038469e-04,
          3.08269467e-02, -1.51246914e-03, -3.17216292e-02,
          4.95564826e-02, -3.16566788e-02, -3.31371836e-02,
          -2.14356203e-02, -3.74878608e-02, 2.98560923e-03,
          -2.30133273e-02, -1.33356489e-02, 1.71332024e-02,
          4.13499810e-02, -4.12870795e-02, 4.62804176e-02,
          -2.19764151e-02, 2.79959086e-02, -3.06966901e-03,
          3.66501734e-02, -1.89122949e-02, 5.23292869e-02,
          4.40275520e-02, -2.81333495e-02, 2.88247857e-02,
          -2.11141016e-02, 2.35159118e-02, -5.96247334e-03,
          -1.02568883e-03, -1.15104429e-02, 1.84167493e-02,
          2.60668471e-02, 8.97736177e-02, -7.13894051e-03,
          9.57211945e-03, 1.03314230e-02, 1.45614929e-02,
          -5.47489710e-03, -1.62760578e-02, -2.57684160e-02,
          -2.41330694e-02, 1.34675084e-02, -4.03895881e-03,
          -2.24856008e-02, 6.31877109e-02, -1.62491277e-02,
          -5.85517264e-05, -1.66873019e-02, 4.84635904e-02,
          2.15049777e-02, 4.85271960e-02, 2.81735361e-02, 6.11723922e-02,
          -1.16006667e-02, -3.57013009e-02, -3.55951972e-02,
          2.56555993e-03, -8.58772837e-04, -1.01483045e-02,
          2.37234998e-02, 3.66232321e-02, -2.26604845e-02,
          1.46908248e-02, -1.13420822e-02, -2.11048201e-02,
          -2.85294428e-02, -3.99480313e-02, -1.17675038e-02,
          2.98863836e-02, 3.68229561e-02, -4.34219241e-02,
          8.97126365e-03, -4.64191400e-02, -2.46947315e-02,
          -4.00551222e-02, -3.16691548e-02, -7.51402900e-02,
          1.84600092e-02, -1.65506843e-02, 6.74223341e-03,
          5.85627966e-02, 2.19510607e-02, 1.76068079e-02,
          -8.07644799e-03, 2.21224800e-02, 1.41810356e-02,
          1.00589739e-02, 3.85416485e-02, 5.83097935e-02, 3.69777791e-02,
          -2.11727582e-02, 4.71273251e-02, -5.12404693e-03,
          1.02899540e-02, -5.46382517e-02, -3.58648375e-02,
          -7.41893705e-03, 4.98638004e-02, 4.84456532e-02,
          7.18128809e-04, 1.50054367e-02, -3.84930000e-02,
          4.00759876e-02, -4.05862033e-02, -2.74248030e-02,
          1.07978405e-02, 5.68933412e-02, 1.70527734e-02, 2.20144391e-02,
          -1.65928248e-02, -5.25119044e-02, 9.11134034e-02,
          -2.63019074e-02, -9.87589955e-02, -1.68609973e-02,
          1.63589697e-02, -1.26523850e-02, -4.94827749e-03,
          -7.53229251e-03, -2.03379374e-02, 4.51975837e-02,
          -3.08736431e-04, -5.84191494e-02, 1.18102906e-02,
          -4.58840700e-03, 3.60107534e-02, 7.19827190e-02,
          1.53334644e-02, -5.18939979e-02, -1.37241539e-02,
          1.83667254e-03, 2.29243599e-02, 3.54868136e-02, 7.59924874e-02,
          9.75100044e-03, -2.37979200e-02, -1.96641721e-02,
          -6.10588491e-02, -3.01286876e-02, -2.41119671e-03,
          -1.79159474e-02, -6.25032978e-03, -4.74907458e-03,
          2.24079043e-02, 6.38923282e-03, 6.86503947e-04,
          -3.14034037e-02, 6.19420130e-03, -7.65033113e-03,
          4.48267907e-03, 3.45922448e-02, -5.57432044e-03,
          2.12035570e-02, 9.68557969e-02, 2.30926536e-02,
          -8.85625463e-03, -7.59139881e-02, -4.83790599e-02,
          5.82498498e-03, 3.11980527e-02, 1.57858599e-02, 3.60982940e-02,
          -7.21576530e-03, 1.67873148e-02, -4.31665182e-02,
          -9.28783938e-02, 2.32937168e-02, 7.21121067e-03,
          5.08623086e-02, 6.50246963e-02, -6.83279335e-03,
          5.33735799e-03, -2.47003846e-02, 4.04249830e-03,
          -2.94772815e-02, -4.52226140e-02, -3.83327417e-02,
          1.00883627e-02, -1.37026003e-02, 1.41407398e-03,
          -2.30240775e-03, -1.39401006e-02, -1.09099858e-02,
          -2.40101721e-02, -2.73608463e-03, -3.32328607e-03,
          2.25157533e-02, -2.55235061e-02, 4.05421201e-03,
          -7.47203408e-03, 1.81998443e-02, -1.95525791e-02,
          8.61787274e-02, 1.56469783e-03, -4.30757813e-02,
          1.03184897e-02, 7.30644306e-03, 1.41344890e-02,
          -5.81451580e-02, 2.70297024e-02, -3.79570536e-02,
          7.51577169e-02, 4.50939639e-03, -3.88330147e-02,
          -1.33900316e-02, -2.22988017e-02, -4.33338694e-02,
          -2.68861055e-02, -5.95381297e-03, -2.18109991e-02,
          -1.41695440e-02, 1.07058818e-02, -2.48985202e-03,
          1.38516203e-02, -5.89673929e-02, 7.93958828e-03,
          3.91372740e-02, -4.85567227e-02, -7.40792677e-02,
          2.78991666e-02, -1.69677138e-02, 1.22326585e-02,
          8.34773295e-03, 6.12800987e-03, -5.18571702e-04,
          1.04170777e-02, 5.07089570e-02, 2.71652509e-02, 4.54446208e-03,
          2.08916571e-02, -9.33190901e-03, 1.96583364e-02,
          -5.07229241e-03, -5.40062860e-02, 1.93093531e-03,
          -6.32687518e-03, 2.04777084e-02, -7.90100694e-02,
          9.22369957e-03, 3.82957496e-02, -7.70963542e-03,
          -1.94194317e-02, 6.85646534e-02, 1.59375072e-02,
          -2.81502772e-02, -6.73011392e-02, -4.52207439e-02,
          -6.48024604e-02, -7.67623074e-03, -1.42853567e-03,
          9.92774963e-03, 3.10661253e-02, -5.65517545e-02,
          -2.34481040e-02, -4.17752266e-02, -7.32222199e-02,
          -2.44750362e-02, 1.60553567e-02, 3.31020588e-03,
          -7.07183126e-03, -2.30308305e-02, -4.10126485e-02,
          5.82109299e-03, 2.43347939e-02, 8.74439850e-02, 2.79552303e-02,
          2.02809535e-02, -4.37589176e-02, -4.62055281e-02,
          2.18629781e-02, -6.18284754e-02, -3.13136019e-02,
          -9.09383968e-03, -2.26778742e-02, 5.95134450e-03,
          3.68893258e-02, -9.04309526e-02, -4.38982621e-02,
          2.80039478e-03, -1.66347215e-03, 7.32291415e-02,
          3.30059007e-02, -5.12703918e-02, -2.87545882e-02,
          -4.52054897e-03, 7.78484531e-03, 4.61959327e-03,
          3.36184502e-02, -1.57790463e-02, -3.68136689e-02,
          -1.70647223e-02, -1.69737805e-02, -5.92621304e-02,
          -4.61353622e-02, -2.32002465e-03, 5.75782508e-02,
          1.25574656e-02, 6.80117030e-03, -9.17558558e-03,
          -2.58811917e-02, 2.81504467e-02, -1.03472574e-02,
          -4.96885460e-03, 3.36969793e-02, 1.62506532e-02,
          3.19193024e-03, 4.45828363e-02, -5.51687256e-02,
          -7.62323197e-03, -7.76006654e-02, -4.23245989e-02,
          -6.05242401e-02, 6.25896752e-02, 1.33670038e-02,
          2.66119018e-02, -2.87127914e-03, 4.67013614e-03,
          -1.45480866e-02, 1.27740484e-02, -2.97634229e-02,
          4.05650437e-02, 2.04299334e-02, -1.34802014e-02,
          -3.31755243e-02, -7.50958622e-02, -2.70969048e-02,
          -1.25073018e-02, 1.40781682e-02, -3.03653162e-02,
          3.61217931e-02, 2.38762796e-02, -4.35912497e-02,
          -1.52180856e-02, -1.49495695e-02, -7.62675256e-02,
          2.33773869e-02, 3.20712179e-02, 1.96659099e-02,
          -1.41021786e-02, 6.44049346e-02, -9.23204143e-03,
          -5.84146082e-02, 3.12009528e-02, -7.53020728e-03,
          2.84912847e-02, 8.38782936e-02, -5.33045232e-02,
          3.71136926e-02, 5.46093993e-02, -2.29522884e-02,
          -5.02501689e-02, -2.74355914e-02, -1.26515562e-02,
          1.31404083e-02, -4.59737852e-02, -4.21747528e-02,
          5.09433495e-03, 2.52785534e-02, -6.84060380e-02,
          1.11159487e-02, 3.02843284e-02, 2.52969153e-02, 7.61100743e-03,
          -3.02915983e-02, -1.48423959e-03, 1.75783858e-02,
          3.91831286e-02, -1.02378707e-02, -2.42600753e-03,
          -2.43958086e-02, 3.06957960e-02, 3.68293524e-02,
          2.03695893e-02, -7.52129182e-02, 3.43814828e-02,
          5.99069856e-02, 1.47448014e-03, -1.58811286e-02,
          1.16149290e-03, -2.66184304e-02, 6.66463897e-02,
          2.98321862e-02, -4.83750924e-03, -7.17708096e-03,
          -1.79717559e-02, -3.59193198e-02, -8.50964263e-02,
          8.32045078e-03, -1.53471585e-02, 3.53893451e-02,
          8.45179893e-04, 1.46713862e-02, 2.49001067e-02,
          -1.89540628e-02, -6.88509941e-02, -3.57354954e-02,
          -1.33917658e-02, 3.56072886e-03, 9.43256728e-03,
          1.61206368e-02, 2.42409036e-02, 2.74972562e-02, 1.53059326e-02,
          -4.63805422e-02, -8.81742314e-03, -2.42934935e-02,
          8.55498910e-02, -2.25598104e-02, -7.64122978e-02,
          6.87193573e-02, 2.79419925e-02, 1.16431341e-02, 9.05867759e-03,
          -3.61273177e-02, 4.56787646e-02, -5.51331490e-02,
          1.48402732e-02, -3.07273213e-02, 9.88948531e-03,
          -1.68014355e-02, 1.60167031e-02, -4.50714380e-02,
          3.82421464e-02, -1.66290551e-02, 1.83155872e-02,
          -2.87641236e-03, 9.33069456e-03, -7.49178380e-02,
          -3.49226072e-02, -3.89289372e-02, 2.42937766e-02,
          -1.36438170e-02, -5.20886248e-03, 2.90078502e-02,
          -3.34952138e-02, -1.92678422e-02, -1.77262947e-02,
          -7.00511113e-02, 7.43318209e-03, -2.69336291e-02,
          2.63743196e-02, 6.76489100e-02, 6.84867352e-02,
          -8.20280332e-03, -3.89839672e-02, -4.05621575e-03,
          -7.42805703e-03, 2.14445218e-02, 1.17038656e-02,
          -7.43321655e-03, 1.22165424e-03, -3.54342163e-02,
          -5.90429567e-02, 3.56843397e-02, 8.52308888e-03,
          -6.44709542e-02, 1.59694385e-02, 9.68079828e-03,
          -9.04982910e-03, 3.93041000e-02, 1.16233312e-01,
          1.41213397e-02, -5.45078190e-03, 5.10605946e-02,
          1.43833244e-02, 3.62020098e-02, 2.70781573e-02,
          -2.93932315e-02, 1.72733539e-03, 5.01065776e-02,
          1.40393162e-02, 7.02007562e-02, 5.48779331e-02, 3.39244604e-02,
          3.42610888e-02, 2.98068803e-02, 2.76430603e-02,
          -1.05368998e-02, -4.41782437e-02, -9.69788898e-03,
          9.04321745e-02, 1.08151753e-02, -3.82923223e-02,
          -2.00716592e-02, 3.50827388e-02, -5.34162968e-02,
          6.32945448e-02, -3.02033145e-02, -1.43128298e-02,
          8.52906555e-02, 3.20535563e-02, 4.59804619e-03,
          -3.27331200e-02, -2.09542438e-02, -2.76220143e-02,
          -4.32449269e-05, 4.28392403e-02, 5.42013627e-03,
          -1.51101369e-02, 3.83766145e-02, -1.45494792e-04,
          2.75909831e-03, -1.09433299e-02, -1.20176123e-02,
          -2.09777746e-02, -6.13495931e-02, 1.15980655e-02,
          -1.46050081e-02, 4.00763936e-02, -4.55972068e-02,
          2.61668651e-03, 3.29062082e-02, -9.38517414e-03,
          7.09590968e-03, -2.51987241e-02, 1.14077656e-03,
          1.95968878e-02, 2.21614763e-02, 9.66272410e-03, 1.28615126e-02,
          -1.60988830e-02, 1.69186033e-02, -5.91823235e-02,
          2.31997110e-02, 2.18135267e-02, 1.11539115e-03,
          -1.99504010e-03, -2.25915089e-02, 6.45639980e-03,
          4.31367457e-02, -2.96239480e-02, 7.15034502e-03,
          1.38064530e-02, -9.95736383e-03, -1.07599460e-02,
          4.12915312e-02, -8.97139497e-03, 4.36361618e-02,
          -1.90417878e-02, 8.55101831e-03, -6.12208061e-02,
          -5.19249216e-02, -1.62648316e-02, 7.59622641e-03,
          4.19928618e-02, -4.88446057e-02, 4.04193439e-03,
          -1.77711225e-03, 1.56911351e-02, -3.10619418e-02,
          -2.42524426e-02, 7.51925725e-03, -5.27112419e-03,
          1.44731300e-02, -1.79130714e-02, 1.65530313e-02,
          2.35144868e-02, 4.52747531e-02, -3.59780677e-02,
          -3.43077518e-02, -3.11976718e-03, -5.37751280e-02,
          1.59064755e-02, -4.80832942e-02, -8.65509175e-03,
          4.83769812e-02, 1.20257018e-02, -3.26083042e-02,
          1.27356062e-02, -2.35746037e-02, -1.86017286e-02,
          3.26330476e-02, -5.79199940e-03, 3.30631994e-03,
          4.55914959e-02, 5.19039342e-03, 1.72001328e-02, 8.86286050e-03,
          7.78533798e-03, -2.74331644e-02, 2.28103083e-02,
          -3.45794810e-03, -2.18048263e-02, -2.50129290e-02,
          2.78244205e-02, 3.34346034e-02, 2.98135728e-02,
          -1.84188262e-02, 2.22260952e-02, 3.24655771e-02,
          -2.86269300e-02, -4.82442640e-02, -3.13595831e-02,
          -1.80852003e-02, -1.08394530e-02, -6.56508887e-03,
          6.52332185e-03, 1.27804307e-02, 1.95386652e-02,
          -3.62563320e-02, -2.28403062e-02, -4.40894254e-02,
          9.74510331e-03, 1.68289393e-02, 1.64265726e-02,
          -3.41836810e-02, -4.77688480e-03, -3.14421952e-02,
          1.74252428e-02, -1.52141899e-02, -1.34408921e-02,
          8.31453688e-03, -1.76900495e-02, -3.41588221e-02,
          3.03954743e-02, -2.72332486e-02, -5.55827878e-02,
          -4.46393155e-02, -5.81867201e-03, 2.13841647e-02,
          3.04985065e-02, -2.90758591e-02, -3.05689704e-02,
          1.14850430e-02, 1.05288506e-01, -9.60088521e-03,
          -1.05293291e-02, -4.17585634e-02, 6.53233975e-02,
          6.80726022e-04, 5.52573390e-02, 5.00270613e-02, 1.34971300e-02,
          -8.19619093e-03, -4.43424135e-02, -9.14612133e-03,
          5.40045602e-03, -3.02877855e-02, -7.32191503e-02,
          -4.24013287e-02, -4.83980477e-02, -1.68008730e-02,
          -4.30642720e-03, -4.89881914e-03, 6.95333758e-04,
          -1.22559080e-02, -1.63185911e-03, 2.38728672e-02,
          -1.03884321e-02, -4.10296023e-02, -2.86175516e-02,
          -2.86483094e-02, -1.01731275e-03, -3.40508297e-02,
          -3.45758349e-02, 5.97024597e-02, -7.85318017e-02,
          6.16041459e-02, -2.20227744e-02, 1.34798968e-02,
          -3.88120674e-02, -3.20805758e-02, -1.68118235e-02,
          5.61486743e-03, -1.02469072e-01, 2.69325171e-02,
          9.74785350e-03, -2.53765900e-02, 1.26826400e-02,
          6.07975945e-03, -6.83593843e-03, 5.12195518e-03,
          -2.13242578e-03, -3.57742130e-04, -1.30637074e-02,
          3.30995508e-02, 2.59004463e-03, -5.04522910e-03,
          3.09878308e-02, -1.80152804e-02, 5.69181051e-04,
          2.60289442e-02, 1.05134109e-02, 3.93139683e-02,
          -3.91105842e-03, -6.54135570e-02, -3.61507982e-02,
          3.34877744e-02, 2.31094752e-03, 4.78465948e-03,
          -4.81632724e-03, 3.51570249e-02, -7.37716705e-02,
          -2.55774688e-02, 3.86968045e-03, 2.13665739e-02,
          -2.06769779e-02, 1.08551269e-03, 6.67427387e-03,
          -2.20848769e-02, -3.90056819e-02, -7.54257850e-03,
          1.24340830e-02, -3.88008775e-03, 4.49493118e-02,
          -4.16071452e-02, 8.74043163e-03, 2.15849765e-02,
          -4.87742275e-02, -1.18917227e-03, -4.60368916e-02,
          -5.04571833e-02, 1.91769451e-02, -5.40615767e-02,
          3.78874801e-02, 3.65545531e-03, 8.47602263e-03, 1.97941866e-02,
          -1.08886231e-02, 4.89599220e-02, -6.84447885e-02,
          3.75604220e-02, 4.04886492e-02, -4.20288630e-02,
          -1.13413651e-02, -3.40322964e-02, -3.28139290e-02,
          1.44141046e-02, 2.01855898e-02, -2.00070702e-02,
          -4.56294306e-02, -1.55396955e-02, 2.57436000e-02,
          -3.53904031e-02, 2.58221151e-03, -2.33863257e-02,
          -4.09361497e-02, 1.73911192e-02, 1.37130804e-02,
          -1.71222258e-02, 3.10679693e-02, -1.29186371e-02,
          -3.90672777e-03, 2.87248772e-02, -2.47922856e-02,
          5.59816137e-04, -3.79933789e-02, -1.05686046e-01,
          -2.78914310e-02, -2.36371551e-02, 2.99832337e-02,
          -2.36638892e-03, -2.18558684e-02, 1.60820186e-02,
          -6.77405065e-03, 3.81748863e-02, -2.55586226e-02,
          2.17981078e-02, 7.94949941e-03, 4.81218249e-02, 3.49166989e-02,
          9.16043669e-03, 5.01389503e-02, 8.43403041e-02, 3.24170874e-03,
          1.23442905e-02, -4.84525179e-03, 1.35245463e-02,
          2.42679361e-02, -5.71493097e-02, -5.04083815e-04,
          -7.51340250e-03, -1.10730221e-02, 6.65222295e-03,
          2.42756493e-02, 5.37466370e-02, 1.24789299e-02, 7.98020326e-03,
          -4.02871929e-02, -1.11275343e-02, -6.03035949e-02,
          5.87560683e-02, -8.11452232e-03, -7.19945133e-02,
          -2.47098934e-02, -1.90573838e-02, -2.59756558e-02,
          1.44083826e-02, -2.00685672e-02, -3.28489169e-02,
          1.59955528e-02, 6.02454469e-02, -1.71954967e-02,
          1.09267700e-02, 1.82555094e-02, 4.51668091e-02,
          -1.85852163e-02, 3.25330533e-02, -5.65336691e-03,
          3.40446159e-02, -8.89290590e-04, 6.41020713e-03,
          1.07988399e-02, -4.34349440e-02, -6.06214590e-02,
          2.93429065e-02, 3.14463885e-03, -5.83675271e-03,
          1.09864362e-02, 1.92169007e-02, -3.65720764e-02,
          4.82907481e-02, -3.23325545e-02, 3.93286981e-02,
          -1.03919404e-02, 1.94622930e-02, -6.91391586e-04,
          3.21106128e-02, 3.95604968e-02, 6.26218170e-02, 6.22504167e-02,
          4.68802731e-03, -4.82176617e-02, -1.89966634e-02,
          1.80522222e-02, 1.68468468e-02, 2.83375364e-02,
          -4.94482033e-02, 6.44176975e-02, 2.59357542e-02,
          5.36527578e-03, 3.86269987e-02, -3.20846215e-02,
          -6.93284571e-02, -4.48937900e-02, -4.02909331e-02,
          4.57535349e-02, 5.00333458e-02, 4.29919213e-02, 2.39882208e-02,
          -4.69880588e-02, -3.73223014e-02, -1.76388826e-02,
          -5.97065315e-03, 1.02717634e-02, -3.70481424e-02,
          -1.58746447e-02, -2.05967631e-02, 8.42179637e-03,
          -4.26683612e-02, -1.26984147e-02, -9.20390058e-03,
          -2.02478897e-02, -4.19708379e-02, -9.83747933e-03,
          3.90529707e-02, -2.41220668e-02, -2.60430872e-02,
          5.01773059e-02, -1.54469972e-02, 3.16406088e-03,
          2.13691313e-02, -1.80297457e-02, -2.84006428e-02,
          -2.52734702e-02, 3.71518880e-02, 8.20949301e-03,
          3.94672826e-02, -1.96254309e-02, -1.90617554e-02,
          -1.95625843e-03, 1.52719645e-02, 3.89568098e-02,
          -3.25271836e-03, -3.24416347e-02, -3.11663430e-02,
          -1.52077274e-02, -4.64901030e-02, -4.32268567e-02,
          5.30518889e-02, 5.76062221e-03, -2.02198811e-02,
          3.72869335e-02, 2.03818288e-02, 1.19862193e-02,
          -1.91777963e-02, -2.93949265e-02, -3.42234075e-02,
          3.45129631e-02, 6.63010753e-04, -6.53178766e-02,
          -6.39151083e-03, 6.91385046e-02, 5.29793650e-02,
          -6.97158352e-02, -1.01776019e-01, -1.80197284e-02,
          2.78478842e-02, 2.06932425e-02, -1.98217109e-02,
          2.89744511e-02, 1.89736318e-02, 2.81449258e-02,
          -7.74119003e-03, -3.84418927e-02, 5.24973776e-03,
          3.89272869e-02, -3.50278541e-02, -2.75033507e-02,
          5.26387691e-02, 3.96513306e-02, 1.20156920e-02,
          -4.98782508e-02, 4.29842658e-02, 3.66299190e-02,
          2.93227006e-02, -4.39195260e-02, -5.05428575e-02,
          -5.95722124e-02, 3.26495953e-02, 1.28227752e-02,
          3.31548527e-02, -6.78096432e-03, -3.81874256e-02,
          4.38149413e-03, -6.36101514e-02, -5.55217899e-02,
          6.54138178e-02, 1.23502702e-01, 2.82801706e-02, 1.41530745e-02,
          -3.15811262e-02, 2.44836360e-02, -2.32886299e-02,
          -3.17222066e-02, -6.44530728e-02, -6.08574226e-03,
          -3.66213336e-03, 3.27661559e-02, -3.67245600e-02,
          1.83472037e-03, 7.89948404e-02, 3.60835679e-02,
          -6.76649995e-03, 2.68345121e-02, 7.07402965e-03,
          4.58887592e-02, -6.79214671e-02, 3.84364985e-02,
          -3.79279419e-03, 3.48232724e-02, 3.48376334e-02,
          7.79629638e-03, 6.80856034e-03, -1.43153770e-02,
          4.11225297e-02, -1.60298292e-02, -3.74573730e-02,
          -1.16623268e-02, 6.08315654e-02, 5.27471565e-02,
          1.54529251e-02, -4.80908575e-03, -2.52726264e-02,
          2.41745859e-02, 4.73170280e-02, 3.41231190e-02, 1.21273668e-02,
          2.38554664e-02, 1.67847723e-02, 2.61219535e-02, 2.48925034e-02,
          -2.15233751e-02, -7.87630901e-02, -3.79142538e-02,
          -3.84898782e-02, 7.87766185e-03, 4.96151447e-02,
          2.16307528e-02, 3.32704745e-02, 5.12106679e-02, 2.72356514e-02,
          -1.58353597e-02, -1.94054618e-02, -3.02098747e-02,
          8.78298003e-03, -8.58993828e-03, -1.91546325e-02,
          3.45022343e-02, -1.23458747e-02, 1.91161837e-02,
          1.05028795e-02, -3.68662924e-03, 1.12529621e-02,
