%YAML:1.0
category: long_trousers_new
classifier: !!opencv-ml-svm
   svm_type: C_SVC
   kernel: { type:LINEAR }
   C: 1.0000000000000001e-01
   term_criteria: { epsilon:2.2204460492503131e-16, iterations:1000 }
   var_all: 7560
   var_count: 7560
   class_count: 2
   class_labels: !!opencv-matrix
      rows: 1
      cols: 2
      dt: i
      data: [ 0, 1 ]
   sv_total: 1
   support_vectors:
      - [ -1.03535196e-02, -6.50028288e-02, -2.38615368e-02,
          1.84486751e-02, -5.58839738e-02, -2.00895891e-02,
          -2.09365133e-02, 3.12865935e-02, 2.74659712e-02,
          -7.69237056e-02, -5.75469136e-02, 8.37561190e-02,
          5.59241697e-02, -3.24953208e-03, 7.38989040e-02,
          7.95594789e-03, -2.36789584e-02, -4.49141376e-02,
          8.44656862e-03, -5.08023612e-02, -1.32334493e-02,
          3.97403315e-02, -2.67171226e-02, 6.03244044e-02,
          2.57010572e-03, 3.07554603e-02, 1.26953572e-02, 8.78339168e-03,
          -1.58006269e-02, 5.41523844e-02, 6.14073500e-02,
          -3.96445468e-02, -2.07084715e-02, -2.79410835e-02,
          1.43972114e-02, 5.80602931e-03, -9.96489152e-02,
          -2.99986750e-02, 1.18854446e-02, 3.21476310e-02,
          5.04504219e-02, 1.05097421e-01, 1.77598651e-02,
          -5.00239991e-02, -4.32181619e-02, 3.82186025e-02,
          -6.79033156e-03, -1.35700293e-02, 4.69983704e-02,
          -6.40764162e-02, 8.22161958e-02, 8.98719504e-02,
          1.79740358e-02, 1.90032870e-02, 2.09269617e-02,
          -3.02663655e-03, 1.57446461e-03, 2.34869123e-02,
          3.70177180e-02, 4.35303226e-02, 2.93040480e-02, 7.26340190e-02,
          7.02074915e-03, -9.29088891e-02, 1.36561515e-02,
          -2.49684844e-02, 3.48603656e-03, -4.61103283e-02,
          3.35421041e-02, 9.49725136e-03, 6.22935072e-02,
          -4.07763682e-02, 7.06588328e-02, 3.02356910e-02,
          -1.78488437e-02, 4.50010449e-02, -1.29036143e-01,
          6.91698641e-02, 1.13377079e-01, 3.06978878e-02, 2.28861114e-03,
          4.73754574e-03, 2.92921681e-02, 4.04011868e-02, 1.14923760e-01,
          -8.66932943e-02, -1.40359020e-02, 6.15191273e-02,
          -4.37099002e-02, -6.84482157e-02, -3.59378345e-02,
          -4.53304686e-03, -6.17766716e-02, 2.45491881e-02,
          -3.40724587e-02, 1.18194118e-01, 7.74905011e-02,
          4.95092794e-02, 7.55751058e-02, -8.71415287e-02,
          -1.77307725e-02, 3.48617956e-02, 7.38767460e-02,
          -1.84728280e-02, 8.86436366e-03, -3.63406958e-03,
          -1.13444738e-02, -6.42451867e-02, -4.80017960e-02,
          4.76209112e-02, 5.08128330e-02, 5.28302528e-02,
          -8.24573040e-02, 2.17910334e-02, 4.76699769e-02,
          -1.57376770e-02, -4.75001819e-02, 6.76285056e-03,
          7.67531395e-02, 1.20506734e-01, 4.05552946e-02, 8.36236849e-02,
          8.48234594e-02, 8.85690898e-02, -5.57419844e-03,
          3.94821092e-02, -2.09272578e-02, -6.91509154e-03,
          1.21489652e-02, -3.09481751e-02, -5.86208031e-02,
          -1.17035378e-02, 1.26059419e-02, -2.57818736e-02,
          -1.96404066e-02, -6.95377728e-03, -1.61212850e-02,
          5.58826793e-03, -5.36806658e-02, 4.94846888e-02,
          -1.96457049e-03, 1.29597947e-01, 1.14372419e-03,
          2.64598820e-02, -5.04085049e-02, -7.97585677e-03,
          6.09279759e-02, -2.06610747e-02, 7.30047673e-02,
          8.90477598e-02, 1.15537062e-01, -1.96955167e-02,
          -5.21217734e-02, 6.40732422e-02, 1.51804916e-03,
          1.20834544e-01, -5.49628362e-02, -4.74737361e-02,
          -5.23281321e-02, -3.37575236e-03, 1.23376651e-02,
          -9.25613195e-03, -1.18068447e-02, -4.00924385e-02,
          9.11226030e-03, -6.02209605e-02, 1.61722377e-02,
          7.81430602e-02, 1.95348129e-01, 6.51205182e-02, 3.03275269e-02,
          7.56248832e-02, -9.82234851e-02, 4.76661101e-02,
          -6.18436784e-02, -2.87051667e-02, -3.10580116e-02,
          2.64330655e-02, -1.71039496e-02, 4.63018902e-02,
          1.04339473e-01, 1.37535371e-02, 6.87948912e-02, 6.73282193e-03,
          5.67245074e-02, -7.70931244e-02, -1.80793721e-02,
          -5.07429149e-03, -2.14742143e-02, 9.29578245e-02,
          6.32996857e-02, 2.88786441e-02, -7.22826598e-03,
          8.14059302e-02, -8.57333988e-02, -7.41312206e-02,
          -2.33880226e-02, 4.02769856e-02, 1.36910304e-01,
          -5.08579239e-03, 3.01846280e-03, 6.21169747e-04,
          -5.44697717e-02, -9.19401646e-02, -2.88002528e-02,
          -4.05344851e-02, -9.02239233e-03, 1.03314802e-01,
          2.94788852e-02, 5.14282547e-02, 6.35367483e-02,
          -6.79106265e-02, -9.58636403e-02, -7.30871484e-02,
          -4.38866653e-02, 6.14599958e-02, -8.22982863e-02,
          -5.03058694e-02, -4.40556407e-02, -3.72069627e-02,
          -6.27449667e-03, -3.29069644e-02, -3.07948031e-02,
          4.40336280e-02, -2.94177718e-02, 2.17019971e-02,
          8.52796510e-02, 2.52690986e-02, 3.96428108e-02,
          -2.35483684e-02, -3.50197479e-02, 2.55020503e-02,
          5.95183745e-02, 4.13209163e-02, 6.87015243e-03,
          -2.06777230e-02, 1.53567526e-03, -7.45195001e-02,
          -1.22717202e-01, -2.40454245e-02, -6.76014647e-02,
          -1.81682128e-02, 1.53255584e-02, -3.63696069e-02,
          6.74389452e-02, 5.23645766e-02, -1.05582520e-01,
          -9.51962918e-02, -6.29361272e-02, -3.87653671e-02,
          -4.22988571e-02, 2.04906520e-02, -2.74418723e-02,
          5.42704612e-02, 1.57699250e-02, 1.59727875e-02,
          -9.21215937e-02, -1.64132025e-02, 3.19258720e-02,
          9.41185933e-03, -4.18810472e-02, -2.40602884e-02,
          5.60441650e-02, 3.81389335e-02, 1.01128817e-01, 1.48864854e-02,
          4.55510467e-02, 2.88250335e-02, 4.04527970e-02,
          -3.40841450e-02, 6.41590059e-02, 5.44090308e-02,
          5.74204698e-02, -1.00920640e-01, -1.08472414e-01,
          -5.07830195e-02, 1.41681246e-02, -9.05666500e-02,
          1.51220839e-02, 3.66352089e-02, -1.47852744e-03,
          -1.17724687e-02, -3.34352702e-02, 1.60793345e-02,
          1.26243578e-02, 2.23292988e-02, -6.47358000e-02,
          -4.96194884e-02, 1.68501232e-02, -1.74232610e-02,
          4.54969257e-02, 3.32558453e-02, -2.88389567e-02,
          3.87563137e-03, -9.51507408e-03, 3.31493490e-03,
          -9.16211903e-02, 3.10083386e-02, -1.77471396e-02,
          5.38737997e-02, 1.00153191e-02, -7.98320472e-02,
          4.66302410e-02, -3.89761813e-02, 4.69827503e-02,
          -1.83788352e-02, 5.69537282e-02, -1.23232137e-02,
          2.64585633e-02, 1.97447166e-02, 6.91145845e-03, 1.74845718e-02,
          -5.59595274e-03, -2.76338793e-02, -5.85395433e-02,
          2.09891796e-02, 3.34347337e-02, 2.22562868e-02,
          -1.08329700e-02, -8.64545479e-02, -2.39123628e-02,
          -4.70357724e-02, 1.36925650e-04, -7.44483713e-03,
          3.77546921e-02, 1.60001330e-02, 4.02871781e-04, 9.66733247e-02,
          8.97183493e-02, 6.15402088e-02, -1.30991871e-02,
          1.69603769e-02, 9.59536119e-05, 6.85603246e-02, 3.23172174e-02,
          -2.84375157e-02, 3.48323174e-02, 3.29441018e-02,
          1.29035069e-02, 1.71127927e-03, 5.81620671e-02,
          -5.72552644e-02, -3.16145606e-02, -5.60114458e-02,
          1.04721868e-03, 4.10569832e-02, -2.91185807e-02,
          3.76963876e-02, -5.28034605e-02, -9.13619623e-02,
          -3.86130102e-02, 5.69718517e-02, -1.74998306e-02,
          2.49956194e-02, 7.30173662e-02, -4.55716215e-02,
          -1.39533924e-02, -3.39021608e-02, 2.74204388e-02,
          8.35355744e-03, 6.81871250e-02, 2.67968536e-03, 2.89259721e-02,
          6.96336851e-02, 4.40448932e-02, 6.73578307e-02,
          -2.40092669e-02, 5.07349521e-02, -3.02666575e-02,
          7.06923082e-02, -2.50311699e-02, -7.43236905e-03,
          4.48691584e-02, 5.42406850e-02, 9.24850479e-02,
          -1.40101938e-02, 2.46853847e-02, 2.24484946e-03,
          6.25513792e-02, -5.86251207e-02, 6.73420280e-02,
          8.63172039e-02, -8.03335905e-02, -1.35885319e-02,
          -1.37175033e-02, 4.49950397e-02, -1.87364481e-02,
          -5.61292842e-03, -1.25975937e-01, 7.07555609e-03,
          8.41835327e-03, -1.37811471e-02, 6.55587465e-02,
          -2.39605904e-02, -4.85652778e-03, -2.03980692e-02,
          5.69672473e-02, -4.81836312e-02, 3.54615599e-02,
          3.98922227e-02, -1.59464888e-02, 5.34219258e-02,
          -4.68048789e-02, 2.39476841e-02, 1.59747968e-03,
          -7.04840757e-03, 1.33998897e-02, 5.48733659e-02,
          -6.00447282e-02, 2.16170680e-02, 3.92334424e-02,
          -5.76284435e-03, 5.58226220e-02, -1.53562473e-02,
          -4.63867036e-05, -1.22593800e-02, 6.08442239e-02,
          4.36296910e-02, -1.44527648e-02, -2.88652685e-02,
          -9.37766209e-02, 9.29290615e-03, 1.20110570e-04,
          5.31186163e-03, -4.09486331e-02, -5.28164282e-02,
          -1.43727083e-02, 7.59326443e-02, -2.97611021e-02,
          -1.68946702e-02, 5.44696711e-02, 5.31984866e-03,
          4.52638008e-02, 3.23997103e-02, -4.55220405e-04,
          -2.75689666e-03, 9.18827876e-02, 6.49671108e-02,
          7.04271113e-03, -1.03592230e-02, 1.73678529e-02,
          -3.51312134e-04, -1.68930925e-02, -8.00009146e-02,
          1.62082948e-02, 3.82264778e-02, 5.96765727e-02, 4.72279005e-02,
          -7.31017739e-02, -2.21411232e-02, 3.56196500e-02,
          -2.59993058e-02, -3.28810662e-02, 3.51319499e-02,
          1.30710617e-01, 5.70616387e-02, 2.16328930e-02, 4.71066013e-02,
          3.86105813e-02, 3.51716615e-02, 4.79345061e-02,
          -1.66490469e-02, -7.94401206e-03, 1.02346703e-01,
          1.91909669e-03, 5.41197583e-02, 4.09249254e-02, 2.56004818e-02,
          4.27746633e-03, -6.39996305e-02, -1.17836567e-02,
          8.57275352e-03, -6.64312914e-02, 1.07141268e-02,
          4.37527671e-02, -2.21699681e-02, 2.20529791e-02,
          -1.14411610e-04, -5.26038595e-02, 5.37675619e-02,
          7.23024011e-02, 7.02190027e-02, 7.00824708e-02, 1.35450408e-01,
          4.04925533e-02, 3.14854793e-02, 5.48320375e-02, 3.70535143e-02,
          -1.07754599e-02, -2.99438350e-02, -1.14903748e-01,
          -5.66161796e-02, -3.33143175e-02, 3.30451876e-02,
          -1.45912869e-02, 5.92161790e-02, 2.13409066e-02,
          -1.90337393e-02, 5.64157218e-02, 4.94807437e-02,
          4.22947779e-02, -2.45053694e-02, 3.10602468e-02,
          2.64079161e-02, -6.01148345e-02, -6.36750981e-02,
          2.89815813e-02, 6.79805204e-02, 1.59625020e-02, 8.14216733e-02,
          3.64175923e-02, 5.83571335e-03, -2.80895997e-02,
          7.40606263e-02, 6.29209727e-02, 1.79477055e-02, 1.59705225e-02,
          4.17887010e-02, 2.58171801e-02, -5.89958057e-02,
          2.39722077e-02, 6.76772296e-02, -4.28268760e-02,
          -1.67789739e-02, 9.70135350e-03, 6.20777495e-02,
          -5.09147858e-03, -4.67165513e-03, 1.43364407e-04,
          -2.32217554e-02, 3.84910777e-07, -1.99271180e-02,
          7.89942816e-02, 1.29064517e-02, 1.83535535e-02, 5.52591309e-02,
          9.14141722e-03, -4.70529571e-02, 1.92007609e-02,
          2.27414779e-02, -2.71532368e-02, -8.78684297e-02,
          -7.70028085e-02, 5.04828012e-03, -1.52694620e-02,
          3.90665866e-02, 9.66481119e-03, 2.06898469e-02, 5.45876734e-02,
          6.25304207e-02, -7.27930516e-02, 8.11812207e-02,
          5.67510314e-02, -4.20628004e-02, -3.92187424e-02,
          -1.29267038e-03, 3.81226167e-02, 6.30040467e-02,
          1.59890577e-02, -1.85054056e-02, 2.43947911e-03,
          7.15836883e-02, -7.14083947e-03, 5.21385074e-02,
          4.02204357e-02, 7.72373602e-02, 6.92391545e-02,
          -1.32275075e-02, -6.30322769e-02, -7.41083315e-03,
          7.49606192e-02, -1.08916573e-02, 1.85528565e-02,
          -9.72115323e-02, 6.58216421e-04, 1.14754938e-01,
          -5.26961172e-03, 5.02783712e-03, 6.33396506e-02,
          8.01234245e-02, 1.42808659e-02, -2.96336524e-02,
          -1.45264892e-02, 2.70388201e-02, 1.63821355e-02,
          -2.30031554e-02, 7.03635365e-02, 5.89168370e-02,
          7.54504725e-02, -2.96372315e-03, 6.32873923e-03,
          2.30104961e-02, 3.22526228e-03, 2.86578480e-02,
          -3.53580862e-02, 3.61724608e-02, -9.77046043e-03,
          6.17200769e-02, 8.71339962e-02, 7.24854926e-03,
          -8.22642073e-02, 5.72313480e-02, 8.46414566e-02,
          1.19649852e-02, -9.09613166e-03, -3.07995137e-02,
          1.35188028e-01, 2.21697316e-02, 9.15256217e-02, 4.00268175e-02,
          1.10389099e-01, 1.89173669e-02, -7.52466545e-03,
          5.18990606e-02, 1.48595562e-02, 9.44397226e-03, 2.04342846e-02,
          2.79634614e-02, 4.62956913e-03, -3.79680879e-02,
          2.09221616e-02, -2.14848034e-02, -2.38327030e-02,
          1.14811219e-01, 7.87773728e-02, 6.72223046e-02, 2.69078445e-02,
          1.51615478e-02, 2.71789990e-02, -2.05319393e-02,
          -2.25515831e-02, -2.90846694e-02, -3.79453935e-02,
          6.09090030e-02, 7.19559416e-02, 4.16781232e-02, 9.24227610e-02,
          7.49914497e-02, 3.33806463e-02, -7.60698840e-02,
          -3.52072977e-02, -1.68719459e-02, -5.90120554e-02,
          4.68307175e-02, -5.50992833e-03, 1.76238380e-02,
          9.30679962e-03, -5.96894473e-02, -1.83705762e-02,
          -2.30644867e-02, 1.43206408e-02, -1.63645702e-04,
          -1.07280409e-03, 2.14823745e-02, 6.76348852e-03,
          2.04139519e-02, 1.88362058e-02, -3.31135131e-02,
          1.14028528e-02, 2.26135598e-03, -3.67226340e-02,
          4.09377441e-02, 4.35376875e-02, 5.66045530e-02, 3.80911678e-02,
          -7.70721724e-03, -2.96415519e-02, -2.97360085e-02,
          2.45073829e-02, -5.74588589e-02, -7.05448091e-02,
          -2.66429428e-02, 2.10597971e-03, 1.92963227e-03,
          -7.29429955e-03, 8.37287903e-02, 3.80778462e-02,
          -3.35126221e-02, -1.07676774e-01, -4.96906266e-02,
          -4.33818810e-02, 4.87344479e-03, 4.68379213e-03,
          8.86943862e-02, -3.98842245e-02, -4.28881198e-02,
          -5.19600278e-03, -3.70860659e-02, 2.36574784e-02,
          5.58266714e-02, 6.17469586e-02, -2.05528680e-02,
          -9.33976769e-02, 2.82067526e-02, -1.00382023e-01,
          6.40618503e-02, 5.59617244e-02, 1.27287224e-01, 9.80595350e-02,
          8.76964405e-02, 4.04040925e-02, 8.87999963e-03,
          -5.15266024e-02, -4.82629873e-02, -6.85489550e-02,
          -7.46270791e-02, -4.16797400e-02, 7.38129113e-03,
          -1.41781215e-02, -1.56109994e-02, 1.32073173e-02,
          8.07102956e-03, -9.73457918e-02, 2.07852619e-03,
          -2.16399087e-03, -3.86037119e-02, 2.88452171e-02,
          7.19805658e-02, 1.50276879e-02, 2.65349504e-02, 8.38583987e-03,
          -9.02367458e-02, -6.00227602e-02, 6.69700429e-02,
          4.51690108e-02, 1.26849702e-02, 7.43938535e-02, 4.91903946e-02,
          -9.66023579e-02, 3.32869105e-02, -8.11149552e-03,
          -5.65127619e-02, 3.67099047e-02, 3.16846259e-02,
          -1.39575088e-02, 2.87076877e-03, -1.23736486e-02,
          -4.38821726e-02, -4.89910878e-02, -5.48386313e-02,
          3.47453691e-02, -1.02225412e-02, -1.68351009e-02,
          9.78953671e-03, 8.24384764e-02, -7.70852566e-02,
          -3.62575464e-02, 2.64278222e-02, -6.31857887e-02,
          -1.81320477e-02, -4.31596264e-02, -4.02121767e-02,
          7.06592062e-03, 1.30321622e-01, -1.48630058e-02,
          4.08761427e-02, -3.02654132e-02, -5.52145392e-02,
          -6.14438355e-02, -6.86392933e-02, -8.55230242e-02,
          -4.37459573e-02, -4.94483374e-02, -1.29827494e-02,
          2.86527872e-02, 3.03190108e-02, -2.64516603e-02,
          4.88526560e-03, -7.23438486e-02, 2.87450999e-02,
          -2.91011296e-02, 2.64437553e-02, 1.79853141e-02,
          9.89890397e-02, -3.67089882e-02, -4.33480442e-02,
          -2.79891901e-02, -5.28441183e-02, -7.06133768e-02,
          -3.16435657e-02, 8.46431870e-03, -5.45198731e-02,
          6.37191832e-02, -5.63836768e-02, -9.91204306e-02,
          -3.86569537e-02, -2.00542212e-02, 3.10573038e-02,
          2.04879995e-02, 2.50447961e-03, 2.69775447e-02, 6.85124770e-02,
          3.84713039e-02, -1.86145529e-02, -6.32742122e-02,
          -1.29465595e-01, -4.65053618e-02, -4.98470813e-02,
          2.16662772e-02, -6.54709712e-02, 4.93095741e-02,
          3.76628600e-02, -5.54705411e-02, -5.78111075e-02,
          -9.22430381e-02, -6.55761436e-02, -3.67182889e-04,
          2.22022682e-02, -4.16846313e-02, -5.57837933e-02,
          -2.74004675e-02, -8.25233683e-02, -5.08766919e-02,
          -3.06172315e-02, -4.62415703e-02, -1.15031749e-02,
          -2.93098856e-02, -4.90097553e-02, 3.03127412e-02,
          6.32890090e-02, -1.12666413e-01, -1.32224128e-01,
          -4.38978635e-02, -1.58400964e-02, 8.37273803e-03,
          -4.64280061e-02, -5.86929694e-02, 4.12833318e-02,
          2.56267115e-02, -1.69158615e-02, -6.54005706e-02,
          -2.81584039e-02, -6.53400794e-02, 3.43699567e-02,
          6.14461601e-02, -3.00428756e-02, -4.53644432e-02,
          5.73207326e-02, 5.83819970e-02, -2.39066035e-02,
          1.07604424e-02, -4.92605008e-02, 3.80610041e-02,
          2.53309850e-02, -1.52662266e-02, -2.34617945e-02,
          9.85541567e-03, -2.52086110e-02, -4.68450673e-02,
          -1.81490202e-02, -7.88125247e-02, 6.11818247e-02,
          4.65252995e-02, -7.44665563e-02, -4.46168073e-02,
          5.61270006e-02, 5.86098656e-02, 1.66629050e-02,
          -1.03047034e-02, -1.89715233e-02, 2.09498517e-02,
          1.92899648e-02, -4.79028225e-02, 8.14602338e-03,
          -1.07423607e-02, 3.67168104e-03, 3.29630338e-02,
          4.91367951e-02, -3.30553763e-02, 5.91815263e-02,
          -1.27470319e-03, -3.60289179e-02, -2.52075344e-02,
          -6.17657751e-02, -6.60008118e-02, 1.57854352e-02,
          4.02522460e-02, 4.87764291e-02, 4.29345891e-02,
          -4.65021692e-02, -5.47737591e-02, -4.00917158e-02,
          1.74237117e-02, 6.78702071e-02, 9.46187004e-02, 1.94704030e-02,
          -4.74695861e-02, 4.51017395e-02, 1.61345713e-02,
          -3.77821550e-02, -2.12627351e-02, -3.22036073e-02,
          -6.87912777e-02, 8.68752301e-02, -6.91773044e-03,
          7.35731274e-02, 2.01752614e-02, -2.41360832e-02,
          -1.13797188e-01, -7.28122965e-02, 7.05657899e-02,
          2.42691804e-02, 5.94217144e-02, 4.60538268e-02, 2.38906965e-02,
          3.93014401e-02, -3.32440175e-02, 1.26856817e-02,
          7.41854012e-02, -2.40381248e-02, -4.68414128e-02,
          2.17726231e-02, -2.94346772e-02, -5.72846234e-02,
          5.23135439e-02, -3.68459057e-03, 4.11277562e-02,
          2.18257252e-02, 1.57676954e-02, 8.54836497e-03, 3.92269939e-02,
          2.10006405e-02, 3.58963348e-02, 4.41999398e-02, 4.65216488e-02,
          2.41210498e-02, 4.73019816e-02, -4.17643189e-02,
          -4.58886251e-02, -2.72095371e-02, -1.60476044e-02,
          -1.76693350e-02, 3.90214063e-02, 3.49675715e-02,
          3.53655294e-02, 2.03284416e-02, 9.95207876e-02,
          -4.09906171e-02, -1.47181936e-02, 2.19867583e-02,
          -6.39301352e-03, 8.17874912e-03, -6.77106390e-03,
          1.90685298e-02, 2.75991186e-02, 7.59396851e-02,
          -2.01010238e-02, -7.70899355e-02, -2.08193269e-02,
          5.30986264e-02, 2.70271525e-02, -9.46306798e-04,
          4.39041555e-02, 1.78643297e-02, 2.84127202e-02, 9.40149929e-03,
          -7.52607211e-02, 1.20189320e-02, -1.09314984e-02,
          -2.37125158e-03, -2.20956001e-02, -3.36462520e-02,
          2.93156225e-02, 6.10283650e-02, 2.31278948e-02,
          -8.81745666e-02, -4.52290736e-02, -5.03198206e-02,
          1.63967945e-02, -4.32768930e-03, 1.16522638e-02,
          -9.07221995e-03, -2.57248897e-02, -1.27459960e-02,
          -6.34427518e-02, -5.85931577e-02, 2.41693761e-02,
          5.33792749e-02, -3.58361192e-02, 2.61823144e-02,
          -7.56355897e-02, 2.12524608e-02, 1.00633457e-01,
          -2.47857738e-02, -5.68635762e-02, 3.19724306e-02,
          1.25833275e-02, 3.84681881e-03, -2.07371283e-02,
          -3.56724039e-02, -3.40463594e-02, 3.70827168e-02,
          -3.85536328e-02, -3.91653664e-02, 1.76204368e-03,
          1.80062540e-02, -7.52497464e-02, -6.29763235e-04,
          -4.91762087e-02, -3.40087828e-03, 6.30615428e-02,
          -1.87725797e-02, -3.54971713e-03, -5.61177582e-02,
          2.51537710e-02, -5.57264537e-02, -7.78542161e-02,
          -1.90307610e-02, 5.25368638e-02, 1.12231992e-01,
          -3.18603106e-02, -4.19254415e-03, -1.59200616e-02,
          3.37114488e-03, -5.10177948e-02, 4.91675630e-04,
          -8.36509094e-03, 4.43573482e-02, 5.40460162e-02,
          -8.66976529e-02, 8.40078667e-02, 9.00479034e-02,
          3.99421528e-02, -2.35752761e-02, 6.12267070e-02,
          2.62675006e-02, -2.04716064e-03, 2.27525365e-02,
          -3.80530655e-02, 1.67019051e-02, -2.89991014e-02,
          1.67292338e-02, -1.03134856e-01, -2.75753886e-02,
          2.16161050e-02, -1.54503505e-03, 9.08804685e-03,
          -5.37324660e-02, 9.62804332e-02, 8.09853226e-02,
          4.52129450e-03, -1.03168331e-01, 1.09041287e-02,
          6.81770518e-02, -1.09498007e-02, 3.48075107e-02,
          -2.82266792e-02, 3.12196240e-02, -6.54994622e-02,
          -1.40111195e-02, -1.06519014e-02, 8.50223005e-03,
          -1.25308773e-02, 4.60305512e-02, 4.19542305e-02,
          7.42677599e-03, 1.05995564e-02, 1.32987294e-02, 3.12724486e-02,
          5.50851934e-02, 8.17420408e-02, 5.52866459e-02,
          -2.44484991e-02, -3.37738171e-02, -7.38478601e-02,
          5.69537096e-02, 2.76779104e-02, 4.12073061e-02,
          -5.29067479e-02, -2.76487209e-02, 1.97225567e-02,
          7.94341043e-02, 1.78506747e-02, -1.74746569e-02,
          6.76863492e-02, 5.98724559e-03, 2.71949489e-02, 4.19096015e-02,
          1.11362822e-01, 4.39461432e-02, 6.63595498e-02,
          -6.04959030e-04, -2.48537939e-02, -9.59997438e-03,
          3.17278272e-03, 4.18653898e-02, 5.59764244e-02, 2.24916618e-02,
          1.02482542e-01, -8.41018744e-03, 2.73875128e-02,
          1.19724851e-02, 1.77158844e-02, 1.02940286e-02, 3.35890353e-02,
          -3.73571664e-02, -3.75075242e-03, 6.23395517e-02,
          2.32884735e-02, -1.48342783e-02, -6.93421392e-03,
          8.66537914e-03, -3.57209332e-02, 4.67111170e-02,
          -2.81827375e-02, -7.55321002e-03, 2.57353764e-02,
          8.68641213e-03, 3.76042388e-02, 2.14380166e-03, 3.05917189e-02,
          1.54989064e-02, -4.97025140e-02, 1.04589586e-03,
          3.18929292e-02, 8.41526613e-02, -5.70300631e-02,
          2.82497834e-02, 1.93092078e-02, 3.18029858e-02, 1.14660133e-02,
          -3.21621448e-02, -4.14793603e-02, 2.58166026e-02,
          -2.22377069e-02, -8.03436264e-02, 4.92814071e-02,
          7.07672238e-02, 8.36031809e-02, 3.16366255e-02, 1.42068639e-02,
          3.92806828e-02, 5.42639010e-02, -2.21213941e-02,
          -3.11874934e-02, 2.15598345e-02, 6.80452660e-02,
          6.11353852e-02, 4.98732030e-02, -4.71001826e-02,
          4.28118259e-02, 1.23534575e-02, 2.10031457e-02,
          -2.89171636e-02, 4.01381701e-02, 4.09260802e-02,
          1.29440218e-01, 4.54786867e-02, 2.94598062e-02, 1.73053473e-01,
          7.79277831e-02, -3.95433567e-02, -3.15635242e-02,
          6.16131090e-02, -2.86079776e-02, 1.87956765e-02,
          1.76891629e-02, 1.37859201e-02, 9.85009130e-03, 2.45488696e-02,
          -3.61989327e-02, -4.76932004e-02, -2.66535878e-02,
          2.93648299e-02, -4.51234765e-02, 3.98315396e-03,
          -3.06895096e-02, -3.66529450e-02, 5.19397557e-02,
          -3.34345847e-02, -6.58877566e-02, 2.31602062e-02,
          -2.20352095e-02, 1.63191452e-03, 6.56208917e-02,
          1.11728217e-02, 8.56702700e-02, 1.16270952e-01,
          -1.68101508e-02, -5.29300757e-02, 9.65520516e-02,
          1.33097796e-02, 1.06316984e-01, 4.56610788e-03, 5.21409661e-02,
          -1.04439561e-03, 1.35401322e-03, -1.42871123e-02,
          1.32130077e-02, 7.13317245e-02, 3.30816731e-02,
          -1.56791322e-02, -6.80691600e-02, -2.93275155e-02,
          1.17118331e-02, 4.16683368e-02, 3.57142091e-02,
          -5.00447070e-03, 2.83698309e-02, -5.17609045e-02,
          -2.97010932e-02, -7.31528103e-02, 1.27189234e-03,
          4.81381752e-02, -1.43732196e-02, 2.06030644e-02,
          2.12165620e-02, 3.47344913e-02, -7.04221847e-03,
          3.39641571e-02, -4.59697396e-02, 4.11530025e-03,
          -1.74284093e-02, 5.59870675e-02, -3.10376156e-02,
          -9.23390388e-02, -3.79210785e-02, -1.28048910e-02,
          -5.46871684e-02, -1.56737994e-02, -1.77122802e-02,
          -2.24750303e-02, 3.11885448e-03, -4.14548330e-02,
          -4.47431542e-02, -6.49843663e-02, -6.13764077e-02,
          6.47468166e-03, 6.31366596e-02, 7.81348124e-02, 1.41922608e-01,
          9.29352548e-03, 4.55003465e-03, 4.44056280e-02,
          -9.92897712e-03, 2.19447277e-02, 2.59876009e-02,
          3.12300492e-02, 3.76614160e-03, 1.09497614e-01, 8.60727858e-03,
          4.45197113e-02, -1.06497519e-01, -2.99517885e-02,
          -2.09724274e-03, 4.96655852e-02, 1.16713293e-01,
          5.58225736e-02, -2.06163265e-02, -6.40335679e-02,
          2.17497367e-02, -4.35390770e-02, 1.12710008e-02,
          5.34774587e-02, 3.54646407e-02, -1.42435730e-02,
          -4.13526818e-02, -3.44879888e-02, -4.63454351e-02,
          -3.86097319e-02, 4.77481373e-02, -5.19205211e-03,
          5.06324805e-02, -4.76856269e-02, -3.71810049e-02,
          -4.26598303e-02, 4.59837317e-02, -7.33990669e-02,
          4.29386795e-02, 7.86709338e-02, 2.53981613e-02, 4.68504876e-02,
          -3.31465974e-02, -1.55709535e-02, 1.24446349e-02,
          -3.25906579e-03, -2.00757161e-02, 7.17085674e-02,
          9.45871696e-03, -1.06060207e-02, 4.76519763e-02,
          -3.86560708e-02, -5.74177243e-02, -4.18341197e-02,
          5.19666150e-02, -1.97210703e-02, 4.33731526e-02,
          5.52276224e-02, -2.36814236e-03, 1.70345418e-02,
          -7.86329955e-02, -5.48714772e-02, -6.04632962e-03,
          -3.49890883e-03, -2.16082782e-02, 5.54437898e-02,
          -9.95622128e-02, -7.01693743e-02, 7.38513004e-03,
          -4.69248407e-02, -5.79385087e-02, 4.68901033e-03,
          2.38936534e-03, -4.67289947e-02, -4.64572124e-02,
          -3.42943072e-02, -5.55035435e-02, 4.01103571e-02,
          3.52699123e-02, -6.77609059e-04, 7.48876408e-02,
          -3.17255817e-02, -1.88775025e-02, 9.59646795e-03,
          -2.19946504e-02, -8.23531821e-02, -4.66388240e-02,
          -6.16319515e-02, -1.03389211e-01, -3.57185192e-02,
          -3.55862081e-02, -1.03566088e-02, -1.93210654e-02,
          3.75415199e-02, -5.31796180e-02, 3.12635042e-02,
          8.52144957e-02, -3.10997758e-02, 6.74654692e-02,
          7.30471462e-02, 6.90419376e-02, 1.21453144e-01,
          -7.69170607e-03, 8.11807532e-03, 2.95312628e-02,
          2.95736343e-02, -5.67909740e-02, 1.27252107e-02,
          -1.53970001e-02, -6.27292469e-02, 1.33943846e-02,
          3.17039974e-02, -5.89650823e-03, -2.45859157e-02,
          5.41715734e-02, -3.35879177e-02, 1.55295152e-02,
          -4.42426465e-02, -3.73289827e-03, -2.36859269e-04,
          5.62776811e-03, -7.11143315e-02, 1.74607132e-02,
          4.22342829e-02, -4.89230454e-02, -2.20801327e-02,
          -2.44593378e-02, 3.33203352e-03, 6.58785179e-02,
          -7.80941406e-03, -3.87376696e-02, -4.16923277e-02,
          4.76299785e-02, 2.35973280e-02, 8.80507100e-03,
          -2.03565974e-02, -6.00247970e-03, -4.83598473e-04,
          -3.40869613e-02, -2.18317006e-02, 1.09427972e-02,
          4.58694436e-02, -3.17110270e-02, 3.96778584e-02,
          3.74264270e-02, -4.38208133e-03, -2.84980256e-02,
          2.83676479e-03, -2.13607103e-02, 4.63102944e-02,
          -2.19995738e-03, -4.90629487e-02, 7.61679932e-02,
          1.89216360e-02, -3.37187871e-02, 2.30845306e-02,
          -5.74182868e-02, -1.29814520e-02, -6.80633634e-02,
          4.76924889e-02, 1.87523216e-02, 6.37003705e-02,
          -8.45058914e-03, 9.53528564e-03, -2.97972802e-02,
          1.50183477e-02, 2.29058415e-02, -1.35284020e-02,
          -3.31133790e-02, 3.72407911e-03, 8.69960859e-02,
          8.21006522e-02, -8.67736191e-02, -4.47722077e-02,
          6.53641624e-03, -1.29848206e-02, 3.64486389e-02,
          2.40873396e-02, -4.40982804e-02, 9.99077335e-02,
          5.92969656e-02, 2.51663532e-02, 5.70757128e-02,
          -7.43494835e-03, -1.56535637e-02, 5.97465970e-02,
          5.99488690e-02, 5.04659675e-03, -1.24656884e-02,
          5.61316349e-02, 3.42884548e-02, 6.87620789e-02,
          -2.66036913e-02, -3.97103955e-04, -2.74402108e-02,
          -1.50937596e-02, -2.05009747e-02, 3.39721777e-02,
          -6.08683703e-03, -1.03042098e-02, -5.79336612e-03,
          -2.04776898e-02, -1.72333024e-03, 2.04133429e-02,
          -1.19594298e-02, 2.05966178e-02, -6.90247572e-04,
          -5.60317412e-02, 7.48015568e-02, -2.59109866e-02,
          6.37153760e-02, 1.07522964e-01, 7.50856698e-02, 5.48802502e-02,
          -2.88734119e-02, -2.55069369e-03, 7.02464655e-02,
          4.23343405e-02, 1.08017005e-01, 6.50437921e-02, 4.01392244e-02,
          -1.87027417e-02, 4.38157134e-02, -1.31164985e-02,
          6.92059621e-02, 5.25499023e-02, 7.92297497e-02, 2.72673238e-02,
          3.85653973e-02, 2.20019792e-04, 3.21881473e-02,
          -2.47776303e-02, -6.52555842e-03, -4.38692630e-04,
          -6.43890211e-03, 5.22286398e-03, 2.94037350e-02,
          4.89164852e-02, -4.75926651e-03, -4.32392210e-02,
          -1.76458471e-02, -2.16667876e-02, 8.18196982e-02,
          7.86769837e-02, 6.90403720e-03, 7.44349789e-03, 4.03104015e-02,
          -6.24910034e-02, -1.20119825e-01, 1.92457046e-02,
          2.97948122e-02, 8.20933059e-02, -4.81642922e-03,
          -1.56874936e-02, 3.01004946e-03, -7.54255755e-03,
          -3.41417827e-02, -6.32784814e-02, 4.74347323e-02,
          -5.18606119e-02, 1.70750394e-02, 6.81974040e-03,
          1.74191222e-02, 2.16035191e-02, -3.70839355e-03,
          2.66831443e-02, -9.79884434e-03, 2.50630677e-02,
          4.93540168e-02, 9.66206938e-02, 1.04553379e-01, 8.52262750e-02,
          1.80989373e-02, -8.49056691e-02, 5.45850992e-02,
          3.31014916e-02, 7.15540946e-02, -6.55975519e-03,
          6.77220672e-02, 2.56055519e-02, 6.12322800e-02, 4.75486778e-02,
          2.69354936e-02, 4.55214791e-02, -4.27606888e-03,
          1.70444930e-03, -2.16706563e-02, -1.45569919e-02,
          -1.77260656e-02, 6.20927550e-02, 4.59226556e-02,
          -4.81795482e-02, -3.18127009e-03, 4.68997881e-02,
          1.61103774e-02, -5.47644906e-02, 7.03932578e-03,
          -4.94348668e-02, 2.80653685e-02, 4.17042188e-02,
          -8.90727267e-02, -3.91379781e-02, -4.34586257e-02,
          -5.71781909e-03, 2.12329044e-03, -2.24338938e-02,
          -5.60552366e-02, 3.93114111e-04, -4.12042765e-03,
          -3.17398235e-02, -6.77885264e-02, -4.52431142e-02,
          1.93743743e-02, -4.43262644e-02, -1.29448101e-02,
          -8.19403380e-02, 3.73720773e-03, -7.32988343e-02,
          -6.05947785e-02, 7.71737192e-03, -6.96735829e-03,
          2.13267319e-02, -1.58031646e-03, 2.24878658e-02,
          -8.76764953e-02, -2.26748846e-02, -6.21351637e-02,
          2.46848371e-02, 8.43331888e-02, -1.80625021e-02,
          2.95405816e-02, 1.47684310e-02, -3.70840821e-03,
          -4.12127562e-02, 4.05085236e-02, 1.14713097e-02,
          -1.03995144e-01, -5.40936179e-02, 2.63679121e-02,
          1.68421809e-02, 5.16416281e-02, 6.60159513e-02,
          -7.99748898e-02, 1.02021582e-02, -6.04178607e-02,
          -2.73328312e-02, -2.42993031e-02, -4.72404398e-02,
          -6.38401285e-02, 5.97314835e-02, 6.68201596e-02,
          -3.04620676e-02, 1.48825860e-02, -3.38730887e-02,
          -3.49220522e-02, 2.78400665e-04, -8.72654654e-03,
          2.06893478e-02, -3.64720970e-02, -3.54093164e-02,
          -4.23674397e-02, -1.70560498e-02, 1.22167310e-02,
          5.31699099e-02, 4.33478169e-02, 3.54050286e-02, 7.89183527e-02,
          -3.82073000e-02, -1.37543408e-02, -1.97436567e-02,
          5.35145439e-02, 9.68891010e-03, -3.57084312e-02,
          -4.02067043e-03, -5.81612065e-02, 1.29495673e-02,
          1.86769869e-02, 1.35306688e-02, -3.18516791e-02,
          4.94837575e-03, -2.50734687e-02, 1.07179862e-02,
          8.33448470e-02, 5.26516289e-02, 5.37777990e-02, 1.61501300e-03,
          6.05562925e-02, 7.44304480e-03, 7.33745173e-02,
          -4.20978293e-03, 1.29971668e-01, 2.77710389e-02,
          1.27003826e-02, 1.09776631e-02, -8.16369504e-02,
          -5.67076467e-02, -1.13718845e-01, -3.70072350e-02,
          9.96874198e-02, 3.45104225e-02, 1.28590450e-01, 4.99831103e-02,
          -9.36667342e-03, -3.60768475e-02, -2.63634548e-02,
          -1.54488944e-02, 6.04791678e-02, 1.62227050e-04,
          3.85921896e-02, 1.56779718e-02, 1.38383796e-02, 2.68596560e-02,
          -3.18713114e-02, 2.41152216e-02, -3.32730189e-02,
          -1.04008848e-02, 6.06798641e-02, -3.56890075e-02,
          6.12045154e-02, 3.08004990e-02, 2.01112386e-02, 5.34636725e-04,
          3.37247998e-02, 5.57200536e-02, 1.09681904e-01, 4.36154716e-02,
          1.30208815e-02, 2.18813354e-03, 3.79380099e-02, 4.37331013e-03,
          -2.72429846e-02, -8.79602730e-02, 1.00228719e-01,
          7.27314726e-02, -2.44656671e-02, -2.96642389e-02,
          3.81762628e-03, -1.17324470e-02, 9.18374583e-02,
          4.15638089e-03, -1.62813291e-02, 2.16039643e-02,
          -2.35881284e-03, -5.89863807e-02, 4.27166671e-02,
          -6.00398239e-03, 1.34716732e-02, 3.35910879e-02,
          3.45638953e-02, -8.73215124e-03, 1.09456517e-01,
          1.19044818e-01, 7.75253475e-02, -1.24632725e-02,
          1.22781210e-02, 8.77929013e-03, 1.64569262e-02,
          -1.28381019e-02, -5.21329930e-03, 1.05579711e-01,
          3.04597300e-02, -5.34798168e-02, 2.25890111e-02,
          3.07213422e-02, 3.24961171e-02, 1.90651212e-02,
          -3.65924947e-02, -2.61959676e-02, 1.91602893e-02,
          -4.74659242e-02, -2.18725484e-02, 2.01012567e-02,
          4.99942247e-03, 5.74103417e-03, 1.56049356e-02,
          -4.20721732e-02, 6.10688468e-03, 2.44749356e-02,
          -3.02257389e-02, -2.82746907e-02, 1.60453245e-02,
          -9.46457591e-03, -3.65413018e-02, -8.02914798e-02,
          -9.10576209e-02, -5.84988110e-02, 9.00277402e-03,
          -5.38536385e-02, 1.66112930e-02, 1.93864275e-02,
          -3.12020127e-02, -6.58475682e-02, 2.36638542e-02,
          -3.59550007e-02, 5.91442455e-03, -5.17938212e-02,
          -2.58298144e-02, -3.37210088e-03, 3.36409621e-02,
          4.50290032e-02, 6.26712069e-02, 5.22520486e-03,
          -8.70737061e-02, -3.05675771e-02, 5.27987331e-02,
          1.14988117e-02, -4.98468848e-03, -5.13390526e-02,
          -2.67015304e-02, 4.05891286e-03, -1.01299189e-01,
          -3.04209404e-02, 2.09411569e-02, -3.08604296e-02,
          -2.40000617e-02, -2.50813123e-02, 4.17078286e-02,
          4.15519215e-02, -1.82628874e-02, -4.30741627e-03,
          -9.35805440e-02, -5.60266897e-02, -1.98213775e-02,
          6.76597431e-02, 3.15469839e-02, -3.47031280e-02,
          -7.01183900e-02, 4.84084822e-02, -1.13980010e-01,
          -6.24291375e-02, -4.86234352e-02, -4.95168567e-02,
          1.12777678e-02, -1.51356887e-02, -4.07949649e-02,
          -3.58868577e-02, -3.72884423e-03, -2.09215307e-03,
          3.68250497e-02, 4.78758141e-02, -1.18926717e-02,
          -4.68908176e-02, 1.02649617e-03, 9.32520851e-02,
          5.13720475e-02, 8.50416794e-02, 6.93423301e-02, 2.55220458e-02,
          1.28082014e-04, 4.34356891e-02, -4.47515734e-02,
          1.08905748e-01, -7.25281285e-03, -2.08400525e-02,
          1.24854995e-02, 2.33295467e-02, 1.23810545e-02,
          -1.60179473e-02, 1.48155037e-02, -7.60785863e-02,
          4.39160690e-02, 3.29032205e-02, -5.62909525e-03,
          -5.10975830e-02, -8.63357075e-03, 1.16457185e-02,
          -2.51434222e-02, 8.65486115e-02, -2.54250728e-02,
          5.68169206e-02, -2.93348003e-02, -1.44276256e-03,
          5.34424409e-02, -5.37359621e-04, -4.29255795e-03,
          -6.04744186e-04, 6.09106608e-02, -4.60483134e-02,
          2.95464210e-02, 7.19737634e-02, 4.09949496e-02, 5.58387749e-02,
          -3.39303799e-02, -7.26828864e-03, 1.47512592e-02,
          4.83872257e-02, -1.30575690e-02, 1.63465762e-03,
          4.83133420e-02, 2.43151952e-02, 3.65950912e-02,
          -1.18304687e-02, 1.25244576e-02, -6.77871481e-02,
          6.59048855e-02, 1.15415864e-02, 3.29312384e-02, 1.08169056e-01,
          1.28944665e-01, 1.16321415e-01, -2.12625954e-02,
          1.56554598e-02, -2.91501898e-02, 4.65639159e-02,
          3.14901546e-02, 4.04043980e-02, 1.02774240e-02, 1.08383233e-02,
          -2.55673192e-02, -1.37019865e-02, -4.44419831e-02,
          -6.97761774e-02, 2.97240280e-02, -8.12262204e-03,
          4.54174317e-02, 2.11607423e-02, 1.00687603e-02, 6.32107928e-02,
          1.08177438e-01, -5.85849620e-02, 2.06076559e-02,
          2.35365126e-02, 4.05394435e-02, 7.77167678e-02, 4.15503187e-03,
          2.23537553e-02, 1.66493542e-02, -6.80976920e-03,
          1.25478776e-02, -6.59230053e-02, -6.39853009e-04,
          4.80588339e-02, 6.97894916e-02, -4.13657948e-02,
          4.93897172e-03, 2.81058382e-02, 6.98586181e-02,
          -3.94953303e-02, -5.20055741e-03, 5.90481944e-02,
          1.18512265e-01, 5.15902638e-02, -3.20151635e-02,
          -7.00716600e-02, 2.43588127e-02, 4.23957035e-02,
          -9.63671952e-02, 1.48713756e-02, 7.17254821e-03,
          -3.34345289e-02, -5.91600202e-02, -4.01792973e-02,
          -2.73053516e-02, -2.38541886e-02, 7.75986072e-03,
          -8.61689355e-03, 6.14050813e-02, 3.30406353e-02,
          -3.11571602e-02, -3.91229391e-02, 7.91944936e-03,
          -2.44076680e-02, 6.81439508e-03, 4.04979251e-02,
          -8.13394934e-02, -5.62657323e-03, 5.07263979e-03,
          -6.46328181e-02, -1.95751861e-02, 6.60511851e-02,
          9.86350477e-02, 3.01587279e-05, 4.17013699e-03,
          -6.67390153e-02, 3.40176523e-02, 1.03866227e-01,
          2.49251872e-02, -2.01025903e-02, -4.62983698e-02,
          6.19064011e-02, -4.85683009e-02, -4.26801667e-02,
          -4.69088694e-03, 8.86703935e-03, -3.26261506e-04,
          -7.99665228e-02, -1.96813103e-02, 7.47322524e-03,
          2.32413094e-02, 7.19260843e-03, -2.33375337e-02,
          -9.34711173e-02, -7.46068312e-03, 2.78143957e-02,
          -1.27687529e-01, -5.91915064e-02, 6.33761361e-02,
          3.79275791e-02, -1.37369232e-02, -3.75993326e-02,
          -8.66694003e-03, 6.96577579e-02, 5.36344685e-02,
          -4.52789590e-02, 2.65547005e-03, 5.79330139e-02,
          -3.11421230e-02, 3.03414073e-02, 3.99822854e-02,
          -9.65913907e-02, -2.68197879e-02, 4.14571073e-03,
          -3.48228514e-02, -1.29578821e-02, -9.26787686e-03,
          2.50812825e-02, 3.27573121e-02, 6.18335977e-03, 1.10986233e-02,
          1.92604978e-02, 1.99609287e-02, -5.43003492e-02,
          -4.75286767e-02, -8.93672463e-03, -4.09074277e-02,
          3.54861431e-02, 2.18353476e-02, 4.12330590e-02,
          -4.15027477e-02, -1.36259235e-02, 4.74696383e-02,
          -2.03150325e-03, 1.45781673e-02, -5.24428338e-02,
          4.84897643e-02, 2.94512417e-02, 1.97730903e-02, 4.61527519e-03,
          -6.53030397e-03, 4.68345843e-02, 1.59942880e-02,
          4.12039272e-02, -4.54267189e-02, -2.42765024e-02,
          6.83533549e-02, 4.92226966e-02, -4.83222015e-04,
          3.99498753e-02, 7.26495013e-02, -8.05794075e-03,
          3.83483805e-02, -8.19321498e-02, -3.57123767e-03,
          7.75962882e-03, -1.00011695e-02, 2.81847380e-02,
          1.94313675e-02, -1.38039850e-02, -1.00117605e-02,
          1.73455533e-02, -5.78697771e-02, -4.75318655e-02,
          -9.73906834e-03, 2.22573970e-02, -1.04770402e-03,
          6.89886808e-02, -1.49447583e-02, 3.44863236e-02,
          7.23532960e-02, 3.28328200e-02, 1.47027746e-02, 3.64668034e-02,
          -1.15735307e-02, 2.61623468e-02, -1.01834070e-02,
          -4.74413708e-02, -1.04201138e-02, 6.84223920e-02,
          1.87732112e-02, 1.24090323e-02, 3.63660902e-02, 5.93436882e-02,
          2.37818528e-02, -2.13280413e-02, -3.55932601e-02,
          3.15583125e-02, -5.50385332e-03, 3.28380545e-03,
          1.44899951e-03, 4.11137380e-03, 3.05694598e-03,
          -1.38064818e-02, -1.09002655e-02, -2.97593214e-02,
          -1.35710323e-02, -3.95229571e-02, -1.58932973e-02,
          -1.73479542e-02, 3.97078134e-02, -2.05217674e-02,
          9.59813371e-02, 6.60162941e-02, 3.90262641e-02, 5.58329448e-02,
          3.44425440e-02, -3.60901766e-02, -5.41634485e-03,
          4.88251671e-02, 3.61395516e-02, 4.01239954e-02,
          -8.39737430e-02, -6.62345886e-02, 6.98434040e-02,
          -5.12585379e-02, -9.87944775e-04, -3.12375035e-02,
          5.01954406e-02, -5.53873479e-02, 1.36406004e-01,
          2.27130838e-02, -1.39907992e-03, 8.13394506e-03,
          -1.84974950e-02, -2.78055873e-02, -3.33458520e-02,
          4.77810837e-02, 3.06822080e-03, 4.07026112e-02,
          -1.22772530e-02, -1.84954014e-02, -3.62619781e-03,
          4.18812111e-02, 7.55811064e-03, 1.44565227e-02, 4.33804914e-02,
          -4.86281961e-02, -4.21537310e-02, -9.56865847e-02,
          -3.34210545e-02, -1.27413794e-02, 1.89778861e-02,
          -1.25277760e-02, -7.16927797e-02, 6.69458583e-02,
          -3.79963033e-02, 8.35691169e-02, 9.69638396e-03,
          3.38388770e-03, -4.61466750e-03, 5.81537113e-02,
          5.89505676e-03, -3.45036164e-02, 3.78141366e-02,
          4.65874858e-02, -3.92131507e-02, 2.33354084e-02,
          2.99988911e-02, 4.05556522e-02, 6.09812094e-03,
          -4.75711636e-02, 6.12350814e-02, -1.41602510e-03,
          5.42012602e-02, 8.09495430e-03, -7.34131560e-02,
          3.03336289e-02, 5.16842306e-02, -4.40531969e-03,
          -9.44257677e-02, -6.94714114e-02, -1.80892069e-02,
          1.13348782e-01, 7.69146457e-02, -1.14027234e-02,
          9.60948784e-03, -2.57054344e-02, 5.93894385e-02,
          -7.23165739e-03, -2.19997321e-03, 5.74371032e-02,
          9.11927894e-02, -4.11532111e-02, 1.54886320e-02,
          -2.71833241e-02, 2.53753215e-02, -1.95747651e-02,
          -1.67673416e-02, -1.76637247e-02, 8.73447806e-02,
          4.91201840e-02, 4.58130576e-02, -2.83975359e-02,
          1.94682786e-03, 1.46450279e-02, 1.05372944e-03,
          -3.41555290e-02, -7.82420933e-02, 1.29604740e-02,
          1.42639531e-02, -3.76241794e-03, -4.85841185e-02,
          -6.25493824e-02, 4.62260889e-03, 5.51231147e-04,
          7.34277070e-02, -3.60072311e-03, 4.71795946e-02,
          1.67569495e-03, 1.56228887e-02, -2.10795961e-02,
          5.04213385e-02, 3.47688459e-02, -5.31263947e-02,
          -3.65200154e-02, -7.29821250e-02, 5.74078597e-03,
          3.23635116e-02, 1.30239986e-02, -2.31439844e-02,
          -3.14743966e-02, 2.14264300e-02, 3.73967476e-02,
          5.55290356e-02, 3.83824222e-02, 5.39202988e-02, 1.04237050e-01,
          -8.25033989e-03, 2.89574303e-02, 6.85912836e-03,
          5.90675585e-02, 5.80547890e-03, -1.85408816e-02,
          -3.71956974e-02, -3.40531627e-03, -2.67104879e-02,
          1.12070233e-01, 4.17222641e-03, 3.20212878e-02,
          -4.76927869e-02, 3.97907048e-02, -1.95844788e-02,
          3.60972509e-02, 2.00158209e-02, 4.78082001e-02, 1.13599092e-01,
          1.66154653e-02, 2.21765880e-03, 8.17216337e-02, 1.62331259e-03,
          -4.76735458e-02, -1.44370794e-02, -8.60642642e-03,
          -1.53772105e-02, 2.83689741e-02, 8.42171442e-03,
          2.59101894e-02, -4.04684953e-02, 6.94782510e-02,
          -6.54758587e-02, -2.84294635e-02, 2.69783959e-02,
          8.14533513e-03, 9.06104147e-02, 3.09061613e-02, 9.85230878e-03,
          1.10787630e-01, 4.00285982e-02, -9.21768229e-03,
          -2.07406506e-02, -3.71636041e-02, 7.84868374e-02,
          5.27845807e-02, 3.28549109e-02, 9.95123461e-02, 6.45223483e-02,
          -3.74397309e-03, 9.42124426e-02, 1.04693428e-01,
          1.36960915e-03, -3.90036702e-02, 3.28016914e-02,
          6.81646466e-02, 5.04657514e-02, -1.09041482e-02,
          8.30110721e-03, -6.27562106e-02, -3.66422050e-02,
          3.30407582e-02, 7.36338049e-02, 5.04389927e-02, 1.20541207e-01,
          9.46499631e-02, 9.24517289e-02, -4.54276502e-02,
          -1.03593268e-03, 5.55084534e-02, 6.05680374e-03,
          -6.65797144e-02, -2.81323888e-03, 6.74947873e-02,
          -8.06769729e-03, -7.62476176e-02, -7.79914670e-03,
          4.15027440e-02, 2.35180221e-02, -3.39374393e-02,
          -1.03562931e-02, 1.52833583e-02, -1.92201566e-02,
          6.56173972e-04, -5.35613345e-03, -2.93517206e-03,
          -3.32892537e-02, 1.81306992e-02, 8.55101086e-03,
          3.45131755e-02, 1.94992032e-02, -4.22401093e-02,
          -4.30357121e-02, -5.49035408e-02, -2.37027984e-02,
          -3.67798866e-03, 1.52877874e-05, -7.00763389e-02,
          1.27027659e-02, 3.01452074e-02, 2.33765058e-02,
          -1.52820547e-03, 7.49844965e-03, 1.61522198e-02,
          -1.79425776e-02, 1.39500741e-02, -5.18193878e-02,
          4.46238779e-02, 2.33788989e-04, -5.43475756e-03,
          -1.17182769e-02, -4.28498015e-02, 1.69878267e-02,
          4.27725799e-02, 1.20495193e-01, -1.60845220e-02,
          -4.02760431e-02, -7.54718632e-02, 7.37107545e-03,
          1.90909933e-02, -1.69351343e-02, -2.34560184e-02,
          -3.93399000e-02, 2.99063772e-02, -5.50153255e-02,
          5.76701425e-02, -2.81249210e-02, -2.27320641e-02,
          -3.16856392e-02, 1.78087577e-02, -4.56021093e-02,
          3.05209439e-02, 4.24182750e-02, -9.09651816e-03,
          8.48182477e-03, -4.28644903e-02, -7.01133311e-02,
          6.03451803e-02, -4.97187711e-02, 5.64682391e-03,
          -9.71841509e-05, -4.68888227e-03, 2.57640640e-04,
          4.40139696e-02, -2.21896004e-02, -2.01228466e-02,
          -4.95179258e-02, 3.56601761e-03, -7.34456405e-02,
          -2.81089097e-02, -1.75069235e-02, 1.22359442e-02,
          9.17240083e-02, 3.19507569e-02, 2.80369222e-02,
          -1.19448088e-01, -6.41988143e-02, -5.42511567e-02,
          -5.86885214e-02, -4.80270498e-02, -5.16090030e-03,
          7.72330165e-02, -3.33063565e-02, 3.42451409e-02,
          -9.79672298e-02, -5.06960880e-03, 3.31012122e-02,
          -3.58982198e-02, 6.55436516e-02, 7.68727362e-02,
          1.41329020e-01, 3.32519896e-02, -3.25306021e-02,
          -4.35400158e-02, 1.68566909e-02, -2.85174157e-02,
          3.02529279e-02, -1.34691084e-03, 5.70981987e-02,
          9.66724753e-02, -4.64936830e-02, -6.52166829e-02,
          -4.84531559e-02, 7.91753754e-02, 2.82918778e-03,
          -2.12558936e-02, 1.62255503e-02, -9.49980039e-03,
          -2.82559507e-02, -6.18360601e-02, 6.19939379e-02,
          -2.37310436e-02, 6.19958201e-03, 1.51462499e-02,
          2.99749374e-02, 6.21117204e-02, 7.70519814e-03,
          -6.23429567e-02, 2.17906758e-03, 6.49394467e-02,
          1.39951268e-02, 7.68341050e-02, 2.40777731e-02,
          -1.28841642e-02, 1.11202393e-02, -3.38258073e-02,
          -4.96316366e-02, -4.87989075e-02, 1.25875473e-02,
          9.63880040e-04, 7.97398835e-02, -2.13214085e-02,
          -4.15859483e-02, 1.32680014e-02, -3.07698343e-02,
          -6.54736087e-02, 8.74591526e-03, 3.49277630e-02,
          5.17988428e-02, 4.64412682e-02, -3.75017598e-02,
          1.37840258e-02, 6.09856239e-03, -3.72284837e-02,
          -7.06051812e-02, 5.01421699e-03, -1.04821417e-02,
          -3.32262437e-03, 2.06972081e-02, -1.92484632e-02,
          -3.40610137e-03, -4.29261550e-02, 4.22937609e-02,
          1.35225244e-02, 1.46779018e-02, -3.53021286e-02,
          4.59572747e-02, 3.04829329e-02, -2.89338250e-02,
          4.58471030e-02, 5.63153774e-02, 3.54861245e-02,
          -1.47607345e-02, 3.97300050e-02, 2.61263289e-02,
          2.41605472e-02, 3.10816318e-02, 3.38857844e-02,
          -2.82930024e-02, 3.93249141e-03, 6.14999868e-02,
          1.12819420e-02, 5.52258268e-02, 3.59731019e-02, 2.37404983e-02,
          2.77283378e-02, -2.76477095e-02, 7.17148483e-02,
          -2.40302123e-02, 1.73433460e-02, -2.13433709e-02,
          -5.86034432e-02, -1.10746831e-01, -2.75471397e-02,
          -4.81551513e-02, 3.21697593e-02, 8.32976252e-02,
          -2.56646518e-02, -4.73156422e-02, -7.89167210e-02,
          -6.94826711e-03, 4.92955744e-02, 8.17841664e-03,
          -6.57615885e-02, 4.34296653e-02, -4.04943787e-02,
          -6.42073974e-02, -1.16738351e-02, -2.09443532e-02,
          -1.95989572e-02, -9.34708398e-03, -7.00258464e-02,
          1.34056462e-02, 2.16012131e-02, 4.97361820e-04, 7.34819695e-02,
          -2.78668031e-02, -3.11073195e-02, 5.49033992e-02,
          2.37035360e-02, 4.97531658e-03, 2.82316729e-02,
          -2.11946163e-02, -1.11660373e-03, -1.10314460e-03,
          -4.01416980e-02, -6.85197338e-02, 1.21104429e-02,
          1.16303274e-02, -2.76311617e-02, -3.31972018e-02,
          4.97385710e-02, -2.72473469e-02, -2.24658307e-02,
          1.89996716e-02, -1.43368468e-02, 8.18632022e-02,
          -5.85085072e-04, -1.51666328e-02, 2.96626445e-02,
          -2.48078573e-02, -4.04297933e-02, 3.33235115e-02,
          -4.83539924e-02, 1.25089358e-03, 4.11082916e-02,
          5.16508073e-02, 4.16176915e-02, 2.12097000e-02, 1.26428083e-01,
          -5.70316520e-03, -4.31350293e-03, 2.82316731e-04,
          1.29861273e-02, 9.39597040e-02, -2.50033643e-02,
          2.64293402e-02, 1.14396237e-01, -7.63270119e-03,
          -3.48119177e-02, -3.39634418e-02, 5.22779524e-02,
          -2.60028802e-02, -3.21943802e-03, -2.87647974e-02,
          1.02996854e-02, 1.42848846e-02, -5.94595028e-03,
          -5.20057185e-03, -4.97492552e-02, 6.37022033e-03,
          -4.26881500e-02, 8.35268870e-02, 3.64897139e-02,
          3.95049825e-02, -1.43339872e-04, 3.40942480e-02,
          -1.09489253e-02, -1.64806563e-03, 6.42637387e-02,
          3.76340467e-03, 6.60873130e-02, 2.81265322e-02, 4.55598943e-02,
          6.18936643e-02, 3.19590420e-02, -1.94379650e-02,
          -7.55064860e-02, -1.45798801e-02, 2.51871683e-02,
          1.17898032e-01, 7.91932940e-02, -5.39605506e-02,
          -2.42780074e-02, 3.85272019e-02, 8.66177231e-02,
          7.14620948e-02, 3.30305099e-02, 4.84219231e-02, 1.66860357e-01,
          4.61291112e-02, 1.78645030e-02, 5.58444439e-03,
          -5.81604056e-03, 5.27042104e-03, 3.23397368e-02,
          1.37258172e-02, 1.54167283e-02, 7.96144009e-02,
          -2.06061453e-02, 3.18472013e-02, 8.70196894e-03,
          1.77198630e-02, 1.21309571e-02, 7.86022097e-03, 1.67686809e-02,
          8.70134681e-02, 1.48185924e-01, 2.13208143e-02,
          -7.79356882e-02, -4.74473871e-02, -3.26352604e-02,
          -8.67004842e-02, 1.54977860e-02, 5.63823478e-03,
          7.36444537e-03, 7.29941670e-03, -1.46711115e-02,
          -8.11525211e-02, -6.72873557e-02, -5.39433165e-03,
          3.94534227e-03, 7.22628534e-02, 9.49321762e-02, 3.49542163e-02,
          9.57414880e-02, -3.92070934e-02, -4.18398827e-02,
          1.38023468e-02, -5.59598915e-02, 1.74398404e-02,
          2.64705829e-02, 8.77840519e-02, -2.64541376e-02,
          8.55088234e-02, 5.02002565e-03, -1.35877747e-02,
          -7.39221601e-03, -2.13892292e-02, -8.47239941e-02,
          2.06252430e-02, 9.15681198e-02, -5.64266928e-03,
          2.58903243e-02, 4.54944782e-02, -1.75696481e-02,
          1.82644762e-02, 6.43180758e-02, 2.70496774e-02, 6.26029167e-03,
          8.11320469e-02, 8.09686333e-02, -3.32766771e-02,
          -4.01902720e-02, 7.00916024e-03, 4.94223945e-02,
          -4.07309011e-02, -4.93732607e-03, -1.93895902e-02,
          3.70076299e-02, -5.32741137e-02, 3.32467929e-02,
          -4.47607860e-02, -6.95500597e-02, -1.61895659e-02,
          -5.43663744e-03, -1.17220525e-02, -8.93621054e-03,
          -7.94738880e-04, 4.25187945e-02, -1.70200225e-02,
          -2.87188999e-02, 1.74837075e-02, 3.95534411e-02,
          2.35332176e-03, -2.76799239e-02, -5.14713638e-02,
          3.77648249e-02, 3.67135741e-02, -5.20305261e-02,
          -9.76793915e-02, 2.40839384e-02, 2.03344058e-02,
          5.16079850e-02, -2.17038523e-02, -4.62658815e-02,
          -5.18189222e-02, 3.10726538e-02, -3.95812467e-03,
          2.83230375e-02, 3.09807584e-02, -2.76171006e-02,
          2.30424386e-02, -1.13716582e-02, 6.59809681e-03,
          9.11719911e-03, 2.32247710e-02, -3.82058956e-02,
          -3.14947218e-02, -2.96480339e-02, -2.83516720e-02,
          -4.38333377e-02, 2.85864696e-02, 2.54672952e-02,
          4.31486480e-02, 3.80180590e-02, -8.86982959e-03,
          1.26733221e-02, 1.05155356e-01, -4.29273359e-02,
          -2.87661199e-02, -1.78908911e-02, -3.91335115e-02,
          -2.85810120e-02, 1.27453795e-02, -1.60356518e-02,
          -2.98226215e-02, -2.02938356e-03, -5.63769415e-02,
          5.14987186e-02, 6.37153089e-02, -3.42799872e-02,
          3.98860984e-02, 6.48197308e-02, 2.24476866e-02, 6.69625178e-02,
          9.88815799e-02, 6.11690059e-02, -6.70257732e-02,
          -1.10237915e-02, -5.63208535e-02, -1.68274844e-03,
          1.76856993e-03, 1.36235980e-02, 3.57458107e-02, 5.91222346e-02,
          -5.02954982e-02, 5.80035411e-02, 3.08510009e-03,
          -2.30732206e-02, -2.49059610e-02, 1.86982248e-02,
          -1.48125840e-02, 6.42521530e-02, 7.48706758e-02,
          1.13056511e-01, 2.82479674e-02, -4.33181152e-02,
          -3.87934335e-02, 5.05292751e-02, 6.05448373e-02,
          3.49994116e-02, -9.94523056e-03, 2.47913785e-02,
          -5.22464290e-02, -2.29061916e-02, -2.67100874e-02,
          -4.11715284e-02, 1.28950030e-01, 5.71104586e-02,
          7.30154291e-02, 6.42292127e-02, 5.40213771e-02,
          -1.73570216e-02, 2.27892753e-02, -9.67953727e-03,
          2.40041725e-02, 5.25645986e-02, 5.72100617e-02, 7.21720681e-02,
          9.77425184e-03, -1.46241030e-02, -2.15165243e-02,
          -2.96272039e-02, -3.95568721e-02, 3.69296339e-03,
          2.22755522e-02, -1.17359229e-03, 6.73660487e-02,
          -4.40226346e-02, -1.59474537e-02, -1.69044919e-02,
          -4.23918664e-02, -1.30258147e-02, -2.24636197e-02,
          1.52869038e-02, 6.14196956e-02, 2.25695223e-02,
          -2.80685797e-02, 2.65104752e-02, -8.31396803e-02,
          -1.43234758e-02, -2.29978114e-02, -3.75617594e-02,
          -3.94045934e-02, -5.50312661e-02, 3.04701142e-02,
          -2.15414073e-02, -3.07089891e-02, 4.63464763e-04,
          4.70433682e-02, -3.30599472e-02, -1.84180681e-02,
          3.41770649e-02, 9.69489962e-02, 7.18156844e-02, 7.77531564e-02,
          3.31723429e-02, 7.34718889e-02, -1.18302926e-02,
          2.32680663e-02, -1.46274753e-02, 3.93521599e-02,
          -2.15596566e-03, 1.35839447e-01, 7.18815699e-02,
          -7.04348758e-02, -2.92234812e-02, 3.98496538e-02,
          1.60839166e-02, -1.05753299e-02, -6.68075541e-03,
          5.27118258e-02, 8.43011439e-02, -6.74494589e-03,
          -3.65812331e-02, 5.13445176e-02, -2.26155040e-03,
          3.15302573e-02, 3.91924847e-03, 4.05457318e-02,
          -4.59407317e-03, 1.74948171e-01, 2.93682795e-02,
          -4.06450732e-03, 3.24904919e-02, -2.60980278e-02,
          -4.14526730e-04, -4.81132418e-02, -2.47411802e-02,
          -2.29489673e-02, 4.32094336e-02, 4.59447056e-02,
          -1.58823431e-02, 1.45104444e-02, -1.16438204e-02,
          5.96626773e-02, -2.59174779e-02, 5.55046797e-02,
          3.12541351e-02, 2.81786527e-02, 5.96441664e-02, 9.88764986e-02,
          -1.96631830e-02, 4.93854582e-02, 5.19022997e-03,
          -3.80886123e-02, 2.14329679e-02, -2.76917834e-02,
          4.56805937e-02, 4.87192124e-02, 3.21057774e-02, 6.04733787e-02,
          3.36841010e-02, 3.90601270e-02, 1.74633134e-03, 4.31133136e-02,
          -6.16182536e-02, -2.59590689e-02, 5.05900569e-02,
          1.84810869e-02, -2.74190167e-03, -4.31614965e-02,
          1.04458503e-01, -7.35456869e-02, 1.59266051e-02,
          3.91853414e-03, -9.00345966e-02, 1.44292004e-02,
          4.11964133e-02, -8.94286856e-02, 4.54753488e-02,
          2.90110055e-02, -9.52067450e-02, -6.74160942e-03,
          2.33040582e-02, -9.13044438e-02, 6.06607571e-02,
          2.97758561e-02, 1.00909779e-02, -1.21196970e-01,
          5.50171407e-03, -4.32619043e-02, 5.87550402e-02,
          -6.58915518e-03, -7.59878680e-02, -5.54917976e-02,
          2.96864603e-02, -5.12313396e-02, -5.12032909e-03,
          4.75358889e-02, -3.83520611e-02, 4.89067007e-03,
          1.72603149e-02, -1.09673627e-01, 1.10153873e-02,
          3.01090460e-02, 1.45195359e-02, -3.20990868e-02,
          -3.90391774e-03, -6.15543546e-03, 6.50344975e-03,
          6.20499998e-02, -2.36974400e-03, 5.50608011e-03,
          2.52199918e-02, -4.44540307e-02, -4.41317782e-02,
          1.93437263e-02, -3.56048666e-04, -4.22455296e-02,
          1.17722966e-01, -1.53774796e-02, -6.32643700e-02,
          -1.92123391e-02, 6.92120427e-03, -1.23074306e-02,
          -1.52330669e-02, -2.44506653e-02, -4.57327552e-02,
          9.97934490e-03, -4.05421518e-02, -1.20400721e-02,
          -4.86988872e-02, -6.58194572e-02, 1.28522590e-02,
          2.95509417e-02, 3.92519012e-02, 2.11673286e-02, 1.24937043e-01,
          6.64788857e-02, 3.60679068e-02, 3.18989187e-04, 2.90601607e-02,
          -9.06502157e-02, -1.43037848e-02, -2.22841743e-02,
          -1.26634628e-01, -8.69858116e-02, -5.30688092e-02,
          -2.42393501e-02, 2.36246567e-02, 1.57929379e-02,
          3.20983380e-02, -2.04836633e-02, 2.79923063e-02,
          -2.97755338e-02, -4.83466499e-02, -3.56529243e-02,
          -4.41713519e-02, -3.38500068e-02, 6.95339069e-02,
          -4.85534072e-02, -1.52511764e-02, -2.03984678e-02,
          -1.30815180e-02, -7.35431910e-02, 8.40363465e-03,
          -2.02477258e-02, 9.97511391e-03, 4.24135700e-02,
          1.16914175e-02, 5.82749664e-04, -4.03570831e-02,
          -1.52087864e-02, -5.43468446e-02, -2.86046136e-02,
          2.08282769e-02, 4.33497578e-02, 6.39060885e-02,
          -2.18958780e-02, 5.35220727e-02, 1.78154558e-03,
          -8.63327924e-03, -7.70784914e-02, -5.17429188e-02,
          -1.07318396e-02, -6.48614392e-02, -1.68936439e-02,
          -2.53320020e-02, 2.62658428e-02, -6.46936102e-03,
          3.87062319e-03, -3.71522047e-02, 3.69684212e-02,
          5.46078607e-02, -7.14102834e-02, -5.77049609e-03,
          -2.13528853e-02, 6.39537955e-03, -7.86568224e-02,
          -8.71807933e-02, -1.18217506e-01, -9.54388231e-02,
          -1.46964923e-01, -5.18633425e-02, 2.14822292e-02,
          -2.34335102e-02, 4.13149074e-02, -6.42415658e-02,
          -3.50639559e-02, -6.40191510e-02, 1.48906577e-02,
          -6.19593561e-02, -8.05418286e-03, -6.00178959e-03,
          1.26701258e-02, -6.52942583e-02, -4.87492569e-02,
          -4.87120822e-03, 1.52614817e-03, 2.98077390e-02,
          2.78631654e-02, -9.44598168e-02, -1.23501858e-02,
          -7.71563966e-03, -4.12514545e-02, 2.60067023e-02,
          -8.11643898e-02, -5.48911048e-03, 5.10186367e-02,
          1.59498639e-02, -3.22394855e-02, -3.64119895e-02,
          6.99557140e-02, 4.01804864e-04, -7.34453509e-03,
          -6.01287633e-02, -2.29243450e-02, -1.03901615e-02,
          -7.20288679e-02, -3.82979438e-02, 1.81853096e-03,
          3.91806886e-02, 4.22733426e-02, 4.75550219e-02,
          -6.44185543e-02, 2.43141521e-02, 2.47796229e-03,
          -6.48669451e-02, -4.62984778e-02, -2.76662270e-03,
          -4.47478369e-02, 2.64455397e-02, 6.00051209e-02,
          -5.22999279e-03, -4.16882299e-02, 2.65364144e-02,
          -2.80681346e-02, -2.16969233e-02, 4.99516143e-04,
          2.91796513e-02, 1.57094635e-02, 4.00566235e-02, 5.88554405e-02,
          3.39567550e-02, 9.20402482e-02, 3.41056264e-03, 1.76243316e-02,
          1.74874049e-02, -1.27777318e-02, 7.21182267e-04,
          6.29942268e-02, -6.07997477e-02, -9.80848297e-02,
          -8.31905082e-02, -4.20346409e-02, -9.07945856e-02,
          1.06333662e-02, -1.38512449e-02, -4.76288646e-02,
          2.72472501e-02, 1.15589174e-02, -3.41773406e-02,
          3.86022567e-03, -3.45449410e-02, -3.51202041e-02,
          -4.08894208e-04, 8.27639713e-04, -2.29579080e-02,
          -7.87027471e-04, 3.69398296e-02, -2.46232208e-02,
          1.16191208e-01, 3.80128399e-02, 2.59744637e-02,
          -4.65218574e-02, -2.77337674e-02, 1.81931965e-02,
          6.35525445e-03, 1.52686946e-02, -4.47933301e-02,
          4.14470471e-02, 7.30824471e-02, -1.95248276e-02,
          -7.10386559e-02, 2.47777253e-03, -2.08869074e-02,
          6.93882480e-02, -1.04484139e-02, -5.07521294e-02,
          2.90850401e-02, 1.00015011e-02, -2.38175634e-02,
          -1.27925752e-02, 2.78127864e-02, 8.53812993e-02,
          7.89142847e-02, 4.44523431e-02, -8.76868442e-02,
          -2.33038273e-02, 2.56976932e-02, -5.39914146e-02,
          -4.87595275e-02, -3.90741602e-02, 1.44833690e-02,
          1.21887270e-02, 5.03640063e-02, 3.37545872e-02, 4.10375595e-02,
          9.30866599e-03, -6.51394352e-02, -6.87355623e-02,
          -3.96130942e-02, -1.04303896e-01, -2.63741128e-02,
          -1.11548789e-02, -3.68551277e-02, -1.28371688e-02,
          -1.30746476e-02, -3.56784910e-02, -6.77016154e-02,
          2.24464722e-02, 3.70415822e-02, 1.23737164e-01, 4.02280428e-02,
          -1.80184084e-03, 1.20043997e-02, -4.62390855e-02,
          -4.95757908e-02, 8.56951848e-02, 4.26546037e-02,
          -3.80308507e-03, -3.79540995e-02, -1.63212791e-02,
          -5.21479510e-02, -4.14846763e-02, -6.18717223e-02,
          -2.54043825e-02, 1.17282763e-01, 9.56377573e-03,
          -7.22547621e-02, -7.55143352e-03, 8.18333924e-02,
          1.16733266e-02, -1.92552954e-02, 3.62149626e-02,
          2.09538396e-02, 2.07125228e-02, -1.43953897e-02,
          -3.52985226e-02, -8.22902024e-02, 2.80292965e-02,
          -1.31259300e-02, -5.28887883e-02, -1.69675164e-02,
          1.30638818e-03, 3.83721590e-02, 5.53112291e-02, 2.73240842e-02,
          -8.52974784e-03, 1.64264850e-02, -1.39050130e-02,
          -2.20894516e-02, -2.03178823e-02, 6.44908547e-02,
          1.20505184e-01, -1.42465811e-02, -4.54573035e-02,
          -7.17926621e-02, -2.28383895e-02, -4.03315164e-02,
          -3.52955721e-02, 1.01912757e-02, -3.49578261e-02,
          3.60446759e-02, 4.27508727e-02, 3.23823020e-02,
          -9.71171856e-02, 7.49257114e-03, 5.89468777e-02,
          -6.20794147e-02, -2.24083122e-02, 1.39352363e-02,
          8.02006871e-02, 1.05486028e-02, 1.00775929e-02,
          -8.75255018e-02, -4.46644798e-02, 5.31987250e-02,
          -2.03161165e-02, 1.25939166e-02, 1.99544779e-03,
          -6.07784316e-02, -1.21409018e-02, -2.34756917e-02,
          -7.43331388e-02, 2.44989637e-02, 5.46506159e-02,
          -4.77102026e-02, 3.60901915e-02, -5.05099408e-02,
          3.67276445e-02, -2.46141339e-03, 1.47101125e-02,
          -3.72692756e-02, -1.94597244e-02, 6.70507550e-02,
          -7.41648674e-03, 5.38218915e-02, -5.43267541e-02,
          1.21122901e-03, -5.11847064e-02, -4.31513004e-02,
          -8.08938667e-02, 1.85196903e-02, 4.21179831e-02,
          3.81408855e-02, -2.01468989e-02, 8.47542007e-03,
          -6.99429736e-02, -4.45970567e-03, 4.88489354e-03,
          -1.44987914e-03, 1.52716273e-02, -2.24452466e-02,
          3.17165479e-02, -3.33001395e-03, 4.86987978e-02,
          -1.23042380e-02, -7.20640793e-02, 8.76676105e-03,
          -4.14150879e-02, -1.22238686e-02, 1.19065428e-02,
          5.72171882e-02, 2.29400992e-02, -2.83605866e-02,
          -1.21773250e-01, 2.66550146e-02, 7.22475536e-03,
          3.90364006e-02, 3.90483364e-02, -5.58316591e-04,
          3.40983011e-02, -7.18555588e-04, 5.11946976e-02,
          1.65971108e-02, 1.68372784e-02, 4.71340551e-04,
          -4.80382405e-02, 1.96352955e-02, -2.52267756e-02,
          1.04536694e-02, -4.36026454e-02, -9.64788627e-03,
          -2.43726522e-02, 4.22717445e-03, -2.13006921e-02,
          -5.88385053e-02, 6.06904440e-02, 2.09444351e-02,
          7.49438852e-02, 7.18820468e-02, 7.85290897e-02, 1.16904173e-02,
          -2.86347251e-02, -4.14777473e-02, 6.61992729e-02,
          -9.34867095e-03, -2.73564942e-02, -1.14024449e-02,
          -9.52903926e-02, -7.36025255e-03, 1.17935138e-02,
          4.54400666e-02, 1.19250314e-02, 5.10648377e-02, 3.02619170e-02,
          6.25878423e-02, 1.49278175e-02, -2.67503923e-03,
          -5.34761697e-03, 4.41008843e-02, -3.56235937e-03,
          -1.79261416e-02, -7.08798645e-03, 8.19780901e-02,
          7.03762248e-02, 7.54461959e-02, 4.30056453e-02, 9.23036132e-04,
          -4.29438464e-02, -6.24171309e-02, 1.80017874e-02,
          -1.56112071e-02, -7.41565274e-03, -8.55087638e-02,
          2.57534422e-02, -7.58037483e-03, -1.07106432e-01,
          -6.09697998e-02, -3.85120027e-02, -2.67467592e-02,
          1.60671994e-02, 1.36073217e-01, -2.06606556e-02,
          1.00549452e-01, -1.09175080e-02, -5.54711074e-02,
          -9.14437771e-02, 3.76432668e-04, -3.09292264e-02,
          -3.15953568e-02, 3.15103494e-02, 9.72555857e-03,
          7.95940608e-02, -5.33086620e-02, -6.86797649e-02,
          -4.48423363e-02, 3.89305353e-02, 8.67747739e-02,
          -5.53219840e-02, -3.47543694e-02, 3.21355574e-02,
          7.31346756e-02, -2.12766510e-02, -7.16451183e-02,
          1.23181203e-02, 5.53297251e-02, 8.78498629e-02, 3.29035938e-05,
          1.40529610e-02, -7.18513802e-02, 8.26137885e-02,
          -5.25426492e-02, -2.42448114e-02, 8.69428273e-03,
          1.13479206e-02, -1.48394844e-02, -2.31547225e-02,
          3.82820256e-02, 1.72612324e-01, 1.17041446e-01,
          -5.36042154e-02, -4.19419743e-02, -4.47360277e-02,
          1.46554522e-02, -8.68508499e-03, 3.41005507e-04,
          6.37594610e-02, -2.89543383e-02, 5.82262017e-02,
          -7.72904083e-02, -3.33861485e-02, -6.98967949e-02,
          7.65489116e-02, 4.68009226e-02, 8.62043574e-02, 5.67077100e-02,
          2.95303632e-02, 3.61335799e-02, 8.90354812e-03,
          -2.66789813e-02, 5.75281009e-02, -5.66394925e-02,
          -7.17188464e-03, 3.25929304e-03, 3.29977348e-02,
          2.59144902e-02, 7.54649267e-02, 9.32501256e-02, 2.22069374e-03,
          -5.89215755e-02, 8.90992582e-02, 1.07210623e-02,
          2.98243985e-02, 7.98551738e-02, 6.91628158e-02, 5.95916845e-02,
          3.15024471e-03, -4.85813729e-02, 1.44951865e-02,
          -4.48001869e-04, 2.85165161e-02, 4.81915623e-02,
          -4.72268648e-03, -6.37051240e-02, 5.74252382e-02,
          -2.80183852e-02, -1.47601962e-02, -4.63382453e-02,
          -3.48027237e-02, 3.93799460e-03, -3.15723941e-02,
          3.66477184e-02, 1.11793857e-02, 4.47190329e-02, 8.46974254e-02,
          -4.85027954e-03, -2.50197612e-02, -2.49177199e-02,
          -1.43122822e-02, -4.76363003e-02, -4.27191965e-02,
          -1.72256008e-02, -5.30068167e-02, 9.77027696e-03,
          -8.87355655e-02, 5.23750037e-02, -1.42359259e-02,
          -3.13294046e-02, 2.15010550e-02, -6.85291085e-03,
          -9.21258330e-02, 9.47692841e-02, 4.74212803e-02,
          9.14698374e-03, 2.21852157e-02, -1.05725043e-02,
          -7.54957646e-02, -6.23075888e-02, -2.50229388e-02,
          -3.56904641e-02, 5.37895449e-02, 1.53756961e-01,
          4.51718494e-02, -2.62778737e-02, -3.04802191e-02,
          -1.12211742e-02, 8.90245289e-02, -1.24414917e-02,
          -6.37052720e-03, -5.03392443e-02, -1.94167159e-02,
          -5.91116622e-02, -4.78248997e-03, 1.87969413e-02,
          -3.49820442e-02, 6.99192286e-02, -1.31471083e-02,
          9.77310091e-02, 3.87950167e-02, 1.14818439e-01, 7.69804120e-02,
          6.18938357e-02, -4.07892466e-02, -7.26645291e-02,
          -2.53359228e-02, -4.28381599e-02, -4.24126834e-02,
          5.87725313e-03, 1.22143090e-01, 5.17382957e-02,
          -5.92316799e-02, 6.71395240e-03, 1.71637181e-02,
          5.49901910e-02, -4.23353016e-02, 1.43795954e-02,
          1.46011952e-02, 1.08134516e-01, 7.83661455e-02, 4.04041586e-03,
          -2.33866405e-02, -3.36437933e-02, 1.45161655e-02,
          -2.06662659e-02, -2.68055336e-03, 5.23798577e-02,
          7.62486681e-02, 1.49224130e-02, 6.18560426e-02, 1.15945131e-01,
          1.04075642e-02, -1.83290169e-02, -7.80290291e-02,
          -1.20534580e-02, 1.85221750e-02, 8.91587958e-02,
          1.03337459e-01, 7.40528852e-02, 1.95907447e-02, 1.67565793e-02,
          6.44138530e-02, -5.33863381e-02, -1.76413599e-02,
          -5.99568896e-02, 6.66676760e-02, 4.71521392e-02,
          3.85969430e-02, 1.73279531e-02, 6.87076822e-02, 4.26190794e-02,
          -1.15440078e-01, 2.36742422e-02, -1.12167478e-01,
          -3.73503715e-02, -4.36950810e-02, 9.74927563e-03,
          -6.43313825e-02, 1.17368661e-02, -2.91330833e-02,
          -8.54823440e-02, -7.75414333e-02, -3.26407626e-02,
          -3.90029848e-02, -1.53012471e-02, -3.46981473e-02,
          -9.44310725e-02, -2.61451434e-02, -2.20352672e-02,
          -7.92076662e-02, -2.29053535e-02, 5.41634820e-02,
          -2.26496402e-02, 3.48156877e-02, -2.10563652e-02,
          -5.31058908e-02, 4.11637239e-02, 5.18991463e-02,
          -1.06161214e-01, -2.60106940e-02, -5.56458756e-02,
          -1.00932360e-01, -9.43570212e-02, -2.30023619e-02,
          -5.42183146e-02, 4.40993570e-02, 2.84776483e-02,
          -1.13711081e-01, -2.29925923e-02, 2.11125351e-02,
          -2.21185535e-02, -6.54964820e-02, 4.06383947e-02,
          -1.32057548e-01, -7.25543424e-02, -7.22003877e-02,
          -1.25302061e-01, -5.53033389e-02, -1.38423489e-02,
          -4.25998867e-02, 3.31497239e-03, -4.63054441e-02,
          -3.93409580e-02, 4.63644462e-03, -6.10720366e-03,
          -4.20228131e-02, 2.87616793e-02, -4.76666838e-02,
          -3.04326136e-02, -7.13732932e-03, -6.96975440e-02,
          -4.28538024e-02, -1.33911110e-02, -3.77040319e-02,
          -1.54054135e-01, -2.56429948e-02, -3.45807485e-02,
          -6.87724128e-02, -5.14756180e-02, 7.93739408e-02,
          7.96007644e-03, -1.58513349e-03, 1.50394440e-02,
          -7.62112141e-02, 7.80320317e-02, -2.48539038e-02,
          3.42588946e-02, 7.21968338e-02, 7.71337152e-02,
          -3.70821655e-02, -4.09124196e-02, -3.13992463e-02,
          -5.91059886e-02, -3.54337357e-02, -8.80371481e-02,
          -1.90990232e-02, -6.55983910e-02, 1.83351897e-02,
          -6.71772808e-02, -6.08592406e-02, -2.18473896e-02,
          3.75395152e-03, -2.33021509e-02, -5.35281710e-02,
          -6.68737441e-02, -6.30600750e-02, 2.21332777e-02,
          3.80853824e-02, -3.56057729e-03, 3.36425088e-04,
          -6.72923401e-02, -8.47980904e-04, 1.11863567e-02,
          2.73676589e-02, 9.78804380e-03, 3.21867429e-02, 1.85228791e-02,
          -1.09880939e-02, -1.66255590e-02, -2.05371883e-02,
          2.50316802e-02, -2.04124860e-02, 6.52995277e-06,
          -4.42839935e-02, -5.29246288e-04, -2.43864637e-02,
          1.32586993e-02, 3.98364365e-02, -3.25102061e-02,
          -6.91534206e-02, 2.39547659e-02, 6.45685419e-02,
          4.30067517e-02, 4.52597626e-02, -2.92621385e-02,
          -1.73368456e-03, 7.77804467e-04, -5.46535961e-02,
          -9.21318680e-02, -2.14173198e-02, 4.30024005e-02,
          8.24832395e-02, -5.11713363e-02, 2.28104088e-02,
          2.42225807e-02, -9.94575955e-03, 2.35712510e-02,
          2.18444746e-02, 3.48951407e-02, 3.74145582e-02, 2.28795223e-03,
          1.47992587e-02, -2.87933778e-02, -2.83746440e-02,
          -2.44914107e-02, -4.31944914e-02, 1.58171318e-02,
          1.05563765e-02, 3.70856188e-02, -1.00556004e-03,
          2.02579889e-02, 6.97483961e-03, 6.38275668e-02, 7.67849311e-02,
          4.06097434e-02, -1.14252334e-02, 3.16179171e-02,
          5.89745007e-02, 3.61138321e-02, -1.30507313e-02,
          1.22703081e-02, 3.64184752e-02, 6.01143576e-02, 2.25772858e-02,
          -1.39854103e-02, -2.56697163e-02, 2.89469026e-02,
          5.08848615e-02, 2.36782338e-02, -4.69647460e-02,
          4.46401276e-02, 8.59851167e-02, 4.91122827e-02,
          -7.31253922e-02, -2.69579561e-03, 5.76420017e-02,
          -1.10247815e-02, 2.79013477e-02, -5.97692654e-02,
          5.03157340e-02, 7.84741640e-02, 5.93193732e-02,
          -4.08504717e-02, -5.68763912e-03, 8.26922655e-02,
          2.57681794e-02, 2.31131539e-02, -1.65919922e-02,
          -2.70168725e-02, 3.34898829e-02, 2.58471686e-02,
          -2.39224676e-02, -7.16374954e-03, 3.81258763e-02,
          4.37736176e-02, -3.78429294e-02, -2.38401275e-02,
          1.60218403e-03, 1.85303707e-02, 1.03039611e-02, 2.19846815e-02,
          -2.89110038e-02, -3.01830703e-04, 4.13598353e-03,
          1.90294236e-02, -1.06503882e-01, -5.94013333e-02,
          4.46272679e-02, 5.97485974e-02, -2.64967903e-02,
          6.63158074e-02, 4.72324006e-02, 1.67071596e-02,
          -6.68517202e-02, -5.10234833e-02, -3.64964940e-02,
          2.18357295e-02, 8.46551545e-03, 3.18494737e-02,
          -4.21166979e-02, -5.11798151e-02, -2.19946895e-02,
          2.72270385e-02, 5.34083471e-02, -3.99030074e-02,
          3.01460885e-02, 3.44006121e-02, 7.64258578e-02,
          -3.02959811e-02, 1.32441509e-03, 1.43151237e-02,
          2.14757938e-02, 8.45704600e-03, 5.06472327e-02, 5.85443340e-02,
          -7.54923467e-03, 6.01260178e-02, -2.86044530e-03,
          3.22768502e-02, 1.18873306e-02, -4.16697487e-02,
          8.31089914e-03, -1.58090740e-02, -1.13315480e-02,
          7.94579368e-03, 3.55831906e-02, -7.75464922e-02,
          -4.85236906e-02, -1.89563390e-02, 9.17978808e-02,
          -5.44682220e-02, 1.02541884e-02, 4.91771176e-02,
          2.32867263e-02, 4.10811454e-02, -6.06538542e-02,
          -3.98141108e-02, -4.20651808e-02, 2.22928114e-02,
          -6.22273535e-02, 4.69347611e-02, 1.00191655e-02,
          -3.49140354e-02, -1.92956273e-02, 4.31188978e-02,
          3.29842940e-02, 4.43617590e-02, -5.09500206e-02,
          -2.38165520e-02, 3.14616598e-02, -4.27588746e-02,
          2.50416133e-03, -4.48203832e-02, 1.07686864e-02,
          9.24013481e-02, 7.37181455e-02, -1.47062319e-03,
          -2.42545959e-02, -9.59690567e-03, 1.29977353e-02,
          -3.50470170e-02, -2.91842734e-03, -8.70489702e-03,
          -9.68221277e-02, -2.74416301e-02, 2.98826350e-03,
          -3.57602052e-02, 2.39401739e-02, 1.59730930e-02,
          3.91700491e-02, 4.45882492e-02, 9.97192226e-03, 4.39244509e-03,
          -2.12626215e-02, 6.67833665e-04, -2.97841094e-02,
          -1.01650953e-01, -1.75952055e-02, 4.15407531e-02,
          -1.85215306e-02, 3.43142264e-02, -2.97726486e-02,
          6.03655018e-02, 7.28101050e-03, 2.58027930e-02,
          -2.59511806e-02, 2.27592960e-02, 5.53685725e-02,
          9.11667049e-02, 9.04836059e-02, 3.56130004e-02, 6.01821467e-02,
          5.67205995e-02, -8.89785141e-02, -5.66230677e-02,
          -3.48894075e-02, -3.12374420e-02, -1.06883347e-02,
          2.29458064e-02, -8.83256830e-03, -4.02057283e-02,
          -3.24913561e-02, 7.66394064e-02, 4.02900577e-02,
          1.99992508e-02, -6.79948106e-02, -2.08099522e-02,
          2.80314777e-02, 1.98799707e-02, 4.25209925e-02, 1.89785566e-02,
          -5.10911085e-03, 4.37663868e-03, 7.63928844e-03,
          -5.10029960e-03, -5.30942492e-02, 1.11495862e-02,
          -3.14664538e-03, 2.84385355e-03, -5.45209786e-03,
          6.70052413e-03, 3.65991355e-03, 2.86237691e-02,
          -3.18329223e-03, 9.83953127e-04, 8.26706819e-04,
          -4.82219970e-03, -1.14945211e-02, -8.28775764e-03,
          -2.06402913e-02, -2.37000757e-03, 3.71686071e-02,
          -2.12882608e-02, 8.35614931e-03, -1.86650902e-02,
          -3.34356092e-02, 1.54288504e-02, 1.26259374e-02,
          -2.73484569e-02, -3.46413888e-02, 6.19180389e-02,
          -6.21430110e-03, 2.31893510e-02, -7.16449916e-02,
          -9.10496414e-02, -4.60313745e-02, -1.88851655e-02,
          2.96964832e-02, 1.97335407e-02, 1.67309251e-02, 1.60482563e-02,
          5.00698090e-02, -1.30858005e-03, -8.82707909e-03,
          -7.54076149e-03, 2.37424932e-02, 2.56734174e-02,
          -2.58011576e-02, -4.99080941e-02, -2.52821706e-02,
          2.86605698e-03, -1.06462650e-02, -3.71588883e-03,
          1.34048946e-02, 4.94714603e-02, 3.21529880e-02, 3.12327426e-02,
          5.47901094e-02, 7.80998217e-03, 4.11784388e-02,
          -3.22461091e-02, -4.67483513e-02, -2.43696403e-02,
          4.24410552e-02, 7.86169898e-03, -1.17630912e-02,
          4.85148169e-02, -4.40315390e-03, -2.95971241e-02,
          -3.35547444e-03, 3.63506079e-02, -2.77757458e-02,
          2.26828307e-02, 4.28594202e-02, -1.10460846e-02,
          -7.46566355e-02, -3.46637554e-02, -5.95350899e-02,
          -1.51115190e-02, -1.14403451e-02, 1.45847751e-02,
          7.08593130e-02, 6.80500716e-02, 5.18241823e-02,
          -2.05145422e-02, 5.90987562e-04, 1.62561168e-03,
          -1.81581546e-02, -2.20955405e-02, 9.52109974e-03,
          4.78081815e-02, -5.53552210e-02, 2.56644506e-02,
          -8.07405710e-02, -3.84758860e-02, 1.32596074e-03,
          2.48222589e-03, 5.65503947e-02, -3.66054997e-02,
          -1.58312898e-02, 4.04852591e-02, -9.78846923e-02,
          1.00549487e-02, -1.48587704e-01, 1.04868449e-02,
          -2.30204556e-02, -1.11249976e-01, -2.85552796e-02,
          6.68676570e-02, 4.83191349e-02, 2.93435045e-02,
          -4.16692980e-02, -7.19525805e-03, -1.73736569e-02,
          -1.24028930e-02, -3.15863118e-02, -2.64529535e-03,
          1.03272847e-03, 2.75713298e-02, 5.05549461e-02,
          -2.18994673e-02, 1.56077847e-03, 2.19723005e-02,
          -3.45254643e-03, 1.81743894e-02, 1.17059145e-03,
          3.69662838e-03, 3.02808806e-02, -3.29540223e-02,
          -2.54766941e-02, -2.79802885e-02, 4.57390659e-02,
          1.42628988e-02, -6.82522207e-02, 2.20993608e-02,
          2.70874854e-02, 5.32509871e-02, -5.77657064e-03,
          3.24666686e-02, -4.41031866e-02, -1.25720412e-01,
          -3.41704637e-02, -4.86644395e-02, 2.78444379e-03,
          -1.56086078e-02, 1.41215967e-02, -3.67227420e-02,
          -6.73725978e-02, 1.97062865e-02, 8.12794641e-03,
          -7.06624798e-03, -1.10998834e-02, 3.77058028e-03,
          -1.27936425e-02, -2.24518962e-02, 6.60862923e-02,
          2.17543021e-02, 1.06350007e-03, 1.86266769e-02,
          -1.03952261e-02, -5.17063104e-02, 1.19856093e-02,
          -5.25735207e-02, -2.93152053e-02, -4.63736951e-02,
          5.78612201e-02, -2.74944939e-02, -2.63576973e-02,
          -2.90999264e-02, -5.05519798e-03, 1.98860541e-02,
          6.81217294e-03, 6.31137267e-02, 5.95564023e-02, 7.27615282e-02,
          -8.41388293e-03, 1.03262458e-02, -5.11894524e-02,
          3.14924233e-02, 1.76612474e-02, 1.75833702e-02, 5.00570647e-02,
          7.89390951e-02, 2.41476633e-02, 2.44365353e-03, 4.50291671e-02,
          -1.12481201e-02, -6.44747466e-02, 2.78892610e-02,
          1.83890704e-02, 1.51941990e-02, 7.86818787e-02, 2.08298713e-02,
          -1.05623703e-03, 1.23621728e-02, -1.78946229e-03,
          -9.31116045e-02, -1.54795414e-02, 1.07757864e-03,
          -1.09496471e-02, 1.62399840e-02, -7.55989458e-03,
          -2.46331352e-03, -1.06902262e-02, -4.94231544e-02,
          1.50656840e-02, 5.55972382e-02, -3.36022228e-02,
          -1.70838218e-02, -4.13079448e-02, 4.35441844e-02,
          -3.14490346e-04, -2.88096331e-02, 1.27324155e-02,
          -3.52918915e-02, 5.00888424e-03, 1.82474311e-02,
          2.89061721e-02, 3.75496596e-03, -5.82696609e-02,
          -2.67381128e-02, -2.48992704e-02, -3.23819637e-04,
          -2.38409024e-02, 2.52605658e-02, -8.91426764e-03,
          -2.56666411e-02, 2.43813153e-02, -6.94204271e-02,
          -4.72055608e-03, -2.25141495e-02, -2.61245132e-03,
          -2.54868064e-02, 1.04873879e-02, -2.76279468e-02,
          4.09018900e-03, 6.52130868e-04, 1.16254194e-02,
          -4.11331542e-02, -5.80805093e-02, 3.07373442e-02,
          -2.51284968e-02, 2.30154917e-02, 3.44062410e-02,
          -4.92400629e-03, 1.27924397e-03, -3.94292474e-02,
          2.44967043e-02, 1.33250087e-01, -1.88647304e-02,
          -3.97730619e-03, -5.03364876e-02, -8.79410934e-03,
          -1.51354773e-02, -1.39763234e-02, -1.00129666e-02,
          7.36212265e-03, 1.99336857e-02, -7.27884844e-03,
          6.06923290e-02, 1.84454825e-02, 1.07557268e-03,
          -8.55084881e-02, 1.38114709e-02, -2.18570270e-02,
          1.31684523e-02, -6.64863065e-02, -2.10705437e-02,
          -8.49031858e-05, -5.72902896e-02, -4.63804826e-02,
          1.17298327e-02, 7.23258927e-02, -3.95919941e-02,
          3.44683677e-02, 2.41414290e-02, -1.95813086e-02,
          8.63249078e-02, 7.89399352e-03, 3.11171301e-02,
          -3.65507975e-02, 3.30758356e-02, -8.84362534e-02,
          1.43553633e-02, 1.01135276e-01, -2.27026865e-02,
          1.69742927e-02, -4.92062280e-03, -7.62640405e-03,
          -3.28586735e-02, 5.75627908e-02, -1.44631481e-02,
          -5.94514329e-03, 7.02444986e-02, -1.66703369e-02,
          1.05362963e-02, -5.09458221e-02, -1.24063790e-02,
          -4.73429263e-03, 3.94114926e-02, -2.83137383e-03,
          2.43878569e-02, 4.20277230e-02, -9.71022807e-03,
          4.15467359e-02, 6.36324985e-03, -2.10719109e-02,
          -9.73572675e-03, 3.92220803e-02, -2.68018022e-02,
          -1.02912523e-02, -1.27068376e-02, -3.51592600e-02,
          -3.83654470e-03, 1.36875156e-02, -2.45005116e-02,
          7.10990652e-03, 3.94989029e-02, -5.10898642e-02,
          -5.86964265e-02, 1.40906749e-02, -7.22149760e-02,
          -5.87964728e-02, -9.92192477e-02, -2.27635987e-02,
          9.69060324e-03, 7.25909416e-03, -3.53107713e-02,
          5.22010401e-02, -7.39995688e-02, 4.77321228e-05,
          6.95367306e-02, 2.62124538e-02, -4.02688272e-02,
          -7.10658059e-02, 3.30259092e-02, -5.72317280e-03,
          1.95718165e-02, 3.88045534e-02, -1.33351274e-02,
          -2.49659270e-02, 1.23997377e-02, -7.89313689e-02,
          4.91973534e-02, 3.47649306e-02, -3.95608358e-02,
          -7.28465319e-02, -4.92282175e-02, -3.34588848e-02,
          2.30718907e-02, -2.26988662e-02, 4.97285612e-02,
          7.07837492e-02, -2.11028270e-02, -5.27271181e-02,
          -5.88320754e-02, 6.01539388e-02, -3.71793211e-02,
          1.54913287e-03, -6.48568571e-02, 6.97491020e-02,
          9.39545128e-03, 1.41364848e-02, 5.17435651e-03, 3.79834659e-02,
          6.64825318e-04, 2.57362314e-02, -3.11796349e-02,
          2.58975551e-02, 1.57028418e-02, 7.65059963e-02, 3.17270756e-02,
          3.76733094e-02, 1.32147502e-02, -7.70844445e-02,
          1.16813239e-02, -2.21722480e-02, 2.00697919e-03,
          7.12244213e-02, 1.09176291e-02, -3.95955667e-02,
          -2.44727544e-02, -2.93254517e-02, -1.11869782e-01,
          2.87512951e-02, 2.20133476e-02, -3.32428887e-02,
          3.41419429e-02, 3.40567827e-02, -2.59093959e-02,
          -6.47713840e-02, -4.99679372e-02, -3.41872796e-02,
          -2.79259589e-02, 3.28488462e-02, -2.65307855e-02,
          5.33696301e-02, 8.39491636e-02, -3.19167203e-03,
          4.00311276e-02, 6.18786039e-03, -8.84677023e-02,
          -4.58375886e-02, -4.17514443e-02, -3.51482891e-02,
          7.94674605e-02, 7.76427910e-02, -1.73125998e-03,
          2.24373229e-02, 3.01711280e-02, -1.74734183e-02,
          -1.54576618e-02, 9.75519884e-04, 6.91486336e-03,
          4.88732941e-02, -4.22526412e-02, -4.73834900e-03,
          1.14668682e-02, -1.49564287e-02, -5.29175811e-02,
          -3.68784890e-02, 1.29501922e-02, -7.58233741e-02,
          -3.62178050e-02, -1.71489492e-02, -2.30304506e-02,
          -1.82902254e-02, 5.70844039e-02, -1.62798539e-02,
          9.22183245e-02, 4.49700616e-02, -6.20228355e-04,
          2.96151824e-02, 3.05675194e-02, -3.40875499e-02,
          1.27416095e-02, 4.22478700e-03, 7.64466599e-02,
          -2.74469540e-03, 7.83735290e-02, 1.58580113e-02,
          2.41137519e-02, -3.01835630e-02, -4.85956632e-02,
          -2.15383973e-02, 2.48624943e-02, 1.88330989e-02,
          2.24223081e-03, 4.89569679e-02, 4.89413813e-02, 5.29750474e-02,
          -2.43517142e-02, -1.50275650e-02, -1.30141741e-02,
          4.63106185e-02, -1.70802325e-02, 6.42217994e-02,
          1.54910116e-02, -3.43242325e-02, -7.16556376e-03,
          -5.21991439e-02, 5.04068937e-03, -3.13176550e-02,
          -2.67099999e-02, -7.52313137e-02, 4.44935933e-02,
          3.44173647e-02, 5.23252189e-02, 2.58902870e-02,
          -5.97339123e-02, -6.98624924e-02, 2.49406453e-02,
          8.69674794e-03, -1.95360780e-02, -3.23888436e-02,
          2.06042919e-02, 3.54166217e-02, 1.58098247e-02, 3.39183733e-02,
          -6.40419051e-02, 5.20129241e-02, -1.48276333e-02,
          3.12570855e-02, -1.77926868e-02, 4.65940125e-02,
          6.76626638e-02, 2.54068412e-02, 1.17975501e-02,
          -2.32594665e-02, -1.74861439e-02, 7.23240990e-03,
          -3.63355801e-02, -1.50630446e-02, -4.43165675e-02,
          -1.62425153e-02, 5.60269020e-02, 4.57818247e-02,
          -2.44953763e-02, -1.30911218e-02, 3.90495621e-02,
          2.14086585e-02, -1.44583201e-02, -5.24984188e-02,
          -1.39359338e-02, 5.94586432e-02, 4.69026268e-02,
          -7.62510821e-02, -8.59895721e-02, -4.22217883e-02,
          -1.26185223e-01, -3.09253186e-02, 6.19876496e-02,
          2.68673040e-02, 9.95474961e-03, 8.08211938e-02, 1.00150378e-02,
          3.25320400e-02, 2.49602795e-02, 1.19719701e-02,
          -2.58911457e-02, 2.66924817e-02, -8.64716340e-03,
          1.07041292e-01, -4.39144261e-02, -8.19196552e-02,
          9.49074142e-03, -3.23092826e-02, 3.80612649e-02,
          -2.59073973e-02, 5.32065853e-02, 7.71938404e-03,
          -2.18745358e-02, 1.00452946e-02, 1.33234374e-02,
          3.67477462e-02, 5.84021993e-02, -4.76688631e-02,
          7.27217039e-03, -1.63625088e-03, -9.35376436e-03,
          1.61591289e-03, 7.24242181e-02, -1.18253799e-02,
          7.09355669e-03, 2.89197196e-03, -1.28504299e-02,
          -1.35160126e-02, -3.47578377e-02, 2.38033608e-02,
          9.93350819e-02, 1.47061022e-02, -3.94851016e-03,
          2.30590664e-02, -1.03742741e-02, 7.00855395e-03,
          -4.82802577e-02, -1.73414070e-02, -1.18444413e-02,
          2.22912300e-02, -5.88107668e-02, -4.68511507e-02,
          7.47858873e-03, -3.19240503e-02, -3.55087481e-02,
          -1.99213549e-02, -5.47323003e-02, -6.29735296e-04,
          -4.45574857e-02, 6.16715290e-02, 1.53183946e-02,
          -1.98580269e-02, -5.30445599e-04, -1.19146975e-02,
          -1.68328686e-03, -3.29098664e-02, -5.14692664e-02,
          -1.50578958e-03, -4.06013913e-02, 2.47205533e-02,
          7.01956153e-02, 4.70700152e-02, -4.25971597e-02,
          -2.82923970e-02, -8.17084406e-03, -2.32994780e-02,
          -6.50584996e-02, -1.09008420e-02, -9.56356805e-03,
          -2.99442327e-03, -9.54794884e-03, -2.85830200e-02,
          -7.13927345e-03, 4.00737487e-03, -3.99101563e-02,
          -2.43717935e-02, -2.73698717e-02, 5.79498596e-02,
          1.65858455e-02, -2.94527709e-02, 5.54697262e-03,
          3.14932540e-02, -2.34944038e-02, -6.49214834e-02,
          -5.02696410e-02, 1.63377319e-02, -2.09090281e-02,
          5.38999848e-02, -1.98223684e-02, 1.02696426e-01,
          6.07531816e-02, -4.26852405e-02, -4.94103655e-02,
          -1.94498897e-02, 4.26852293e-02, 4.61108051e-02,
          -4.30399887e-02, -5.15586399e-02, -4.44686832e-03,
          2.13513710e-02, 2.47113087e-04, -5.45305107e-03,
          2.59123323e-03, 4.14202847e-02, 3.08009312e-02,
          -5.98273128e-02, -1.80142242e-02, 4.21705320e-02,
          3.16673308e-03, -4.64836769e-02, 1.30981635e-02,
          5.24506345e-02, -6.69125002e-03, 2.73369364e-02,
          -1.26889059e-02, -7.18650892e-02, -1.72974262e-02,
          2.28471421e-02, 1.02082649e-02, 6.60540089e-02,
          -5.28302826e-02, -4.84017208e-02, 8.53382722e-02,
          5.98850958e-02, -8.72644037e-02, -1.30933255e-01,
          -1.50430761e-02, -1.97743233e-02, 2.15100292e-02,
          -6.81820959e-02, -4.19819057e-02, -2.49095913e-02,
          3.98904681e-02, 4.28643748e-02, -2.75605340e-02,
          -3.82962339e-02, -1.02531128e-01, -2.49471720e-02,
          -4.49993871e-02, -7.56091252e-02, 9.72580165e-03,
          2.78782984e-03, -3.77090462e-02, 2.86535849e-03,
          -3.25538851e-02, -2.35114321e-02, 4.20180373e-02,
          -1.06657267e-01, 4.72110435e-02, 3.60789848e-03,
          5.35487682e-02, -3.42237465e-02, 6.22186735e-02,
          -1.02092717e-02, 1.36561273e-02, 3.82883567e-03,
          3.16946767e-02, -4.35335524e-02, -3.45281623e-02,
          -9.57901925e-02, -8.94033834e-02, 4.65360135e-02,
          -2.37958245e-02, -3.06035131e-02, -9.45279654e-03,
          -3.40119302e-02, 4.29314896e-02, 1.06220623e-03,
          -9.08049010e-03, -2.80258711e-03, -4.25232314e-02,
          -3.28753889e-02, 2.04493925e-02, 1.34375058e-02,
          -3.19488980e-02, 8.92462656e-02, -1.39534874e-02,
          1.11488186e-01, 1.12729231e-02, 7.37896636e-02,
          -4.45371233e-02, 6.08538315e-02, 1.48857096e-02,
          5.52072143e-03, 4.35954295e-02, -2.89856177e-02,
          -1.27796112e-02, -2.38813134e-03, -4.11651656e-03,
          -2.26264279e-02, 2.85684466e-02, 2.32739989e-02,
          6.66361079e-02, -5.61988652e-02, -6.08603656e-02,
          -5.20597808e-02, -1.41143240e-02, -1.08787594e-02,
          -2.60500629e-02, 3.96559387e-02, -1.24333547e-02,
          -3.43377255e-02, 2.45460756e-02, -4.04015779e-02,
          -1.01563141e-01, -2.02073026e-02, -5.87911010e-02,
          -2.91309822e-02, -5.46543626e-03, -1.51101463e-02,
          1.40107772e-03, -4.89266403e-03, 2.52153333e-02,
          -1.20955461e-03, 3.16308462e-03, -1.96532048e-02,
          4.46752692e-03, -3.99484485e-02, -9.77797434e-03,
          2.70412993e-02, 1.49089098e-02, 1.84561517e-02, 9.44082215e-02,
          2.05981755e-03, 1.19175322e-01, -1.55477198e-02,
          4.05504480e-02, -5.58256917e-02, 4.38799076e-02,
          4.63090315e-02, 5.52747771e-02, 6.15079813e-02, 1.44586861e-02,
          8.11608508e-02, 4.81327035e-04, 1.52464258e-02,
          -4.36917675e-04, 2.00980492e-02, 5.53549826e-02,
          -2.00850014e-02, 5.65165479e-04, -4.27839793e-02,
          2.68824250e-02, 1.71688292e-02, 1.96847543e-02,
          -1.80658847e-02, -1.16753094e-02, -6.78469017e-02,
          6.64904490e-02, 4.44664136e-02, -2.31451984e-03,
          6.74968660e-02, -3.09395194e-02, -2.88157202e-02,
          -6.43724352e-02, -8.77924487e-02, -3.19533981e-02,
          1.76823214e-02, 8.42295308e-03, -3.20695005e-02,
          4.34751213e-02, 2.80297119e-02, 2.92689931e-02,
          -7.75610935e-03, -1.85820404e-02, -2.55781058e-02,
          -9.48540960e-03, -6.87387884e-02, -1.99405514e-02,
          3.69170634e-03, -2.09460948e-02, 1.57347526e-02,
          -1.29725570e-02, 6.42828317e-03, -3.23798917e-02,
          -2.66827792e-02, -1.08235136e-01, 2.89320014e-02,
          -1.99913327e-02, -1.54474126e-02, 1.91331711e-02,
          -1.06619457e-02, -1.80755369e-02, 1.76865030e-02,
          3.26950811e-02, 2.49228999e-02, 3.13652232e-02, 9.79972444e-03,
          2.72080358e-02, 3.86236086e-02, 4.56320215e-03, 5.25077432e-02,
          -2.65421961e-02, 7.04539046e-02, -1.64096579e-02,
          -1.61008276e-02, 4.81081806e-04, -2.90901754e-02,
          -3.34515311e-02, -8.63546412e-03, -2.52140518e-02,
          -3.61748375e-02, 2.18110979e-02, 4.59366217e-02,
          9.13868251e-04, 6.10131677e-03, -6.15144148e-02,
          -4.47308905e-02, 1.46005796e-02, -4.49417010e-02,
          -1.48146721e-02, 3.56904306e-02, 5.06093465e-02,
          -6.48398232e-03, -1.05305770e-02, -4.05812785e-02,
          -4.49324697e-02, -4.32662340e-03, -3.16370353e-02,
          9.54621285e-02, 7.65166581e-02, -8.54837708e-03,
          -4.43784297e-02, -2.85672974e-02, -4.28523496e-02,
          2.91890539e-02, -5.49138337e-02, 4.75381576e-02,
          -5.97273558e-03, -2.97269206e-02, -3.58303189e-02,
          -1.46128787e-02, -5.05044870e-02, -8.49519521e-02,
          -1.41828388e-01, -2.68012169e-03, -1.55163752e-02,
          5.09869717e-02, 6.71409769e-03, -6.92846626e-02,
          -1.68893002e-02, -4.83799726e-02, -8.07740167e-02,
          -4.56107780e-02, -1.18193449e-02, 6.54482888e-03,
          1.89702230e-04, 2.02626437e-02, -1.49709703e-02,
          -1.68092272e-04, 1.04572978e-02, 4.39687669e-02,
          -3.94722773e-03, -3.30918059e-02, 2.03095544e-02,
          2.09475420e-02, 7.05967396e-02, 1.86579656e-02, 8.39819852e-03,
          5.86527288e-02, 4.76372093e-02, 9.47828125e-03,
          -4.59488891e-02, -3.58874947e-02, 4.70828786e-02,
          1.13823013e-02, 2.01666318e-02, 2.89030490e-03, 5.50545603e-02,
          -1.88417118e-02, -8.14544633e-02, 8.09438527e-03,
          2.03901455e-02, 1.65420808e-02, 3.20920125e-02,
          -2.12289989e-02, -1.82473045e-02, -6.16070032e-02,
          6.77044019e-02, 2.16043182e-02, -4.44887392e-02,
          -4.56341580e-02, -9.25011411e-02, -1.68277100e-02,
          -7.57626742e-02, -3.51916924e-02, -2.99590565e-02,
          -8.01488874e-04, 8.87063742e-02, 2.83827074e-02,
          -2.81871371e-02, 3.60051394e-02, 7.27016404e-02,
          3.39140445e-02, -1.03769153e-02, 7.85785541e-02,
          -2.67359167e-02, 2.12616287e-02, -2.97470186e-02,
          4.41952348e-02, -4.99599651e-02, 5.01712672e-02,
          4.77456972e-02, -3.92873073e-03, 7.15312436e-02,
          9.27855074e-02, 2.27726679e-02, -5.66231124e-02,
          -5.10122515e-02, -4.07437384e-02, 2.87832245e-02,
          6.57561049e-02, 6.24410110e-04, -3.66815142e-02,
          -5.22411708e-03, 2.71154176e-02, 2.65827812e-02,
          -4.79459316e-02, 1.96428485e-02, 2.34459117e-02,
          4.40716278e-03, -2.45522726e-02, 3.65749411e-02,
          -8.26189134e-05, 5.11620007e-03, -1.19083021e-02,
          -1.25122173e-02, 7.71861160e-05, -1.93459764e-02,
          -2.47331280e-02, 8.60874504e-02, 1.24465330e-02,
          5.35151288e-02, 8.92797392e-03, -2.95892451e-02,
          1.84748787e-02, -3.26838121e-02, -9.33717936e-03,
          3.40642296e-02, -4.14220989e-02, -3.49751078e-02,
          -3.15822363e-02, 6.05533272e-02, 7.90140927e-02,
          -2.61382125e-02, 1.36806518e-02, 1.03042021e-01,
          5.51593527e-02, -3.34105408e-03, -4.97674495e-02,
          -5.22071868e-02, -1.25463782e-02, 2.34843139e-02,
          -1.26517899e-02, 5.06656282e-02, -3.57857458e-02,
          -3.76669504e-03, 2.14232914e-02, 5.73914126e-02,
          2.97493376e-02, 2.61681266e-02, -4.65858867e-03,
          4.89144772e-02, -1.18241180e-02, 1.99783267e-03,
          1.13026891e-02, -2.67498475e-02, -5.37996143e-02,
          -7.77811091e-03, 1.95014905e-02, 6.69778660e-02,
          7.38684926e-03, -1.07630966e-02, -3.50154378e-03,
          3.72232012e-02, -3.60082649e-02, -1.20029980e-02,
          -3.90336178e-02, 4.72062919e-03, 8.98532011e-03,
          3.46488059e-02, -3.70497778e-02, 3.50304134e-02,
          -2.23835669e-02, 5.66612603e-03, 2.01959480e-02,
          -1.88808870e-02, -3.03699193e-03, 5.66004105e-02,
          -9.51315183e-03, 4.07622308e-02, 3.26051861e-02,
          3.48330662e-02, 1.38293076e-02, -3.66698913e-02,
          -1.52394827e-02, 1.96435060e-02, -4.81902482e-03,
          3.37693281e-02, -5.96126765e-02, -7.24429637e-03,
          5.74621409e-02, 6.48618639e-02, 9.72454250e-02,
          -4.76545990e-02, -2.95185018e-02, -4.12920155e-02,
          1.31330956e-02, -8.00938830e-02, 4.35721986e-02,
          -2.63187438e-02, 1.97797678e-02, -3.65301990e-03,
          2.20368486e-02, 7.06221014e-02, 4.36729565e-02,
          -5.82296960e-02, -2.30533676e-03, -1.58670312e-03,
          6.90233633e-02, 2.22650040e-02, 2.15569455e-02, 6.27634153e-02,
          1.78388022e-02, 4.74223755e-02, 6.22555465e-02,
          -3.18789035e-02, -8.91400725e-02, -2.14900859e-02,
          -1.57197453e-02, -7.09723234e-02, -4.93442975e-02,
          6.28503188e-02, 4.21579508e-03, -1.03291515e-02,
          5.53194992e-02, -6.63453853e-03, 1.91911180e-02,
          5.66363223e-02, -2.05649827e-02, 7.01831430e-02,
          6.58894628e-02, 5.11764996e-02, 3.29500698e-02,
          -3.69039290e-02, -2.81648468e-02, 1.42224068e-02,
          1.98396258e-02, 2.54493318e-02, 2.02469844e-02, 2.50409376e-02,
          -7.65333790e-03, 2.46305335e-02, -2.97031067e-02,
          -1.94884576e-02, -1.22297611e-02, 6.06209226e-02,
          -8.63373373e-03, 6.26522005e-02, 4.99861278e-02,
          6.52694851e-02, -9.15570091e-03, 7.57218339e-04,
          -3.06729581e-02, 2.09100451e-03, -4.24449928e-02,
          1.75295875e-03, 1.31026227e-02, 1.03439940e-02, 4.00339311e-04,
          1.01452591e-02, -8.63435399e-03, 2.72057820e-02,
          4.95591722e-02, 2.04619672e-02, 2.80499030e-02, 6.30829856e-03,
          -2.18336508e-02, -5.50291538e-02, 7.66475732e-03,
          6.79158270e-02, 6.17421139e-03, -8.65740236e-03,
          -9.71562229e-03, 7.85746574e-02, -1.78793184e-02,
          5.31377234e-02, 1.44624058e-02, 4.69357669e-02,
          -2.57608984e-02, -2.14008298e-02, 3.52549031e-02,
          2.81931870e-02, 6.89154044e-02, -2.68920586e-02,
          -1.53747816e-02, 8.76256358e-03, -8.24586451e-02,
          2.13757753e-02, 3.91690433e-02, 9.34936013e-03,
          -6.85048348e-04, 4.11093011e-02, -4.30271542e-03,
          -5.40170632e-02, -5.22686578e-02, 4.41359207e-02,
          2.01190058e-02, 2.94229779e-02, -3.19724269e-02,
          -7.96336273e-04, 1.19026296e-01, 1.86154358e-02,
          -4.60902974e-02, -2.78453119e-02, -7.66782649e-03,
          -3.57843451e-02, 3.01932693e-02, -1.38698816e-02,
          -1.40265692e-02, -8.02233368e-02, -8.28925520e-03,
          8.98865703e-03, -1.83649343e-02, -2.13297103e-02,
          1.50514459e-02, 1.06159016e-03, 4.74821143e-02, 1.21005280e-02,
          -9.40796360e-03, 4.90498580e-02, 7.92688876e-02,
          -1.41499552e-03, -5.22324815e-04, 1.00030012e-01,
          1.28403068e-01, 4.43001986e-02, -5.01166098e-02,
          9.81867388e-02, -2.97112297e-02, -3.39652337e-02,
          6.35033706e-03, 4.20182385e-02, -1.88398417e-02,
          -1.82484351e-02, -5.49321920e-02, 2.60986201e-02,
          8.01455751e-02, -7.81169981e-02, 1.96496351e-03,
          -5.70605230e-03, -6.07949309e-02, 7.58760283e-03,
          -4.14890498e-02, -3.49145606e-02, -1.23094684e-02,
          1.02471104e-02, -6.11676723e-02, 3.12616676e-02,
          5.74415699e-02, -2.99656894e-02, 2.16873232e-02,
          -2.31748018e-02, 3.94555517e-02, 2.01735664e-02,
          3.33370417e-02, -2.79224608e-02, -3.67662236e-02,
          1.98779814e-02, 1.72755774e-03, -3.09577864e-02,
          -6.70085326e-02, -1.40149752e-02, -2.91641634e-02,
          1.88955746e-03, -1.52556468e-02, 1.60070006e-02,
          -3.70065197e-02, -5.64107634e-02, 4.28248867e-02,
          7.38584399e-02, -1.81911867e-02, -1.04582235e-01,
          -5.28895110e-02, -4.25973833e-02, -1.45851811e-02,
          -3.92900892e-02, 1.41970431e-02, 3.46662384e-03,
          6.45038709e-02, 6.70773610e-02, 6.19084574e-02, 4.02522571e-02,
          -3.06572858e-02, -2.14434899e-02, -1.16177564e-02,
          2.54993979e-02, -3.13229486e-02, 4.29649092e-03,
          -5.15642427e-02, -2.51018889e-02, 1.69651769e-02,
          -4.28043902e-02, -1.51228365e-02, -2.24453993e-02,
          -1.28170354e-02, 1.32376663e-02, 2.93738134e-02,
          -1.97137017e-02, -4.68116701e-02, 1.58807915e-02,
          8.51861294e-03, -1.70617234e-02, -6.84855925e-03,
          -7.29522705e-02, -1.86337698e-02, -5.16992109e-03,
          -2.48698629e-02, 1.78576596e-02, 2.12231614e-02,
          -2.89493743e-02, -5.84332831e-02, -6.19618930e-02,
          -3.34740132e-02, -4.77108099e-02, 1.48314666e-02,
          4.95263077e-02, -3.71922110e-03, 5.37158214e-02,
          -2.55663674e-02, -8.38258192e-02, -7.37451613e-02,
          -2.73516569e-02, -3.02808937e-02, 3.11387703e-03,
          3.06350682e-02, 2.72326730e-02, -3.48039232e-02,
          3.23788077e-03, -3.99212725e-03, -2.71887016e-02,
          -1.40023930e-02, -6.41782507e-02, -1.74976978e-02,
          3.78012434e-02, 3.43804015e-03, 4.85761743e-03,
          -4.35085744e-02, -1.54502718e-02, -8.30161050e-02,
